FANN_FLO_2.1
num_layers=4
learning_rate=0.700000
connection_rate=1.000000
network_type=0
learning_momentum=0.000000
training_algorithm=1
train_error_function=1
train_stop_function=0
cascade_output_change_fraction=0.010000
quickprop_decay=-0.000100
quickprop_mu=1.750000
rprop_increase_factor=1.200000
rprop_decrease_factor=0.500000
rprop_delta_min=0.000000
rprop_delta_max=50.000000
rprop_delta_zero=0.100000
cascade_output_stagnation_epochs=12
cascade_candidate_change_fraction=0.010000
cascade_candidate_stagnation_epochs=12
cascade_max_out_epochs=150
cascade_max_cand_epochs=150
cascade_num_candidate_groups=2
bit_fail_limit=3.49999994039535520000e-001
cascade_candidate_limit=1.00000000000000000000e+003
cascade_weight_multiplier=4.00000005960464480000e-001
cascade_activation_functions_count=10
cascade_activation_functions=3 5 7 8 10 11 14 15 16 17 
cascade_activation_steepnesses_count=4
cascade_activation_steepnesses=2.50000000000000000000e-001 5.00000000000000000000e-001 7.50000000000000000000e-001 1.00000000000000000000e+000 
layer_sizes=11 67 45 3 
scale_included=0
neurons (num_inputs, activation_function, activation_steepness)=(0, 0, 0.00000000000000000000e+000) (0, 0, 0.00000000000000000000e+000) (0, 0, 0.00000000000000000000e+000) (0, 0, 0.00000000000000000000e+000) (0, 0, 0.00000000000000000000e+000) (0, 0, 0.00000000000000000000e+000) (0, 0, 0.00000000000000000000e+000) (0, 0, 0.00000000000000000000e+000) (0, 0, 0.00000000000000000000e+000) (0, 0, 0.00000000000000000000e+000) (0, 0, 0.00000000000000000000e+000) (11, 10, 5.00000000000000000000e-001) (11, 10, 5.00000000000000000000e-001) (11, 10, 5.00000000000000000000e-001) (11, 10, 5.00000000000000000000e-001) (11, 10, 5.00000000000000000000e-001) (11, 10, 5.00000000000000000000e-001) (11, 10, 5.00000000000000000000e-001) (11, 10, 5.00000000000000000000e-001) (11, 10, 5.00000000000000000000e-001) (11, 10, 5.00000000000000000000e-001) (11, 10, 5.00000000000000000000e-001) (11, 10, 5.00000000000000000000e-001) (11, 10, 5.00000000000000000000e-001) (11, 10, 5.00000000000000000000e-001) (11, 10, 5.00000000000000000000e-001) (11, 10, 5.00000000000000000000e-001) (11, 10, 5.00000000000000000000e-001) (11, 10, 5.00000000000000000000e-001) (11, 10, 5.00000000000000000000e-001) (11, 10, 5.00000000000000000000e-001) (11, 10, 5.00000000000000000000e-001) (11, 10, 5.00000000000000000000e-001) (11, 10, 5.00000000000000000000e-001) (11, 10, 5.00000000000000000000e-001) (11, 10, 5.00000000000000000000e-001) (11, 10, 5.00000000000000000000e-001) (11, 10, 5.00000000000000000000e-001) (11, 10, 5.00000000000000000000e-001) (11, 10, 5.00000000000000000000e-001) (11, 10, 5.00000000000000000000e-001) (11, 10, 5.00000000000000000000e-001) (11, 10, 5.00000000000000000000e-001) (11, 10, 5.00000000000000000000e-001) (11, 10, 5.00000000000000000000e-001) (11, 10, 5.00000000000000000000e-001) (11, 10, 5.00000000000000000000e-001) (11, 10, 5.00000000000000000000e-001) (11, 10, 5.00000000000000000000e-001) (11, 10, 5.00000000000000000000e-001) (11, 10, 5.00000000000000000000e-001) (11, 10, 5.00000000000000000000e-001) (11, 10, 5.00000000000000000000e-001) (11, 10, 5.00000000000000000000e-001) (11, 10, 5.00000000000000000000e-001) (11, 10, 5.00000000000000000000e-001) (11, 10, 5.00000000000000000000e-001) (11, 10, 5.00000000000000000000e-001) (11, 10, 5.00000000000000000000e-001) (11, 10, 5.00000000000000000000e-001) (11, 10, 5.00000000000000000000e-001) (11, 10, 5.00000000000000000000e-001) (11, 10, 5.00000000000000000000e-001) (11, 10, 5.00000000000000000000e-001) (11, 10, 5.00000000000000000000e-001) (11, 10, 5.00000000000000000000e-001) (11, 10, 5.00000000000000000000e-001) (11, 10, 5.00000000000000000000e-001) (11, 10, 5.00000000000000000000e-001) (11, 10, 5.00000000000000000000e-001) (11, 10, 5.00000000000000000000e-001) (11, 10, 5.00000000000000000000e-001) (11, 10, 5.00000000000000000000e-001) (11, 10, 5.00000000000000000000e-001) (11, 10, 5.00000000000000000000e-001) (11, 10, 5.00000000000000000000e-001) (11, 10, 5.00000000000000000000e-001) (0, 10, 5.00000000000000000000e-001) (67, 10, 5.00000000000000000000e-001) (67, 10, 5.00000000000000000000e-001) (67, 10, 5.00000000000000000000e-001) (67, 10, 5.00000000000000000000e-001) (67, 10, 5.00000000000000000000e-001) (67, 10, 5.00000000000000000000e-001) (67, 10, 5.00000000000000000000e-001) (67, 10, 5.00000000000000000000e-001) (67, 10, 5.00000000000000000000e-001) (67, 10, 5.00000000000000000000e-001) (67, 10, 5.00000000000000000000e-001) (67, 10, 5.00000000000000000000e-001) (67, 10, 5.00000000000000000000e-001) (67, 10, 5.00000000000000000000e-001) (67, 10, 5.00000000000000000000e-001) (67, 10, 5.00000000000000000000e-001) (67, 10, 5.00000000000000000000e-001) (67, 10, 5.00000000000000000000e-001) (67, 10, 5.00000000000000000000e-001) (67, 10, 5.00000000000000000000e-001) (67, 10, 5.00000000000000000000e-001) (67, 10, 5.00000000000000000000e-001) (67, 10, 5.00000000000000000000e-001) (67, 10, 5.00000000000000000000e-001) (67, 10, 5.00000000000000000000e-001) (67, 10, 5.00000000000000000000e-001) (67, 10, 5.00000000000000000000e-001) (67, 10, 5.00000000000000000000e-001) (67, 10, 5.00000000000000000000e-001) (67, 10, 5.00000000000000000000e-001) (67, 10, 5.00000000000000000000e-001) (67, 10, 5.00000000000000000000e-001) (67, 10, 5.00000000000000000000e-001) (67, 10, 5.00000000000000000000e-001) (67, 10, 5.00000000000000000000e-001) (67, 10, 5.00000000000000000000e-001) (67, 10, 5.00000000000000000000e-001) (67, 10, 5.00000000000000000000e-001) (67, 10, 5.00000000000000000000e-001) (67, 10, 5.00000000000000000000e-001) (67, 10, 5.00000000000000000000e-001) (67, 10, 5.00000000000000000000e-001) (67, 10, 5.00000000000000000000e-001) (67, 10, 5.00000000000000000000e-001) (0, 10, 5.00000000000000000000e-001) (45, 0, 5.00000000000000000000e-001) (45, 0, 5.00000000000000000000e-001) (0, 0, 5.00000000000000000000e-001) 
connections (connected_to_neuron, weight)=(0, -1.93310052156448360000e-001) (1, 1.04952077865600590000e+001) (2, 9.58292865753173830000e+000) (3, 3.78935098648071290000e-001) (4, 5.05543994903564450000e+000) (5, 8.28279590606689450000e+000) (6, 5.97241687774658200000e+000) (7, 3.02775889635086060000e-001) (8, 2.93722414970397950000e+000) (9, 2.09080982208251950000e+000) (10, -1.61754935979843140000e-001) (0, 6.33829459547996520000e-002) (1, -1.00531578063964840000e+000) (2, -8.57966318726539610000e-002) (3, -5.52476882934570310000e-001) (4, -4.15527045726776120000e-001) (5, -9.10962283611297610000e-001) (6, -1.68017804622650150000e+000) (7, 1.72194242477416990000e-001) (8, -2.43085980415344240000e+000) (9, -1.47418665885925290000e+000) (10, 3.94808769226074220000e-001) (0, -3.41785252094268800000e-002) (1, 7.81590700149536130000e+000) (2, -1.10501579940319060000e-001) (3, 2.77357161045074460000e-001) (4, 4.10754537582397460000e+000) (5, 8.01696777343750000000e+000) (6, 7.76480436325073240000e+000) (7, 3.10070484876632690000e-001) (8, 2.99317717552185060000e+000) (9, 7.61442804336547850000e+000) (10, -2.50001311302185060000e-001) (0, -1.44791707396507260000e-001) (1, -6.33916854858398440000e-002) (2, -2.52613115310668950000e+000) (3, -1.31762921810150150000e+000) (4, 3.30978780984878540000e-001) (5, 5.00705838203430180000e-001) (6, -2.38445925712585450000e+000) (7, -5.44637203216552730000e+000) (8, -4.24972724914550780000e+000) (9, -3.27836036682128910000e+000) (10, 7.17210322618484500000e-002) (0, 2.96859562397003170000e-001) (1, 4.43978023529052730000e+000) (2, 2.73518586158752440000e+000) (3, 3.42824649810791020000e+000) (4, 5.58783769607543950000e+000) (5, 1.61632328033447270000e+001) (6, 3.53696733713150020000e-001) (7, 2.03905773162841800000e+000) (8, 1.48800354003906250000e+001) (9, 5.17801141738891600000e+000) (10, -2.36896276473999020000e-001) (0, -4.16463136672973630000e-001) (1, 1.26082336902618410000e+000) (2, 6.21885538101196290000e-001) (3, -2.57549118250608440000e-002) (4, 9.62457537651062010000e-001) (5, 1.80757260322570800000e+000) (6, 4.37192022800445560000e-001) (7, 3.48247259855270390000e-001) (8, 2.78712320327758790000e+000) (9, 5.88843941688537600000e-001) (10, 1.35506903752684590000e-002) (0, 2.40799665451049800000e-001) (1, 1.15350174903869630000e+000) (2, 7.74082064628601070000e-001) (3, 2.18154370784759520000e-001) (4, 5.28052687644958500000e-001) (5, 1.25336003303527830000e+000) (6, 6.78858280181884770000e-001) (7, 1.34108260273933410000e-001) (8, 2.48756790161132810000e+000) (9, 8.61141026020050050000e-001) (10, 5.08416304364800450000e-003) (0, -3.58255684375762940000e-001) (1, 1.77639710903167720000e+000) (2, 7.54388093948364260000e-001) (3, 8.25028359889984130000e-001) (4, 1.05438673496246340000e+000) (5, 1.84966254234313960000e+000) (6, 1.84335982799530030000e+000) (7, -8.97301435470581050000e-001) (8, 3.25536465644836430000e+000) (9, 1.44711720943450930000e+000) (10, -4.82572704553604130000e-001) (0, 7.23669752478599550000e-002) (1, 2.27994036674499510000e+000) (2, 7.11571872234344480000e-001) (3, 1.00852274894714360000e+000) (4, 1.06822693347930910000e+000) (5, 8.19618821144104000000e-001) (6, 1.38395392894744870000e+000) (7, -1.41055643558502200000e-001) (8, 2.75427436828613280000e+000) (9, 9.57913339138031010000e-001) (10, -3.50970983505249020000e-001) (0, 3.92977148294448850000e-001) (1, -5.65761744976043700000e-001) (2, -9.99572128057479860000e-002) (3, -2.19115540385246280000e-001) (4, -4.89842921495437620000e-001) (5, -5.74084073305130000000e-002) (6, -3.51132005453109740000e-001) (7, 6.40719294548034670000e-001) (8, -2.61437416076660160000e-001) (9, -1.04392804205417630000e-001) (10, 3.05713236331939700000e-001) (0, 2.83085107803344730000e-001) (1, -3.04497694969177250000e+000) (2, -9.93407905101776120000e-001) (3, -1.59052848815917970000e+000) (4, -1.12714338302612300000e+000) (5, -1.00877249240875240000e+000) (6, -1.90586578845977780000e+000) (7, -1.26496458053588870000e+000) (8, -3.08247041702270510000e+000) (9, -1.71716511249542240000e+000) (10, -6.72042742371559140000e-002) (0, -1.90540164709091190000e-001) (1, 1.60135316848754880000e+000) (2, 5.58605253696441650000e-001) (3, 6.26399159431457520000e-001) (4, 5.08053481578826900000e-001) (5, 1.07350325584411620000e+000) (6, 6.12192749977111820000e-001) (7, -7.59017109870910640000e-001) (8, 3.26082015037536620000e+000) (9, 5.49065947532653810000e-001) (10, -1.35030463337898250000e-001) (0, -1.89901664853096010000e-001) (1, -2.08292812108993530000e-001) (2, -6.49102777242660520000e-002) (3, -2.86134868860244750000e-001) (4, -5.76704479753971100000e-002) (5, -7.80662596225738530000e-001) (6, -6.65263712406158450000e-001) (7, 4.19178307056427000000e-002) (8, -5.27187287807464600000e-001) (9, -4.09052640199661250000e-001) (10, 1.55777754262089730000e-002) (0, -9.58603471517562870000e-002) (1, 1.63331949710845950000e+000) (2, 1.10669769346714020000e-001) (3, 1.70135006308555600000e-001) (4, 1.04138767719268800000e+000) (5, 1.33983314037323000000e+000) (6, 4.68502104282379150000e-001) (7, -5.36896824836730960000e-001) (8, 2.71562433242797850000e+000) (9, 1.25129961967468260000e+000) (10, -3.90097677707672120000e-001) (0, 7.60363340377807620000e-001) (1, 2.84757366180419920000e+001) (2, 6.09165787696838380000e-001) (3, 1.06499695777893070000e+000) (4, 1.49118623733520510000e+001) (5, 2.90616092681884770000e+001) (6, 2.89733123779296880000e+001) (7, 9.68398302793502810000e-002) (8, 6.19656896591186520000e+000) (9, 2.86086883544921880000e+001) (10, 6.81958377361297610000e-001) (0, 2.67859190702438350000e-001) (1, -3.20215439796447750000e+000) (2, -1.67542767524719240000e+000) (3, 7.94836655259132390000e-002) (4, -1.66054809093475340000e+000) (5, 3.03302001953125000000e+000) (6, -1.36345160007476810000e+000) (7, -1.37932419776916500000e-001) (8, -4.72372204065322880000e-001) (9, -4.75855261087417600000e-001) (10, 2.52799510955810550000e-001) (0, -4.89136785268783570000e-001) (1, -8.70488345623016360000e-001) (2, 4.74034011363983150000e-001) (3, -3.16422909498214720000e-001) (4, -5.86142420768737790000e-001) (5, 4.75785911083221440000e-001) (6, -1.21970450878143310000e+000) (7, 2.39156126976013180000e-001) (8, -4.90260928869247440000e-001) (9, -6.14559650421142580000e-001) (10, 4.11593616008758540000e-001) (0, 2.76051819324493410000e-001) (1, 1.18660573959350590000e+001) (2, 6.49820506572723390000e-001) (3, 9.49879646301269530000e-001) (4, 6.07230567932128910000e+000) (5, 1.21066923141479490000e+001) (6, 1.13763761520385740000e+001) (7, 3.25705707073211670000e-001) (8, 3.55096697807312010000e+000) (9, 1.17171335220336910000e+001) (10, -2.22491007298231120000e-002) (0, 1.12974323332309720000e-001) (1, 1.82445132732391360000e+000) (2, 9.21980023384094240000e-001) (3, 4.57653522491455080000e-001) (4, 6.07884585857391360000e-001) (5, 7.84771859645843510000e-001) (6, 1.26026690006256100000e+000) (7, 1.63638979196548460000e-001) (8, 2.93379163742065430000e+000) (9, 8.59737932682037350000e-001) (10, -4.17118631303310390000e-002) (0, 3.65840941667556760000e-001) (1, 6.16246759891510010000e-001) (2, 3.84915828704833980000e-001) (3, -3.34449522197246550000e-002) (4, -7.40824714303016660000e-002) (5, 5.30152261257171630000e-001) (6, 1.27421128749847410000e+000) (7, -2.80720651149749760000e-001) (8, 1.01940953731536870000e+000) (9, 4.34670925140380860000e-001) (10, -2.82065957784652710000e-001) (0, 1.95970222353935240000e-001) (1, 1.07728624343872070000e+000) (2, 3.03268790245056150000e-001) (3, 3.39061528444290160000e-001) (4, 5.59252083301544190000e-001) (5, 1.37861943244934080000e+000) (6, 1.34740686416625980000e+000) (7, 1.27758532762527470000e-001) (8, 2.48956608772277830000e+000) (9, 7.09739387035369870000e-001) (10, 4.18903768062591550000e-001) (0, 5.86446039378643040000e-002) (1, 1.42748606204986570000e+000) (2, 8.14729392528533940000e-001) (3, -1.17811620235443120000e-001) (4, 3.84786963462829590000e-001) (5, 1.53278386592864990000e+000) (6, 7.53726422786712650000e-001) (7, -4.14388567209243770000e-001) (8, 2.58622431755065920000e+000) (9, 1.29559838771820070000e+000) (10, 4.87915962934494020000e-001) (0, 1.95762544870376590000e-001) (1, 1.48023283481597900000e+000) (2, 7.21110939979553220000e-001) (3, 1.04628759436309340000e-003) (4, -1.27926170825958250000e-001) (5, 5.77433466911315920000e-001) (6, 8.88360440731048580000e-001) (7, 4.61310774087905880000e-001) (8, 2.57840585708618160000e+000) (9, 1.51209032535552980000e+000) (10, -1.94973975419998170000e-001) (0, 3.11722964048385620000e-001) (1, 2.38889038562774660000e-001) (2, 2.45907932519912720000e-001) (3, -1.76844492554664610000e-001) (4, 5.03166556358337400000e-001) (5, 3.79409670829772950000e-001) (6, 3.28488022089004520000e-001) (7, 3.58023554086685180000e-001) (8, 6.03380382061004640000e-001) (9, 1.00606873631477360000e-001) (10, 4.13453489542007450000e-001) (0, -2.10353970527648930000e-001) (1, 9.72671210765838620000e-001) (2, 7.57988691329956050000e-001) (3, 8.03362011909484860000e-001) (4, 7.68810927867889400000e-001) (5, 1.28452098369598390000e+000) (6, 7.61319279670715330000e-001) (7, 2.34771102666854860000e-001) (8, 2.90536332130432130000e+000) (9, 7.77887523174285890000e-001) (10, 2.00726762413978580000e-001) (0, -1.62591021507978440000e-002) (1, 1.10950112342834470000e+000) (2, 6.71146273612976070000e-001) (3, 8.98029208183288570000e-001) (4, 8.81145715713500980000e-001) (5, 5.98200500011444090000e-001) (6, 1.00639712810516360000e+000) (7, 3.20998698472976680000e-001) (8, 2.19995689392089840000e+000) (9, 6.04584932327270510000e-001) (10, 2.44784176349639890000e-001) (0, 2.91935145854949950000e-001) (1, 1.58339762687683110000e+000) (2, 4.27707105875015260000e-001) (3, 1.09910893440246580000e+000) (4, 2.88893077522516250000e-002) (5, 1.06355881690979000000e+000) (6, 2.24425244331359860000e+000) (7, -8.35645377635955810000e-001) (8, 2.74750781059265140000e+000) (9, 2.02592849731445310000e+000) (10, -6.60520270466804500000e-002) (0, -2.77561038732528690000e-001) (1, -1.76701200008392330000e+000) (2, 3.05192694067955020000e-002) (3, -1.84477996081113820000e-002) (4, -1.14007055759429930000e+000) (5, -2.03386759757995610000e+000) (6, -2.16067934036254880000e+000) (7, -3.47540706396102910000e-001) (8, 2.08828210830688480000e-001) (9, -1.97938776016235350000e+000) (10, -4.41000223159790040000e-001) (0, 4.58925783634185790000e-001) (1, 1.19230806827545170000e+000) (2, 6.92680418491363530000e-001) (3, 3.49986165761947630000e-001) (4, 7.24368691444396970000e-001) (5, 9.04236674308776860000e-001) (6, 1.13114440441131590000e+000) (7, 2.37517759203910830000e-001) (8, 2.59007811546325680000e+000) (9, 1.29851150512695310000e+000) (10, 4.30577069520950320000e-001) (0, -1.74158051609992980000e-001) (1, 1.57193040847778320000e+001) (2, -2.94496893882751460000e-001) (3, 6.76361680030822750000e-001) (4, 7.60443067550659180000e+000) (5, 1.61903743743896480000e+001) (6, 1.65234966278076170000e+001) (7, 1.01176090538501740000e-001) (8, 4.37051820755004880000e+000) (9, 1.67645721435546870000e+001) (10, -5.22248074412345890000e-003) (0, -1.40526652336120610000e-001) (1, 4.84368848800659180000e+000) (2, 3.40777873992919920000e-001) (3, -1.16964265704154970000e-001) (4, 2.42164540290832520000e+000) (5, 5.81741952896118160000e+000) (6, 5.84327697753906250000e+000) (7, 3.35610777139663700000e-001) (8, 2.96148395538330080000e+000) (9, 5.16703128814697270000e+000) (10, 5.40268942713737490000e-002) (0, 3.50764662027359010000e-001) (1, 1.42952883243560790000e+000) (2, 4.06420558691024780000e-001) (3, 1.44484847784042360000e-001) (4, 3.50277751684188840000e-001) (5, 7.27097332477569580000e-001) (6, 1.01339709758758540000e+000) (7, -6.92769527435302730000e-001) (8, 2.48835015296936040000e+000) (9, 8.09857249259948730000e-001) (10, 1.89671337604522710000e-001) (0, -1.24112114310264590000e-001) (1, -1.41876065731048580000e+000) (2, -4.99815285205841060000e-001) (3, 1.96192916482687000000e-002) (4, -1.00816953182220460000e+000) (5, -2.19736099243164060000e+000) (6, -1.24547052383422850000e+000) (7, 2.25942909717559810000e-001) (8, -9.32705774903297420000e-002) (9, -2.13172268867492680000e+000) (10, -2.89384901523590090000e-001) (0, 6.60896599292755130000e-002) (1, 1.93074905872344970000e+000) (2, 2.05278266221284870000e-002) (3, 1.03549301624298100000e-001) (4, 4.89036917686462400000e-001) (5, 2.34544730186462400000e+000) (6, 2.58993244171142580000e+000) (7, -3.99727255105972290000e-001) (8, 2.19070720672607420000e+000) (9, 1.83085954189300540000e+000) (10, -2.64327138662338260000e-001) (0, -4.99886631965637210000e-001) (1, -2.10831093788146970000e+000) (2, 6.85072317719459530000e-002) (3, 1.10494159162044530000e-001) (4, -1.97021520137786870000e+000) (5, 2.08534574508666990000e+000) (6, -1.87800562381744380000e+000) (7, -6.71494156122207640000e-002) (8, -2.33306646347045900000e+000) (9, 1.11899411678314210000e+000) (10, -4.34813916683197020000e-001) (0, -3.56359183788299560000e-001) (1, -3.74450659751892090000e+000) (2, 4.57978606224060060000e-001) (3, -4.60246592760086060000e-001) (4, -1.30733311176300050000e+000) (5, -3.02260518074035640000e+000) (6, -3.68424296379089360000e+000) (7, 1.42845930531620980000e-002) (8, -3.36132533848285680000e-002) (9, -3.52819895744323730000e+000) (10, 2.16422937810420990000e-002) (0, -2.29493334889411930000e-001) (1, -3.88047665357589720000e-001) (2, -7.44180455803871150000e-002) (3, 1.48954484611749650000e-002) (4, -2.11981654167175290000e-001) (5, -3.09207946062088010000e-001) (6, -1.65946811437606810000e-001) (7, 2.73409247398376460000e-001) (8, -6.36505782604217530000e-002) (9, -5.98167002201080320000e-001) (10, -2.90134400129318240000e-001) (0, -4.30732816457748410000e-001) (1, -1.96233403682708740000e+000) (2, 2.75517553091049190000e-001) (3, -3.82611155509948730000e-001) (4, -1.11963236331939700000e+000) (5, -1.87344741821289060000e+000) (6, -2.49990630149841310000e+000) (7, 2.17759281396865840000e-001) (8, -2.06961438059806820000e-001) (9, -2.17626380920410160000e+000) (10, 2.58990854024887080000e-001) (0, -4.28717821836471560000e-001) (1, -3.40435361862182620000e+000) (2, 1.83389827609062190000e-001) (3, -2.60060340166091920000e-001) (4, -1.47279417514801030000e+000) (5, -3.13092350959777830000e+000) (6, -3.24166274070739750000e+000) (7, -4.94764208793640140000e-001) (8, -9.63371872901916500000e-001) (9, -3.32964301109313960000e+000) (10, -3.54941010475158690000e-001) (0, -2.71466299891471860000e-002) (1, 7.21190452575683590000e-001) (2, 4.84264671802520750000e-001) (3, 2.33522564172744750000e-001) (4, 6.04960381984710690000e-001) (5, 5.95665633678436280000e-001) (6, 4.17204678058624270000e-001) (7, 8.47971960902214050000e-002) (8, 9.71974551677703860000e-001) (9, 3.83822113275527950000e-001) (10, -7.10195004940032960000e-002) (0, -1.82419225573539730000e-001) (1, -2.04994153976440430000e+000) (2, -2.43224129080772400000e-002) (3, -3.25977146625518800000e-001) (4, -6.17214500904083250000e-001) (5, -1.60340011119842530000e+000) (6, -1.30366456508636470000e+000) (7, -4.61093783378601070000e-001) (8, 1.39954850077629090000e-001) (9, -1.15238821506500240000e+000) (10, -2.27953359484672550000e-001) (0, 1.94849535822868350000e-001) (1, -3.72295826673507690000e-001) (2, -7.84206092357635500000e-001) (3, -3.15929204225540160000e-001) (4, -2.18549519777297970000e-001) (5, -1.88979029655456540000e+000) (6, 6.29323005676269530000e-001) (7, 9.29254412651062010000e-001) (8, -7.33622550964355470000e-001) (9, -5.61910927295684810000e-001) (10, 3.52292507886886600000e-001) (0, 3.29384684562683110000e-001) (1, 1.13831627368927000000e+000) (2, 1.85977324843406680000e-001) (3, 3.39851260185241700000e-001) (4, 3.22456955909729000000e-001) (5, 6.89221620559692380000e-001) (6, 1.04604053497314450000e+000) (7, 3.54896575212478640000e-001) (8, 3.25862574577331540000e+000) (9, 7.51571655273437500000e-001) (10, 1.48143827915191650000e-001) (0, 3.58460731804370880000e-002) (1, 1.85346710681915280000e+000) (2, 3.97521704435348510000e-001) (3, 6.59231126308441160000e-001) (4, 1.11550307273864750000e+000) (5, 1.45811808109283450000e+000) (6, 1.05151271820068360000e+000) (7, -7.23684966564178470000e-001) (8, 2.69175815582275390000e+000) (9, 1.07477068901062010000e+000) (10, -4.11303602159023280000e-002) (0, -1.06035195291042330000e-001) (1, -2.56566023826599120000e+000) (2, -5.64276742935180660000e+000) (3, -3.71627759933471680000e+000) (4, 1.21360696852207180000e-001) (5, 6.46484375000000000000e+000) (6, -3.92942881584167480000e+000) (7, -2.17963814735412600000e+000) (8, -1.00967216491699220000e+001) (9, -7.54053449630737300000e+000) (10, -3.13873857259750370000e-001) (0, 3.97030748426914220000e-002) (1, 5.75349044799804690000e+000) (2, 5.15110850334167480000e-001) (3, -7.35265612602233890000e-002) (4, 2.37960767745971680000e+000) (5, 5.39246320724487300000e+000) (6, 5.82977485656738280000e+000) (7, -1.36506795883178710000e-001) (8, 2.46686887741088870000e+000) (9, 5.63842868804931640000e+000) (10, 9.14050266146659850000e-002) (0, 1.73983737826347350000e-001) (1, -3.62535625696182250000e-001) (2, -4.03790861368179320000e-001) (3, 5.17136335372924800000e-001) (4, 2.37409621477127080000e-001) (5, -3.96647825837135310000e-002) (6, -5.83862602710723880000e-001) (7, -1.67811080813407900000e-001) (8, 7.91284628212451930000e-003) (9, -4.35687869787216190000e-001) (10, 2.72127836942672730000e-001) (0, 7.73344561457633970000e-002) (1, 1.80209171772003170000e+000) (2, 5.75566947460174560000e-001) (3, 3.09583693742752080000e-001) (4, 1.44230172038078310000e-001) (5, -7.54870027303695680000e-002) (6, 1.27851438522338870000e+000) (7, 7.49497115612030030000e-001) (8, 2.23347282409667970000e+000) (9, 3.35583567619323730000e-001) (10, -3.49148631095886230000e-001) (0, -2.04193040728569030000e-001) (1, -4.08423811197280880000e-001) (2, 9.43927317857742310000e-002) (3, -3.38187813758850100000e-001) (4, -6.23951554298400880000e-001) (5, -4.11884337663650510000e-001) (6, -4.26104277372360230000e-001) (7, -1.76210284233093260000e-001) (8, -3.64445924758911130000e-001) (9, 1.48876979947090150000e-001) (10, 8.88998508453369140000e-002) (0, 4.16729748249053960000e-002) (1, 1.29200088977813720000e+000) (2, 9.99997198581695560000e-001) (3, 5.83206474781036380000e-001) (4, 6.24112606048583980000e-001) (5, 1.58964216709136960000e+000) (6, 1.76682078838348390000e+000) (7, -4.25931543111801150000e-001) (8, 2.37863397598266600000e+000) (9, 1.05976140499114990000e+000) (10, -3.01863849163055420000e-001) (0, -6.49031102657318120000e-002) (1, 3.60617685317993160000e+000) (2, 4.32604169845581050000e+000) (3, 3.74870359897613530000e-001) (4, 2.39401245117187500000e+000) (5, 3.25050234794616700000e+000) (6, 2.69700407981872560000e+000) (7, -1.83562397956848140000e-001) (8, 2.81943607330322270000e+000) (9, 1.18074047565460210000e+000) (10, 7.20801949501037600000e-003) (0, -3.51227819919586180000e-001) (1, -7.37074613571166990000e+000) (2, -3.74039745330810550000e+000) (3, -5.40296268463134770000e+000) (4, 1.96660295128822330000e-001) (5, 5.05359840393066410000e+000) (6, -8.43689537048339840000e+000) (7, -5.36217331886291500000e-001) (8, -1.97599744796752930000e+000) (9, -5.65668535232543950000e+000) (10, -1.68148428201675420000e-001) (0, -1.36122301220893860000e-001) (1, 1.12362730503082280000e+000) (2, 6.82706654071807860000e-001) (3, 3.03617447614669800000e-001) (4, 7.90987432003021240000e-001) (5, 1.67129647731781010000e+000) (6, 5.02296090126037600000e-001) (7, -4.90550965070724490000e-001) (8, 2.74931311607360840000e+000) (9, 9.91054654121398930000e-001) (10, -1.18583180010318760000e-001) (0, -4.94634658098220830000e-001) (1, -2.59788894653320310000e+000) (2, -8.34281183779239650000e-003) (3, 2.44560971856117250000e-001) (4, -1.34635126590728760000e+000) (5, -2.65503931045532230000e+000) (6, -2.59351229667663570000e+000) (7, 1.17482371628284450000e-001) (8, -3.13241153955459590000e-001) (9, -3.12745809555053710000e+000) (10, 2.02608749270439150000e-001) (0, 4.99038696289062500000e-001) (1, -1.43137240409851070000e+000) (2, -3.77375453710556030000e-001) (3, -1.14662802219390870000e+000) (4, 1.13746869564056400000e+000) (5, 3.35825586318969730000e+000) (6, -2.09153985977172850000e+000) (7, 8.05161535739898680000e-001) (8, 2.93399058282375340000e-002) (9, -1.30948114395141600000e+000) (10, -4.54036086797714230000e-001) (0, 2.25426152348518370000e-001) (1, 2.49748682975769040000e+000) (2, 3.83207380771636960000e-001) (3, 1.66058719158172610000e-001) (4, 1.27609193325042720000e+000) (5, 2.06640258431434630000e-001) (6, 1.23104965686798100000e+000) (7, -5.39539277553558350000e-001) (8, 2.94323539733886720000e+000) (9, 1.22371947765350340000e+000) (10, -3.09399485588073730000e-001) (0, 5.16202226281166080000e-002) (1, 1.53242087364196780000e+000) (2, 2.84558534622192380000e-001) (3, 1.51622667908668520000e-001) (4, 2.86303311586380000000e-002) (5, 7.01609969139099120000e-001) (6, 1.47512829303741460000e+000) (7, 3.85406948626041410000e-002) (8, 2.22198629379272460000e+000) (9, 5.19334316253662110000e-001) (10, -1.02252282202243800000e-001) (0, 2.35227391123771670000e-001) (1, 3.85290741920471190000e+000) (2, 3.11344051361083980000e+000) (3, 4.07281845808029170000e-001) (4, 1.47135031223297120000e+000) (5, 2.84773349761962890000e+000) (6, 2.39265656471252440000e+000) (7, -1.78802043199539180000e-001) (8, 2.08708333969116210000e+000) (9, 1.21821224689483640000e+000) (10, -3.66046905517578130000e-001) (0, -4.39530909061431880000e-001) (1, -1.07573950290679930000e+000) (2, 3.69771629571914670000e-001) (3, 3.20226818323135380000e-001) (4, -8.51728796958923340000e-001) (5, -1.62215864658355710000e+000) (6, -1.83790349960327150000e+000) (7, -5.83579123020172120000e-001) (8, 1.16552747786045070000e-001) (9, -1.45416522026062010000e+000) (10, 4.30829301476478580000e-002) (0, 1.84385985136032100000e-001) (1, -1.68738222122192380000e+000) (2, -7.92270541191101070000e-001) (3, 1.65598168969154360000e-001) (4, -6.48716866970062260000e-001) (5, 1.42760682106018070000e+000) (6, -2.01781719923019410000e-001) (7, -2.97576069831848140000e-001) (8, -4.44081611931324010000e-002) (9, -7.07130789756774900000e-001) (10, 2.04938024282455440000e-001) (0, 3.23700368404388430000e-001) (1, 2.53634881973266600000e+000) (2, 6.96214854717254640000e-001) (3, 4.77402657270431520000e-001) (4, 1.19054472446441650000e+000) (5, 6.91686809062957760000e-001) (6, 1.51438736915588380000e+000) (7, -4.39226150512695310000e-001) (8, 2.54142951965332030000e+000) (9, 8.16261410713195800000e-001) (10, -3.93061280250549320000e-001) (0, -2.00671494007110600000e-001) (1, 1.49538767337799070000e+000) (2, 4.59291577339172360000e-001) (3, 7.61903822422027590000e-001) (4, 1.06671524047851560000e+000) (5, 1.39832437038421630000e+000) (6, 9.13151144981384280000e-001) (7, -1.24295733869075780000e-001) (8, 2.14350724220275880000e+000) (9, 5.97205996513366700000e-001) (10, 3.66713136434555050000e-001) (0, -3.91948491334915160000e-001) (1, -5.97692131996154790000e-001) (2, 1.13225370645523070000e-001) (3, -2.50317692756652830000e-001) (4, -3.29468548297882080000e-001) (5, 3.63131910562515260000e-001) (6, 5.11318072676658630000e-002) (7, -5.30208051204681400000e-001) (8, -1.95610329508781430000e-001) (9, -2.18274205923080440000e-001) (10, -2.25425750017166140000e-001) (0, 1.21089778840541840000e-001) (1, 1.90826261043548580000e+000) (2, 1.32214322686195370000e-001) (3, 1.95300251245498660000e-001) (4, 1.02754998207092290000e+000) (5, 2.02455615997314450000e+000) (6, 7.02335178852081300000e-001) (7, -8.55219244956970210000e-001) (8, 3.55406856536865230000e+000) (9, 1.75760722160339360000e+000) (10, -4.31045204401016240000e-001) (0, 3.85621547698974610000e-001) (1, -2.75855994224548340000e+000) (2, -1.33052158355712890000e+000) (3, -1.35248482227325440000e+000) (4, -5.41302859783172610000e-002) (5, 3.42106819152832030000e+000) (6, -3.70296883583068850000e+000) (7, -1.05616450309753420000e+000) (8, -1.84905838966369630000e+000) (9, -1.74833273887634280000e+000) (10, 9.31740850210189820000e-002) (0, -9.00271236896514890000e-002) (1, -1.95959842205047610000e+000) (2, -7.56369888782501220000e-001) (3, -4.13773894309997560000e-001) (4, -7.26142287254333500000e-001) (5, 3.03672409057617190000e+000) (6, -2.92813062667846680000e+000) (7, -6.48011541366577150000e+000) (8, -4.70766723155975340000e-001) (9, -1.87638890743255620000e+000) (10, 3.52194219827651980000e-001) (11, -9.49422168731689450000e+000) (12, 2.37354487180709840000e-001) (13, -8.65993595123291020000e+000) (14, -4.64721822738647460000e+000) (15, -5.47495651245117190000e+000) (16, -8.66907024383544920000e+000) (17, -8.02909755706787110000e+000) (18, -8.63672542572021480000e+000) (19, -8.36543560028076170000e+000) (20, -2.53073513507843020000e-001) (21, -3.41532421112060550000e+000) (22, -6.26884603500366210000e+000) (23, -3.84670719504356380000e-002) (24, -8.86557865142822270000e+000) (25, -8.18623638153076170000e+000) (26, -8.23655128479003910000e+000) (27, -5.17876327037811280000e-001) (28, -8.76889419555664060000e+000) (29, -8.30350589752197270000e+000) (30, -2.89810013771057130000e+000) (31, -8.28215217590332030000e+000) (32, -9.00683975219726560000e+000) (33, -7.52162456512451170000e+000) (34, -1.07641422748565670000e+000) (35, -9.08878898620605470000e+000) (36, -8.24896812438964840000e+000) (37, -9.36214447021484380000e+000) (38, -3.45640927553176880000e-001) (39, -8.74540996551513670000e+000) (40, -8.81637382507324220000e+000) (41, -8.84439754486083980000e+000) (42, -6.89184093475341800000e+000) (43, -3.47941190004348750000e-001) (44, -9.34768867492675780000e+000) (45, -4.91936445236206050000e+000) (46, 4.40419077873229980000e-001) (47, 9.18171033263206480000e-002) (48, -5.23917190730571750000e-002) (49, 5.41282854974269870000e-002) (50, -3.50693416595458980000e+000) (51, -4.00112986564636230000e-001) (52, 6.61865413188934330000e-001) (53, -6.81523466110229490000e+000) (54, -8.94794559478759770000e+000) (55, -6.51282405853271480000e+000) (56, -8.75849056243896480000e+000) (57, -3.59452217817306520000e-002) (58, -6.48207759857177730000e+000) (59, -2.55672723054885860000e-001) (60, -8.53506755828857420000e+000) (61, -8.13231849670410160000e+000) (62, -6.03656768798828130000e+000) (63, -8.77827930450439450000e+000) (64, 3.28138291835784910000e-001) (65, -7.33423233032226560000e-001) (66, -8.46686553955078120000e+000) (67, -8.22614288330078120000e+000) (68, -9.01397323608398440000e+000) (69, 1.95453807711601260000e-001) (70, -3.90410423278808590000e+000) (71, -8.95211505889892580000e+000) (72, -6.61284780502319340000e+000) (73, 1.34014829993247990000e-001) (74, -6.82915544509887700000e+000) (75, -6.72110319137573240000e+000) (76, -4.39572095870971680000e+000) (77, -8.56662368774414060000e+000) (11, -9.20850849151611330000e+000) (12, -7.40237236022949220000e-002) (13, -8.54877853393554690000e+000) (14, -4.24577140808105470000e+000) (15, -5.09429121017456050000e+000) (16, -8.78279495239257810000e+000) (17, -7.96963596343994140000e+000) (18, -8.97444343566894530000e+000) (19, -9.11772727966308590000e+000) (20, 1.61599069833755490000e-001) (21, -3.22969675064086910000e+000) (22, -7.07302856445312500000e+000) (23, -1.98896989226341250000e-001) (24, -8.51669692993164060000e+000) (25, -8.67528057098388670000e+000) (26, -6.98134469985961910000e+000) (27, -4.83500540256500240000e-001) (28, -8.24136161804199220000e+000) (29, -9.04074668884277340000e+000) (30, -2.92157888412475590000e+000) (31, -8.97865009307861330000e+000) (32, -8.98395919799804690000e+000) (33, -8.30863380432128910000e+000) (34, -6.66533887386322020000e-001) (35, -8.95362854003906250000e+000) (36, -7.80648422241210940000e+000) (37, -8.48120117187500000000e+000) (38, -9.46331381797790530000e-001) (39, -8.74062538146972660000e+000) (40, -8.69098091125488280000e+000) (41, -8.60601139068603520000e+000) (42, -6.77683115005493160000e+000) (43, -3.80094051361083980000e-002) (44, -8.55711936950683590000e+000) (45, -4.04671049118041990000e+000) (46, -6.96372389793396000000e-002) (47, 1.22270293533802030000e-001) (48, 4.36517298221588130000e-001) (49, -4.31784152984619140000e-001) (50, -3.87874960899353030000e+000) (51, -2.00655445456504820000e-001) (52, 4.54074621200561520000e-001) (53, -7.73528528213500980000e+000) (54, -8.85089683532714840000e+000) (55, -6.03825950622558590000e+000) (56, -8.03925037384033200000e+000) (57, 2.82791733741760250000e-001) (58, -6.82686996459960940000e+000) (59, 3.80277901887893680000e-001) (60, -8.24477767944335940000e+000) (61, -8.56769084930419920000e+000) (62, -5.27132987976074220000e+000) (63, -8.59934711456298830000e+000) (64, -5.07173091173172000000e-002) (65, -1.25179457664489750000e+000) (66, -8.84488773345947270000e+000) (67, -8.28457641601562500000e+000) (68, -9.13474273681640620000e+000) (69, -2.48737663030624390000e-001) (70, -4.06622409820556640000e+000) (71, -8.43281173706054690000e+000) (72, -7.08340740203857420000e+000) (73, -4.47287678718566890000e-001) (74, -6.91662168502807620000e+000) (75, -6.69315624237060550000e+000) (76, -3.97614812850952150000e+000) (77, -8.82509040832519530000e+000) (11, -8.34578323364257810000e+000) (12, -5.19485771656036380000e-001) (13, -8.58750438690185550000e+000) (14, -4.80210256576538090000e+000) (15, -5.50709772109985350000e+000) (16, -9.09807014465332030000e+000) (17, -7.95882225036621090000e+000) (18, -8.49311447143554690000e+000) (19, -8.87522029876708980000e+000) (20, -4.93010550737380980000e-001) (21, -3.52915382385253910000e+000) (22, -7.36131048202514650000e+000) (23, -3.28699409961700440000e-001) (24, -8.65351772308349610000e+000) (25, -8.50188064575195310000e+000) (26, -7.81949901580810550000e+000) (27, -5.00567972660064700000e-001) (28, -8.38373565673828120000e+000) (29, -9.05048561096191410000e+000) (30, -2.74036407470703130000e+000) (31, -8.36946582794189450000e+000) (32, -9.15974521636962890000e+000) (33, -7.87731647491455080000e+000) (34, -1.20100152492523190000e+000) (35, -9.08395385742187500000e+000) (36, -8.09398174285888670000e+000) (37, -8.50610542297363280000e+000) (38, -3.93934935331344600000e-001) (39, -9.22980499267578120000e+000) (40, -8.89529514312744140000e+000) (41, -8.37623882293701170000e+000) (42, -7.45508956909179690000e+000) (43, -3.63355427980422970000e-001) (44, -7.76394891738891600000e+000) (45, -4.64331436157226560000e+000) (46, 2.94036775827407840000e-001) (47, 5.48732690513134000000e-002) (48, -5.00897169113159180000e-001) (49, 3.10005217790603640000e-001) (50, -3.78507351875305180000e+000) (51, -4.12240803241729740000e-001) (52, 4.71292525529861450000e-001) (53, -7.45179128646850590000e+000) (54, -8.52910709381103520000e+000) (55, -5.32072353363037110000e+000) (56, -7.89872074127197270000e+000) (57, -3.85564863681793210000e-001) (58, -6.61744499206542970000e+000) (59, -4.89628851413726810000e-001) (60, -7.89200830459594730000e+000) (61, -9.01714134216308590000e+000) (62, -5.66401195526123050000e+000) (63, -8.30833530426025390000e+000) (64, -1.58338636159896850000e-001) (65, -8.34926486015319820000e-001) (66, -9.05689239501953130000e+000) (67, -8.26372909545898440000e+000) (68, -8.78284263610839840000e+000) (69, -6.25975787639617920000e-001) (70, -4.58829450607299800000e+000) (71, -8.30462169647216800000e+000) (72, -6.87658357620239260000e+000) (73, -6.58136725425720210000e-001) (74, -7.55092906951904300000e+000) (75, -7.46696949005126950000e+000) (76, -3.89592289924621580000e+000) (77, -9.11624145507812500000e+000) (11, -8.95283985137939450000e+000) (12, -9.54677164554595950000e-001) (13, -8.30217075347900390000e+000) (14, -4.04788255691528320000e+000) (15, -5.42988967895507810000e+000) (16, -8.80904769897460940000e+000) (17, -7.87897443771362300000e+000) (18, -9.00259876251220700000e+000) (19, -8.79304504394531250000e+000) (20, 1.98862124234437940000e-002) (21, -3.58050036430358890000e+000) (22, -7.11969709396362300000e+000) (23, -1.16585575044155120000e-001) (24, -8.66760349273681640000e+000) (25, -8.70315456390380860000e+000) (26, -7.39049530029296870000e+000) (27, 3.98230940103530880000e-001) (28, -7.69107198715209960000e+000) (29, -8.90033912658691410000e+000) (30, -2.89553165435791020000e+000) (31, -8.82165241241455080000e+000) (32, -8.54144954681396480000e+000) (33, -8.09167480468750000000e+000) (34, -9.41827058792114260000e-001) (35, -8.33328628540039060000e+000) (36, -7.72894954681396480000e+000) (37, -9.06893062591552730000e+000) (38, -3.67259621620178220000e-001) (39, -8.82686710357666020000e+000) (40, -8.59974670410156250000e+000) (41, -8.42169761657714840000e+000) (42, -7.21795606613159180000e+000) (43, -2.65921741724014280000e-001) (44, -8.27820587158203120000e+000) (45, -4.46794605255126950000e+000) (46, 3.57697546482086180000e-001) (47, -3.72690081596374510000e-001) (48, -2.60933130979537960000e-001) (49, -4.85061824321746830000e-001) (50, -4.13872671127319340000e+000) (51, -1.03134608268737790000e+000) (52, 7.74334132671356200000e-001) (53, -7.30674886703491210000e+000) (54, -8.82103538513183590000e+000) (55, -5.45755577087402340000e+000) (56, -8.60008621215820310000e+000) (57, -2.64080874621868130000e-002) (58, -6.63394546508789060000e+000) (59, 3.92398267984390260000e-001) (60, -8.31661987304687500000e+000) (61, -9.16888427734375000000e+000) (62, -5.75839233398437500000e+000) (63, -8.93009567260742190000e+000) (64, -9.94295716285705570000e-001) (65, -1.33157253265380860000e+000) (66, -8.80814743041992190000e+000) (67, -8.30819797515869140000e+000) (68, -8.96841049194335940000e+000) (69, -8.63476872444152830000e-001) (70, -3.79540944099426270000e+000) (71, -9.05396461486816410000e+000) (72, -7.15515756607055660000e+000) (73, -4.82520222663879390000e-001) (74, -6.99481439590454100000e+000) (75, -7.35658788681030270000e+000) (76, -3.97920083999633790000e+000) (77, -8.60276508331298830000e+000) (11, -8.64530849456787110000e+000) (12, -7.92481482028961180000e-001) (13, -8.69084167480468750000e+000) (14, -4.88475894927978520000e+000) (15, -5.63157749176025390000e+000) (16, -8.26209640502929690000e+000) (17, -7.28209209442138670000e+000) (18, -9.12488937377929690000e+000) (19, -8.55424690246582030000e+000) (20, -4.13299709558486940000e-001) (21, -3.50743627548217770000e+000) (22, -6.48490571975708010000e+000) (23, -3.50529044866561890000e-001) (24, -8.86035728454589840000e+000) (25, -8.36115646362304690000e+000) (26, -7.78645086288452150000e+000) (27, 3.29202294349670410000e-001) (28, -8.22543144226074220000e+000) (29, -8.32826328277587890000e+000) (30, -2.84057497978210450000e+000) (31, -8.58738231658935550000e+000) (32, -8.35692977905273440000e+000) (33, -7.88794040679931640000e+000) (34, -9.75174784660339360000e-001) (35, -8.59462833404541020000e+000) (36, -8.12577056884765630000e+000) (37, -8.40727138519287110000e+000) (38, -3.71602267026901250000e-001) (39, -8.75518131256103520000e+000) (40, -8.67412662506103520000e+000) (41, -8.83891677856445310000e+000) (42, -7.61870098114013670000e+000) (43, -4.07659262418746950000e-001) (44, -8.33620071411132810000e+000) (45, -4.77008152008056640000e+000) (46, -1.61064058542251590000e-001) (47, -3.48025947809219360000e-001) (48, 2.74101614952087400000e-001) (49, -5.16220569610595700000e-001) (50, -4.38013362884521480000e+000) (51, -6.77981197834014890000e-001) (52, -1.14892341196537020000e-001) (53, -7.72257137298583980000e+000) (54, -9.15755176544189450000e+000) (55, -5.50219440460205080000e+000) (56, -8.33904361724853520000e+000) (57, -2.29573696851730350000e-001) (58, -7.21200084686279300000e+000) (59, -4.67723697423934940000e-001) (60, -8.22467517852783200000e+000) (61, -8.53303909301757810000e+000) (62, -5.34078741073608400000e+000) (63, -8.50392246246337890000e+000) (64, -2.22416192293167110000e-001) (65, -9.64974045753479000000e-001) (66, -8.78788566589355470000e+000) (67, -8.41313552856445310000e+000) (68, -8.97123336791992190000e+000) (69, 7.40679446607828140000e-003) (70, -4.51652765274047850000e+000) (71, -9.08561897277832030000e+000) (72, -7.15512418746948240000e+000) (73, -7.31516122817993160000e-001) (74, -6.93067455291748050000e+000) (75, -7.42168521881103520000e+000) (76, -3.93366456031799320000e+000) (77, -8.92284297943115230000e+000) (11, -9.51274871826171880000e+000) (12, -1.53170359134674070000e+000) (13, -8.19345760345458980000e+000) (14, -4.59639835357666020000e+000) (15, -6.03193998336791990000e+000) (16, -9.29933452606201170000e+000) (17, -7.61164045333862300000e+000) (18, -8.92383289337158200000e+000) (19, -8.59149360656738280000e+000) (20, 5.42926453053951260000e-002) (21, -2.81858777999877930000e+000) (22, -7.28739929199218750000e+000) (23, 4.39542680978775020000e-001) (24, -9.14876747131347660000e+000) (25, -8.10257625579833980000e+000) (26, -7.22013187408447270000e+000) (27, 1.75311788916587830000e-001) (28, -7.54250574111938480000e+000) (29, -8.99912166595458980000e+000) (30, -2.13271594047546390000e+000) (31, -9.27709960937500000000e+000) (32, -9.39876270294189450000e+000) (33, -8.92795848846435550000e+000) (34, -8.22714090347290040000e-001) (35, -8.57848358154296870000e+000) (36, -8.03788185119628910000e+000) (37, -8.79338836669921870000e+000) (38, -1.01626074314117430000e+000) (39, -8.77749347686767580000e+000) (40, -8.89243316650390620000e+000) (41, -7.44633579254150390000e+000) (42, -6.75439167022705080000e+000) (43, -3.09841334819793700000e-001) (44, -7.61759853363037110000e+000) (45, -3.82965707778930660000e+000) (46, 9.15548279881477360000e-002) (47, -7.65141099691390990000e-002) (48, 4.60850805044174190000e-001) (49, 5.55129572749137880000e-002) (50, -3.81807374954223630000e+000) (51, -1.06098139286041260000e+000) (52, 2.49203592538833620000e-001) (53, -7.83341073989868160000e+000) (54, -8.69392681121826170000e+000) (55, -5.39516878128051760000e+000) (56, -8.29693794250488280000e+000) (57, -1.06086596846580510000e-001) (58, -6.66098165512084960000e+000) (59, -1.85160994529724120000e-001) (60, -7.55914497375488280000e+000) (61, -9.17308044433593750000e+000) (62, -5.30944395065307620000e+000) (63, -9.11782169342041020000e+000) (64, -1.21171510219573970000e+000) (65, -8.89227569103240970000e-001) (66, -8.80394840240478520000e+000) (67, -7.40830373764038090000e+000) (68, -9.04161262512207030000e+000) (69, -8.98955166339874270000e-001) (70, -4.36890935897827150000e+000) (71, -9.12473392486572270000e+000) (72, -6.57052850723266600000e+000) (73, -1.21378684043884280000e+000) (74, -7.10446977615356450000e+000) (75, -7.05914545059204100000e+000) (76, -4.68562936782836910000e+000) (77, -9.47481060028076170000e+000) (11, -8.35184574127197270000e+000) (12, -3.98503720760345460000e-001) (13, -8.42473411560058590000e+000) (14, -4.40025329589843750000e+000) (15, -6.42703676223754880000e+000) (16, -8.74849605560302730000e+000) (17, -7.32954311370849610000e+000) (18, -9.24667453765869140000e+000) (19, -8.73980140686035160000e+000) (20, 1.89755320549011230000e-001) (21, -2.84577512741088870000e+000) (22, -7.08463907241821290000e+000) (23, 2.97870993614196780000e-001) (24, -8.64329051971435550000e+000) (25, -8.78146648406982420000e+000) (26, -7.40422487258911130000e+000) (27, -6.99657678604125980000e-001) (28, -9.25634956359863280000e+000) (29, -8.57211780548095700000e+000) (30, -2.25434231758117680000e+000) (31, -8.78812313079833980000e+000) (32, -8.73975276947021480000e+000) (33, -7.63394308090209960000e+000) (34, -1.00219523906707760000e+000) (35, -8.80617046356201170000e+000) (36, -7.81922721862792970000e+000) (37, -8.72591209411621090000e+000) (38, -5.21477937698364260000e-001) (39, -8.88590812683105470000e+000) (40, -8.39616107940673830000e+000) (41, -8.42547702789306640000e+000) (42, -7.20582008361816410000e+000) (43, 3.53136152029037480000e-001) (44, -8.57696914672851560000e+000) (45, -5.42075824737548830000e+000) (46, -3.61352920532226560000e-001) (47, 3.48993986845016480000e-001) (48, -2.06158101558685300000e-001) (49, -7.21242725849151610000e-001) (50, -4.11523342132568360000e+000) (51, -3.88507694005966190000e-001) (52, 6.81279122829437260000e-001) (53, -7.76651239395141600000e+000) (54, -8.40832805633544920000e+000) (55, -6.21977472305297850000e+000) (56, -8.60787487030029300000e+000) (57, -1.78609132766723630000e-001) (58, -6.60832595825195310000e+000) (59, 9.36535969376564030000e-002) (60, -8.39603900909423830000e+000) (61, -8.58904075622558590000e+000) (62, -5.81367158889770510000e+000) (63, -8.65473079681396480000e+000) (64, -3.99406850337982180000e-001) (65, -1.50105834007263180000e+000) (66, -9.13204956054687500000e+000) (67, -8.11984252929687500000e+000) (68, -8.01895618438720700000e+000) (69, -9.85216259956359860000e-001) (70, -4.43441820144653320000e+000) (71, -8.76268863677978520000e+000) (72, -6.44026803970336910000e+000) (73, -2.89114147424697880000e-001) (74, -7.17143726348876950000e+000) (75, -7.42048025131225590000e+000) (76, -3.93251991271972660000e+000) (77, -8.96855449676513670000e+000) (11, -8.29572296142578120000e+000) (12, -9.16575074195861820000e-001) (13, -8.82138729095458980000e+000) (14, -4.58451652526855470000e+000) (15, -6.09786033630371090000e+000) (16, -8.39020156860351560000e+000) (17, -7.62704610824584960000e+000) (18, -9.11715221405029300000e+000) (19, -8.46369934082031250000e+000) (20, -6.48247539997100830000e-001) (21, -3.20445036888122560000e+000) (22, -6.53207731246948240000e+000) (23, -3.42364639043807980000e-001) (24, -8.63151645660400390000e+000) (25, -8.50184822082519530000e+000) (26, -7.17778015136718750000e+000) (27, -3.44834744930267330000e-001) (28, -8.69930553436279300000e+000) (29, -8.35573673248291020000e+000) (30, -2.43641185760498050000e+000) (31, -8.87564468383789060000e+000) (32, -9.13721179962158200000e+000) (33, -7.85636472702026370000e+000) (34, -1.35206687450408940000e+000) (35, -8.79369926452636720000e+000) (36, -8.05508136749267580000e+000) (37, -8.57213211059570310000e+000) (38, -5.11779129505157470000e-001) (39, -8.97386169433593750000e+000) (40, -8.93544960021972660000e+000) (41, -9.09815216064453130000e+000) (42, -7.16950702667236330000e+000) (43, 4.15290981531143190000e-001) (44, -8.72267246246337890000e+000) (45, -4.78385353088378910000e+000) (46, -1.80604934692382810000e-001) (47, 3.40805441141128540000e-001) (48, -6.57580912113189700000e-001) (49, -7.71067962050437930000e-002) (50, -3.52150630950927730000e+000) (51, -4.01927053928375240000e-001) (52, 1.52718387544155120000e-002) (53, -7.10697555541992190000e+000) (54, -9.17106628417968750000e+000) (55, -5.75810194015502930000e+000) (56, -7.88756704330444340000e+000) (57, -3.33735585212707520000e-001) (58, -6.92413711547851560000e+000) (59, -5.28581500053405760000e-001) (60, -8.27410697937011720000e+000) (61, -8.68104171752929690000e+000) (62, -5.94694805145263670000e+000) (63, -8.75904178619384770000e+000) (64, -8.61907303333282470000e-002) (65, -1.22754943370819090000e+000) (66, -8.49171257019042970000e+000) (67, -8.22084712982177730000e+000) (68, -8.12816905975341800000e+000) (69, -4.89649623632431030000e-001) (70, -3.74624752998352050000e+000) (71, -9.08659458160400390000e+000) (72, -7.12197351455688480000e+000) (73, -6.65195882320404050000e-001) (74, -7.34431648254394530000e+000) (75, -6.93977403640747070000e+000) (76, -4.57474327087402340000e+000) (77, -9.24136829376220700000e+000) (11, -8.96353626251220700000e+000) (12, -4.81036126613616940000e-001) (13, -7.96219778060913090000e+000) (14, -4.12803792953491210000e+000) (15, -5.74224281311035160000e+000) (16, -8.72642707824707030000e+000) (17, -7.96657371520996090000e+000) (18, -9.03440475463867190000e+000) (19, -8.64062213897705080000e+000) (20, 2.90161460638046260000e-001) (21, -3.55280661582946780000e+000) (22, -6.97845363616943360000e+000) (23, 2.91380345821380620000e-001) (24, -8.87870883941650390000e+000) (25, -8.51162624359130860000e+000) (26, -7.06102657318115230000e+000) (27, -1.34494915604591370000e-001) (28, -8.49933147430419920000e+000) (29, -9.42068958282470700000e+000) (30, -2.71435093879699710000e+000) (31, -8.99884128570556640000e+000) (32, -8.56390953063964840000e+000) (33, -8.14813137054443360000e+000) (34, -1.33554387092590330000e+000) (35, -8.54030799865722660000e+000) (36, -7.51851844787597660000e+000) (37, -8.46937656402587890000e+000) (38, -5.94508230686187740000e-001) (39, -9.22422409057617190000e+000) (40, -8.19401264190673830000e+000) (41, -8.74346542358398440000e+000) (42, -7.36597156524658200000e+000) (43, -5.49768507480621340000e-002) (44, -7.99042463302612300000e+000) (45, -5.02472877502441410000e+000) (46, -4.85038012266159060000e-002) (47, -1.08536019921302800000e-001) (48, -2.54662603139877320000e-001) (49, 1.69602096080780030000e-001) (50, -4.16361522674560550000e+000) (51, -4.09383207559585570000e-001) (52, 6.53646886348724370000e-001) (53, -7.57242441177368160000e+000) (54, -8.98960494995117190000e+000) (55, -6.21714782714843750000e+000) (56, -7.95658254623413090000e+000) (57, -2.56546288728713990000e-001) (58, -6.30254602432250980000e+000) (59, 8.54406729340553280000e-002) (60, -8.12178802490234370000e+000) (61, -9.43247604370117190000e+000) (62, -6.03770542144775390000e+000) (63, -8.58293247222900390000e+000) (64, -1.06079506874084470000e+000) (65, -1.15600025653839110000e+000) (66, -9.32808113098144530000e+000) (67, -7.74601602554321290000e+000) (68, -9.14618492126464840000e+000) (69, -4.16346490383148190000e-001) (70, -4.17038202285766600000e+000) (71, -8.72223377227783200000e+000) (72, -6.76878118515014650000e+000) (73, -1.48174896836280820000e-001) (74, -6.88087844848632810000e+000) (75, -7.42654991149902340000e+000) (76, -4.16479492187500000000e+000) (77, -9.07148933410644530000e+000) (11, -8.44616508483886720000e+000) (12, -1.00867557525634770000e+000) (13, -8.71439170837402340000e+000) (14, -4.42985248565673830000e+000) (15, -6.08267498016357420000e+000) (16, -8.34790325164794920000e+000) (17, -7.83178377151489260000e+000) (18, -9.00369739532470700000e+000) (19, -8.68779182434082030000e+000) (20, 2.66906544566154480000e-002) (21, -3.06745314598083500000e+000) (22, -7.17962646484375000000e+000) (23, 3.83982330560684200000e-001) (24, -9.18881607055664060000e+000) (25, -8.93163871765136720000e+000) (26, -7.17105007171630860000e+000) (27, -7.33398795127868650000e-001) (28, -8.94399261474609370000e+000) (29, -8.92429542541503910000e+000) (30, -2.83787775039672850000e+000) (31, -8.82665252685546870000e+000) (32, -8.94412803649902340000e+000) (33, -8.00346279144287110000e+000) (34, -1.74596095085144040000e+000) (35, -8.79673194885253910000e+000) (36, -7.40510654449462890000e+000) (37, -8.70667743682861330000e+000) (38, -5.84844529628753660000e-001) (39, -8.92608356475830080000e+000) (40, -8.86685466766357420000e+000) (41, -8.97732162475585940000e+000) (42, -7.15742540359497070000e+000) (43, 8.51351767778396610000e-003) (44, -8.70177841186523440000e+000) (45, -4.55744647979736330000e+000) (46, -5.02157807350158690000e-001) (47, -2.27855667471885680000e-001) (48, -3.34591954946517940000e-001) (49, -2.03010097146034240000e-001) (50, -3.95218658447265620000e+000) (51, -3.17257978022098540000e-002) (52, 3.27567040920257570000e-001) (53, -7.40535497665405270000e+000) (54, -8.68364810943603520000e+000) (55, -5.43569087982177730000e+000) (56, -8.11396217346191410000e+000) (57, 1.36536478996276860000e-001) (58, -6.25561761856079100000e+000) (59, 2.33196839690208440000e-001) (60, -8.37766742706298830000e+000) (61, -8.73987197875976560000e+000) (62, -5.66416454315185550000e+000) (63, -8.53196620941162110000e+000) (64, -7.43159294128417970000e-001) (65, -9.28917884826660160000e-001) (66, -8.39291572570800780000e+000) (67, -8.20368385314941410000e+000) (68, -8.72432041168212890000e+000) (69, -3.21526229381561280000e-001) (70, -3.80341649055480960000e+000) (71, -8.46020030975341800000e+000) (72, -6.60292577743530270000e+000) (73, -3.87446373701095580000e-001) (74, -6.94186544418334960000e+000) (75, -7.00624132156372070000e+000) (76, -4.14208126068115230000e+000) (77, -9.06150245666503910000e+000) (11, -8.97853946685791020000e+000) (12, -1.17484378814697270000e+000) (13, -8.39646816253662110000e+000) (14, -4.27611780166625980000e+000) (15, -6.28337430953979490000e+000) (16, -8.59698677062988280000e+000) (17, -7.72762823104858400000e+000) (18, -9.04854583740234370000e+000) (19, -8.38594532012939450000e+000) (20, -3.19846235215663910000e-002) (21, -3.15242719650268550000e+000) (22, -7.41456651687622070000e+000) (23, 2.55766242742538450000e-001) (24, -8.53145313262939450000e+000) (25, -8.48492527008056640000e+000) (26, -6.56588220596313480000e+000) (27, 4.26677733659744260000e-001) (28, -8.44664382934570310000e+000) (29, -8.41564846038818360000e+000) (30, -2.69332790374755860000e+000) (31, -8.94443130493164060000e+000) (32, -9.02949714660644530000e+000) (33, -7.94769668579101560000e+000) (34, -7.17620968818664550000e-001) (35, -8.86694049835205080000e+000) (36, -8.16560268402099610000e+000) (37, -8.86910820007324220000e+000) (38, -1.34651041030883790000e+000) (39, -9.13979911804199220000e+000) (40, -8.69984245300292970000e+000) (41, -8.36260509490966800000e+000) (42, -7.08859825134277340000e+000) (43, -1.16110583767294880000e-002) (44, -7.49189376831054690000e+000) (45, -4.40015077590942380000e+000) (46, -3.99609506130218510000e-001) (47, -4.41241599619388580000e-002) (48, 4.98340688645839690000e-002) (49, -4.81272935867309570000e-001) (50, -4.33338737487792970000e+000) (51, -1.32041645050048830000e+000) (52, -1.21295884251594540000e-001) (53, -8.05122947692871090000e+000) (54, -8.63131809234619140000e+000) (55, -5.83653259277343750000e+000) (56, -7.59759187698364260000e+000) (57, -4.45250749588012700000e-001) (58, -6.86175346374511720000e+000) (59, 1.03910863399505620000e-001) (60, -7.42770624160766600000e+000) (61, -8.62228775024414060000e+000) (62, -5.25094699859619140000e+000) (63, -9.02169227600097660000e+000) (64, -1.00076127052307130000e+000) (65, -7.80332922935485840000e-001) (66, -9.34292316436767580000e+000) (67, -8.08313369750976560000e+000) (68, -8.70323753356933590000e+000) (69, -1.41123577952384950000e-001) (70, -4.34815454483032230000e+000) (71, -9.17847728729248050000e+000) (72, -7.13069248199462890000e+000) (73, -1.41679179668426510000e+000) (74, -7.23725271224975590000e+000) (75, -7.58870935440063480000e+000) (76, -4.35121726989746090000e+000) (77, -8.77834415435791020000e+000) (11, -9.14804744720458980000e+000) (12, -4.12490665912628170000e-001) (13, -8.54619598388671870000e+000) (14, -4.41656446456909180000e+000) (15, -5.38616228103637700000e+000) (16, -9.24269008636474610000e+000) (17, -7.31330251693725590000e+000) (18, -8.61243057250976560000e+000) (19, -9.27898406982421870000e+000) (20, -2.55191139876842500000e-002) (21, -3.54675865173339840000e+000) (22, -7.58204317092895510000e+000) (23, 3.38132351636886600000e-001) (24, -8.64353179931640620000e+000) (25, -8.57590770721435550000e+000) (26, -7.02797460556030270000e+000) (27, 5.20464442670345310000e-002) (28, -8.71972274780273440000e+000) (29, -9.22121047973632810000e+000) (30, -2.13589525222778320000e+000) (31, -8.69437217712402340000e+000) (32, -8.59704494476318360000e+000) (33, -8.09686470031738280000e+000) (34, -1.35028183460235600000e+000) (35, -8.82586002349853520000e+000) (36, -7.33118629455566410000e+000) (37, -9.11213397979736330000e+000) (38, -3.28222841024398800000e-001) (39, -8.78064823150634770000e+000) (40, -8.89661216735839840000e+000) (41, -7.94857025146484380000e+000) (42, -7.47879457473754880000e+000) (43, 1.64457067847251890000e-001) (44, -8.61929607391357420000e+000) (45, -4.05197286605834960000e+000) (46, -1.43091715872287750000e-002) (47, 4.13862168788909910000e-001) (48, 4.65978026390075680000e-001) (49, 4.66683566570281980000e-001) (50, -4.25004100799560550000e+000) (51, -5.95470309257507320000e-001) (52, 3.98678153753280640000e-001) (53, -7.35578536987304690000e+000) (54, -8.62642192840576170000e+000) (55, -5.64470720291137700000e+000) (56, -8.31941127777099610000e+000) (57, -6.17189764976501460000e-001) (58, -6.37164592742919920000e+000) (59, -4.54353034496307370000e-001) (60, -7.71746683120727540000e+000) (61, -8.58548736572265630000e+000) (62, -5.71700906753540040000e+000) (63, -8.81421566009521480000e+000) (64, -3.60958606004714970000e-001) (65, -8.85887503623962400000e-001) (66, -8.66402339935302730000e+000) (67, -7.87633657455444340000e+000) (68, -9.12184429168701170000e+000) (69, -4.70629572868347170000e-001) (70, -3.70614647865295410000e+000) (71, -8.59357929229736330000e+000) (72, -7.13535022735595700000e+000) (73, -1.61436811089515690000e-001) (74, -6.81494998931884770000e+000) (75, -7.81427574157714840000e+000) (76, -4.69754743576049800000e+000) (77, -9.05515384674072270000e+000) (11, -9.21026325225830080000e+000) (12, -7.23519146442413330000e-001) (13, -8.20525550842285160000e+000) (14, -4.87268066406250000000e+000) (15, -5.91255092620849610000e+000) (16, -8.93996810913085940000e+000) (17, -7.21106529235839840000e+000) (18, -8.76453590393066410000e+000) (19, -8.95624065399169920000e+000) (20, -2.13244203478097920000e-002) (21, -3.55587911605834960000e+000) (22, -7.50465583801269530000e+000) (23, 2.80431583523750310000e-002) (24, -8.74549865722656250000e+000) (25, -8.30769538879394530000e+000) (26, -7.14359188079833980000e+000) (27, -4.95875418186187740000e-001) (28, -8.03496074676513670000e+000) (29, -9.40859317779541020000e+000) (30, -2.80601191520690920000e+000) (31, -9.01901626586914060000e+000) (32, -8.53332996368408200000e+000) (33, -8.10437202453613280000e+000) (34, -1.00279211997985840000e+000) (35, -9.02807044982910160000e+000) (36, -8.08020496368408200000e+000) (37, -8.96217060089111330000e+000) (38, -1.33445167541503910000e+000) (39, -8.73497009277343750000e+000) (40, -8.79566192626953130000e+000) (41, -7.94543886184692380000e+000) (42, -6.75465488433837890000e+000) (43, -2.91700452566146850000e-001) (44, -8.18720626831054690000e+000) (45, -4.59771680831909180000e+000) (46, -9.29046422243118290000e-002) (47, -3.07720333337783810000e-001) (48, 2.24154219031333920000e-001) (49, 1.12415328621864320000e-001) (50, -3.55322265625000000000e+000) (51, -3.75345736742019650000e-001) (52, 5.44957637786865230000e-001) (53, -7.99845409393310550000e+000) (54, -9.39211463928222660000e+000) (55, -5.11432504653930660000e+000) (56, -8.05661869049072270000e+000) (57, -6.84823468327522280000e-002) (58, -6.47942066192626950000e+000) (59, 2.52428710460662840000e-001) (60, -8.25596427917480470000e+000) (61, -8.85273265838623050000e+000) (62, -5.40321111679077150000e+000) (63, -8.76798725128173830000e+000) (64, -4.87995535135269170000e-001) (65, -1.59379100799560550000e+000) (66, -9.33217811584472660000e+000) (67, -7.71406459808349610000e+000) (68, -8.52870845794677730000e+000) (69, -6.34675741195678710000e-001) (70, -4.61897468566894530000e+000) (71, -8.70736598968505860000e+000) (72, -6.24686002731323240000e+000) (73, -1.40600240230560300000e+000) (74, -7.02192544937133790000e+000) (75, -7.83817625045776370000e+000) (76, -4.27312803268432620000e+000) (77, -8.53083419799804690000e+000) (11, -1.05085706710815430000e+001) (12, -4.42072200775146480000e+000) (13, -6.34927082061767580000e+000) (14, -3.50661039352416990000e+000) (15, -9.25208473205566410000e+000) (16, -1.03599185943603520000e+001) (17, -5.14028787612915040000e+000) (18, -1.02239551544189450000e+001) (19, -1.01441030502319340000e+001) (20, -5.40083169937133790000e-001) (21, -1.50071752071380620000e+000) (22, -9.46822166442871090000e+000) (23, 4.30064111948013310000e-001) (24, -1.02812671661376950000e+001) (25, -6.64215993881225590000e+000) (26, -4.63242959976196290000e+000) (27, -2.96130180358886720000e-001) (28, -6.35676431655883790000e+000) (29, -1.05753355026245120000e+001) (30, -2.11177563667297360000e+000) (31, -9.70487213134765630000e+000) (32, -1.02255458831787110000e+001) (33, -1.00294876098632810000e+001) (34, -1.47542166709899900000e+000) (35, -1.05345087051391600000e+001) (36, -5.14391326904296870000e+000) (37, -1.03001213073730470000e+001) (38, -4.02270698547363280000e+000) (39, -1.00688676834106450000e+001) (40, -9.61516761779785160000e+000) (41, -6.36070537567138670000e+000) (42, -5.83600330352783200000e+000) (43, 2.84184720367193220000e-002) (44, -6.00437831878662110000e+000) (45, -2.05798673629760740000e+000) (46, 6.15493953227996830000e-002) (47, -4.76729631423950200000e-001) (48, 1.29372969269752500000e-001) (49, -3.55585783720016480000e-001) (50, -3.58334398269653320000e+000) (51, -4.30359125137329100000e+000) (52, 8.93445491790771480000e-001) (53, -9.70722293853759770000e+000) (54, -1.01516408920288090000e+001) (55, -3.57064199447631840000e+000) (56, -5.79092645645141600000e+000) (57, 7.20674842596054080000e-002) (58, -5.65733718872070310000e+000) (59, -4.23637270927429200000e-001) (60, -5.24931049346923830000e+000) (61, -9.77076721191406250000e+000) (62, -3.49788498878479000000e+000) (63, -9.76357841491699220000e+000) (64, -4.06283473968505860000e+000) (65, -8.38240385055541990000e-001) (66, -1.02467479705810550000e+001) (67, -5.45184373855590820000e+000) (68, -9.79102802276611330000e+000) (69, -2.02024984359741210000e+000) (70, -3.45926952362060550000e+000) (71, -1.03283624649047850000e+001) (72, -5.74667167663574220000e+000) (73, -4.71528768539428710000e+000) (74, -5.29874181747436520000e+000) (75, -8.60634803771972660000e+000) (76, -3.02099561691284180000e+000) (77, -1.04486265182495120000e+001) (11, -9.73325729370117190000e+000) (12, -2.74703907966613770000e+000) (13, -6.48710489273071290000e+000) (14, -4.76262617111206050000e+000) (15, -7.66069412231445310000e+000) (16, -9.11257839202880860000e+000) (17, -6.01742744445800780000e+000) (18, -9.91244792938232420000e+000) (19, -9.36536884307861330000e+000) (20, 1.21687904000282290000e-001) (21, -2.58179044723510740000e+000) (22, -8.92063331604003910000e+000) (23, 4.87039655447006230000e-001) (24, -9.86117935180664060000e+000) (25, -7.60099220275878910000e+000) (26, -6.04272556304931640000e+000) (27, 3.41616451740264890000e-001) (28, -6.72310733795166020000e+000) (29, -9.31749916076660160000e+000) (30, -2.50720024108886720000e+000) (31, -9.32514667510986330000e+000) (32, -9.72924423217773440000e+000) (33, -9.90927696228027340000e+000) (34, -6.75682067871093750000e-001) (35, -9.32973861694335940000e+000) (36, -6.63209819793701170000e+000) (37, -9.57450485229492190000e+000) (38, -2.37031626701354980000e+000) (39, -9.82726478576660160000e+000) (40, -8.60085010528564450000e+000) (41, -6.89305639266967770000e+000) (42, -6.48602628707885740000e+000) (43, -3.58318060636520390000e-001) (44, -6.29090833663940430000e+000) (45, -3.10424137115478520000e+000) (46, 2.25570291280746460000e-001) (47, 3.85463297367095950000e-001) (48, -3.15431118011474610000e-001) (49, -7.86683380603790280000e-001) (50, -4.21752643585205080000e+000) (51, -2.72529053688049320000e+000) (52, 1.58787250518798830000e-001) (53, -9.60636711120605470000e+000) (54, -9.33845615386962890000e+000) (55, -4.72306776046752930000e+000) (56, -6.91185665130615230000e+000) (57, -1.79245937615633010000e-002) (58, -6.21796083450317380000e+000) (59, -1.24531567096710210000e-001) (60, -6.49668979644775390000e+000) (61, -9.08034133911132810000e+000) (62, -4.04011583328247070000e+000) (63, -9.42786884307861330000e+000) (64, -2.56961584091186520000e+000) (65, -1.15067839622497560000e+000) (66, -9.72020721435546870000e+000) (67, -6.49923849105834960000e+000) (68, -9.22827529907226560000e+000) (69, -1.69269490242004390000e+000) (70, -4.03821229934692380000e+000) (71, -9.87724494934082030000e+000) (72, -6.52995491027832030000e+000) (73, -3.35874605178833010000e+000) (74, -5.95187711715698240000e+000) (75, -7.79199886322021480000e+000) (76, -3.75487494468688960000e+000) (77, -9.97213554382324220000e+000) (11, -8.87715244293212890000e+000) (12, -3.26278597116470340000e-001) (13, -8.75219726562500000000e+000) (14, -4.32745409011840820000e+000) (15, -5.53974819183349610000e+000) (16, -9.43720626831054690000e+000) (17, -7.15921306610107420000e+000) (18, -8.42858695983886720000e+000) (19, -8.75128173828125000000e+000) (20, -5.32118976116180420000e-001) (21, -3.72035813331604000000e+000) (22, -6.85878133773803710000e+000) (23, 1.59298360347747800000e-001) (24, -8.55037975311279300000e+000) (25, -8.10221672058105470000e+000) (26, -6.94300365447998050000e+000) (27, 2.19597026705741880000e-001) (28, -8.43060207366943360000e+000) (29, -9.28600883483886720000e+000) (30, -2.39533162117004390000e+000) (31, -8.33665084838867190000e+000) (32, -9.29411792755126950000e+000) (33, -8.48046875000000000000e+000) (34, -1.24207115173339840000e+000) (35, -8.66777038574218750000e+000) (36, -8.17061805725097660000e+000) (37, -9.33559513092041020000e+000) (38, -8.94262850284576420000e-001) (39, -9.29636859893798830000e+000) (40, -9.23397254943847660000e+000) (41, -8.44403934478759770000e+000) (42, -7.33004808425903320000e+000) (43, 2.77909427881240840000e-001) (44, -8.73530960083007810000e+000) (45, -4.16957807540893550000e+000) (46, -2.40352183580398560000e-001) (47, -3.34227532148361210000e-001) (48, 3.89890968799591060000e-002) (49, 1.65005058050155640000e-001) (50, -4.19507551193237300000e+000) (51, -8.49810183048248290000e-001) (52, 4.42842274904251100000e-001) (53, -7.75295734405517580000e+000) (54, -8.70890808105468750000e+000) (55, -5.59309387207031250000e+000) (56, -8.18876075744628910000e+000) (57, 1.50613576173782350000e-001) (58, -6.51655817031860350000e+000) (59, -4.87908482551574710000e-001) (60, -7.70352125167846680000e+000) (61, -8.59290599822998050000e+000) (62, -4.87388753890991210000e+000) (63, -8.71616458892822270000e+000) (64, -6.09284222126007080000e-001) (65, -1.35928225517272950000e+000) (66, -8.44678306579589840000e+000) (67, -7.97152042388916020000e+000) (68, -8.56024456024169920000e+000) (69, -1.00609660148620610000e-001) (70, -4.47261810302734370000e+000) (71, -9.12952327728271480000e+000) (72, -6.70435380935668950000e+000) (73, -2.70155489444732670000e-001) (74, -7.16694450378417970000e+000) (75, -7.47516202926635740000e+000) (76, -4.40575981140136720000e+000) (77, -8.45001506805419920000e+000) (11, -9.27845382690429690000e+000) (12, -1.04463946819305420000e+000) (13, -8.08252048492431640000e+000) (14, -4.54976844787597660000e+000) (15, -6.05126142501831050000e+000) (16, -8.35108852386474610000e+000) (17, -7.83973169326782230000e+000) (18, -9.05614948272705080000e+000) (19, -8.52086830139160160000e+000) (20, -3.75432878732681270000e-001) (21, -3.68716812133789060000e+000) (22, -7.36929750442504880000e+000) (23, -2.39709749817848210000e-001) (24, -9.30408287048339840000e+000) (25, -8.78896713256835940000e+000) (26, -7.14815378189086910000e+000) (27, -9.33256819844245910000e-002) (28, -7.77739143371582030000e+000) (29, -9.31438255310058590000e+000) (30, -2.82733392715454100000e+000) (31, -8.81001091003417970000e+000) (32, -8.53831005096435550000e+000) (33, -8.42521476745605470000e+000) (34, -1.44539117813110350000e+000) (35, -9.30915927886962890000e+000) (36, -8.17219829559326170000e+000) (37, -8.54640197753906250000e+000) (38, -6.22757852077484130000e-001) (39, -8.82697963714599610000e+000) (40, -8.72962284088134770000e+000) (41, -7.84389066696166990000e+000) (42, -7.05558109283447270000e+000) (43, -1.86270531266927720000e-002) (44, -7.71059656143188480000e+000) (45, -4.29711866378784180000e+000) (46, -1.62874087691307070000e-002) (47, 1.40497729182243350000e-001) (48, -3.56819003820419310000e-001) (49, -1.09270215034484860000e-002) (50, -4.33625268936157230000e+000) (51, -1.21416532993316650000e+000) (52, 3.28903824090957640000e-001) (53, -7.87469148635864260000e+000) (54, -8.38223171234130860000e+000) (55, -5.89865636825561520000e+000) (56, -7.79442501068115230000e+000) (57, 3.40741008520126340000e-001) (58, -6.79786586761474610000e+000) (59, 1.10854551196098330000e-001) (60, -8.46817588806152340000e+000) (61, -8.86777114868164060000e+000) (62, -5.22545814514160160000e+000) (63, -8.88775539398193360000e+000) (64, -1.09075200557708740000e+000) (65, -1.23763179779052730000e+000) (66, -9.03343296051025390000e+000) (67, -7.52568721771240230000e+000) (68, -8.48415851593017580000e+000) (69, -6.07456445693969730000e-001) (70, -4.41438722610473630000e+000) (71, -8.51232337951660160000e+000) (72, -6.70530462265014650000e+000) (73, -4.92803663015365600000e-001) (74, -6.76624059677124020000e+000) (75, -6.97034883499145510000e+000) (76, -4.68978500366210940000e+000) (77, -9.11316967010498050000e+000) (11, -9.26676940917968750000e+000) (12, -1.31509137153625490000e+000) (13, -7.70492315292358400000e+000) (14, -4.29818582534790040000e+000) (15, -6.53915309906005860000e+000) (16, -8.65621852874755860000e+000) (17, -7.72734355926513670000e+000) (18, -9.02233123779296870000e+000) (19, -9.13995170593261720000e+000) (20, 2.84876495599746700000e-001) (21, -3.04887723922729490000e+000) (22, -7.40631866455078130000e+000) (23, 1.62569582462310790000e-002) (24, -8.83633232116699220000e+000) (25, -8.45915126800537110000e+000) (26, -6.96330642700195310000e+000) (27, -1.71005111187696460000e-002) (28, -8.09608745574951170000e+000) (29, -9.10933494567871090000e+000) (30, -2.17879080772399900000e+000) (31, -9.28886222839355470000e+000) (32, -8.66478443145751950000e+000) (33, -8.46144294738769530000e+000) (34, -1.18825614452362060000e+000) (35, -8.55701351165771480000e+000) (36, -7.94317102432250980000e+000) (37, -9.08603191375732420000e+000) (38, -9.63616371154785160000e-001) (39, -9.23018741607666020000e+000) (40, -9.06945896148681640000e+000) (41, -7.52892780303955080000e+000) (42, -7.31564140319824220000e+000) (43, -2.52960473299026490000e-001) (44, -8.06136131286621090000e+000) (45, -4.19811153411865230000e+000) (46, -2.34299711883068080000e-002) (47, 1.12890310585498810000e-001) (48, -2.27267265319824220000e-001) (49, -5.41540503501892090000e-001) (50, -3.52194809913635250000e+000) (51, -1.55930078029632570000e+000) (52, 4.90656316280364990000e-001) (53, -8.12330627441406250000e+000) (54, -8.58797740936279300000e+000) (55, -5.70013809204101560000e+000) (56, -8.04970073699951170000e+000) (57, 4.09406691789627080000e-001) (58, -6.50902509689331050000e+000) (59, 2.55138099193573000000e-001) (60, -7.86720514297485350000e+000) (61, -8.45113372802734370000e+000) (62, -5.07249975204467770000e+000) (63, -9.06918907165527340000e+000) (64, -1.18919110298156740000e+000) (65, -1.73018777370452880000e+000) (66, -8.99539184570312500000e+000) (67, -7.89712953567504880000e+000) (68, -8.75196552276611330000e+000) (69, -3.43954920768737790000e-001) (70, -4.28114604949951170000e+000) (71, -8.45079803466796870000e+000) (72, -7.01170063018798830000e+000) (73, -1.50753247737884520000e+000) (74, -6.77778244018554690000e+000) (75, -7.61232519149780270000e+000) (76, -4.29169845581054690000e+000) (77, -8.76184272766113280000e+000) (11, -8.99085330963134770000e+000) (12, -4.71661478281021120000e-001) (13, -8.26848793029785160000e+000) (14, -4.24349451065063480000e+000) (15, -5.87283182144165040000e+000) (16, -8.53210926055908200000e+000) (17, -7.80862617492675780000e+000) (18, -8.71332836151123050000e+000) (19, -8.78440952301025390000e+000) (20, 1.20681405067443850000e-001) (21, -3.22685933113098140000e+000) (22, -7.61879825592041020000e+000) (23, -1.15127705037593840000e-001) (24, -8.90913105010986330000e+000) (25, -8.55393505096435550000e+000) (26, -7.07902050018310550000e+000) (27, -4.83640059828758240000e-002) (28, -8.02357196807861330000e+000) (29, -8.50146579742431640000e+000) (30, -2.15646505355834960000e+000) (31, -9.17127227783203120000e+000) (32, -8.89325809478759770000e+000) (33, -8.14225578308105470000e+000) (34, -9.74052131175994870000e-001) (35, -8.96253299713134770000e+000) (36, -7.62005758285522460000e+000) (37, -8.55886936187744140000e+000) (38, -1.39566838741302490000e+000) (39, -8.87205982208251950000e+000) (40, -8.92635154724121090000e+000) (41, -8.33209705352783200000e+000) (42, -7.17141056060791020000e+000) (43, 3.87339413166046140000e-001) (44, -8.42128658294677730000e+000) (45, -3.69190955162048340000e+000) (46, -2.24237382411956790000e-001) (47, 1.86217129230499270000e-001) (48, 3.77307891845703130000e-001) (49, 3.92271876335144040000e-001) (50, -4.51186084747314450000e+000) (51, -1.41277444362640380000e+000) (52, 7.36675679683685300000e-001) (53, -7.75976610183715820000e+000) (54, -8.79064369201660160000e+000) (55, -5.61248016357421870000e+000) (56, -8.16063594818115230000e+000) (57, 6.59739375114440920000e-002) (58, -6.72200918197631840000e+000) (59, -6.04933381080627440000e-001) (60, -7.61063480377197270000e+000) (61, -8.62483215332031250000e+000) (62, -5.13908338546752930000e+000) (63, -8.82762718200683590000e+000) (64, -8.32841157913208010000e-001) (65, -1.03531110286712650000e+000) (66, -8.88937950134277340000e+000) (67, -8.01417922973632810000e+000) (68, -8.80296325683593750000e+000) (69, -4.88960325717926030000e-001) (70, -3.72479176521301270000e+000) (71, -9.18610954284667970000e+000) (72, -6.46268081665039060000e+000) (73, -9.81910169124603270000e-001) (74, -7.38102483749389650000e+000) (75, -7.65533447265625000000e+000) (76, -4.00319766998291020000e+000) (77, -9.40569305419921870000e+000) (11, -8.60480690002441410000e+000) (12, -6.20941817760467530000e-001) (13, -8.30267429351806640000e+000) (14, -4.44146299362182620000e+000) (15, -5.81891918182373050000e+000) (16, -8.63960933685302730000e+000) (17, -7.90078830718994140000e+000) (18, -8.48667812347412110000e+000) (19, -9.29233646392822270000e+000) (20, -6.90727904438972470000e-002) (21, -2.88964414596557620000e+000) (22, -7.32648801803588870000e+000) (23, 2.85316616296768190000e-001) (24, -9.06227684020996090000e+000) (25, -8.67574310302734370000e+000) (26, -7.04554986953735350000e+000) (27, -3.94344419240951540000e-001) (28, -8.00598430633544920000e+000) (29, -8.82042217254638670000e+000) (30, -2.46450090408325200000e+000) (31, -9.02035236358642580000e+000) (32, -8.66167736053466800000e+000) (33, -8.26066493988037110000e+000) (34, -1.40297162532806400000e+000) (35, -9.25252914428710940000e+000) (36, -7.56185102462768550000e+000) (37, -8.55182743072509770000e+000) (38, -4.40634429454803470000e-001) (39, -8.81976699829101560000e+000) (40, -8.73287105560302730000e+000) (41, -8.18529701232910160000e+000) (42, -7.58986520767211910000e+000) (43, 4.12102073431015010000e-001) (44, -8.12292671203613280000e+000) (45, -4.50369977951049800000e+000) (46, 3.69533926248550420000e-001) (47, -3.80886882543563840000e-001) (48, 7.58967995643615720000e-002) (49, 2.06350997090339660000e-001) (50, -4.38056802749633790000e+000) (51, -5.83782494068145750000e-001) (52, 7.67499506473541260000e-001) (53, -7.52535343170166020000e+000) (54, -9.17113876342773440000e+000) (55, -5.99979209899902340000e+000) (56, -8.49000549316406250000e+000) (57, -5.83454251289367680000e-001) (58, -6.38584375381469730000e+000) (59, 1.05902634561061860000e-001) (60, -8.17704486846923830000e+000) (61, -9.00189208984375000000e+000) (62, -5.32902479171752930000e+000) (63, -8.69371128082275390000e+000) (64, -1.10365998744964600000e+000) (65, -8.19730877876281740000e-001) (66, -8.59359359741210940000e+000) (67, -7.47708749771118160000e+000) (68, -9.15817642211914060000e+000) (69, -3.40060830116271970000e-001) (70, -4.26295375823974610000e+000) (71, -8.83299922943115230000e+000) (72, -6.29396724700927730000e+000) (73, -1.17455077171325680000e+000) (74, -6.87474060058593750000e+000) (75, -7.27688360214233400000e+000) (76, -4.82366132736206050000e+000) (77, -9.04282855987548830000e+000) (11, -8.83192443847656250000e+000) (12, -2.14162898063659670000e+000) (13, -7.37125635147094730000e+000) (14, -4.17529916763305660000e+000) (15, -7.12424564361572270000e+000) (16, -9.51799964904785160000e+000) (17, -6.77897405624389650000e+000) (18, -9.59288406372070310000e+000) (19, -9.79215812683105470000e+000) (20, -5.61780035495758060000e-001) (21, -2.47893643379211430000e+000) (22, -8.42822265625000000000e+000) (23, -2.89882808923721310000e-001) (24, -8.95717048645019530000e+000) (25, -6.99294185638427730000e+000) (26, -6.17603206634521480000e+000) (27, -3.48466157913208010000e-001) (28, -7.58186054229736330000e+000) (29, -9.67113685607910160000e+000) (30, -2.70716857910156250000e+000) (31, -9.03448581695556640000e+000) (32, -9.80124950408935550000e+000) (33, -9.08990383148193360000e+000) (34, -6.68397486209869380000e-001) (35, -9.36036682128906250000e+000) (36, -6.98618888854980470000e+000) (37, -9.68080902099609370000e+000) (38, -2.16342020034790040000e+000) (39, -9.71677398681640620000e+000) (40, -8.29297351837158200000e+000) (41, -6.55648612976074220000e+000) (42, -6.18350219726562500000e+000) (43, -5.97489893436431880000e-001) (44, -7.14565658569335940000e+000) (45, -3.56838726997375490000e+000) (46, -6.66626036167144780000e-001) (47, 2.40019470453262330000e-001) (48, -3.34050357341766360000e-001) (49, -4.99991893768310550000e-001) (50, -4.00074768066406250000e+000) (51, -2.26057744026184080000e+000) (52, 1.36047035455703740000e-001) (53, -8.93994808197021480000e+000) (54, -9.72946643829345700000e+000) (55, -4.19835996627807620000e+000) (56, -7.27529001235961910000e+000) (57, -5.56664347648620610000e-001) (58, -6.78804922103881840000e+000) (59, 3.20952206850051880000e-001) (60, -7.08441400527954100000e+000) (61, -9.43332862854003910000e+000) (62, -4.77913188934326170000e+000) (63, -8.92975616455078130000e+000) (64, -2.58719348907470700000e+000) (65, -1.26949608325958250000e+000) (66, -9.09804534912109370000e+000) (67, -7.11884403228759770000e+000) (68, -9.38428497314453130000e+000) (69, -9.00432467460632320000e-001) (70, -3.95164489746093750000e+000) (71, -8.91226863861083980000e+000) (72, -6.64109182357788090000e+000) (73, -2.41655683517456050000e+000) (74, -6.83127546310424800000e+000) (75, -7.42633056640625000000e+000) (76, -4.32509565353393550000e+000) (77, -9.38875102996826170000e+000) (11, -8.23616886138916020000e+000) (12, -6.43523395061492920000e-001) (13, -8.57269668579101560000e+000) (14, -4.70411825180053710000e+000) (15, -5.56094932556152340000e+000) (16, -8.84009933471679690000e+000) (17, -7.46635627746582030000e+000) (18, -8.93403434753417970000e+000) (19, -8.88002014160156250000e+000) (20, 9.34407562017440800000e-002) (21, -2.94440603256225590000e+000) (22, -7.03287458419799800000e+000) (23, 3.07681590318679810000e-001) (24, -9.04388141632080080000e+000) (25, -8.90968894958496090000e+000) (26, -7.60094547271728520000e+000) (27, -1.43069624900817870000e-001) (28, -8.07485771179199220000e+000) (29, -8.71141624450683590000e+000) (30, -2.70588707923889160000e+000) (31, -8.28065681457519530000e+000) (32, -8.98764801025390620000e+000) (33, -7.90659046173095700000e+000) (34, -6.00437462329864500000e-001) (35, -8.17655849456787110000e+000) (36, -7.74672651290893550000e+000) (37, -8.97134208679199220000e+000) (38, -5.49768865108489990000e-001) (39, -8.46641921997070310000e+000) (40, -9.07335853576660160000e+000) (41, -8.45104885101318360000e+000) (42, -6.91641998291015620000e+000) (43, 1.71049058437347410000e-001) (44, -8.89490985870361330000e+000) (45, -4.63416004180908200000e+000) (46, 3.61818075180053710000e-001) (47, -2.69999057054519650000e-001) (48, -3.21521878242492680000e-001) (49, -1.82013466954231260000e-001) (50, -4.46987438201904300000e+000) (51, -6.11331582069396970000e-001) (52, 2.00859904289245610000e-001) (53, -7.51867914199829100000e+000) (54, -8.95749568939208980000e+000) (55, -5.86546850204467770000e+000) (56, -8.58062362670898440000e+000) (57, 2.56349742412567140000e-001) (58, -6.64278411865234370000e+000) (59, 1.27518700901418920000e-003) (60, -8.43424129486083980000e+000) (61, -8.64876747131347660000e+000) (62, -5.14473056793212890000e+000) (63, -8.74358558654785160000e+000) (64, -1.46993756294250490000e-001) (65, -7.64434158802032470000e-001) (66, -8.93414402008056640000e+000) (67, -7.88854312896728520000e+000) (68, -8.95618247985839840000e+000) (69, 1.33333101868629460000e-001) (70, -3.70141506195068360000e+000) (71, -9.13376522064208980000e+000) (72, -6.60206937789916990000e+000) (73, -1.35917931795120240000e-001) (74, -7.19344711303710940000e+000) (75, -7.53116559982299800000e+000) (76, -3.91764807701110840000e+000) (77, -8.87610626220703120000e+000) (11, -9.95102882385253910000e+000) (12, -4.08238554000854490000e+000) (13, -6.46385478973388670000e+000) (14, -3.62571334838867190000e+000) (15, -9.90455818176269530000e+000) (16, -9.73612213134765620000e+000) (17, -5.34347343444824220000e+000) (18, -9.76633739471435550000e+000) (19, -9.73944282531738280000e+000) (20, -2.58699774742126460000e-001) (21, -2.05158615112304690000e+000) (22, -9.74636936187744140000e+000) (23, -7.49003887176513670000e-002) (24, -1.03377342224121090000e+001) (25, -6.78709411621093750000e+000) (26, -5.26638174057006840000e+000) (27, -6.93418920040130620000e-001) (28, -6.67193222045898440000e+000) (29, -1.03707494735717770000e+001) (30, -1.83872246742248540000e+000) (31, -9.78261566162109370000e+000) (32, -1.02665843963623050000e+001) (33, -9.59744739532470700000e+000) (34, -1.11974954605102540000e+000) (35, -1.05135002136230470000e+001) (36, -5.71283292770385740000e+000) (37, -1.04415550231933590000e+001) (38, -4.19090270996093750000e+000) (39, -9.75400924682617190000e+000) (40, -8.78188323974609370000e+000) (41, -5.93335199356079100000e+000) (42, -5.15126848220825200000e+000) (43, -1.10325254499912260000e-001) (44, -6.07067346572875980000e+000) (45, -2.64202642440795900000e+000) (46, 1.15116899833083150000e-002) (47, -3.92904877662658690000e-001) (48, -4.40674602985382080000e-001) (49, -3.49617749452590940000e-001) (50, -3.57594776153564450000e+000) (51, -4.26680803298950200000e+000) (52, 1.44063845276832580000e-001) (53, -9.70463371276855470000e+000) (54, -1.03804206848144530000e+001) (55, -3.50428962707519530000e+000) (56, -6.16664791107177730000e+000) (57, -1.98669731616973880000e-001) (58, -6.37926292419433590000e+000) (59, 7.02016875147819520000e-002) (60, -5.84943962097167970000e+000) (61, -9.87812805175781250000e+000) (62, -3.99110269546508790000e+000) (63, -1.00398235321044920000e+001) (64, -4.31290388107299800000e+000) (65, -1.76732528209686280000e+000) (66, -1.03032732009887700000e+001) (67, -5.25938940048217770000e+000) (68, -9.68689632415771480000e+000) (69, -2.06150984764099120000e+000) (70, -3.73106598854064940000e+000) (71, -9.76740550994873050000e+000) (72, -5.29371738433837890000e+000) (73, -4.30194139480590820000e+000) (74, -5.59757709503173830000e+000) (75, -8.26173496246337890000e+000) (76, -3.28195524215698240000e+000) (77, -1.00551862716674800000e+001) (11, -8.65037155151367190000e+000) (12, -5.82662165164947510000e-001) (13, -8.62782478332519530000e+000) (14, -4.64461135864257810000e+000) (15, -5.64200496673583980000e+000) (16, -9.30623912811279300000e+000) (17, -7.81528997421264650000e+000) (18, -8.59216403961181640000e+000) (19, -8.64419269561767580000e+000) (20, -2.47455462813377380000e-001) (21, -3.15176081657409670000e+000) (22, -6.92071866989135740000e+000) (23, -1.14436388015747070000e-001) (24, -8.47063350677490230000e+000) (25, -8.02571105957031250000e+000) (26, -6.97404670715332030000e+000) (27, 1.82524785399436950000e-001) (28, -7.80513191223144530000e+000) (29, -8.74426651000976560000e+000) (30, -2.86231017112731930000e+000) (31, -8.60460186004638670000e+000) (32, -8.89735794067382810000e+000) (33, -8.64347362518310550000e+000) (34, -1.29951453208923340000e+000) (35, -8.82756233215332030000e+000) (36, -7.62500238418579100000e+000) (37, -9.05625438690185550000e+000) (38, -6.98099851608276370000e-001) (39, -8.80176544189453130000e+000) (40, -9.31343078613281250000e+000) (41, -8.28752708435058590000e+000) (42, -7.55406188964843750000e+000) (43, -1.07749417424201970000e-001) (44, -8.32831001281738280000e+000) (45, -4.82157564163208010000e+000) (46, -4.23811137676239010000e-001) (47, -8.90197306871414180000e-002) (48, -1.86497390270233150000e-001) (49, 2.81751215457916260000e-001) (50, -3.91855812072753910000e+000) (51, -1.28806328773498540000e+000) (52, 3.16174596548080440000e-001) (53, -7.42309141159057620000e+000) (54, -8.68324470520019530000e+000) (55, -5.80377006530761720000e+000) (56, -8.61624622344970700000e+000) (57, 1.29762336611747740000e-001) (58, -6.37686204910278320000e+000) (59, 1.56923815608024600000e-001) (60, -8.21953392028808590000e+000) (61, -8.62680339813232420000e+000) (62, -5.43083238601684570000e+000) (63, -9.14730834960937500000e+000) (64, -7.34015882015228270000e-001) (65, -1.21054303646087650000e+000) (66, -8.78053474426269530000e+000) (67, -8.07691287994384770000e+000) (68, -8.78751850128173830000e+000) (69, 6.28850460052490230000e-002) (70, -4.52283239364624020000e+000) (71, -8.45135784149169920000e+000) (72, -6.47281503677368160000e+000) (73, -7.27227747440338130000e-001) (74, -7.64282464981079100000e+000) (75, -7.04755353927612300000e+000) (76, -4.61525917053222660000e+000) (77, -9.17360401153564450000e+000) (11, -8.52460765838623050000e+000) (12, -3.34426343441009520000e-001) (13, -8.18602085113525390000e+000) (14, -4.42747545242309570000e+000) (15, -5.71471643447875980000e+000) (16, -8.35544872283935550000e+000) (17, -7.60332822799682620000e+000) (18, -8.68960285186767580000e+000) (19, -8.51246833801269530000e+000) (20, -1.98323309421539310000e-001) (21, -3.06492018699646000000e+000) (22, -7.46834850311279300000e+000) (23, -1.11847057938575740000e-001) (24, -8.81941413879394530000e+000) (25, -8.61368274688720700000e+000) (26, -7.47716188430786130000e+000) (27, 3.39178860187530520000e-001) (28, -7.89086914062500000000e+000) (29, -8.98959445953369140000e+000) (30, -2.83692884445190430000e+000) (31, -9.11727142333984370000e+000) (32, -9.25690650939941410000e+000) (33, -8.30634498596191410000e+000) (34, -7.09095299243927000000e-001) (35, -9.16743087768554690000e+000) (36, -7.70914125442504880000e+000) (37, -9.16032028198242190000e+000) (38, -8.82815361022949220000e-001) (39, -9.01563930511474610000e+000) (40, -8.67917919158935550000e+000) (41, -8.11793804168701170000e+000) (42, -7.50594377517700200000e+000) (43, 4.27131235599517820000e-001) (44, -7.86739540100097660000e+000) (45, -4.58658170700073240000e+000) (46, -1.49203702807426450000e-001) (47, 9.67712253332138060000e-002) (48, -2.93362975120544430000e-001) (49, -3.35318565368652340000e-001) (50, -4.34302520751953130000e+000) (51, -3.42848867177963260000e-001) (52, 3.64439427852630620000e-001) (53, -7.78803730010986330000e+000) (54, -8.82561016082763670000e+000) (55, -5.63345479965209960000e+000) (56, -8.48815631866455080000e+000) (57, 2.20403075218200680000e-003) (58, -6.29839468002319340000e+000) (59, 1.65884166955947880000e-001) (60, -8.07189655303955080000e+000) (61, -9.30508136749267580000e+000) (62, -5.63054180145263670000e+000) (63, -8.78303337097167970000e+000) (64, -5.21107256412506100000e-001) (65, -1.00144469738006590000e+000) (66, -9.14391040802001950000e+000) (67, -8.04987144470214840000e+000) (68, -8.31559371948242190000e+000) (69, -4.69949275255203250000e-001) (70, -4.14496517181396480000e+000) (71, -8.99252891540527340000e+000) (72, -6.34669733047485350000e+000) (73, -1.10265433788299560000e+000) (74, -6.73745918273925780000e+000) (75, -7.59055185317993160000e+000) (76, -4.33612298965454100000e+000) (77, -8.71274757385253910000e+000) (11, -9.03825473785400390000e+000) (12, -8.61470580101013180000e-001) (13, -8.39643573760986330000e+000) (14, -3.97222661972045900000e+000) (15, -6.05088996887207030000e+000) (16, -8.97249507904052730000e+000) (17, -7.76924848556518550000e+000) (18, -8.38408946990966800000e+000) (19, -8.77620601654052730000e+000) (20, 5.83849959075450900000e-002) (21, -3.55241608619689940000e+000) (22, -7.03220129013061520000e+000) (23, 2.99253761768341060000e-001) (24, -8.62898445129394530000e+000) (25, -8.29640293121337890000e+000) (26, -7.65534973144531250000e+000) (27, 1.65131986141204830000e-001) (28, -8.54435157775878910000e+000) (29, -8.69985771179199220000e+000) (30, -2.69970393180847170000e+000) (31, -8.44265270233154300000e+000) (32, -9.16160964965820310000e+000) (33, -7.87852191925048830000e+000) (34, -1.27518320083618160000e+000) (35, -9.12611675262451170000e+000) (36, -7.56390714645385740000e+000) (37, -9.30436897277832030000e+000) (38, -9.68854963779449460000e-001) (39, -8.44658470153808590000e+000) (40, -8.54364299774169920000e+000) (41, -8.39257526397705080000e+000) (42, -6.92661523818969730000e+000) (43, -1.91196143627166750000e-001) (44, -8.59352302551269530000e+000) (45, -4.65461874008178710000e+000) (46, 3.22835683822631840000e-001) (47, -1.34004354476928710000e-001) (48, -3.18095535039901730000e-001) (49, -1.19230903685092930000e-001) (50, -4.35529184341430660000e+000) (51, -2.18555480241775510000e-001) (52, 6.96174561977386470000e-001) (53, -7.45603370666503910000e+000) (54, -9.17651367187500000000e+000) (55, -6.11185312271118160000e+000) (56, -8.26090908050537110000e+000) (57, -4.78808015584945680000e-001) (58, -6.73315858840942380000e+000) (59, -2.44487151503562930000e-001) (60, -8.37133598327636720000e+000) (61, -8.12229347229003910000e+000) (62, -5.33789062500000000000e+000) (63, -8.62906837463378910000e+000) (64, -8.23771297931671140000e-001) (65, -1.18863308429718020000e+000) (66, -8.89698886871337890000e+000) (67, -8.18355941772460940000e+000) (68, -8.53310585021972660000e+000) (69, -2.10499390959739690000e-001) (70, -4.46735715866088870000e+000) (71, -8.98996448516845700000e+000) (72, -7.04568290710449220000e+000) (73, 6.12616830039769410000e-004) (74, -7.10886287689208980000e+000) (75, -7.61391592025756840000e+000) (76, -4.12794351577758790000e+000) (77, -8.66497135162353520000e+000) (11, -8.37514781951904300000e+000) (12, -9.51346993446350100000e-001) (13, -8.72379875183105470000e+000) (14, -4.21491527557373050000e+000) (15, -6.22268772125244140000e+000) (16, -8.93160533905029300000e+000) (17, -7.66668272018432620000e+000) (18, -8.68528652191162110000e+000) (19, -8.46603298187255860000e+000) (20, -2.01130751520395280000e-003) (21, -3.26159477233886720000e+000) (22, -6.47014617919921880000e+000) (23, 3.59465420246124270000e-001) (24, -8.50155735015869140000e+000) (25, -8.42150306701660160000e+000) (26, -7.52415275573730470000e+000) (27, -5.31038820743560790000e-001) (28, -8.09422302246093750000e+000) (29, -8.98342895507812500000e+000) (30, -2.18616199493408200000e+000) (31, -9.11900138854980470000e+000) (32, -8.73003387451171870000e+000) (33, -8.07389831542968750000e+000) (34, -1.35204768180847170000e+000) (35, -8.68569087982177730000e+000) (36, -7.80216169357299800000e+000) (37, -8.80983734130859370000e+000) (38, -3.16460520029067990000e-001) (39, -8.96481227874755860000e+000) (40, -8.96900653839111330000e+000) (41, -8.35906791687011720000e+000) (42, -7.29269170761108400000e+000) (43, 3.51825237274169920000e-001) (44, -8.61687088012695310000e+000) (45, -4.64609956741333010000e+000) (46, -7.58943915367126460000e-001) (47, -2.56828833371400830000e-002) (48, -3.69618326425552370000e-001) (49, 1.30881860852241520000e-001) (50, -4.05740594863891600000e+000) (51, -3.81627976894378660000e-001) (52, 3.45883548259735110000e-001) (53, -7.17867326736450200000e+000) (54, -9.10056209564208980000e+000) (55, -5.89764165878295900000e+000) (56, -8.24215507507324220000e+000) (57, -4.93190228939056400000e-001) (58, -6.33328199386596680000e+000) (59, 1.74338445067405700000e-001) (60, -8.47593307495117190000e+000) (61, -8.97109031677246090000e+000) (62, -6.36353158950805660000e+000) (63, -8.78427028656005860000e+000) (64, -6.70014142990112300000e-001) (65, -7.58006095886230470000e-001) (66, -8.88621520996093750000e+000) (67, -8.41758155822753910000e+000) (68, -9.10570049285888670000e+000) (69, -3.86963725090026860000e-001) (70, -4.43835115432739260000e+000) (71, -8.46874332427978520000e+000) (72, -6.33587694168090820000e+000) (73, -1.16497957706451420000e+000) (74, -6.94766044616699220000e+000) (75, -7.40188980102539060000e+000) (76, -4.31944513320922850000e+000) (77, -9.05480670928955080000e+000) (11, -9.02686691284179690000e+000) (12, -1.56615054607391360000e+000) (13, -8.06544876098632810000e+000) (14, -4.42737579345703130000e+000) (15, -5.98338031768798830000e+000) (16, -9.29839992523193360000e+000) (17, -7.24240589141845700000e+000) (18, -9.40972518920898440000e+000) (19, -8.79808616638183590000e+000) (20, -5.50528645515441890000e-001) (21, -3.74650454521179200000e+000) (22, -8.24438571929931640000e+000) (23, 4.62163984775543210000e-001) (24, -8.81764888763427730000e+000) (25, -7.58883428573608400000e+000) (26, -7.06140661239624020000e+000) (27, 4.62321668863296510000e-001) (28, -7.65107393264770510000e+000) (29, -8.75541877746582030000e+000) (30, -2.27923178672790530000e+000) (31, -9.36891937255859370000e+000) (32, -8.68580627441406250000e+000) (33, -9.05316638946533200000e+000) (34, -5.94973146915435790000e-001) (35, -9.38181591033935550000e+000) (36, -7.43593692779541020000e+000) (37, -8.78253173828125000000e+000) (38, -1.85748183727264400000e+000) (39, -9.31102085113525390000e+000) (40, -8.87898349761962890000e+000) (41, -8.00175762176513670000e+000) (42, -7.50662136077880860000e+000) (43, -1.20638288557529450000e-001) (44, -7.42082595825195310000e+000) (45, -3.81686258316040040000e+000) (46, 1.49886041879653930000e-001) (47, -7.60398209095001220000e-002) (48, 1.16101019084453580000e-001) (49, -3.75111550092697140000e-001) (50, -3.52755331993103030000e+000) (51, -1.67905008792877200000e+000) (52, 3.24003875255584720000e-001) (53, -8.43012332916259770000e+000) (54, -9.08704566955566410000e+000) (55, -5.10502719879150390000e+000) (56, -7.68011713027954100000e+000) (57, 2.03151464462280270000e-001) (58, -6.94530010223388670000e+000) (59, -5.55469244718551640000e-002) (60, -7.83806943893432620000e+000) (61, -8.89468288421630860000e+000) (62, -5.01789093017578130000e+000) (63, -9.10002136230468750000e+000) (64, -9.92261826992034910000e-001) (65, -1.36125361919403080000e+000) (66, -8.63616847991943360000e+000) (67, -7.23220157623291020000e+000) (68, -9.20505332946777340000e+000) (69, -1.00701466202735900000e-001) (70, -4.27036714553833010000e+000) (71, -8.60834217071533200000e+000) (72, -6.32675600051879880000e+000) (73, -1.35298442840576170000e+000) (74, -6.78636121749877930000e+000) (75, -7.22481727600097660000e+000) (76, -4.48532581329345700000e+000) (77, -9.38119983673095700000e+000) (11, -9.01560497283935550000e+000) (12, -5.66877663135528560000e-001) (13, -9.27334976196289060000e+000) (14, -4.79677629470825200000e+000) (15, -6.13658285140991210000e+000) (16, -8.81995964050292970000e+000) (17, -7.03661441802978520000e+000) (18, -8.46735858917236330000e+000) (19, -8.59817409515380860000e+000) (20, -2.05856025218963620000e-001) (21, -2.98386883735656740000e+000) (22, -7.16562557220458980000e+000) (23, 5.25683462619781490000e-001) (24, -9.20218086242675780000e+000) (25, -8.30510520935058590000e+000) (26, -8.03928184509277340000e+000) (27, -1.65080952644348140000e+000) (28, -8.60304450988769530000e+000) (29, -8.92411994934082030000e+000) (30, -3.08810806274414060000e+000) (31, -8.48480033874511720000e+000) (32, -9.27518844604492190000e+000) (33, -7.84018993377685550000e+000) (34, -7.48119175434112550000e-001) (35, -9.17625713348388670000e+000) (36, -6.85664987564086910000e+000) (37, -8.93248176574707030000e+000) (38, -5.82739174365997310000e-001) (39, -8.86792373657226560000e+000) (40, -9.54424285888671870000e+000) (41, -8.55795574188232420000e+000) (42, -7.33302831649780270000e+000) (43, 3.35875451564788820000e-001) (44, -8.42426300048828120000e+000) (45, -4.19224548339843750000e+000) (46, -7.18560516834259030000e-002) (47, -1.13277204334735870000e-001) (48, 6.17821753025054930000e-001) (49, -6.63501247763633730000e-002) (50, -4.38110923767089840000e+000) (51, -2.14039862155914310000e-001) (52, 6.18412733078002930000e-001) (53, -8.49016952514648440000e+000) (54, -8.48473930358886720000e+000) (55, -6.20373058319091800000e+000) (56, -8.90891265869140620000e+000) (57, -3.40048074722290040000e-001) (58, -6.10665369033813480000e+000) (59, -1.54389709234237670000e-001) (60, -7.23314952850341800000e+000) (61, -7.89494037628173830000e+000) (62, -5.38544750213623050000e+000) (63, -9.30543518066406250000e+000) (64, 2.28231772780418400000e-001) (65, -7.43666172027587890000e-001) (66, -9.02432441711425780000e+000) (67, -7.63268709182739260000e+000) (68, -7.63114070892333980000e+000) (69, -1.55493199825286870000e-001) (70, -3.77749276161193850000e+000) (71, -9.25453758239746090000e+000) (72, -6.15357398986816410000e+000) (73, -5.26162266731262210000e-001) (74, -7.26765966415405270000e+000) (75, -6.82984876632690430000e+000) (76, -3.99252700805664060000e+000) (77, -8.88071060180664060000e+000) (11, -8.77881813049316410000e+000) (12, -2.98566490411758420000e-001) (13, -8.82661914825439450000e+000) (14, -4.19985008239746090000e+000) (15, -5.29821157455444340000e+000) (16, -8.88635826110839840000e+000) (17, -7.43946504592895510000e+000) (18, -8.42811489105224610000e+000) (19, -8.98031902313232420000e+000) (20, 4.60877269506454470000e-002) (21, -3.79106521606445310000e+000) (22, -7.05628967285156250000e+000) (23, -2.15461775660514830000e-001) (24, -9.20862197875976560000e+000) (25, -8.70598411560058590000e+000) (26, -7.24147367477416990000e+000) (27, -5.18681168556213380000e-001) (28, -7.92932987213134770000e+000) (29, -8.78536796569824220000e+000) (30, -3.01765537261962890000e+000) (31, -9.29908180236816410000e+000) (32, -8.56495571136474610000e+000) (33, -7.71433162689208980000e+000) (34, -1.11842775344848630000e+000) (35, -9.09767246246337890000e+000) (36, -8.13154697418212890000e+000) (37, -8.99827766418457030000e+000) (38, -3.00972789525985720000e-001) (39, -9.20383644104003910000e+000) (40, -8.57771968841552730000e+000) (41, -8.05449199676513670000e+000) (42, -7.11637353897094730000e+000) (43, -1.13269291818141940000e-001) (44, -8.72139263153076170000e+000) (45, -4.08545780181884770000e+000) (46, -4.89238882437348370000e-003) (47, 1.20199754834175110000e-001) (48, 4.91599738597869870000e-001) (49, -3.36195379495620730000e-001) (50, -3.97932934761047360000e+000) (51, -4.39234852790832520000e-001) (52, -1.72420755028724670000e-001) (53, -7.62121105194091800000e+000) (54, -9.15256881713867190000e+000) (55, -5.44261074066162110000e+000) (56, -8.35664844512939450000e+000) (57, 1.27177566289901730000e-001) (58, -6.45032310485839840000e+000) (59, 3.49338874220848080000e-002) (60, -8.43621063232421870000e+000) (61, -8.39976978302001950000e+000) (62, -5.57223606109619140000e+000) (63, -8.97247982025146480000e+000) (64, 