FANN_FLO_2.1
num_layers=4
learning_rate=0.700000
connection_rate=1.000000
network_type=0
learning_momentum=0.000000
training_algorithm=1
train_error_function=1
train_stop_function=0
cascade_output_change_fraction=0.010000
quickprop_decay=-0.000100
quickprop_mu=1.750000
rprop_increase_factor=1.200000
rprop_decrease_factor=0.500000
rprop_delta_min=0.000000
rprop_delta_max=50.000000
rprop_delta_zero=0.100000
cascade_output_stagnation_epochs=12
cascade_candidate_change_fraction=0.010000
cascade_candidate_stagnation_epochs=12
cascade_max_out_epochs=150
cascade_max_cand_epochs=150
cascade_num_candidate_groups=2
bit_fail_limit=3.49999994039535520000e-001
cascade_candidate_limit=1.00000000000000000000e+003
cascade_weight_multiplier=4.00000005960464480000e-001
cascade_activation_functions_count=10
cascade_activation_functions=3 5 7 8 10 11 14 15 16 17 
cascade_activation_steepnesses_count=4
cascade_activation_steepnesses=2.50000000000000000000e-001 5.00000000000000000000e-001 7.50000000000000000000e-001 1.00000000000000000000e+000 
layer_sizes=11 34 16 3 
scale_included=0
neurons (num_inputs, activation_function, activation_steepness)=(0, 0, 0.00000000000000000000e+000) (0, 0, 0.00000000000000000000e+000) (0, 0, 0.00000000000000000000e+000) (0, 0, 0.00000000000000000000e+000) (0, 0, 0.00000000000000000000e+000) (0, 0, 0.00000000000000000000e+000) (0, 0, 0.00000000000000000000e+000) (0, 0, 0.00000000000000000000e+000) (0, 0, 0.00000000000000000000e+000) (0, 0, 0.00000000000000000000e+000) (0, 0, 0.00000000000000000000e+000) (11, 10, 5.00000000000000000000e-001) (11, 10, 5.00000000000000000000e-001) (11, 10, 5.00000000000000000000e-001) (11, 10, 5.00000000000000000000e-001) (11, 10, 5.00000000000000000000e-001) (11, 10, 5.00000000000000000000e-001) (11, 10, 5.00000000000000000000e-001) (11, 10, 5.00000000000000000000e-001) (11, 10, 5.00000000000000000000e-001) (11, 10, 5.00000000000000000000e-001) (11, 10, 5.00000000000000000000e-001) (11, 10, 5.00000000000000000000e-001) (11, 10, 5.00000000000000000000e-001) (11, 10, 5.00000000000000000000e-001) (11, 10, 5.00000000000000000000e-001) (11, 10, 5.00000000000000000000e-001) (11, 10, 5.00000000000000000000e-001) (11, 10, 5.00000000000000000000e-001) (11, 10, 5.00000000000000000000e-001) (11, 10, 5.00000000000000000000e-001) (11, 10, 5.00000000000000000000e-001) (11, 10, 5.00000000000000000000e-001) (11, 10, 5.00000000000000000000e-001) (11, 10, 5.00000000000000000000e-001) (11, 10, 5.00000000000000000000e-001) (11, 10, 5.00000000000000000000e-001) (11, 10, 5.00000000000000000000e-001) (11, 10, 5.00000000000000000000e-001) (11, 10, 5.00000000000000000000e-001) (11, 10, 5.00000000000000000000e-001) (11, 10, 5.00000000000000000000e-001) (11, 10, 5.00000000000000000000e-001) (11, 10, 5.00000000000000000000e-001) (0, 10, 5.00000000000000000000e-001) (34, 10, 5.00000000000000000000e-001) (34, 10, 5.00000000000000000000e-001) (34, 10, 5.00000000000000000000e-001) (34, 10, 5.00000000000000000000e-001) (34, 10, 5.00000000000000000000e-001) (34, 10, 5.00000000000000000000e-001) (34, 10, 5.00000000000000000000e-001) (34, 10, 5.00000000000000000000e-001) (34, 10, 5.00000000000000000000e-001) (34, 10, 5.00000000000000000000e-001) (34, 10, 5.00000000000000000000e-001) (34, 10, 5.00000000000000000000e-001) (34, 10, 5.00000000000000000000e-001) (34, 10, 5.00000000000000000000e-001) (34, 10, 5.00000000000000000000e-001) (0, 10, 5.00000000000000000000e-001) (16, 0, 5.00000000000000000000e-001) (16, 0, 5.00000000000000000000e-001) (0, 0, 5.00000000000000000000e-001) 
connections (connected_to_neuron, weight)=(0, -4.38093602657318120000e-001) (1, -4.50824409723281860000e-001) (2, -2.90914505720138550000e-001) (3, -4.24803227186203000000e-001) (4, -8.12860012054443360000e-001) (5, -1.01767337322235110000e+000) (6, -3.76441895961761470000e-001) (7, -1.06245584785938260000e-001) (8, -3.22410792112350460000e-001) (9, -8.04021120071411130000e-001) (10, -2.33213216066360470000e-001) (0, -2.56721138954162600000e-001) (1, 1.11082214862108230000e-002) (2, -1.89122363924980160000e-001) (3, 4.38870310783386230000e-001) (4, -6.11416757106781010000e-001) (5, -5.98150631412863730000e-003) (6, -6.78918600082397460000e-001) (7, 4.58962380886077880000e-001) (8, -1.04847270995378490000e-002) (9, -7.06382453441619870000e-001) (10, 1.38802722096443180000e-001) (0, 1.10184296965599060000e-001) (1, 3.94266128540039060000e+000) (2, 7.21898555755615230000e-001) (3, 1.31550586223602290000e+000) (4, 2.50908255577087400000e+000) (5, 7.35142660140991210000e+000) (6, 1.33901941776275630000e+000) (7, -1.04468189179897310000e-001) (8, -9.30776309967041020000e+000) (9, 1.10005557537078860000e-001) (10, -1.20856665074825290000e-001) (0, -3.75160753726959230000e-001) (1, 1.32803928852081300000e+000) (2, 3.42318415641784670000e-001) (3, 5.09424805641174320000e-001) (4, 1.43939286470413210000e-001) (5, 1.08583498001098630000e+000) (6, 7.01468527317047120000e-001) (7, 1.82631760835647580000e-001) (8, 1.62316834926605220000e+000) (9, 7.84375309944152830000e-001) (10, -3.79008412361145020000e-001) (0, -9.10702720284461980000e-003) (1, 1.02939271926879880000e+000) (2, 5.18210053443908690000e-001) (3, 2.33290866017341610000e-001) (4, 4.42486226558685300000e-001) (5, 1.40772175788879390000e+000) (6, 1.49517619609832760000e+000) (7, -5.54393887519836430000e-001) (8, 1.85083961486816410000e+000) (9, 8.30039560794830320000e-001) (10, 2.46348485350608830000e-001) (0, 1.96183621883392330000e-001) (1, 1.24648654460906980000e+000) (2, 1.66596636176109310000e-001) (3, 6.96702122688293460000e-001) (4, 6.66341960430145260000e-001) (5, 8.16599071025848390000e-001) (6, 7.83286035060882570000e-001) (7, -1.23942807316780090000e-001) (8, 2.21830272674560550000e+000) (9, 7.79031634330749510000e-001) (10, -3.40408235788345340000e-001) (0, 1.60623908042907710000e-001) (1, 7.91232049465179440000e-001) (2, 6.32123589515686040000e-001) (3, 5.25467574596405030000e-001) (4, 6.04106523096561430000e-002) (5, 1.08799254894256590000e+000) (6, 9.90218698978424070000e-001) (7, -1.27247825264930730000e-001) (8, 1.93499839305877690000e+000) (9, 4.59034651517868040000e-001) (10, 4.22795593738555910000e-001) (0, 1.65170162916183470000e-001) (1, 7.10078954696655270000e-001) (2, 2.58231312036514280000e-002) (3, 1.59541577100753780000e-001) (4, -2.32320819050073620000e-002) (5, 8.11418890953063960000e-001) (6, 1.31404781341552730000e+000) (7, 5.48778593540191650000e-001) (8, 1.97014975547790530000e+000) (9, 9.30857002735137940000e-001) (10, -4.83608186244964600000e-001) (0, -4.65269297361373900000e-001) (1, -1.26941311359405520000e+000) (2, -3.28945338726043700000e-001) (3, -3.43636512756347660000e-001) (4, -1.15887188911437990000e+000) (5, -2.09640431404113770000e+000) (6, -1.47964608669281010000e+000) (7, 1.22076898813247680000e-001) (8, 1.57039333134889600000e-002) (9, -1.91286802291870120000e+000) (10, -3.59323740005493160000e-001) (0, 2.72086858749389650000e-001) (1, 1.02926850318908690000e+000) (2, 1.05843031406402590000e+000) (3, -8.60226228833198550000e-002) (4, 1.15215575695037840000e+000) (5, 1.48836481571197510000e+000) (6, 1.94381129741668700000e+000) (7, 1.16808913648128510000e-001) (8, 2.46997499465942380000e+000) (9, 1.96939468383789060000e+000) (10, -3.72891008853912350000e-001) (0, 4.00078743696212770000e-001) (1, 1.07531881332397460000e+000) (2, -9.00088697671890260000e-002) (3, 1.23941808938980100000e-001) (4, 6.66802048683166500000e-001) (5, 1.52563965320587160000e+000) (6, 5.39268910884857180000e-001) (7, 1.19630956649780270000e+000) (8, 3.29230380058288570000e+000) (9, 2.19336009025573730000e+000) (10, 4.65710051357746120000e-002) (0, -6.24533444643020630000e-002) (1, -5.73266792297363280000e+000) (2, 4.75282549858093260000e-001) (3, 9.01655703783035280000e-002) (4, -2.27374148368835450000e+000) (5, -5.65848588943481450000e+000) (6, -5.09245634078979490000e+000) (7, 4.86928015947341920000e-001) (8, -5.73055922985076900000e-001) (9, -5.56911420822143550000e+000) (10, -5.14700591564178470000e-001) (0, 1.08558453619480130000e-001) (1, 1.00011801719665530000e+000) (2, 3.00121039152145390000e-001) (3, 3.01880627870559690000e-001) (4, 7.62923121452331540000e-001) (5, 9.68370378017425540000e-001) (6, 3.93446266651153560000e-001) (7, 3.28807204961776730000e-001) (8, 1.72229003906250000000e+000) (9, 1.12558174133300780000e+000) (10, 2.61485129594802860000e-001) (0, -1.15234283730387690000e-002) (1, -1.54443740844726560000e+000) (2, -5.27837634086608890000e-001) (3, 4.80042695999145510000e-001) (4, 1.69848889112472530000e-001) (5, 3.87648987770080570000e+000) (6, -1.60899984836578370000e+000) (7, -7.32665836811065670000e-001) (8, 4.59955263137817380000e+000) (9, -9.62973892688751220000e-001) (10, -6.13932870328426360000e-002) (0, 2.63571083545684810000e-001) (1, 6.99113011360168460000e-001) (2, 4.37620550394058230000e-001) (3, 7.92058706283569340000e-001) (4, 1.48989811539649960000e-001) (5, 8.00360500812530520000e-001) (6, 6.17221593856811520000e-001) (7, 3.90937387943267820000e-001) (8, 1.52369153499603270000e+000) (9, 7.46555566787719730000e-001) (10, -2.03860968351364140000e-001) (0, -1.54007300734519960000e-001) (1, 1.01296796798706050000e+001) (2, 1.00944490432739260000e+001) (3, 6.93460285663604740000e-001) (4, 4.91082239151000980000e+000) (5, 9.84041595458984370000e+000) (6, 4.86693286895751950000e+000) (7, 5.88008344173431400000e-001) (8, 2.74966764450073240000e+000) (9, 1.70827019214630130000e+000) (10, -1.63869678974151610000e-001) (0, -1.93763643503189090000e-001) (1, -1.05971455574035640000e+000) (2, -9.34560671448707580000e-002) (3, 2.73288309574127200000e-001) (4, -7.12475776672363280000e-001) (5, -4.03178066015243530000e-001) (6, -2.12648108601570130000e-001) (7, 2.35117211937904360000e-001) (8, -3.89069169759750370000e-002) (9, -1.07896101474761960000e+000) (10, -4.41003710031509400000e-001) (0, 2.30633169412612920000e-002) (1, 1.00381541252136230000e+000) (2, 3.19598913192749020000e-001) (3, -1.14649780094623570000e-001) (4, 1.67325884103775020000e-001) (5, 7.18716204166412350000e-001) (6, 1.46200811862945560000e+000) (7, 1.36608213186264040000e-001) (8, 1.99334132671356200000e+000) (9, 6.51350200176239010000e-001) (10, -4.29737836122512820000e-001) (0, -4.07620251178741460000e-001) (1, 1.43480300903320310000e+000) (2, 6.59426808357238770000e-001) (3, 4.86041456460952760000e-001) (4, 6.95552408695220950000e-001) (5, 6.73588573932647710000e-001) (6, 7.57345855236053470000e-001) (7, -4.33786481618881230000e-001) (8, 2.10963726043701170000e+000) (9, 1.13840079307556150000e+000) (10, -1.43942564725875850000e-001) (0, -8.96647125482559200000e-002) (1, 1.53924381732940670000e+000) (2, 3.98649334907531740000e-001) (3, 3.34381759166717530000e-001) (4, 5.50636112689971920000e-001) (5, 1.43074774742126460000e+000) (6, 1.42986392974853520000e+000) (7, -8.48622560501098630000e-001) (8, 2.03241944313049320000e+000) (9, 1.38868081569671630000e+000) (10, 2.37070962786674500000e-001) (0, -2.62676268815994260000e-001) (1, 1.54207134246826170000e+001) (2, -2.71384060382843020000e-001) (3, 2.25328505039215090000e-001) (4, 7.63671207427978520000e+000) (5, 1.55064973831176760000e+001) (6, 1.47787637710571290000e+001) (7, 2.35187038779258730000e-001) (8, 3.75348806381225590000e+000) (9, 1.47946786880493160000e+001) (10, 1.09625987708568570000e-001) (0, -3.68170022964477540000e-001) (1, -1.49731004238128660000e+000) (2, -1.61149799823760990000e+000) (3, 4.38860952854156490000e-001) (4, -4.67664718627929690000e-001) (5, -1.80581378936767580000e+000) (6, -8.31958293914794920000e-001) (7, 7.69895315170288090000e-002) (8, -4.41356562077999110000e-002) (9, -3.89037042856216430000e-001) (10, -1.86023518443107600000e-001) (0, -5.42743243277072910000e-002) (1, 1.05090105533599850000e+000) (2, -8.44586491584777830000e-002) (3, -4.56234021112322810000e-003) (4, 2.70026386715471740000e-003) (5, 7.32051610946655270000e-001) (6, 1.41753268241882320000e+000) (7, 1.62384480237960820000e-001) (8, 2.01188230514526370000e+000) (9, 6.38262152671813960000e-001) (10, 2.46477365493774410000e-001) (0, -3.37104707956314090000e-001) (1, -8.01698565483093260000e-001) (2, 3.64582449197769170000e-001) (3, 3.46439331769943240000e-001) (4, -5.90612173080444340000e-001) (5, -6.06740176677703860000e-001) (6, 6.24134317040443420000e-002) (7, -5.18027180805802350000e-003) (8, -9.14529636502265930000e-002) (9, -2.80469536781311040000e-001) (10, -3.43313157558441160000e-001) (0, -4.18352246284484860000e-001) (1, -1.82146835327148440000e+000) (2, -3.96578639745712280000e-001) (3, -5.58357417583465580000e-001) (4, -7.90298163890838620000e-001) (5, 1.64328730106353760000e+000) (6, -3.73044997453689580000e-001) (7, -1.75052702426910400000e+000) (8, -1.65490861982107160000e-002) (9, -3.81852686405181880000e-001) (10, -5.18161570653319360000e-003) (0, -2.20441401004791260000e-001) (1, -4.91973066329956050000e+000) (2, -1.38808175921440120000e-001) (3, -4.71812397241592410000e-001) (4, -2.62829637527465820000e+000) (5, -4.42940759658813480000e+000) (6, -5.08258867263793950000e+000) (7, -3.97767096757888790000e-001) (8, -9.27353024482727050000e-001) (9, -4.40668535232543950000e+000) (10, 1.27087589353322980000e-002) (0, 2.22763910889625550000e-001) (1, -2.32677519321441650000e-001) (2, 3.50977331399917600000e-001) (3, -1.54879689216613770000e-002) (4, -3.89370232820510860000e-001) (5, -6.05833865702152250000e-002) (6, -4.89712387323379520000e-001) (7, -3.27441334724426270000e-001) (8, -3.22543270885944370000e-002) (9, -8.22278499603271480000e-001) (10, 1.93667203187942500000e-001) (0, 4.45327162742614750000e-001) (1, 9.18953001499176030000e-001) (2, -8.74017775058746340000e-002) (3, 3.37215989828109740000e-001) (4, 5.39328873157501220000e-001) (5, 1.24984562397003170000e+000) (6, 1.02698934078216550000e+000) (7, -3.98077458143234250000e-001) (8, 1.84868025779724120000e+000) (9, 1.16875863075256350000e+000) (10, 8.61879624426364900000e-003) (0, -1.33290991187095640000e-001) (1, 2.71466970443725590000e+000) (2, 4.96843636035919190000e-001) (3, 2.98158556222915650000e-001) (4, 1.25364136695861820000e+000) (5, 2.33972692489624020000e+000) (6, 2.14915394783020020000e+000) (7, -2.00549244880676270000e-001) (8, 2.09641385078430180000e+000) (9, 2.31727647781372070000e+000) (10, -4.14936035871505740000e-001) (0, -5.40429711341857910000e-001) (1, -2.09678459167480470000e+001) (2, 2.84716188907623290000e-001) (3, -5.76467096805572510000e-001) (4, -1.06328077316284180000e+001) (5, -2.10507164001464840000e+001) (6, -2.10893516540527340000e+001) (7, -3.83016347885131840000e-001) (8, -3.11568737030029300000e+000) (9, -2.12901268005371090000e+001) (10, -5.00495195388793950000e-001) (0, -2.02579826116561890000e-001) (1, 1.19354534149169920000e+000) (2, 6.89948260784149170000e-001) (3, 6.79523348808288570000e-002) (4, -1.74786403775215150000e-001) (5, 9.35849487781524660000e-001) (6, 8.03748071193695070000e-001) (7, 1.08090735971927640000e-001) (8, 2.11228609085083010000e+000) (9, 1.05496227741241460000e+000) (10, -2.46673181653022770000e-001) (0, -1.22595049440860750000e-001) (1, 8.23253691196441650000e-001) (2, 3.58702450990676880000e-001) (3, 6.49479627609252930000e-001) (4, 5.72317004203796390000e-001) (5, 1.71516227722167970000e+000) (6, 1.07868576049804690000e+000) (7, -1.06267178058624270000e+000) (8, 1.58754920959472660000e+000) (9, 7.90435016155242920000e-001) (10, -2.15498208999633790000e-001) (0, 3.66812586784362790000e-001) (1, 1.39171588420867920000e+000) (2, -3.69747877120971680000e-001) (3, -1.76960572600364690000e-001) (4, 7.64625966548919680000e-001) (5, 1.22504472732543950000e+000) (6, 1.86173546314239500000e+000) (7, -1.49458304047584530000e-001) (8, 2.07427358627319340000e+000) (9, 9.81947660446166990000e-001) (10, 3.45595419406890870000e-001) (11, -9.83560025691986080000e-001) (12, 2.25787103176116940000e-001) (13, -6.91222620010375980000e+000) (14, -1.24003295898437500000e+001) (15, -8.85247516632080080000e+000) (16, -1.25033435821533200000e+001) (17, -1.15752420425415040000e+001) (18, -9.52661132812500000000e+000) (19, -4.68944549560546880000e-001) (20, -1.21930265426635740000e+001) (21, -1.19030961990356450000e+001) (22, 9.03783068060874940000e-002) (23, -1.13532352447509770000e+001) (24, -8.68543910980224610000e+000) (25, -1.02455158233642580000e+001) (26, -1.22027997970581050000e+001) (27, -1.14554330706596370000e-001) (28, -1.21802701950073240000e+001) (29, -1.22452440261840820000e+001) (30, -1.25696220397949220000e+001) (31, -1.22279214859008790000e+001) (32, -6.97542190551757810000e-001) (33, -1.22407674789428710000e+001) (34, 2.48478073626756670000e-002) (35, -1.09419507980346680000e+001) (36, 3.43531072139739990000e-001) (37, -2.10404857993125920000e-001) (38, -1.26215972900390620000e+001) (39, -1.27363080978393550000e+001) (40, -3.75267326831817630000e-001) (41, -1.25944881439208980000e+001) (42, -8.73264312744140620000e+000) (43, -1.25068597793579100000e+001) (44, -1.22489986419677730000e+001) (11, -2.81788110733032230000e-001) (12, 9.40085053443908690000e-001) (13, -7.03528404235839840000e+000) (14, -1.30098009109497070000e+001) (15, -9.24849414825439450000e+000) (16, -1.25110301971435550000e+001) (17, -1.25674467086791990000e+001) (18, -9.14731311798095700000e+000) (19, 2.53777265548706050000e-001) (20, -1.31050615310668950000e+001) (21, -1.24406833648681640000e+001) (22, 4.01763856410980220000e-001) (23, -1.11298179626464840000e+001) (24, -7.63648414611816410000e+000) (25, -1.01047163009643550000e+001) (26, -1.24472036361694340000e+001) (27, -1.64029955863952640000e-001) (28, -1.11676454544067380000e+001) (29, -1.24961767196655270000e+001) (30, -1.21429891586303710000e+001) (31, -1.24117145538330080000e+001) (32, -5.06756789982318880000e-002) (33, -1.23261241912841800000e+001) (34, 3.85315328836441040000e-001) (35, -1.12157087326049800000e+001) (36, 3.70291203260421750000e-001) (37, 5.38539707660675050000e-001) (38, -1.22198886871337890000e+001) (39, -1.21458892822265620000e+001) (40, 2.85880059003829960000e-001) (41, -1.26927185058593750000e+001) (42, -8.25612640380859380000e+000) (43, -1.26866559982299800000e+001) (44, -1.23479614257812500000e+001) (11, -1.35379004478454590000e+000) (12, -4.73853535950183870000e-002) (13, -7.21334028244018550000e+000) (14, -1.12446737289428710000e+001) (15, -8.69069576263427730000e+000) (16, -1.29297504425048830000e+001) (17, -1.16377296447753910000e+001) (18, -9.31151580810546870000e+000) (19, -3.82774434983730320000e-002) (20, -1.32607259750366210000e+001) (21, -1.15669202804565430000e+001) (22, -1.47661852836608890000e+000) (23, -1.06456079483032230000e+001) (24, -1.00473651885986330000e+001) (25, -1.04970655441284180000e+001) (26, -1.25945158004760740000e+001) (27, 1.99125662446022030000e-001) (28, -1.08757896423339840000e+001) (29, -1.29468698501586910000e+001) (30, -1.29484443664550780000e+001) (31, -1.19845180511474610000e+001) (32, -1.46559548377990720000e+000) (33, -1.15909633636474610000e+001) (34, -2.63824641704559330000e-001) (35, -9.90345191955566410000e+000) (36, 4.15686294436454770000e-002) (37, 1.71531006693840030000e-001) (38, -1.31417112350463870000e+001) (39, -1.22968101501464840000e+001) (40, -3.89259845018386840000e-001) (41, -1.32857666015625000000e+001) (42, -8.67928123474121090000e+000) (43, -1.15047702789306640000e+001) (44, -1.31662931442260740000e+001) (11, -1.16732668876647950000e+000) (12, 3.59410904347896580000e-002) (13, -7.05327081680297850000e+000) (14, -1.12710037231445310000e+001) (15, -9.08630180358886720000e+000) (16, -1.29833641052246090000e+001) (17, -1.16258440017700200000e+001) (18, -8.89225864410400390000e+000) (19, -1.32626324892044070000e-001) (20, -1.32526073455810550000e+001) (21, -1.14643611907958980000e+001) (22, -1.05801630020141600000e+000) (23, -1.14823465347290040000e+001) (24, -9.29505729675292970000e+000) (25, -9.84105491638183590000e+000) (26, -1.29152984619140630000e+001) (27, 3.28108102083206180000e-001) (28, -1.14583835601806640000e+001) (29, -1.30246534347534180000e+001) (30, -1.24071598052978520000e+001) (31, -1.21780767440795900000e+001) (32, -1.07177984714508060000e+000) (33, -1.18762569427490230000e+001) (34, -2.66373455524444580000e-001) (35, -1.00595216751098630000e+001) (36, 1.35187208652496340000e-001) (37, 3.24529945850372310000e-001) (38, -1.30086431503295900000e+001) (39, -1.22399053573608400000e+001) (40, -8.34087848663330080000e-001) (41, -1.23916721343994140000e+001) (42, -8.76911735534667970000e+000) (43, -1.20744609832763670000e+001) (44, -1.33302984237670900000e+001) (11, -1.32970912382006650000e-002) (12, -2.25686103105545040000e-001) (13, -7.54178714752197270000e+000) (14, -1.17348566055297850000e+001) (15, -8.56712245941162110000e+000) (16, -1.28521881103515630000e+001) (17, -1.20487775802612300000e+001) (18, -9.50972557067871090000e+000) (19, -3.02054770290851590000e-002) (20, -1.24181308746337890000e+001) (21, -1.14069147109985350000e+001) (22, -3.56966763734817500000e-001) (23, -1.14031696319580080000e+001) (24, -8.90140628814697270000e+000) (25, -1.03400659561157230000e+001) (26, -1.23835687637329100000e+001) (27, 2.91727334260940550000e-001) (28, -1.12582550048828130000e+001) (29, -1.27518568038940430000e+001) (30, -1.21183452606201170000e+001) (31, -1.28141698837280270000e+001) (32, -9.43191349506378170000e-001) (33, -1.22906150817871090000e+001) (34, -4.74970459938049320000e-001) (35, -1.04552431106567380000e+001) (36, -1.79859876632690430000e-001) (37, -9.83556509017944340000e-001) (38, -1.24214944839477540000e+001) (39, -1.24528799057006840000e+001) (40, -6.85914993286132810000e-001) (41, -1.26313600540161130000e+001) (42, -8.92598438262939450000e+000) (43, -1.21956853866577150000e+001) (44, -1.27644004821777340000e+001) (11, -6.95538878440856930000e-001) (12, -7.83582687377929690000e-001) (13, -7.43413877487182620000e+000) (14, -1.17730875015258790000e+001) (15, -8.94819450378417970000e+000) (16, -1.22331056594848630000e+001) (17, -1.20744285583496090000e+001) (18, -8.73943901062011720000e+000) (19, 2.15380787849426270000e-001) (20, -1.26685543060302730000e+001) (21, -1.17372369766235350000e+001) (22, -3.07047724723815920000e-001) (23, -1.16466541290283200000e+001) (24, -8.58488368988037110000e+000) (25, -9.99359798431396480000e+000) (26, -1.28434772491455080000e+001) (27, 1.71965528279542920000e-002) (28, -1.19521446228027340000e+001) (29, -1.24243040084838870000e+001) (30, -1.30268182754516600000e+001) (31, -1.26627883911132810000e+001) (32, -1.19427394866943360000e+000) (33, -1.22866096496582030000e+001) (34, 2.56300680339336400000e-002) (35, -1.04636497497558590000e+001) (36, 5.79959452152252200000e-002) (37, -2.53113985061645510000e-001) (38, -1.23516387939453130000e+001) (39, -1.27234640121459960000e+001) (40, -5.22050023078918460000e-001) (41, -1.25093011856079100000e+001) (42, -8.70715045928955080000e+000) (43, -1.18685188293457030000e+001) (44, -1.26317720413208010000e+001) (11, 1.69373169541358950000e-001) (12, 8.07570351753383870000e-004) (13, -7.11618280410766600000e+000) (14, -1.15429534912109370000e+001) (15, -9.09354114532470700000e+000) (16, -1.28649759292602540000e+001) (17, -1.21190614700317380000e+001) (18, -9.31236076354980470000e+000) (19, -1.61419615149497990000e-001) (20, -1.23976345062255860000e+001) (21, -1.16451539993286130000e+001) (22, -4.05335277318954470000e-002) (23, -1.22520742416381840000e+001) (24, -8.93629264831542970000e+000) (25, -1.00076055526733400000e+001) (26, -1.27024421691894530000e+001) (27, -4.20645743608474730000e-001) (28, -1.16714620590209960000e+001) (29, -1.24875183105468750000e+001) (30, -1.28288660049438480000e+001) (31, -1.21243305206298830000e+001) (32, -4.19808864593505860000e-001) (33, -1.19784679412841800000e+001) (34, 1.95056572556495670000e-001) (35, -1.07383670806884770000e+001) (36, 6.53092563152313230000e-002) (37, -7.56244659423828130000e-001) (38, -1.27728309631347660000e+001) (39, -1.27308559417724610000e+001) (40, -8.80580306053161620000e-001) (41, -1.26868896484375000000e+001) (42, -8.38815021514892580000e+000) (43, -1.19463100433349610000e+001) (44, -1.20151491165161130000e+001) (11, -9.06491518020629880000e-001) (12, 5.22886142134666440000e-002) (13, -7.32154989242553710000e+000) (14, -1.19747476577758790000e+001) (15, -8.99553680419921870000e+000) (16, -1.22866554260253910000e+001) (17, -1.15505504608154300000e+001) (18, -9.44294452667236330000e+000) (19, 2.38534912467002870000e-001) (20, -1.22203598022460940000e+001) (21, -1.18398904800415040000e+001) (22, -1.31965243816375730000e+000) (23, -1.16276073455810550000e+001) (24, -8.70136165618896480000e+000) (25, -1.05420436859130860000e+001) (26, -1.27793788909912110000e+001) (27, -4.30651932954788210000e-001) (28, -1.16096105575561520000e+001) (29, -1.24874296188354490000e+001) (30, -1.26502656936645510000e+001) (31, -1.21846837997436520000e+001) (32, -1.36339759826660160000e+000) (33, -1.18736715316772460000e+001) (34, -6.13295316696166990000e-001) (35, -1.06119976043701170000e+001) (36, -5.48710048198699950000e-001) (37, -3.09172235429286960000e-002) (38, -1.23865547180175780000e+001) (39, -1.30744524002075200000e+001) (40, -9.88691747188568120000e-001) (41, -1.25758066177368160000e+001) (42, -8.62858390808105470000e+000) (43, -1.22168359756469730000e+001) (44, -1.26225175857543950000e+001) (11, -9.86828804016113280000e-001) (12, 2.48798996210098270000e-001) (13, -7.19589138031005860000e+000) (14, -1.21795234680175780000e+001) (15, -8.56793022155761720000e+000) (16, -1.21857700347900390000e+001) (17, -1.20061712265014650000e+001) (18, -8.98360061645507810000e+000) (19, -8.29377099871635440000e-002) (20, -1.28330821990966800000e+001) (21, -1.23878202438354490000e+001) (22, -4.48642283678054810000e-001) (23, -1.18565044403076170000e+001) (24, -8.47837924957275390000e+000) (25, -1.01817054748535160000e+001) (26, -1.30162897109985350000e+001) (27, 2.25481063127517700000e-001) (28, -1.16442003250122070000e+001) (29, -1.21280364990234380000e+001) (30, -1.24411153793334960000e+001) (31, -1.24165143966674800000e+001) (32, -7.02895045280456540000e-001) (33, -1.23769788742065430000e+001) (34, 1.64615407586097720000e-001) (35, -1.04303102493286130000e+001) (36, -6.24712049961090090000e-001) (37, 2.62919723987579350000e-001) (38, -1.23354520797729490000e+001) (39, -1.28776464462280270000e+001) (40, -2.40859270095825200000e-001) (41, -1.23867588043212890000e+001) (42, -8.70138263702392580000e+000) (43, -1.18987541198730470000e+001) (44, -1.24728260040283200000e+001) (11, -7.52681434154510500000e-001) (12, -3.62942993640899660000e-001) (13, -7.07465600967407230000e+000) (14, -1.23239383697509770000e+001) (15, -9.07584476470947270000e+000) (16, -1.30403861999511720000e+001) (17, -1.17726421356201170000e+001) (18, -8.82169437408447270000e+000) (19, -4.99982446432113650000e-001) (20, -1.23775043487548830000e+001) (21, -1.20746488571166990000e+001) (22, -1.09293043613433840000e+000) (23, -1.19279832839965820000e+001) (24, -8.78933048248291020000e+000) (25, -9.99285030364990230000e+000) (26, -1.26142206192016600000e+001) (27, -3.03410738706588750000e-001) (28, -1.17267341613769530000e+001) (29, -1.29545164108276370000e+001) (30, -1.23978891372680660000e+001) (31, -1.19957714080810550000e+001) (32, -9.03990745544433590000e-001) (33, -1.17838306427001950000e+001) (34, 1.60156384110450740000e-001) (35, -1.07521657943725590000e+001) (36, 1.54024720191955570000e-001) (37, -1.99420452117919920000e-001) (38, -1.22423353195190430000e+001) (39, -1.29658746719360350000e+001) (40, -6.68001890182495120000e-001) (41, -1.27037372589111330000e+001) (42, -8.78150177001953120000e+000) (43, -1.17675704956054690000e+001) (44, -1.22928495407104490000e+001) (11, -1.49747109413146970000e+000) (12, 2.46722966432571410000e-001) (13, -7.35906267166137700000e+000) (14, -1.10351762771606450000e+001) (15, -8.68868827819824220000e+000) (16, -1.28659305572509770000e+001) (17, -1.15425062179565430000e+001) (18, -9.26950359344482420000e+000) (19, -3.68725298903882500000e-003) (20, -1.28029174804687500000e+001) (21, -1.14187698364257810000e+001) (22, -1.17583918571472170000e+000) (23, -1.17143783569335940000e+001) (24, -9.55605411529541020000e+000) (25, -1.00098009109497070000e+001) (26, -1.31197957992553710000e+001) (27, -4.15095061063766480000e-001) (28, -1.17665729522705080000e+001) (29, -1.27923669815063480000e+001) (30, -1.32038698196411130000e+001) (31, -1.15136308670043950000e+001) (32, -2.23887586593627930000e+000) (33, -1.17377586364746090000e+001) (34, -3.40437710285186770000e-001) (35, -9.54401969909667970000e+000) (36, -3.19618552923202510000e-001) (37, 2.58559226989746090000e-001) (38, -1.31397333145141600000e+001) (39, -1.32845783233642580000e+001) (40, -3.51645439863204960000e-001) (41, -1.28550853729248050000e+001) (42, -8.17284965515136720000e+000) (43, -1.13097677230834960000e+001) (44, -1.30474939346313480000e+001) (11, -1.13246393203735350000e+000) (12, -1.94394513964653020000e-001) (13, -7.54794025421142580000e+000) (14, -1.14067373275756840000e+001) (15, -8.89343357086181640000e+000) (16, -1.26325969696044920000e+001) (17, -1.12833337783813480000e+001) (18, -8.65609836578369140000e+000) (19, -5.66404759883880620000e-001) (20, -1.34339342117309570000e+001) (21, -1.11662578582763670000e+001) (22, -1.11008477210998540000e+000) (23, -1.17825565338134770000e+001) (24, -9.24872970581054690000e+000) (25, -1.05843458175659180000e+001) (26, -1.33607883453369140000e+001) (27, -2.83459454774856570000e-001) (28, -1.16328334808349610000e+001) (29, -1.27045698165893550000e+001) (30, -1.26791257858276370000e+001) (31, -1.24162006378173830000e+001) (32, -1.43068277835845950000e+000) (33, -1.13020229339599610000e+001) (34, 2.13741689920425420000e-001) (35, -1.01093168258666990000e+001) (36, -7.84048914909362790000e-001) (37, -4.31880950927734380000e-002) (38, -1.24779291152954100000e+001) (39, -1.24820451736450200000e+001) (40, -7.86834359169006350000e-001) (41, -1.33653440475463870000e+001) (42, -8.67698097229003910000e+000) (43, -1.10743179321289060000e+001) (44, -1.34139003753662110000e+001) (11, -2.15275859832763670000e+000) (12, -2.47597232460975650000e-001) (13, -7.42653512954711910000e+000) (14, -1.13360300064086910000e+001) (15, -8.44871234893798830000e+000) (16, -1.30108814239501950000e+001) (17, -1.08316574096679690000e+001) (18, -9.09621620178222660000e+000) (19, -5.31271934509277340000e-001) (20, -1.34479951858520510000e+001) (21, -1.14439268112182620000e+001) (22, -2.14593768119812010000e+000) (23, -1.09560413360595700000e+001) (24, -9.85754203796386720000e+000) (25, -9.88236808776855470000e+000) (26, -1.36809139251708980000e+001) (27, -7.08775818347930910000e-001) (28, -1.11134529113769530000e+001) (29, -1.29046297073364260000e+001) (30, -1.36777095794677730000e+001) (31, -1.16018877029418950000e+001) (32, -1.80322492122650150000e+000) (33, -1.09073085784912110000e+001) (34, 4.46148449555039410000e-003) (35, -9.61439228057861330000e+000) (36, -2.49484971165657040000e-001) (37, -3.77823889255523680000e-001) (38, -1.32419137954711910000e+001) (39, -1.32827796936035160000e+001) (40, -5.27550756931304930000e-001) (41, -1.29500579833984380000e+001) (42, -8.38364696502685550000e+000) (43, -1.12274446487426760000e+001) (44, -1.37867565155029300000e+001) (11, -9.46052372455596920000e-001) (12, -5.59727191925048830000e-001) (13, -6.75272417068481450000e+000) (14, -1.15160894393920900000e+001) (15, -8.95312309265136720000e+000) (16, -1.27854833602905270000e+001) (17, -1.18290290832519530000e+001) (18, -9.50531578063964840000e+000) (19, 2.61842250823974610000e-001) (20, -1.28898763656616210000e+001) (21, -1.21249837875366210000e+001) (22, -9.49699044227600100000e-001) (23, -1.18968257904052730000e+001) (24, -8.70304107666015620000e+000) (25, -1.05196943283081050000e+001) (26, -1.21094017028808590000e+001) (27, -5.77779889106750490000e-001) (28, -1.21616401672363280000e+001) (29, -1.28026752471923830000e+001) (30, -1.27659101486206050000e+001) (31, -1.20146913528442380000e+001) (32, -1.07968914508819580000e+000) (33, -1.16988744735717770000e+001) (34, 8.95592421293258670000e-002) (35, -1.03352966308593750000e+001) (36, -3.64327818155288700000e-001) (37, -5.29594302177429200000e-001) (38, -1.26799554824829100000e+001) (39, -1.22023544311523440000e+001) (40, -4.55747060477733610000e-002) (41, -1.21547594070434570000e+001) (42, -8.89367675781250000000e+000) (43, -1.17566814422607420000e+001) (44, -1.28637180328369140000e+001) (11, -4.41516113281250000000e+000) (12, 1.41838518902659420000e-002) (13, -6.48692035675048830000e+000) (14, -9.86809444427490230000e+000) (15, -8.21084117889404300000e+000) (16, -1.48240623474121090000e+001) (17, -1.01878261566162110000e+001) (18, -8.36496162414550780000e+000) (19, -5.66270112991333010000e-001) (20, -1.45225534439086910000e+001) (21, -9.96292877197265630000e+000) (22, -3.92385745048522950000e+000) (23, -9.84456729888916020000e+000) (24, -1.22152719497680660000e+001) (25, -8.98939800262451170000e+000) (26, -1.43086376190185550000e+001) (27, -6.37758756056427960000e-003) (28, -9.48885631561279300000e+000) (29, -1.45443191528320310000e+001) (30, -1.46750040054321290000e+001) (31, -1.15621757507324220000e+001) (32, -4.49079656600952150000e+000) (33, -9.45003032684326170000e+000) (34, 1.07145115733146670000e-001) (35, -8.59894943237304690000e+000) (36, -6.50174558162689210000e-001) (37, 1.44011393189430240000e-001) (38, -1.44723596572875980000e+001) (39, -1.38225297927856450000e+001) (40, -1.35327053070068360000e+000) (41, -1.42949342727661130000e+001) (42, -8.45539951324462890000e+000) (43, -1.01690597534179690000e+001) (44, -1.43150014877319340000e+001) (45, 2.40980219841003420000e+000) (46, 2.43357205390930180000e+000) (47, 2.48147225379943850000e+000) (48, 2.40965175628662110000e+000) (49, 2.73908352851867680000e+000) (50, 2.72615003585815430000e+000) (51, 2.56817889213562010000e+000) (52, 2.72712874412536620000e+000) (53, 2.52116608619689940000e+000) (54, 2.54827690124511720000e+000) (55, 2.55891776084899900000e+000) (56, 2.49181509017944340000e+000) (57, 2.76237750053405760000e+000) (58, 2.47269129753112790000e+000) (59, 2.31557369232177730000e+000) (60, 2.61968517303466800000e+000) (45, 2.67062544822692870000e-001) (46, 2.51574460417032240000e-002) (47, -5.86203455924987790000e-001) (48, -8.68646427989006040000e-002) (49, -4.20648425817489620000e-001) (50, -2.38832771778106690000e-001) (51, -3.51386874914169310000e-001) (52, -1.56341090798377990000e-001) (53, 3.08164864778518680000e-001) (54, 4.90384548902511600000e-002) (55, 2.93105334043502810000e-001) (56, -4.17176336050033570000e-001) (57, 3.58940720558166500000e-001) (58, -3.80197554826736450000e-001) (59, -4.63892281055450440000e-001) (60, 7.01167667284607890000e-003) 
