FANN_FLO_2.1
num_layers=4
learning_rate=0.700000
connection_rate=1.000000
network_type=0
learning_momentum=0.000000
training_algorithm=2
train_error_function=1
train_stop_function=0
cascade_output_change_fraction=0.010000
quickprop_decay=-0.000100
quickprop_mu=1.750000
rprop_increase_factor=1.200000
rprop_decrease_factor=0.500000
rprop_delta_min=0.000000
rprop_delta_max=50.000000
rprop_delta_zero=0.100000
cascade_output_stagnation_epochs=12
cascade_candidate_change_fraction=0.010000
cascade_candidate_stagnation_epochs=12
cascade_max_out_epochs=150
cascade_max_cand_epochs=150
cascade_num_candidate_groups=2
bit_fail_limit=3.49999994039535520000e-001
cascade_candidate_limit=1.00000000000000000000e+003
cascade_weight_multiplier=4.00000005960464480000e-001
cascade_activation_functions_count=10
cascade_activation_functions=3 5 7 8 10 11 14 15 16 17 
cascade_activation_steepnesses_count=4
cascade_activation_steepnesses=2.50000000000000000000e-001 5.00000000000000000000e-001 7.50000000000000000000e-001 1.00000000000000000000e+000 
layer_sizes=11 67 45 3 
scale_included=0
neurons (num_inputs, activation_function, activation_steepness)=(0, 0, 0.00000000000000000000e+000) (0, 0, 0.00000000000000000000e+000) (0, 0, 0.00000000000000000000e+000) (0, 0, 0.00000000000000000000e+000) (0, 0, 0.00000000000000000000e+000) (0, 0, 0.00000000000000000000e+000) (0, 0, 0.00000000000000000000e+000) (0, 0, 0.00000000000000000000e+000) (0, 0, 0.00000000000000000000e+000) (0, 0, 0.00000000000000000000e+000) (0, 0, 0.00000000000000000000e+000) (11, 10, 5.00000000000000000000e-001) (11, 10, 5.00000000000000000000e-001) (11, 10, 5.00000000000000000000e-001) (11, 10, 5.00000000000000000000e-001) (11, 10, 5.00000000000000000000e-001) (11, 10, 5.00000000000000000000e-001) (11, 10, 5.00000000000000000000e-001) (11, 10, 5.00000000000000000000e-001) (11, 10, 5.00000000000000000000e-001) (11, 10, 5.00000000000000000000e-001) (11, 10, 5.00000000000000000000e-001) (11, 10, 5.00000000000000000000e-001) (11, 10, 5.00000000000000000000e-001) (11, 10, 5.00000000000000000000e-001) (11, 10, 5.00000000000000000000e-001) (11, 10, 5.00000000000000000000e-001) (11, 10, 5.00000000000000000000e-001) (11, 10, 5.00000000000000000000e-001) (11, 10, 5.00000000000000000000e-001) (11, 10, 5.00000000000000000000e-001) (11, 10, 5.00000000000000000000e-001) (11, 10, 5.00000000000000000000e-001) (11, 10, 5.00000000000000000000e-001) (11, 10, 5.00000000000000000000e-001) (11, 10, 5.00000000000000000000e-001) (11, 10, 5.00000000000000000000e-001) (11, 10, 5.00000000000000000000e-001) (11, 10, 5.00000000000000000000e-001) (11, 10, 5.00000000000000000000e-001) (11, 10, 5.00000000000000000000e-001) (11, 10, 5.00000000000000000000e-001) (11, 10, 5.00000000000000000000e-001) (11, 10, 5.00000000000000000000e-001) (11, 10, 5.00000000000000000000e-001) (11, 10, 5.00000000000000000000e-001) (11, 10, 5.00000000000000000000e-001) (11, 10, 5.00000000000000000000e-001) (11, 10, 5.00000000000000000000e-001) (11, 10, 5.00000000000000000000e-001) (11, 10, 5.00000000000000000000e-001) (11, 10, 5.00000000000000000000e-001) (11, 10, 5.00000000000000000000e-001) (11, 10, 5.00000000000000000000e-001) (11, 10, 5.00000000000000000000e-001) (11, 10, 5.00000000000000000000e-001) (11, 10, 5.00000000000000000000e-001) (11, 10, 5.00000000000000000000e-001) (11, 10, 5.00000000000000000000e-001) (11, 10, 5.00000000000000000000e-001) (11, 10, 5.00000000000000000000e-001) (11, 10, 5.00000000000000000000e-001) (11, 10, 5.00000000000000000000e-001) (11, 10, 5.00000000000000000000e-001) (11, 10, 5.00000000000000000000e-001) (11, 10, 5.00000000000000000000e-001) (11, 10, 5.00000000000000000000e-001) (11, 10, 5.00000000000000000000e-001) (11, 10, 5.00000000000000000000e-001) (11, 10, 5.00000000000000000000e-001) (11, 10, 5.00000000000000000000e-001) (11, 10, 5.00000000000000000000e-001) (11, 10, 5.00000000000000000000e-001) (11, 10, 5.00000000000000000000e-001) (11, 10, 5.00000000000000000000e-001) (11, 10, 5.00000000000000000000e-001) (11, 10, 5.00000000000000000000e-001) (0, 10, 5.00000000000000000000e-001) (67, 10, 5.00000000000000000000e-001) (67, 10, 5.00000000000000000000e-001) (67, 10, 5.00000000000000000000e-001) (67, 10, 5.00000000000000000000e-001) (67, 10, 5.00000000000000000000e-001) (67, 10, 5.00000000000000000000e-001) (67, 10, 5.00000000000000000000e-001) (67, 10, 5.00000000000000000000e-001) (67, 10, 5.00000000000000000000e-001) (67, 10, 5.00000000000000000000e-001) (67, 10, 5.00000000000000000000e-001) (67, 10, 5.00000000000000000000e-001) (67, 10, 5.00000000000000000000e-001) (67, 10, 5.00000000000000000000e-001) (67, 10, 5.00000000000000000000e-001) (67, 10, 5.00000000000000000000e-001) (67, 10, 5.00000000000000000000e-001) (67, 10, 5.00000000000000000000e-001) (67, 10, 5.00000000000000000000e-001) (67, 10, 5.00000000000000000000e-001) (67, 10, 5.00000000000000000000e-001) (67, 10, 5.00000000000000000000e-001) (67, 10, 5.00000000000000000000e-001) (67, 10, 5.00000000000000000000e-001) (67, 10, 5.00000000000000000000e-001) (67, 10, 5.00000000000000000000e-001) (67, 10, 5.00000000000000000000e-001) (67, 10, 5.00000000000000000000e-001) (67, 10, 5.00000000000000000000e-001) (67, 10, 5.00000000000000000000e-001) (67, 10, 5.00000000000000000000e-001) (67, 10, 5.00000000000000000000e-001) (67, 10, 5.00000000000000000000e-001) (67, 10, 5.00000000000000000000e-001) (67, 10, 5.00000000000000000000e-001) (67, 10, 5.00000000000000000000e-001) (67, 10, 5.00000000000000000000e-001) (67, 10, 5.00000000000000000000e-001) (67, 10, 5.00000000000000000000e-001) (67, 10, 5.00000000000000000000e-001) (67, 10, 5.00000000000000000000e-001) (67, 10, 5.00000000000000000000e-001) (67, 10, 5.00000000000000000000e-001) (67, 10, 5.00000000000000000000e-001) (0, 10, 5.00000000000000000000e-001) (45, 0, 5.00000000000000000000e-001) (45, 0, 5.00000000000000000000e-001) (0, 0, 5.00000000000000000000e-001) 
connections (connected_to_neuron, weight)=(0, 3.17350983619689940000e-001) (1, 1.05066502094268800000e+000) (2, -3.37558776140213010000e-001) (3, 7.87686556577682500000e-002) (4, 7.51933097839355470000e-001) (5, 1.22024524211883540000e+000) (6, 1.84715723991394040000e+000) (7, -5.35681359469890590000e-002) (8, 1.52678883075714110000e+000) (9, 1.70497727394104000000e+000) (10, 4.89726930856704710000e-001) (0, -2.14222535490989690000e-001) (1, 7.79954731464385990000e-001) (2, -1.21540039777755740000e-001) (3, 3.29654306173324580000e-001) (4, 2.29032456874847410000e-001) (5, 4.47787940502166750000e-001) (6, 4.59102213382720950000e-001) (7, 4.39111948013305660000e-001) (8, 1.36851656436920170000e+000) (9, 8.11354756355285640000e-001) (10, 8.70034471154212950000e-002) (0, 2.71468132734298710000e-001) (1, 1.58374953269958500000e+000) (2, 4.86945658922195430000e-001) (3, 4.88651961088180540000e-001) (4, 4.06111637130379680000e-003) (5, 1.47392916679382320000e+000) (6, 7.27820932865142820000e-001) (7, 6.15901052951812740000e-001) (8, 1.84509313106536870000e+000) (9, 1.09565329551696780000e+000) (10, 1.79368883371353150000e-001) (0, -1.58386468887329100000e-001) (1, -1.55373048782348630000e+000) (2, 2.11253657937049870000e-001) (3, 4.57686126232147220000e-001) (4, -9.41636323928833010000e-001) (5, -1.56659495830535890000e+000) (6, -2.11020255088806150000e+000) (7, 1.86367154121398930000e-001) (8, -1.77290305495262150000e-001) (9, -2.34675621986389160000e+000) (10, -1.97740674018859860000e-001) (0, 4.31179970502853390000e-001) (1, 1.45996022224426270000e+000) (2, 6.40490829944610600000e-001) (3, 3.33417415618896480000e-001) (4, 1.78137794137001040000e-001) (5, 5.54535090923309330000e-001) (6, 9.64803516864776610000e-001) (7, -2.30799496173858640000e-001) (8, 2.02491021156311040000e+000) (9, 7.35742032527923580000e-001) (10, -3.39287459850311280000e-001) (0, -2.83677130937576290000e-001) (1, -4.22796517610549930000e-001) (2, -5.11236429214477540000e-001) (3, 2.59370774030685420000e-001) (4, -3.46739977598190310000e-001) (5, -4.55475032329559330000e-001) (6, -3.93866449594497680000e-001) (7, -4.55085545778274540000e-001) (8, -2.52171754837036130000e-001) (9, -3.06756228208541870000e-001) (10, -3.27164173126220700000e-001) (0, 8.28014090657234190000e-002) (1, 1.00805699825286870000e+000) (2, 5.02448439598083500000e-001) (3, 4.07489657402038570000e-001) (4, 5.86786329746246340000e-001) (5, 9.27261710166931150000e-001) (6, 1.33033001422882080000e+000) (7, 4.54814583063125610000e-002) (8, 1.99599814414978030000e+000) (9, 6.06237888336181640000e-001) (10, -2.34479233622550960000e-001) (0, -2.91804879903793330000e-001) (1, 1.19743311405181880000e+000) (2, 5.63604474067687990000e-001) (3, 2.04924181103706360000e-001) (4, 7.05895364284515380000e-001) (5, 8.57991218566894530000e-001) (6, 1.00039148330688480000e+000) (7, 4.09650444984436040000e-001) (8, 1.85739767551422120000e+000) (9, 8.84514153003692630000e-001) (10, -1.26618510112166400000e-002) (0, -8.42800289392471310000e-002) (1, 2.94616389274597170000e+000) (2, 3.17010402679443360000e+000) (3, 1.39640485867857930000e-002) (4, 1.51139092445373540000e+000) (5, 3.12664270401000980000e+000) (6, 2.17185044288635250000e+000) (7, 4.68753138557076450000e-003) (8, 1.98338532447814940000e+000) (9, 7.84671187400817870000e-001) (10, 1.30176663398742680000e-001) (0, -2.80429303646087650000e-001) (1, 1.03727316856384280000e+000) (2, 4.87893253564834590000e-001) (3, -2.74881441146135330000e-002) (4, 4.55871880054473880000e-001) (5, 3.95536661148071290000e-001) (6, 1.27075266838073730000e+000) (7, -2.33980104327201840000e-001) (8, 1.68814182281494140000e+000) (9, 7.13726520538330080000e-001) (10, 1.62937551736831670000e-001) (0, 9.35130342841148380000e-002) (1, 1.38385415077209470000e+000) (2, 3.12536537647247310000e-001) (3, 3.58899563550949100000e-001) (4, 5.86585938930511470000e-001) (5, 8.91863644123077390000e-001) (6, 1.13138866424560550000e+000) (7, 3.12216520309448240000e-001) (8, 1.83448016643524170000e+000) (9, 5.87458372116088870000e-001) (10, 2.42850519716739650000e-002) (0, -9.54734385013580320000e-002) (1, -6.78129374980926510000e-001) (2, -1.36605298519134520000e+000) (3, -7.65689939726144080000e-004) (4, -1.92108601331710820000e-001) (5, -1.45230245590209960000e+000) (6, -1.14314007759094240000e+000) (7, -4.74021166563034060000e-001) (8, -1.19663283228874210000e-001) (9, -1.26826727390289310000e+000) (10, -1.21312260627746580000e-001) (0, -6.73753321170806880000e-002) (1, 9.67456221580505370000e-001) (2, 1.26934021711349490000e-001) (3, 3.18402975797653200000e-001) (4, 9.07878726720809940000e-002) (5, 7.19321429729461670000e-001) (6, 7.93668329715728760000e-001) (7, 3.86322855949401860000e-001) (8, 2.23960494995117190000e+000) (9, 1.87784478068351750000e-001) (10, -7.65369832515716550000e-002) (0, 2.39153057336807250000e-001) (1, 1.35797703266143800000e+000) (2, 4.94849920272827150000e-001) (3, 8.34241509437561040000e-001) (4, -2.06201057881116870000e-002) (5, 6.80384576320648190000e-001) (6, 9.69270229339599610000e-001) (7, 3.54227982461452480000e-002) (8, 2.07298874855041500000e+000) (9, 5.94472706317901610000e-001) (10, -3.98887038230896000000e-001) (0, -2.54179865121841430000e-001) (1, 7.59287416934967040000e-001) (2, -2.15853139758110050000e-001) (3, 2.09994614124298100000e-001) (4, 6.51124894618988040000e-001) (5, 9.78458579629659650000e-003) (6, 7.63892829418182370000e-001) (7, 2.24727764725685120000e-001) (8, 1.08691370487213130000e+000) (9, 5.51935076713562010000e-001) (10, 4.06369239091873170000e-001) (0, -4.05481934547424320000e-001) (1, -7.79438793659210210000e-001) (2, -3.20638597011566160000e-001) (3, -4.48338121175765990000e-001) (4, -1.26017749309539790000e-001) (5, 4.05055135488510130000e-002) (6, -5.35035192966461180000e-001) (7, -2.06061974167823790000e-002) (8, -4.66683089733123780000e-001) (9, -3.25200051069259640000e-001) (10, 6.99740648269653320000e-002) (0, 3.70579779148101810000e-001) (1, 2.94059425592422490000e-001) (2, 1.15350045263767240000e-001) (3, 6.55137658119201660000e-001) (4, 1.22080075740814210000e+000) (5, 1.05673468112945560000e+000) (6, -8.93009901046752930000e-001) (7, -4.90531504154205320000e-001) (8, 5.09715318679809570000e-001) (9, 1.56889200210571290000e+000) (10, 1.67620014399290080000e-002) (0, -1.37131392955780030000e-001) (1, 1.34894919395446780000e+000) (2, 3.77818375825881960000e-001) (3, 1.55398935079574580000e-001) (4, 6.21865987777709960000e-001) (5, 6.13892853260040280000e-001) (6, 1.33164417743682860000e+000) (7, 1.88523635268211360000e-001) (8, 1.84600138664245610000e+000) (9, 6.79198026657104490000e-001) (10, 7.95481204986572270000e-002) (0, -4.64950352907180790000e-001) (1, 1.17955100536346440000e+000) (2, 7.98523306846618650000e-001) (3, 5.94092726707458500000e-001) (4, 4.77445036172866820000e-001) (5, 3.94118189811706540000e-001) (6, 8.29762816429138180000e-001) (7, 9.41825509071350100000e-002) (8, 2.23346257209777830000e+000) (9, 8.50016117095947270000e-001) (10, -3.70887339115142820000e-001) (0, 1.68364599347114560000e-001) (1, 1.70404016971588130000e+000) (2, 1.06784081459045410000e+000) (3, -2.72415392100811000000e-002) (4, 1.88603952527046200000e-001) (5, 7.31590926647186280000e-001) (6, 7.10756242275238040000e-001) (7, 2.47711971402168270000e-001) (8, 2.02952384948730470000e+000) (9, 3.17828059196472170000e-001) (10, -1.40222907066345210000e-001) (0, -3.42574641108512880000e-002) (1, 1.54131388664245610000e+000) (2, 7.85053610801696780000e-001) (3, 1.56485468149185180000e-001) (4, 3.08473020792007450000e-001) (5, 7.21286594867706300000e-001) (6, 6.86979830265045170000e-001) (7, -4.78229150176048280000e-002) (8, 1.93284380435943600000e+000) (9, 6.92635655403137210000e-001) (10, -3.41576099395751950000e-001) (0, 1.34394302964210510000e-001) (1, 2.79306459426879880000e+000) (2, 2.74530506134033200000e+000) (3, 6.93089812994003300000e-002) (4, 1.35223293304443360000e+000) (5, 1.83873736858367920000e+000) (6, 1.20647394657135010000e+000) (7, 9.10306721925735470000e-002) (8, 1.31016016006469730000e+000) (9, 7.33494579792022710000e-001) (10, 4.69885677099227910000e-001) (0, 4.57452118396759030000e-001) (1, 1.28577554225921630000e+000) (2, 2.16454148292541500000e-001) (3, 6.88219904899597170000e-001) (4, 2.70791739225387570000e-001) (5, 8.02740156650543210000e-001) (6, 1.33887481689453130000e+000) (7, 1.29725530743598940000e-001) (8, 1.79789221286773680000e+000) (9, 5.79993426799774170000e-001) (10, -1.08767546713352200000e-001) (0, -3.43225076794624330000e-002) (1, -9.45484519004821780000e-001) (2, -1.11431157588958740000e+000) (3, 1.46478205919265750000e-001) (4, -9.63441073894500730000e-001) (5, -1.57290711998939510000e-001) (6, -8.58011126518249510000e-001) (7, -2.14364483952522280000e-001) (8, -5.28129339218139650000e-002) (9, 1.76463276147842410000e-001) (10, -3.19741040468215940000e-001) (0, 1.07151933480054140000e-003) (1, 9.63729619979858400000e-001) (2, -1.87932029366493230000e-001) (3, 4.96045947074890140000e-001) (4, -2.05993399024009700000e-001) (5, -2.31389895081520080000e-001) (6, 7.39199936389923100000e-001) (7, 7.05661475658416750000e-002) (8, 7.31020569801330570000e-001) (9, 5.74148237705230710000e-001) (10, -3.47460359334945680000e-001) (0, 2.89927124977111820000e-001) (1, 1.31108236312866210000e+000) (2, 6.81138992309570310000e-001) (3, 6.51369929313659670000e-001) (4, 1.22613288462162020000e-001) (5, 8.54705691337585450000e-001) (6, 9.71049427986145020000e-001) (7, -2.84473687410354610000e-001) (8, 2.23300623893737790000e+000) (9, 6.17032110691070560000e-001) (10, -2.60621190071105960000e-001) (0, -1.63338527083396910000e-001) (1, 1.00326585769653320000e+000) (2, 7.27305829524993900000e-001) (3, 7.18347430229187010000e-001) (4, 5.16901969909667970000e-001) (5, -1.21215350925922390000e-001) (6, 1.08684670925140380000e+000) (7, 2.04478114843368530000e-001) (8, 1.87874948978424070000e+000) (9, 9.49243903160095210000e-001) (10, -6.20310120284557340000e-002) (0, 4.96532827615737920000e-001) (1, -6.16717994213104250000e-001) (2, -3.82437437772750850000e-001) (3, -7.32055753469467160000e-002) (4, 1.79026424884796140000e-001) (5, 7.03525394201278690000e-002) (6, -5.88493883609771730000e-001) (7, -7.22962841391563420000e-002) (8, -1.67438790202140810000e-001) (9, 2.77925608679652210000e-003) (10, -2.26393938064575200000e-001) (0, -3.55207771062850950000e-001) (1, -7.71373748779296880000e-001) (2, -1.03090119361877440000e+000) (3, 1.42365604639053340000e-001) (4, -4.41228225827217100000e-002) (5, -4.22589093446731570000e-001) (6, -7.93992996215820310000e-001) (7, 3.82722556591033940000e-001) (8, 1.41301760450005530000e-002) (9, 1.31429672241210940000e-001) (10, 1.43338993191719060000e-001) (0, 2.64232993125915530000e-001) (1, 1.64897596836090090000e+000) (2, 8.59238326549530030000e-001) (3, 6.91651031374931340000e-002) (4, 3.94850410521030430000e-002) (5, 6.91418230533599850000e-001) (6, 7.70334005355834960000e-001) (7, 6.94578979164361950000e-003) (8, 1.81558048725128170000e+000) (9, 1.12780022621154790000e+000) (10, 2.31266900897026060000e-001) (0, -2.54715025424957280000e-001) (1, 1.19464135169982910000e+000) (2, 7.87863075733184810000e-001) (3, 3.14209878444671630000e-001) (4, 8.11877667903900150000e-001) (5, 7.55537390708923340000e-001) (6, 8.63805592060089110000e-001) (7, -1.28400102257728580000e-001) (8, 1.82050025463104250000e+000) (9, 1.00061607360839840000e+000) (10, 4.21035336330533030000e-003) (0, -6.63663223385810850000e-002) (1, 1.49891567230224610000e+000) (2, -1.26186937093734740000e-001) (3, 1.19347788393497470000e-001) (4, 9.35102045536041260000e-001) (5, 5.50151169300079350000e-001) (6, 1.13085150718688960000e+000) (7, 4.46023494005203250000e-002) (8, 1.69575524330139160000e+000) (9, 1.31250739097595210000e+000) (10, 5.08011169731616970000e-002) (0, -4.05422538518905640000e-001) (1, 1.73412919044494630000e+000) (2, 6.02718591690063480000e-001) (3, 3.06352794170379640000e-001) (4, 2.10556969046592710000e-001) (5, 6.72418296337127690000e-001) (6, 1.01848924160003660000e+000) (7, 4.49618041515350340000e-001) (8, 1.91449320316314700000e+000) (9, 5.85713505744934080000e-001) (10, 3.42104494571685790000e-001) (0, 5.62444590032100680000e-002) (1, 1.32718312740325930000e+000) (2, 1.09505569934844970000e+000) (3, 3.88174019753932950000e-002) (4, 6.06856346130371090000e-001) (5, 8.62229406833648680000e-001) (6, 1.10332536697387700000e+000) (7, 3.24129939079284670000e-001) (8, 2.01754570007324220000e+000) (9, 7.48879134654998780000e-001) (10, 1.75824716687202450000e-001) (0, -3.79328690469264980000e-002) (1, 1.96136534214019780000e+000) (2, 5.50419569015502930000e-001) (3, -3.50822269916534420000e-001) (4, 1.23094892501831050000e+000) (5, 1.12800109386444090000e+000) (6, 1.65511786937713620000e+000) (7, -1.50981211662292480000e+000) (8, 2.32938933372497560000e+000) (9, 1.18765676021575930000e+000) (10, 3.46268862485885620000e-001) (0, -3.97470267489552500000e-003) (1, 1.14617073535919190000e+000) (2, 3.84890079498291020000e-001) (3, 4.29598182439804080000e-001) (4, 5.55046856403350830000e-001) (5, -2.36807748675346370000e-001) (6, 1.35941302776336670000e+000) (7, -3.25738191604614260000e-001) (8, 1.60065674781799320000e+000) (9, 1.49872493743896480000e+000) (10, -1.69568717479705810000e-001) (0, 1.90105792135000230000e-002) (1, 1.40984487533569340000e+000) (2, -8.64461213350296020000e-002) (3, 5.12705028057098390000e-001) (4, 1.74148455262184140000e-001) (5, 5.65848946571350100000e-001) (6, 1.27905488014221190000e+000) (7, -4.01363611221313480000e-001) (8, 1.57357478141784670000e+000) (9, 5.18675386905670170000e-001) (10, -2.01197490096092220000e-001) (0, -1.72748535871505740000e-001) (1, 8.53460013866424560000e-001) (2, 2.75408804416656490000e-001) (3, 5.94190597534179690000e-001) (4, 5.13954997062683110000e-001) (5, 3.19827973842620850000e-001) (6, 1.55932867527008060000e+000) (7, 2.64038711786270140000e-001) (8, 1.73216402530670170000e+000) (9, 3.82457643747329710000e-001) (10, 1.06859639286994930000e-001) (0, -2.98688799142837520000e-001) (1, 9.27875220775604250000e-001) (2, 7.29729413986206050000e-001) (3, 3.04613709449768070000e-001) (4, 3.32770913839340210000e-001) (5, 2.01394692063331600000e-001) (6, 4.66049492359161380000e-001) (7, 5.34243702888488770000e-001) (8, 1.98526406288146970000e+000) (9, 2.73053884506225590000e-001) (10, 2.21032351255416870000e-001) (0, 1.53094321489334110000e-001) (1, 1.57399821281433110000e+000) (2, 4.64243292808532710000e-001) (3, 2.54195909947156910000e-002) (4, 7.89302945137023930000e-001) (5, 7.13912129402160640000e-001) (6, 1.15096426010131840000e+000) (7, -2.64739125967025760000e-001) (8, 1.97639107704162600000e+000) (9, 4.65003013610839840000e-001) (10, -4.79232609272003170000e-001) (0, 4.91402059793472290000e-001) (1, 1.26432204246521000000e+000) (2, 1.72147035598754880000e-001) (3, 4.29623872041702270000e-001) (4, 9.35879290103912350000e-001) (5, 5.78763365745544430000e-001) (6, 8.75042378902435300000e-001) (7, 5.50376847386360170000e-002) (8, 1.62730181217193600000e+000) (9, 6.46730363368988040000e-001) (10, 9.33890268206596370000e-002) (0, -2.60741889476776120000e-001) (1, 1.07099246978759770000e+000) (2, 7.57651925086975100000e-001) (3, 2.57845848798751830000e-001) (4, 5.98368905484676360000e-002) (5, 7.19166398048400880000e-001) (6, 1.01248753070831300000e+000) (7, -1.49255454540252690000e-001) (8, 1.76972639560699460000e+000) (9, 7.13229715824127200000e-001) (10, -3.17890167236328130000e-001) (0, 1.80285766720771790000e-001) (1, 1.56716251373291020000e+000) (2, 1.18804439902305600000e-001) (3, 2.55892038345336910000e-001) (4, 9.77610126137733460000e-002) (5, -2.84960865974426270000e-002) (6, 1.12951982021331790000e+000) (7, 4.32497739791870120000e-001) (8, 1.84796595573425290000e+000) (9, 6.87369883060455320000e-001) (10, 3.09584081172943120000e-001) (0, 1.60633802413940430000e-001) (1, 2.49211764335632320000e+000) (2, -1.03829011321067810000e-001) (3, 1.10505230724811550000e-001) (4, 1.18327033519744870000e+000) (5, 2.14588737487792970000e+000) (6, 1.79500579833984380000e+000) (7, -2.85553663969039920000e-001) (8, 2.15404677391052250000e+000) (9, 1.92374098300933840000e+000) (10, 2.22931250929832460000e-001) (0, -4.41535674035549160000e-002) (1, 1.37860369682312010000e+000) (2, 7.96482026576995850000e-001) (3, 5.96195399761199950000e-001) (4, 2.99886673688888550000e-001) (5, 7.10375130176544190000e-001) (6, 8.48908424377441410000e-001) (7, 3.10267180204391480000e-001) (8, 1.87646245956420900000e+000) (9, 6.48974776268005370000e-001) (10, 1.64887681603431700000e-001) (0, -7.69283901900053020000e-003) (1, -3.62278318405151370000e+000) (2, -3.38566327095031740000e+000) (3, -1.15702167153358460000e-001) (4, -1.49728953838348390000e+000) (5, -2.98236846923828130000e+000) (6, -2.29197144508361820000e+000) (7, -4.83200609683990480000e-001) (8, 7.78915286064147950000e-002) (9, -7.57441163063049320000e-001) (10, 7.52360448241233830000e-002) (0, -5.22192157804965970000e-002) (1, 1.50837814807891850000e+000) (2, 2.37177327275276180000e-001) (3, 4.06735897064208980000e-001) (4, 2.86661744117736820000e-001) (5, 4.29777741432189940000e-001) (6, 9.38707709312438960000e-001) (7, -6.24245740473270420000e-002) (8, 1.91207706928253170000e+000) (9, 5.64588725566864010000e-001) (10, 1.34686604142189030000e-001) (0, -3.77648562192916870000e-001) (1, 1.18934977054595950000e+000) (2, 5.14639198780059810000e-001) (3, 4.96855646371841430000e-001) (4, 5.24269878864288330000e-001) (5, 8.03573310375213620000e-001) (6, 9.76640760898590090000e-001) (7, 4.57776218652725220000e-001) (8, 1.95113325119018550000e+000) (9, 8.74115943908691410000e-001) (10, -2.14362457394599910000e-001) (0, 3.11198294162750240000e-001) (1, 1.06191146373748780000e+000) (2, 9.11636769771575930000e-001) (3, -1.05557322502136230000e-001) (4, 3.26415032148361210000e-001) (5, 7.29547142982482910000e-001) (6, 8.82035911083221440000e-001) (7, 3.02209943532943730000e-001) (8, 1.65394520759582520000e+000) (9, 1.10188901424407960000e+000) (10, 8.32081809639930730000e-002) (0, 7.77734294533729550000e-002) (1, 1.03415608406066890000e+000) (2, 7.81871736049652100000e-001) (3, -1.11537910997867580000e-001) (4, 3.27608287334442140000e-001) (5, 3.50803345441818240000e-001) (6, 8.89561831951141360000e-001) (7, 1.43072023987770080000e-001) (8, 1.78706192970275880000e+000) (9, 1.19446146488189700000e+000) (10, 7.02016279101371770000e-002) (0, 3.78685593605041500000e-001) (1, 1.84149479866027830000e+000) (2, 1.78055107593536380000e+000) (3, 1.99261903762817380000e-001) (4, 8.09282720088958740000e-001) (5, 1.70825302600860600000e+000) (6, 7.59219646453857420000e-001) (7, 3.35808902978897090000e-001) (8, 1.49062383174896240000e+000) (9, 7.90447115898132320000e-001) (10, -3.73855799436569210000e-001) (0, 1.94133490324020390000e-001) (1, 1.13107132911682130000e+000) (2, 6.70601427555084230000e-001) (3, 5.44559955596923830000e-001) (4, 8.54342997074127200000e-001) (5, 4.99057859182357790000e-001) (6, 1.13348317146301270000e+000) (7, 1.33845522999763490000e-001) (8, 1.97418618202209470000e+000) (9, 5.77781796455383300000e-001) (10, 4.27997946739196780000e-001) (0, -2.70968854427337650000e-001) (1, 1.05267596244812010000e+000) (2, 7.88451731204986570000e-001) (3, 6.76210224628448490000e-001) (4, -9.13894921541213990000e-003) (5, 8.76549661159515380000e-001) (6, 1.25554168224334720000e+000) (7, 5.08461594581604000000e-001) (8, 2.11491155624389650000e+000) (9, 5.83825409412384030000e-001) (10, -1.56354546546936040000e-001) (0, -4.05823618173599240000e-001) (1, 9.06414330005645750000e-001) (2, 2.07262799143791200000e-001) (3, 5.77095806598663330000e-001) (4, 2.08619892597198490000e-001) (5, 8.18534016609191890000e-001) (6, 6.48042619228363040000e-001) (7, -1.29176765680313110000e-001) (8, 2.02263832092285160000e+000) (9, 6.41562998294830320000e-001) (10, 1.20440479367971420000e-002) (0, 1.61774992942810060000e-001) (1, 1.22286140918731690000e+000) (2, 4.72745239734649660000e-001) (3, -7.19230920076370240000e-002) (4, 2.54445374011993410000e-001) (5, 8.32971453666687010000e-001) (6, 1.32473611831665040000e+000) (7, -3.43681126832962040000e-001) (8, 1.93002760410308840000e+000) (9, 7.72847175598144530000e-001) (10, 4.69081550836563110000e-001) (0, 4.87635821104049680000e-001) (1, -3.04275959730148320000e-001) (2, -3.95033150911331180000e-001) (3, 3.14722776412963870000e-001) (4, 2.21049529500305650000e-003) (5, -9.37832072377204900000e-002) (6, -3.48313778638839720000e-001) (7, 3.90690147876739500000e-001) (8, -3.19558262825012210000e-001) (9, 1.01541362702846530000e-001) (10, 1.87722966074943540000e-002) (0, 2.87845611572265630000e-001) (1, -2.37055754661560060000e+000) (2, 4.84057277441024780000e-001) (3, 3.99874716997146610000e-001) (4, -1.56776618957519530000e+000) (5, -2.19848728179931640000e+000) (6, -2.02777051925659180000e+000) (7, 7.33099803328514100000e-002) (8, 1.07176735997200010000e-001) (9, -2.73875999450683590000e+000) (10, -3.23761790990829470000e-001) (0, -2.32100397348403930000e-001) (1, 9.50935125350952150000e-001) (2, 7.74296164512634280000e-001) (3, 5.12536048889160160000e-001) (4, 3.46424371004104610000e-001) (5, 5.84244012832641600000e-001) (6, 1.05265629291534420000e+000) (7, 2.48900398612022400000e-001) (8, 2.17685079574584960000e+000) (9, 1.04932022094726560000e+000) (10, 3.19513007998466490000e-002) (0, -6.06534779071807860000e-002) (1, 1.79337632656097410000e+000) (2, 1.02923095226287840000e+000) (3, 1.72226428985595700000e-001) (4, 1.29034376144409180000e+000) (5, -3.26677680015563960000e-001) (6, 2.61991834640502930000e+000) (7, -1.88729837536811830000e-001) (8, 1.44498395919799800000e+000) (9, 1.21200609207153320000e+000) (10, 2.05344170331954960000e-001) (0, -4.66534763574600220000e-001) (1, 1.39311885833740230000e+000) (2, 4.85418349504470830000e-001) (3, 7.78344050049781800000e-002) (4, 6.23637735843658450000e-001) (5, 7.37300872802734380000e-001) (6, 7.42758214473724370000e-001) (7, 2.00052246451377870000e-001) (8, 1.90614044666290280000e+000) (9, 1.07551884651184080000e+000) (10, 4.81224715709686280000e-001) (0, 1.52305886149406430000e-001) (1, 1.26470303535461430000e+000) (2, 3.87501627206802370000e-001) (3, 7.46947646141052250000e-001) (4, 3.90252590179443360000e-001) (5, 7.56079494953155520000e-001) (6, 7.62405812740325930000e-001) (7, 4.92354959249496460000e-001) (8, 1.98643052577972410000e+000) (9, 9.84845519065856930000e-001) (10, -2.14288309216499330000e-001) (0, -3.29909771680831910000e-002) (1, 9.79289174079895020000e-001) (2, 8.47309112548828130000e-001) (3, 6.01579189300537110000e-001) (4, 7.31222927570343020000e-001) (5, 6.11870229244232180000e-001) (6, 7.82631278038024900000e-001) (7, 2.64306247234344480000e-001) (8, 2.24460363388061520000e+000) (9, 9.88540410995483400000e-001) (10, 1.08090728521347050000e-001) (0, 3.26449453830718990000e-001) (1, 1.24846756458282470000e+000) (2, 5.44150292873382570000e-001) (3, 4.61606860160827640000e-001) (4, 3.12367200851440430000e-001) (5, 6.84058189392089840000e-001) (6, 8.15306425094604490000e-001) (7, 3.24297368526458740000e-001) (8, 2.05890583992004390000e+000) (9, 9.56256449222564700000e-001) (10, -2.26160690188407900000e-001) (0, 9.01893749833106990000e-002) (1, 9.84177708625793460000e-001) (2, 6.10276699066162110000e-001) (3, 6.38043954968452450000e-002) (4, 8.36748182773590090000e-001) (5, 1.03855240345001220000e+000) (6, 1.12859892845153810000e+000) (7, -3.54839175939559940000e-001) (8, 2.14648294448852540000e+000) (9, 9.11468446254730220000e-001) (10, 2.54803121089935300000e-001) (0, 3.86534541845321660000e-001) (1, 1.12892389297485350000e+000) (2, 7.11742699146270750000e-001) (3, 2.79294013977050780000e-001) (4, 1.63281813263893130000e-001) (5, 6.98623538017272950000e-001) (6, 1.19536566734313960000e+000) (7, 2.69402176141738890000e-001) (8, 2.03087615966796870000e+000) (9, 7.72172629833221440000e-001) (10, 3.02645862102508540000e-001) (0, 3.41000288724899290000e-001) (1, 1.50469851493835450000e+000) (2, 3.23837101459503170000e-001) (3, 1.99702620506286620000e-001) (4, 5.38901329040527340000e-001) (5, 6.77866816520690920000e-001) (6, 7.05145239830017090000e-001) (7, -1.94850042462348940000e-001) (8, 2.04905033111572270000e+000) (9, 1.01169514656066890000e+000) (10, -3.65984678268432620000e-001) (11, -6.86554193496704100000e+000) (12, -4.23143434524536130000e+000) (13, -6.38807010650634770000e+000) (14, -2.33697846531867980000e-001) (15, -7.01864433288574220000e+000) (16, 4.54597830772399900000e-001) (17, -7.42952823638916020000e+000) (18, -7.11460876464843750000e+000) (19, -7.43705654144287110000e+000) (20, -6.56164121627807620000e+000) (21, -7.47498703002929690000e+000) (22, 2.34813854098320010000e-001) (23, -4.89929914474487300000e+000) (24, -7.30259609222412110000e+000) (25, -3.42821097373962400000e+000) (26, 4.50622975826263430000e-001) (27, -3.33878445625305180000e+000) (28, -6.81289529800415040000e+000) (29, -7.11827421188354490000e+000) (30, -7.40840482711791990000e+000) (31, -7.25192117691040040000e+000) (32, -6.76351547241210940000e+000) (33, -6.67349004745483400000e+000) (34, 3.57274785637855530000e-002) (35, -2.34839558601379390000e+000) (36, -7.05597782135009770000e+000) (37, -6.28241252899169920000e+000) (38, -5.26830017566680910000e-001) (39, -2.44169801473617550000e-001) (40, -7.22198915481567380000e+000) (41, -6.92704486846923830000e+000) (42, -7.52097988128662110000e+000) (43, -6.73531198501586910000e+000) (44, -7.01408290863037110000e+000) (45, -6.63618612289428710000e+000) (46, -6.61927938461303710000e+000) (47, -6.71893072128295900000e+000) (48, -6.86445617675781250000e+000) (49, -4.63592672348022460000e+000) (50, -7.40639781951904300000e+000) (51, -6.43897151947021480000e+000) (52, -6.91687059402465820000e+000) (53, -6.26790046691894530000e+000) (54, -6.62842655181884770000e+000) (55, -7.53225755691528320000e+000) (56, 3.83885979652404790000e-001) (57, -6.78076171875000000000e+000) (58, -7.41001176834106450000e+000) (59, -6.41113996505737300000e+000) (60, -6.62631607055664060000e+000) (61, -6.71761131286621090000e+000) (62, -7.23568677902221680000e+000) (63, -6.80205154418945310000e+000) (64, -5.73618078231811520000e+000) (65, -7.35355806350708010000e+000) (66, -2.46184896677732470000e-002) (67, 4.50316190719604490000e-001) (68, -6.90658521652221680000e+000) (69, -7.54167366027832030000e+000) (70, -7.21585655212402340000e+000) (71, -7.45845317840576170000e+000) (72, -7.48900651931762700000e+000) (73, -6.97322845458984380000e+000) (74, -6.78232622146606450000e+000) (75, -7.04529380798339840000e+000) (76, -7.30995750427246090000e+000) (77, -7.47661638259887700000e+000) (11, -7.75699329376220700000e+000) (12, -4.39980173110961910000e+000) (13, -7.33229398727416990000e+000) (14, -4.84718263149261470000e-001) (15, -7.03923654556274410000e+000) (16, -4.57282960414886470000e-002) (17, -7.08649444580078130000e+000) (18, -7.42933893203735350000e+000) (19, -5.79689741134643550000e+000) (20, -5.26218461990356450000e+000) (21, -7.26731014251708980000e+000) (22, -8.89597237110137940000e-002) (23, -5.03988313674926760000e+000) (24, -7.23027086257934570000e+000) (25, -4.23854398727416990000e+000) (26, 2.34423466026782990000e-002) (27, -2.88390088081359860000e+000) (28, -7.19203853607177730000e+000) (29, -7.23307466506958010000e+000) (30, -7.62816476821899410000e+000) (31, -7.41503429412841800000e+000) (32, -7.66952896118164060000e+000) (33, -7.07617568969726560000e+000) (34, -3.65660518407821660000e-001) (35, -2.68416428565979000000e+000) (36, -7.58976554870605470000e+000) (37, -6.01101922988891600000e+000) (38, -2.76092916727066040000e-001) (39, 2.29864194989204410000e-001) (40, -7.45150852203369140000e+000) (41, -7.84638547897338870000e+000) (42, -7.38079214096069340000e+000) (43, -7.51176357269287110000e+000) (44, -7.83908510208129880000e+000) (45, -6.65681076049804690000e+000) (46, -5.77051973342895510000e+000) (47, -5.61761903762817380000e+000) (48, -6.17143487930297850000e+000) (49, -5.02459335327148440000e+000) (50, -7.30629730224609380000e+000) (51, -5.70427799224853520000e+000) (52, -6.21866893768310550000e+000) (53, -5.43015861511230470000e+000) (54, -7.13783359527587890000e+000) (55, -7.33895921707153320000e+000) (56, -4.50298607349395750000e-001) (57, -5.99216890335083010000e+000) (58, -7.37982606887817380000e+000) (59, -6.07802057266235350000e+000) (60, -5.45468521118164060000e+000) (61, -7.02561616897583010000e+000) (62, -7.20806121826171880000e+000) (63, -7.26325607299804690000e+000) (64, -5.52603912353515620000e+000) (65, -7.65539836883544920000e+000) (66, 1.16672664880752560000e-001) (67, -5.29772222042083740000e-001) (68, -7.80559635162353520000e+000) (69, -7.38048171997070310000e+000) (70, -7.03423309326171880000e+000) (71, -7.17103815078735350000e+000) (72, -7.48762130737304690000e+000) (73, -7.61953115463256840000e+000) (74, -7.56886816024780270000e+000) (75, -7.63383769989013670000e+000) (76, -7.08280324935913090000e+000) (77, -7.78164958953857420000e+000) (11, -6.72537040710449220000e+000) (12, -4.55058288574218750000e+000) (13, -5.81065797805786130000e+000) (14, 4.65704917907714840000e-001) (15, -7.37378931045532230000e+000) (16, -5.14905095100402830000e-001) (17, -7.42591619491577150000e+000) (18, -7.50418186187744140000e+000) (19, -7.02575731277465820000e+000) (20, -6.97256851196289060000e+000) (21, -7.21333646774291990000e+000) (22, 2.99791544675827030000e-001) (23, -4.89556884765625000000e+000) (24, -7.16421461105346680000e+000) (25, -3.35811734199523930000e+000) (26, -5.05078613758087160000e-001) (27, -3.01620936393737790000e+000) (28, -6.63039588928222660000e+000) (29, -7.01396846771240230000e+000) (30, -7.16685199737548830000e+000) (31, -7.33031129837036130000e+000) (32, -6.52992486953735350000e+000) (33, -7.49970293045043950000e+000) (34, -4.03189092874526980000e-001) (35, -2.60603404045104980000e+000) (36, -7.30815649032592770000e+000) (37, -6.71679353713989260000e+000) (38, -1.10023483633995060000e-001) (39, 4.63445633649826050000e-001) (40, -7.38882255554199220000e+000) (41, -7.15419435501098630000e+000) (42, -7.17200422286987300000e+000) (43, -7.15417337417602540000e+000) (44, -6.61920452117919920000e+000) (45, -6.78463935852050780000e+000) (46, -6.70638322830200200000e+000) (47, -6.82728242874145510000e+000) (48, -6.27658987045288090000e+000) (49, -4.89914417266845700000e+000) (50, -7.44681644439697270000e+000) (51, -6.61568021774291990000e+000) (52, -7.14083576202392580000e+000) (53, -6.74672174453735350000e+000) (54, -7.32710123062133790000e+000) (55, -6.71565103530883790000e+000) (56, 1.33595317602157590000e-001) (57, -7.22161149978637700000e+000) (58, -7.22549533843994140000e+000) (59, -6.53037929534912110000e+000) (60, -6.85470914840698240000e+000) (61, -7.00867462158203130000e+000) (62, -7.20464229583740230000e+000) (63, -7.47863101959228520000e+000) (64, -5.57021522521972660000e+000) (65, -6.74679660797119140000e+000) (66, -3.92472110688686370000e-002) (67, -4.24487777054309840000e-002) (68, -6.90417051315307620000e+000) (69, -6.92861890792846680000e+000) (70, -7.31849384307861330000e+000) (71, -7.18080568313598630000e+000) (72, -6.82564735412597660000e+000) (73, -6.52280759811401370000e+000) (74, -7.08829975128173830000e+000) (75, -7.22766590118408200000e+000) (76, -7.45600271224975590000e+000) (77, -6.86021041870117190000e+000) (11, -7.06239175796508790000e+000) (12, -4.34661722183227540000e+000) (13, -6.25103712081909180000e+000) (14, -1.51891514658927920000e-001) (15, -7.15430498123168950000e+000) (16, 3.83221149444580080000e-001) (17, -6.64872789382934570000e+000) (18, -7.11202144622802730000e+000) (19, -7.19365549087524410000e+000) (20, -6.46437931060791020000e+000) (21, -7.30001688003540040000e+000) (22, 4.45899635553359990000e-001) (23, -5.39406251907348630000e+000) (24, -7.02312564849853520000e+000) (25, -3.57465505599975590000e+000) (26, -3.72963458299636840000e-001) (27, -3.20098662376403810000e+000) (28, -7.55426454544067380000e+000) (29, -6.70332765579223630000e+000) (30, -6.69063901901245120000e+000) (31, -6.54210996627807620000e+000) (32, -7.46331739425659180000e+000) (33, -6.91695928573608400000e+000) (34, -8.93726199865341190000e-002) (35, -2.38519406318664550000e+000) (36, -7.26017522811889650000e+000) (37, -6.31993198394775390000e+000) (38, 2.75342017412185670000e-001) (39, 1.50217473506927490000e-001) (40, -7.25451660156250000000e+000) (41, -7.45187997817993160000e+000) (42, -7.17344379425048830000e+000) (43, -7.54339885711669920000e+000) (44, -6.85297393798828120000e+000) (45, -6.64829063415527340000e+000) (46, -6.89123964309692380000e+000) (47, -6.85883712768554690000e+000) (48, -6.76964902877807620000e+000) (49, -4.56474542617797850000e+000) (50, -7.16142368316650390000e+000) (51, -6.62197065353393550000e+000) (52, -6.67626714706420900000e+000) (53, -6.13446903228759770000e+000) (54, -7.31955623626708980000e+000) (55, -6.56834793090820310000e+000) (56, -3.31650495529174800000e-001) (57, -7.36398887634277340000e+000) (58, -7.43924570083618160000e+000) (59, -6.65219926834106450000e+000) (60, -6.48942613601684570000e+000) (61, -6.99062871932983400000e+000) (62, -6.90690803527832030000e+000) (63, -7.10879564285278320000e+000) (64, -6.05035877227783200000e+000) (65, -6.58752918243408200000e+000) (66, -3.35907071828842160000e-001) (67, -1.19791656732559200000e-001) (68, -7.54554843902587890000e+000) (69, -7.29261541366577150000e+000) (70, -7.25831556320190430000e+000) (71, -7.49053716659545900000e+000) (72, -6.71859455108642580000e+000) (73, -7.55961704254150390000e+000) (74, -7.09491634368896480000e+000) (75, -6.84747982025146480000e+000) (76, -7.45125246047973630000e+000) (77, -6.72915124893188480000e+000) (11, -7.38353919982910160000e+000) (12, -4.25514268875122070000e+000) (13, -6.60499525070190430000e+000) (14, -3.42609941959381100000e-001) (15, -7.32883930206298830000e+000) (16, -2.30885937809944150000e-001) (17, -6.64150428771972660000e+000) (18, -7.08442068099975590000e+000) (19, -6.42770433425903320000e+000) (20, -6.52951288223266600000e+000) (21, -7.54494094848632810000e+000) (22, 2.92871166020631790000e-002) (23, -5.77957439422607420000e+000) (24, -6.87130832672119140000e+000) (25, -3.14426684379577640000e+000) (26, 3.39231379330158230000e-002) (27, -2.97668600082397460000e+000) (28, -7.48357820510864260000e+000) (29, -7.23850870132446290000e+000) (30, -7.33974504470825200000e+000) (31, -6.83633518218994140000e+000) (32, -6.62942743301391600000e+000) (33, -6.87881231307983400000e+000) (34, 1.86708554625511170000e-001) (35, -2.83288836479187010000e+000) (36, -7.29156351089477540000e+000) (37, -5.70112943649291990000e+000) (38, 2.47362092137336730000e-001) (39, 4.12034928798675540000e-001) (40, -6.92125940322875980000e+000) (41, -7.53681373596191410000e+000) (42, -7.40675020217895510000e+000) (43, -7.44665193557739260000e+000) (44, -7.20838499069213870000e+000) (45, -6.40485763549804690000e+000) (46, -6.74193048477172850000e+000) (47, -6.58179092407226560000e+000) (48, -6.34012079238891600000e+000) (49, -5.09693145751953130000e+000) (50, -7.46700668334960940000e+000) (51, -6.76255702972412110000e+000) (52, -6.43921375274658200000e+000) (53, -6.78392410278320310000e+000) (54, -7.19211483001708980000e+000) (55, -7.28408718109130860000e+000) (56, -4.21340137720108030000e-001) (57, -6.09652996063232420000e+000) (58, -7.48745632171630860000e+000) (59, -6.85089349746704100000e+000) (60, -6.37451553344726560000e+000) (61, -6.84166288375854490000e+000) (62, -7.31782007217407230000e+000) (63, -7.24902677536010740000e+000) (64, -6.04231500625610350000e+000) (65, -6.74803686141967770000e+000) (66, 1.84161797165870670000e-001) (67, 4.15672838687896730000e-001) (68, -6.69948768615722660000e+000) (69, -7.24903821945190430000e+000) (70, -7.01133394241333010000e+000) (71, -6.73629808425903320000e+000) (72, -7.28618764877319340000e+000) (73, -7.05403709411621090000e+000) (74, -7.23351287841796870000e+000) (75, -7.25449180603027340000e+000) (76, -7.49331712722778320000e+000) (77, -7.32241344451904300000e+000) (11, -7.23148536682128910000e+000) (12, -4.57065439224243160000e+000) (13, -6.55674505233764650000e+000) (14, -2.17116668820381160000e-001) (15, -6.64900970458984370000e+000) (16, -2.16296032071113590000e-001) (17, -7.03084564208984370000e+000) (18, -6.91681194305419920000e+000) (19, -7.07827472686767580000e+000) (20, -6.57319688796997070000e+000) (21, -7.42502307891845700000e+000) (22, -1.09141461551189420000e-001) (23, -4.86797475814819340000e+000) (24, -7.42733240127563480000e+000) (25, -3.90491080284118650000e+000) (26, -4.12626594305038450000e-001) (27, -2.82834959030151370000e+000) (28, -6.61618661880493160000e+000) (29, -7.07470703125000000000e+000) (30, -6.54932737350463870000e+000) (31, -6.63892984390258790000e+000) (32, -7.55051040649414060000e+000) (33, -7.38583517074584960000e+000) (34, -1.49263873696327210000e-001) (35, -2.58173179626464840000e+000) (36, -7.54236125946044920000e+000) (37, -6.45201587677001950000e+000) (38, 2.36706450581550600000e-001) (39, 3.76744002103805540000e-001) (40, -7.13862371444702150000e+000) (41, -7.47130393981933590000e+000) (42, -7.01652574539184570000e+000) (43, -7.12110757827758790000e+000) (44, -6.98169898986816410000e+000) (45, -6.48101186752319340000e+000) (46, -6.57108402252197270000e+000) (47, -6.43435764312744140000e+000) (48, -6.00098037719726560000e+000) (49, -4.27562236785888670000e+000) (50, -7.46126079559326170000e+000) (51, -7.13908672332763670000e+000) (52, -6.67620182037353520000e+000) (53, -6.12812376022338870000e+000) (54, -7.47743701934814450000e+000) (55, -7.09172487258911130000e+000) (56, 4.24816578626632690000e-001) (57, -6.97713232040405270000e+000) (58, -7.52255582809448240000e+000) (59, -7.00582075119018550000e+000) (60, -6.79840660095214840000e+000) (61, -7.30289793014526370000e+000) (62, -6.73844003677368160000e+000) (63, -7.32753849029541020000e+000) (64, -5.78736734390258790000e+000) (65, -7.40505599975585940000e+000) (66, -4.06827867031097410000e-001) (67, 2.41663694381713870000e-001) (68, -7.39445590972900390000e+000) (69, -6.96648120880126950000e+000) (70, -7.39522266387939450000e+000) (71, -6.60906362533569340000e+000) (72, -7.18006420135498050000e+000) (73, -7.07068586349487300000e+000) (74, -7.41306066513061520000e+000) (75, -7.25952196121215820000e+000) (76, -6.83654975891113280000e+000) (77, -7.05634784698486330000e+000) (11, -7.51939725875854490000e+000) (12, -4.23063611984252930000e+000) (13, -6.12426900863647460000e+000) (14, -1.60669103264808650000e-001) (15, -7.38267660140991210000e+000) (16, -4.60242331027984620000e-001) (17, -7.28406906127929690000e+000) (18, -6.69372558593750000000e+000) (19, -7.36203241348266600000e+000) (20, -6.59612226486206050000e+000) (21, -7.29089832305908200000e+000) (22, -2.96798735857009890000e-001) (23, -5.19380807876586910000e+000) (24, -7.53768634796142580000e+000) (25, -3.52007269859313960000e+000) (26, -2.10946753621101380000e-001) (27, -3.31917762756347660000e+000) (28, -7.29414558410644530000e+000) (29, -6.72681903839111330000e+000) (30, -6.50356245040893550000e+000) (31, -6.92860651016235350000e+000) (32, -7.15621662139892580000e+000) (33, -6.64590883255004880000e+000) (34, -5.16478598117828370000e-001) (35, -2.92641329765319820000e+000) (36, -7.57791090011596680000e+000) (37, -6.11916446685791020000e+000) (38, -3.22410136461257930000e-001) (39, 7.00677037239074710000e-002) (40, -6.90509319305419920000e+000) (41, -7.00813627243041990000e+000) (42, -6.69194173812866210000e+000) (43, -7.03471803665161130000e+000) (44, -6.38663530349731450000e+000) (45, -6.96208143234252930000e+000) (46, -6.08685064315795900000e+000) (47, -6.79258251190185550000e+000) (48, -6.74512100219726560000e+000) (49, -4.78874778747558590000e+000) (50, -7.34108877182006840000e+000) (51, -6.51474905014038090000e+000) (52, -7.05892086029052730000e+000) (53, -6.52390623092651370000e+000) (54, -7.23023891448974610000e+000) (55, -6.92179632186889650000e+000) (56, 1.38173222541809080000e-001) (57, -7.26489734649658200000e+000) (58, -6.89867639541625980000e+000) (59, -6.86999273300170900000e+000) (60, -6.79921007156372070000e+000) (61, -7.55250120162963870000e+000) (62, -7.12677240371704100000e+000) (63, -7.50401735305786130000e+000) (64, -5.38244438171386720000e+000) (65, -7.56276512145996090000e+000) (66, -3.03331166505813600000e-001) (67, 1.04075834155082700000e-001) (68, -7.26062345504760740000e+000) (69, -7.48949909210205080000e+000) (70, -7.57843065261840820000e+000) (71, -7.54551076889038090000e+000) (72, -7.05116939544677730000e+000) (73, -6.67790365219116210000e+000) (74, -6.72959327697753910000e+000) (75, -7.09353256225585940000e+000) (76, -7.10734224319458010000e+000) (77, -7.19780540466308590000e+000) (11, -7.01735067367553710000e+000) (12, -4.45962858200073240000e+000) (13, -6.45462989807128910000e+000) (14, -4.42689925432205200000e-001) (15, -7.71828126907348630000e+000) (16, 3.05616736412048340000e-001) (17, -7.15729236602783200000e+000) (18, -6.97932481765747070000e+000) (19, -7.19965410232543950000e+000) (20, -6.23000240325927730000e+000) (21, -6.79252529144287110000e+000) (22, -3.38722616434097290000e-001) (23, -4.89024019241333010000e+000) (24, -7.50134944915771480000e+000) (25, -3.33205032348632810000e+000) (26, -2.23740160465240480000e-001) (27, -2.59341549873352050000e+000) (28, -7.06276559829711910000e+000) (29, -7.47839641571044920000e+000) (30, -6.53869009017944340000e+000) (31, -6.43389558792114260000e+000) (32, -7.33883619308471680000e+000) (33, -7.21605825424194340000e+000) (34, -7.99247682094573970000e-001) (35, -2.81551456451416020000e+000) (36, -7.40577983856201170000e+000) (37, -6.06688690185546870000e+000) (38, -2.62707710266113280000e-001) (39, -5.32902419567108150000e-001) (40, -7.03806781768798830000e+000) (41, -7.06555414199829100000e+000) (42, -7.01976013183593750000e+000) (43, -7.21863555908203130000e+000) (44, -7.05811929702758790000e+000) (45, -6.51815319061279300000e+000) (46, -6.89031982421875000000e+000) (47, -6.63756656646728520000e+000) (48, -5.96745777130126950000e+000) (49, -4.97327899932861330000e+000) (50, -7.40772962570190430000e+000) (51, -6.25666284561157230000e+000) (52, -6.46673822402954100000e+000) (53, -6.03320598602294920000e+000) (54, -7.13691425323486330000e+000) (55, -7.41771459579467770000e+000) (56, -1.58883765339851380000e-001) (57, -7.34421825408935550000e+000) (58, -7.50416231155395510000e+000) (59, -7.09628963470458980000e+000) (60, -6.54644060134887700000e+000) (61, -6.82206821441650390000e+000) (62, -6.89528894424438480000e+000) (63, -7.18321895599365230000e+000) (64, -5.76028347015380860000e+000) (65, -6.96712541580200200000e+000) (66, -5.20523428916931150000e-001) (67, 5.54161630570888520000e-002) (68, -6.90545940399169920000e+000) (69, -7.61018943786621090000e+000) (70, -7.63835811614990230000e+000) (71, -7.74854660034179690000e+000) (72, -7.66988992691040040000e+000) (73, -6.97188091278076170000e+000) (74, -6.90685176849365230000e+000) (75, -6.81111955642700200000e+000) (76, -7.74699687957763670000e+000) (77, -7.08872890472412110000e+000) (11, -7.14808750152587890000e+000) (12, -4.08725738525390620000e+000) (13, -7.61164903640747070000e+000) (14, 4.54968303442001340000e-001) (15, -7.34218454360961910000e+000) (16, 2.00957566499710080000e-001) (17, -7.14465808868408200000e+000) (18, -7.38072109222412110000e+000) (19, -6.34599304199218750000e+000) (20, -6.16716432571411130000e+000) (21, -7.62304067611694340000e+000) (22, -4.99294161796569820000e-001) (23, -5.61007738113403320000e+000) (24, -7.58812236785888670000e+000) (25, -3.87105393409729000000e+000) (26, -4.29734557867050170000e-001) (27, -3.32041358947753910000e+000) (28, -7.31833982467651370000e+000) (29, -6.97664308547973630000e+000) (30, -6.96489191055297850000e+000) (31, -7.62562417984008790000e+000) (32, -7.02258825302124020000e+000) (33, -7.15055561065673830000e+000) (34, 1.42491742968559270000e-001) (35, -2.26424694061279300000e+000) (36, -6.85583829879760740000e+000) (37, -5.46402263641357420000e+000) (38, 2.39945039153099060000e-001) (39, -4.98885780572891240000e-001) (40, -7.50249767303466800000e+000) (41, -7.32848978042602540000e+000) (42, -6.88662672042846680000e+000) (43, -6.84907531738281250000e+000) (44, -7.31070089340209960000e+000) (45, -6.92050838470458980000e+000) (46, -5.98252964019775390000e+000) (47, -5.25660467147827150000e+000) (48, -6.14777612686157230000e+000) (49, -4.40591764450073240000e+000) (50, -7.27058076858520510000e+000) (51, -6.18718385696411130000e+000) (52, -6.04446411132812500000e+000) (53, -5.84150171279907230000e+000) (54, -7.30722284317016600000e+000) (55, -7.67644929885864260000e+000) (56, 1.38756722211837770000e-001) (57, -5.76952314376831050000e+000) (58, -7.56944656372070310000e+000) (59, -6.01386356353759770000e+000) (60, -5.96758317947387700000e+000) (61, -7.62732172012329100000e+000) (62, -6.88995313644409180000e+000) (63, -7.83860206604003910000e+000) (64, -5.57293748855590820000e+000) (65, -7.22967958450317380000e+000) (66, -4.58487980067729950000e-002) (67, 2.69521921873092650000e-001) (68, -7.65339279174804690000e+000) (69, -6.94585704803466800000e+000) (70, -7.63059616088867190000e+000) (71, -7.60655164718627930000e+000) (72, -7.02526521682739260000e+000) (73, -7.18774509429931640000e+000) (74, -7.50373268127441410000e+000) (75, -7.76781177520751950000e+000) (76, -7.73534965515136720000e+000) (77, -7.54476070404052730000e+000) (11, -7.21064090728759770000e+000) (12, -4.88632154464721680000e+000) (13, -5.99148750305175780000e+000) (14, -2.30104863643646240000e-001) (15, -7.34904050827026370000e+000) (16, 1.82194054126739500000e-001) (17, -7.18180704116821290000e+000) (18, -6.72720384597778320000e+000) (19, -6.87741041183471680000e+000) (20, -6.47761440277099610000e+000) (21, -6.87406778335571290000e+000) (22, -4.47723805904388430000e-001) (23, -5.08209562301635740000e+000) (24, -7.46618890762329100000e+000) (25, -3.22249436378479000000e+000) (26, 7.54408836364746090000e-002) (27, -2.67053270339965820000e+000) (28, -7.20979166030883790000e+000) (29, -7.03757047653198240000e+000) (30, -7.38442659378051760000e+000) (31, -6.91447448730468750000e+000) (32, -7.39226627349853520000e+000) (33, -7.23186969757080080000e+000) (34, 3.02967607975006100000e-001) (35, -3.03706049919128420000e+000) (36, -7.22684192657470700000e+000) (37, -6.38093709945678710000e+000) (38, 3.13488602638244630000e-001) (39, 6.67300820350646970000e-002) (40, -7.10498571395874020000e+000) (41, -7.45858716964721680000e+000) (42, -7.02224063873291020000e+000) (43, -7.03741264343261720000e+000) (44, -7.27524471282958980000e+000) (45, -6.29473114013671870000e+000) (46, -6.19526147842407230000e+000) (47, -6.73158216476440430000e+000) (48, -6.70433521270751950000e+000) (49, -5.08318328857421870000e+000) (50, -7.15433835983276370000e+000) (51, -6.69648790359497070000e+000) (52, -6.91660308837890620000e+000) (53, -6.07556772232055660000e+000) (54, -7.35873508453369140000e+000) (55, -6.67430925369262700000e+000) (56, 7.40131139755249020000e-002) (57, -6.78837251663208010000e+000) (58, -7.52212667465209960000e+000) (59, -7.29501056671142580000e+000) (60, -6.74068164825439450000e+000) (61, -7.26278829574584960000e+000) (62, -7.52822399139404300000e+000) (63, -6.90061092376708980000e+000) (64, -6.22103166580200200000e+000) (65, -7.32824993133544920000e+000) (66, -6.69738948345184330000e-002) (67, -5.12300014495849610000e-001) (68, -6.69141960144042970000e+000) (69, -6.84450674057006840000e+000) (70, -7.26839923858642580000e+000) (71, -6.67460727691650390000e+000) (72, -6.99421787261962890000e+000) (73, -7.23775959014892580000e+000) (74, -6.97046804428100590000e+000) (75, -6.58852052688598630000e+000) (76, -7.20506334304809570000e+000) (77, -6.71176290512084960000e+000) (11, -6.58329105377197270000e+000) (12, -4.66141176223754880000e+000) (13, -5.92794370651245120000e+000) (14, 1.33597224950790410000e-001) (15, -7.21025848388671870000e+000) (16, 3.89306187629699710000e-001) (17, -6.98608112335205080000e+000) (18, -6.85006856918334960000e+000) (19, -6.65949821472167970000e+000) (20, -6.84252262115478520000e+000) (21, -6.64534711837768550000e+000) (22, 3.09299707412719730000e-001) (23, -5.66398239135742190000e+000) (24, -7.33179807662963870000e+000) (25, -4.09468984603881840000e+000) (26, 4.05865669250488280000e-001) (27, -3.28574204444885250000e+000) (28, -7.35699129104614260000e+000) (29, -7.00919532775878910000e+000) (30, -7.36049509048461910000e+000) (31, -7.22936820983886720000e+000) (32, -7.33931350708007810000e+000) (33, -6.70562362670898440000e+000) (34, -2.65597164630889890000e-001) (35, -2.48535156250000000000e+000) (36, -7.46376752853393550000e+000) (37, -5.98388195037841800000e+000) (38, 3.43663930892944340000e-001) (39, -1.07422269880771640000e-001) (40, -7.17656183242797850000e+000) (41, -7.43706321716308590000e+000) (42, -7.46935796737670900000e+000) (43, -7.02459621429443360000e+000) (44, -6.65794086456298830000e+000) (45, -6.96001243591308590000e+000) (46, -6.85642910003662110000e+000) (47, -6.29738759994506840000e+000) (48, -6.47996187210083010000e+000) (49, -4.27512454986572270000e+000) (50, -6.66303682327270510000e+000) (51, -6.72480154037475590000e+000) (52, -7.28883934020996090000e+000) (53, -6.39173030853271480000e+000) (54, -7.11398506164550780000e+000) (55, -6.53375482559204100000e+000) (56, 1.44372761249542240000e-001) (57, -7.17125606536865230000e+000) (58, -7.04188871383666990000e+000) (59, -7.13240242004394530000e+000) (60, -6.21266651153564450000e+000) (61, -7.09381532669067380000e+000) (62, -7.07523298263549800000e+000) (63, -7.46941328048706050000e+000) (64, -6.23634338378906250000e+000) (65, -7.08424425125122070000e+000) (66, -1.49435654282569890000e-001) (67, -1.70469000935554500000e-001) (68, -7.44167995452880860000e+000) (69, -7.10356712341308590000e+000) (70, -7.20926761627197270000e+000) (71, -7.35773611068725590000e+000) (72, -6.78657341003417970000e+000) (73, -7.44572496414184570000e+000) (74, -6.48320007324218750000e+000) (75, -7.22475671768188480000e+000) (76, -7.26774787902832030000e+000) (77, -7.35171651840209960000e+000) (11, -7.35000181198120120000e+000) (12, -4.62790584564208980000e+000) (13, -6.13240289688110350000e+000) (14, -1.85253664851188660000e-001) (15, -7.71830844879150390000e+000) (16, -1.25452011823654170000e-001) (17, -7.66202259063720700000e+000) (18, -7.28492116928100590000e+000) (19, -6.97242689132690430000e+000) (20, -6.28774213790893550000e+000) (21, -7.27972984313964840000e+000) (22, 1.86980504076927900000e-003) (23, -5.23277187347412110000e+000) (24, -6.90167903900146480000e+000) (25, -3.87443423271179200000e+000) (26, 6.70328289270401000000e-002) (27, -2.59259271621704100000e+000) (28, -6.92956733703613280000e+000) (29, -6.90780544281005860000e+000) (30, -7.17372989654541020000e+000) (31, -7.47086668014526370000e+000) (32, -7.21909904479980470000e+000) (33, -6.86046886444091800000e+000) (34, -1.75701260566711430000e-001) (35, -3.18446731567382810000e+000) (36, -6.98061847686767580000e+000) (37, -5.92054653167724610000e+000) (38, -4.48052845895290370000e-002) (39, -1.17562927305698390000e-001) (40, -7.15795326232910160000e+000) (41, -7.19947576522827150000e+000) (42, -6.92673158645629880000e+000) (43, -7.68377351760864260000e+000) (44, -7.19114780426025390000e+000) (45, -6.46583271026611330000e+000) (46, -6.33126878738403320000e+000) (47, -6.07619619369506840000e+000) (48, -6.16904640197753910000e+000) (49, -4.38521909713745120000e+000) (50, -7.41045284271240230000e+000) (51, -6.15392303466796870000e+000) (52, -6.80225276947021480000e+000) (53, -6.65901327133178710000e+000) (54, -7.00404977798461910000e+000) (55, -7.13713312149047850000e+000) (56, 3.50700855255126950000e-001) (57, -6.56011152267456050000e+000) (58, -6.89555597305297850000e+000) (59, -6.38673830032348630000e+000) (60, -5.93565750122070310000e+000) (61, -7.30742168426513670000e+000) (62, -7.71896171569824220000e+000) (63, -7.48847675323486330000e+000) (64, -5.25284147262573240000e+000) (65, -6.99298858642578130000e+000) (66, -1.47663190960884090000e-001) (67, -1.95897147059440610000e-001) (68, -6.92178392410278320000e+000) (69, -6.94840717315673830000e+000) (70, -7.69792461395263670000e+000) (71, -6.97742795944213870000e+000) (72, -7.14462804794311520000e+000) (73, -7.59969091415405270000e+000) (74, -6.92763614654541020000e+000) (75, -7.29968214035034180000e+000) (76, -7.78912973403930660000e+000) (77, -7.81828784942626950000e+000) (11, -7.59760475158691410000e+000) (12, -3.38321709632873540000e+000) (13, -8.27662658691406250000e+000) (14, 2.77120918035507200000e-001) (15, -8.32467460632324220000e+000) (16, -6.17996565997600560000e-002) (17, -8.68754673004150390000e+000) (18, -8.50863838195800780000e+000) (19, -4.40527153015136720000e+000) (20, -3.93366146087646480000e+000) (21, -8.21253585815429690000e+000) (22, -1.47935329005122180000e-002) (23, -3.12179684638977050000e+000) (24, -8.27966880798339840000e+000) (25, -2.89393067359924320000e+000) (26, 2.29502037167549130000e-001) (27, -2.31637382507324220000e+000) (28, -8.34471702575683590000e+000) (29, -8.21696853637695310000e+000) (30, -8.14349269866943360000e+000) (31, -7.99638128280639650000e+000) (32, -8.26332664489746090000e+000) (33, -8.17347049713134770000e+000) (34, -3.17296385765075680000e-001) (35, -2.12027335166931150000e+000) (36, -8.60503101348876950000e+000) (37, -3.17135214805603030000e+000) (38, -3.69864970445632930000e-001) (39, -1.00518852472305300000e-001) (40, -8.89017963409423830000e+000) (41, -8.11893939971923830000e+000) (42, -8.83957099914550780000e+000) (43, -8.55144882202148440000e+000) (44, -8.02778911590576170000e+000) (45, -8.02876853942871090000e+000) (46, -3.74902868270874020000e+000) (47, -3.37521743774414060000e+000) (48, -3.72036623954772950000e+000) (49, -3.70961165428161620000e+000) (50, -8.79020500183105470000e+000) (51, -4.09487199783325200000e+000) (52, -4.00593566894531250000e+000) (53, -3.83072710037231450000e+000) (54, -8.27767944335937500000e+000) (55, -8.75784397125244140000e+000) (56, -2.85162866115570070000e-001) (57, -3.85548377037048340000e+000) (58, -8.93511104583740230000e+000) (59, -3.64583945274353030000e+000) (60, -3.94012260437011720000e+000) (61, -8.30181121826171880000e+000) (62, -8.25698280334472660000e+000) (63, -8.92841053009033200000e+000) (64, -3.64965748786926270000e+000) (65, -8.66879081726074220000e+000) (66, -3.11343520879745480000e-001) (67, -4.23759192228317260000e-001) (68, -8.19835758209228520000e+000) (69, -8.05292320251464840000e+000) (70, -8.16744995117187500000e+000) (71, -8.05707454681396480000e+000) (72, -8.55152988433837890000e+000) (73, -8.71404266357421870000e+000) (74, -8.68288516998291020000e+000) (75, -8.31773853302001950000e+000) (76, -8.11616134643554690000e+000) (77, -8.46722888946533200000e+000) (11, -6.66453361511230470000e+000) (12, -4.58764028549194340000e+000) (13, -6.08657693862915040000e+000) (14, -2.78910309076309200000e-001) (15, -7.54769515991210940000e+000) (16, 3.28612565994262700000e-001) (17, -6.93023395538330080000e+000) (18, -7.17018270492553710000e+000) (19, -6.89146471023559570000e+000) (20, -6.71685123443603520000e+000) (21, -7.40059328079223630000e+000) (22, -4.53820228576660160000e-001) (23, -5.59336233139038090000e+000) (24, -6.66697740554809570000e+000) (25, -3.55453944206237790000e+000) (26, -3.20574849843978880000e-001) (27, -3.48556590080261230000e+000) (28, -7.00546741485595700000e+000) (29, -6.93929052352905270000e+000) (30, -7.46604108810424800000e+000) (31, -6.78994607925415040000e+000) (32, -6.75650978088378910000e+000) (33, -7.42788505554199220000e+000) (34, -5.48826903104782100000e-002) (35, -2.70233869552612300000e+000) (36, -7.55323982238769530000e+000) (37, -6.06375885009765620000e+000) (38, -3.62189501523971560000e-001) (39, -3.38499210774898530000e-002) (40, -6.94888353347778320000e+000) (41, -7.54283714294433590000e+000) (42, -6.63020992279052730000e+000) (43, -7.29671049118041990000e+000) (44, -7.29436254501342770000e+000) (45, -6.34389925003051760000e+000) (46, -6.18512105941772460000e+000) (47, -6.21209907531738280000e+000) (48, -6.51645803451538090000e+000) (49, -5.21494722366333010000e+000) (50, -7.40591907501220700000e+000) (51, -6.37644338607788090000e+000) (52, -6.84512090682983400000e+000) (53, -6.43158483505249020000e+000) (54, -7.40598964691162110000e+000) (55, -7.45631504058837890000e+000) (56, -2.23029822111129760000e-001) (57, -6.68460226058959960000e+000) (58, -6.83224534988403320000e+000) (59, -6.30430221557617190000e+000) (60, -6.93323278427124020000e+000) (61, -6.62406969070434570000e+000) (62, -7.41639757156372070000e+000) (63, -7.29560947418212890000e+000) (64, -6.13209819793701170000e+000) (65, -6.74988508224487300000e+000) (66, -1.73730805516242980000e-001) (67, -2.91193634271621700000e-001) (68, -7.38624477386474610000e+000) (69, -7.51504755020141600000e+000) (70, -7.43680620193481450000e+000) (71, -7.09275484085083010000e+000) (72, -7.35719680786132810000e+000) (73, -6.89922618865966800000e+000) (74, -6.69364166259765620000e+000) (75, -7.09359741210937500000e+000) (76, -6.71620368957519530000e+000) (77, -7.31108856201171870000e+000) (11, -7.61342668533325200000e+000) (12, -4.35685443878173830000e+000) (13, -5.90928125381469730000e+000) (14, 1.44647344946861270000e-001) (15, -7.14915752410888670000e+000) (16, -5.06213307380676270000e-001) (17, -6.99197340011596680000e+000) (18, -7.49097204208374020000e+000) (19, -6.98373079299926760000e+000) (20, -6.63561820983886720000e+000) (21, -7.66677761077880860000e+000) (22, 3.54303807020187380000e-001) (23, -4.79882383346557620000e+000) (24, -7.42808055877685550000e+000) (25, -3.72315382957458500000e+000) (26, 1.91683083772659300000e-001) (27, -2.83981895446777340000e+000) (28, -6.98878431320190430000e+000) (29, -7.12584447860717770000e+000) (30, -6.86167049407958980000e+000) (31, -6.20003557205200200000e+000) (32, -7.15622854232788090000e+000) (33, -7.09142971038818360000e+000) (34, -1.07913255691528320000e+000) (35, -2.59852695465087890000e+000) (36, -7.15420055389404300000e+000) (37, -5.98936367034912110000e+000) (38, 3.83176058530807500000e-001) (39, -3.11319112777709960000e-001) (40, -7.55646133422851560000e+000) (41, -7.55000877380371090000e+000) (42, -7.28137683868408200000e+000) (43, -7.33926486968994140000e+000) (44, -6.12929296493530270000e+000) (45, -6.56772756576538090000e+000) (46, -6.79247570037841800000e+000) (47, -7.18993711471557620000e+000) (48, -6.12369251251220700000e+000) (49, -4.46233415603637700000e+000) (50, -7.41037321090698240000e+000) (51, -6.87586593627929690000e+000) (52, -6.59319162368774410000e+000) (53, -6.03773260116577150000e+000) (54, -7.60980224609375000000e+000) (55, -7.22882080078125000000e+000) (56, 2.40246951580047610000e-001) (57, -7.61116933822631840000e+000) (58, -7.14830541610717770000e+000) (59, -6.04789495468139650000e+000) (60, -6.29855871200561520000e+000) (61, -7.22102737426757810000e+000) (62, -7.51792192459106450000e+000) (63, -7.00213241577148440000e+000) (64, -5.22931337356567380000e+000) (65, -7.09840869903564450000e+000) (66, 3.11150342226028440000e-001) (67, -2.79838562011718750000e-001) (68, -7.67022848129272460000e+000) (69, -7.65453100204467770000e+000) (70, -6.98458147048950200000e+000) (71, -7.24064540863037110000e+000) (72, -7.51434755325317380000e+000) (73, -7.41298770904541020000e+000) (74, -7.45200824737548830000e+000) (75, -6.81717300415039060000e+000) (76, -6.81993818283081050000e+000) (77, -7.18148899078369140000e+000) (11, -7.42428493499755860000e+000) (12, -4.05928897857666020000e+000) (13, -6.87892627716064450000e+000) (14, -8.94486159086227420000e-002) (15, -7.00610685348510740000e+000) (16, -3.02343487739562990000e-001) (17, -7.63691997528076170000e+000) (18, -7.21614408493041990000e+000) (19, -6.70736789703369140000e+000) (20, -6.05047321319580080000e+000) (21, -7.33390378952026370000e+000) (22, -7.84522593021392820000e-002) (23, -5.13557863235473630000e+000) (24, -7.31864166259765620000e+000) (25, -3.25466227531433110000e+000) (26, -3.08747023344039920000e-001) (27, -3.61255192756652830000e+000) (28, -6.74411869049072270000e+000) (29, -7.03442001342773440000e+000) (30, -7.48874616622924800000e+000) (31, -7.42454671859741210000e+000) (32, -7.35242366790771480000e+000) (33, -7.07458925247192380000e+000) (34, -2.17011377215385440000e-001) (35, -2.16470599174499510000e+000) (36, -6.70312404632568360000e+000) (37, -6.24986171722412110000e+000) (38, -3.99346143007278440000e-001) (39, 1.24330669641494750000e-001) (40, -7.34242534637451170000e+000) (41, -7.14155101776123050000e+000) (42, -7.13280773162841800000e+000) (43, -7.14002418518066410000e+000) (44, -6.75728034973144530000e+000) (45, -6.25041198730468750000e+000) (46, -6.16001653671264650000e+000) (47, -6.38908672332763670000e+000) (48, -6.10123586654663090000e+000) (49, -5.18462276458740230000e+000) (50, -7.28502178192138670000e+000) (51, -6.88266849517822270000e+000) (52, -6.24057483673095700000e+000) (53, -6.41885375976562500000e+000) (54, -6.88228940963745120000e+000) (55, -6.69172668457031250000e+000) (56, -8.22874233126640320000e-002) (57, -6.16231918334960940000e+000) (58, -7.12931108474731450000e+000) (59, -6.97414827346801760000e+000) (60, -6.49847698211669920000e+000) (61, -7.51252174377441410000e+000) (62, -7.49405670166015630000e+000) (63, -6.87745237350463870000e+000) (64, -5.98734998703002930000e+000) (65, -7.33865308761596680000e+000) (66, -5.05617260932922360000e-001) (67, 1.87811464071273800000e-001) (68, -7.39631748199462890000e+000) (69, -7.17069196701049800000e+000) (70, -7.31175661087036130000e+000) (71, -7.38928222656250000000e+000) (72, -7.50059795379638670000e+000) (73, -6.87976551055908200000e+000) (74, -6.86671829223632810000e+000) (75, -6.92590141296386720000e+000) (76, -7.50034523010253910000e+000) (77, -7.48334312438964840000e+000) (11, -7.12858629226684570000e+000) (12, -4.55461931228637700000e+000) (13, -7.63400459289550780000e+000) (14, -3.86410564184188840000e-001) (15, -7.49564456939697270000e+000) (16, 3.36930483579635620000e-001) (17, -7.85930061340332030000e+000) (18, -7.58419704437255860000e+000) (19, -5.91797113418579100000e+000) (20, -6.13069105148315430000e+000) (21, -7.68507528305053710000e+000) (22, -2.14948095381259920000e-002) (23, -4.92241382598876950000e+000) (24, -7.07836151123046870000e+000) (25, -3.65399861335754390000e+000) (26, 2.89985239505767820000e-001) (27, -3.17912578582763670000e+000) (28, -7.71195650100708010000e+000) (29, -7.37028789520263670000e+000) (30, -7.84413337707519530000e+000) (31, -7.62270069122314450000e+000) (32, -7.11284542083740230000e+000) (33, -6.91616201400756840000e+000) (34, -3.39227199554443360000e-001) (35, -2.28393483161926270000e+000) (36, -7.56655120849609370000e+000) (37, -5.81700086593627930000e+000) (38, -3.81037294864654540000e-002) (39, -7.00891986489295960000e-002) (40, -7.61104679107666020000e+000) (41, -7.06831502914428710000e+000) (42, -7.18833398818969730000e+000) (43, -7.10136556625366210000e+000) (44, -7.88274955749511720000e+000) (45, -7.10098218917846680000e+000) (46, -6.22884416580200200000e+000) (47, -5.48895168304443360000e+000) (48, -5.75369453430175780000e+000) (49, -4.36019468307495120000e+000) (50, -7.47317504882812500000e+000) (51, -5.63335371017456050000e+000) (52, -5.48894977569580080000e+000) (53, -5.94313383102416990000e+000) (54, -7.44221305847167970000e+000) (55, -7.28572940826416020000e+000) (56, -2.21639007329940800000e-001) (57, -6.05406856536865230000e+000) (58, -7.55451965332031250000e+000) (59, -5.46379137039184570000e+000) (60, -5.98651361465454100000e+000) (61, -7.37952089309692380000e+000) (62, -7.82293415069580080000e+000) (63, -7.41043949127197270000e+000) (64, -5.52690744400024410000e+000) (65, -7.72818326950073240000e+000) (66, 8.58729481697082520000e-002) (67, 3.11394363641738890000e-001) (68, -7.74904394149780270000e+000) (69, -7.07003450393676760000e+000) (70, -6.94299459457397460000e+000) (71, -7.75822496414184570000e+000) (72, -7.74451351165771480000e+000) (73, -7.05506658554077150000e+000) (74, -7.03638935089111330000e+000) (75, -6.94934368133544920000e+000) (76, -7.07260751724243160000e+000) (77, -6.99230909347534180000e+000) (11, -7.02318286895751950000e+000) (12, -4.05058240890502930000e+000) (13, -6.42577362060546870000e+000) (14, -2.87533402442932130000e-001) (15, -7.51229047775268550000e+000) (16, -2.75354117155075070000e-001) (17, -7.43566036224365230000e+000) (18, -6.71570158004760740000e+000) (19, -6.58884525299072270000e+000) (20, -6.85878992080688480000e+000) (21, -7.34063243865966800000e+000) (22, -3.34957808256149290000e-001) (23, -5.66577243804931640000e+000) (24, -6.64364480972290040000e+000) (25, -3.71611785888671870000e+000) (26, -1.77934154868125920000e-001) (27, -3.43967604637146000000e+000) (28, -7.18374633789062500000e+000) (29, -7.30500411987304690000e+000) (30, -6.91542577743530270000e+000) (31, -6.91376733779907230000e+000) (32, -7.39480686187744140000e+000) (33, -7.06877946853637700000e+000) (34, 1.57248854637146000000e-001) (35, -2.14777445793151860000e+000) (36, -7.23348951339721680000e+000) (37, -6.42844724655151370000e+000) (38, 2.09610119462013240000e-001) (39, -4.70075339078903200000e-001) (40, -6.81347227096557620000e+000) (41, -6.61061477661132810000e+000) (42, -7.26861190795898440000e+000) (43, -7.03701496124267580000e+000) (44, -6.54682588577270510000e+000) (45, -6.51640748977661130000e+000) (46, -6.21020555496215820000e+000) (47, -6.28190946578979490000e+000) (48, -6.53398036956787110000e+000) (49, -4.78043460845947270000e+000) (50, -7.43500804901123050000e+000) (51, -7.06944084167480470000e+000) (52, -6.50284957885742190000e+000) (53, -6.23080730438232420000e+000) (54, -7.31855058670043950000e+000) (55, -6.85630321502685550000e+000) (56, -1.88911154866218570000e-001) (57, -7.13905191421508790000e+000) (58, -7.56736660003662110000e+000) (59, -6.60397148132324220000e+000) (60, -6.91461277008056640000e+000) (61, -7.06365251541137700000e+000) (62, -6.79802989959716800000e+000) (63, -7.52629470825195310000e+000) (64, -6.01318836212158200000e+000) (65, -7.18909358978271480000e+000) (66, -1.59977376461029050000e-001) (67, 3.30327212810516360000e-001) (68, -7.21907711029052730000e+000) (69, -7.19224500656127930000e+000) (70, -6.76629066467285160000e+000) (71, -7.48804426193237300000e+000) (72, -6.78492784500122070000e+000) (73, -7.36716222763061520000e+000) (74, -7.13475465774536130000e+000) (75, -6.87120771408081050000e+000) (76, -7.17448377609252930000e+000) (77, -7.33376026153564450000e+000) (11, -7.55799627304077150000e+000) (12, -3.36770439147949220000e+000) (13, -7.77002859115600590000e+000) (14, -1.12434230744838710000e-001) (15, -8.22843933105468750000e+000) (16, -2.41523683071136470000e-001) (17, -8.18946552276611330000e+000) (18, -8.29639053344726560000e+000) (19, -4.30020427703857420000e+000) (20, -3.91859555244445800000e+000) (21, -8.17786884307861330000e+000) (22, -2.52646714448928830000e-001) (23, -4.34664011001586910000e+000) (24, -8.22170925140380860000e+000) (25, -3.40302300453186040000e+000) (26, -4.60169129073619840000e-002) (27, -2.38068604469299320000e+000) (28, -7.69809913635253910000e+000) (29, -8.41067409515380860000e+000) (30, -8.45782661437988280000e+000) (31, -8.32624530792236330000e+000) (32, -7.77683687210083010000e+000) (33, -7.95942211151123050000e+000) (34, -4.84351366758346560000e-002) (35, -2.38477849960327150000e+000) (36, -8.17804813385009770000e+000) (37, -4.25468683242797850000e+000) (38, -5.88793978095054630000e-002) (39, 5.49434535205364230000e-002) (40, -8.44931697845458980000e+000) (41, -7.79869699478149410000e+000) (42, -8.50074863433837890000e+000) (43, -8.44163322448730470000e+000) (44, -8.62433338165283200000e+000) (45, -7.90107440948486330000e+000) (46, -3.99621272087097170000e+000) (47, -4.35637474060058590000e+000) (48, -4.45967864990234370000e+000) (49, -3.90233206748962400000e+000) (50, -7.85436058044433590000e+000) (51, -4.18909025192260740000e+000) (52, -3.91830682754516600000e+000) (53, -3.83020591735839840000e+000) (54, -8.76865673065185550000e+000) (55, -7.92405509948730470000e+000) (56, -1.08089303970336910000e+000) (57, -4.30360603332519530000e+000) (58, -8.03859996795654300000e+000) (59, -4.55983781814575200000e+000) (60, -4.42181587219238280000e+000) (61, -7.86680603027343750000e+000) (62, -8.67289161682128910000e+000) (63, -7.83567333221435550000e+000) (64, -4.07016754150390620000e+000) (65, -8.10050201416015620000e+000) (66, 3.51119518280029300000e-001) (67, 1.99209917336702350000e-002) (68, -7.86567592620849610000e+000) (69, -8.69301033020019530000e+000) (70, -8.65455436706542970000e+000) (71, -7.83823394775390620000e+000) (72, -8.03061199188232420000e+000) (73, -7.82061052322387700000e+000) (74, -7.65914773941040040000e+000) (75, -8.27245712280273440000e+000) (76, -8.15164852142333980000e+000) (77, -7.86572599411010740000e+000) (11, -7.69927692413330080000e+000) (12, -4.14332008361816410000e+000) (13, -7.30266714096069340000e+000) (14, 1.33566394448280330000e-001) (15, -7.77344608306884770000e+000) (16, 2.16379210352897640000e-001) (17, -7.16294288635253910000e+000) (18, -7.11276817321777340000e+000) (19, -6.30837345123291020000e+000) (20, -6.51494789123535160000e+000) (21, -7.60236024856567380000e+000) (22, 1.23264901340007780000e-001) (23, -4.89596939086914060000e+000) (24, -7.07837438583374020000e+000) (25, -4.06818962097167970000e+000) (26, -2.46899187564849850000e-001) (27, -3.25807499885559080000e+000) (28, -7.61763095855712890000e+000) (29, -7.22060680389404300000e+000) (30, -7.47620725631713870000e+000) (31, -7.09217453002929690000e+000) (32, -6.79518795013427730000e+000) (33, -6.88151788711547850000e+000) (34, 1.62533804774284360000e-001) (35, -2.83282661437988280000e+000) (36, -7.34928750991821290000e+000) (37, -6.11460971832275390000e+000) (38, 3.58698159456253050000e-001) (39, 1.91521078348159790000e-001) (40, -7.02316617965698240000e+000) (41, -7.65152263641357420000e+000) (42, -6.97060251235961910000e+000) (43, -7.45571804046630860000e+000) (44, -7.60961961746215820000e+000) (45, -6.79935503005981450000e+000) (46, -5.68312740325927730000e+000) (47, -5.69317579269409180000e+000) (48, -6.37730836868286130000e+000) (49, -4.39327144622802730000e+000) (50, -7.61839914321899410000e+000) (51, -5.95639562606811520000e+000) (52, -6.56927776336669920000e+000) (53, -6.02601480484008790000e+000) (54, -7.33703947067260740000e+000) (55, -7.23820304870605470000e+000) (56, -4.23750847578048710000e-001) (57, -6.08118820190429690000e+000) (58, -7.40176725387573240000e+000) (59, -6.09247493743896480000e+000) (60, -5.66974782943725590000e+000) (61, -7.40895557403564450000e+000) (62, -7.29598331451416020000e+000) (63, -7.00943613052368160000e+000) (64, -5.11640596389770510000e+000) (65, -7.43911886215209960000e+000) (66, 3.97554218769073490000e-001) (67, -9.93769019842147830000e-002) (68, -7.56542778015136720000e+000) (69, -7.77743959426879880000e+000) (70, -6.90808820724487300000e+000) (71, -6.99372005462646480000e+000) (72, -7.58320045471191410000e+000) (73, -7.41738462448120120000e+000) (74, -7.12878942489624020000e+000) (75, -7.23938465118408200000e+000) (76, -7.13153600692749020000e+000) (77, -7.14848518371582030000e+000) (11, -6.55325317382812500000e+000) (12, -4.63015174865722660000e+000) (13, -6.68678998947143550000e+000) (14, -3.42841058969497680000e-001) (15, -7.10356283187866210000e+000) (16, -2.89986759424209590000e-001) (17, -7.21860074996948240000e+000) (18, -7.53979158401489260000e+000) (19, -6.81222295761108400000e+000) (20, -6.38159608840942380000e+000) (21, -7.05439233779907230000e+000) (22, 2.25253418087959290000e-001) (23, -4.85079145431518550000e+000) (24, -6.94869852066040040000e+000) (25, -3.83093500137329100000e+000) (26, 2.07371428608894350000e-001) (27, -2.86472415924072270000e+000) (28, -7.49080657958984380000e+000) (29, -7.49189186096191410000e+000) (30, -6.61039400100708010000e+000) (31, -7.07169723510742190000e+000) (32, -7.40706205368041990000e+000) (33, -7.21640682220458980000e+000) (34, 3.59172254800796510000e-001) (35, -2.63181900978088380000e+000) (36, -7.48228740692138670000e+000) (37, -6.43890142440795900000e+000) (38, 3.44223946332931520000e-001) (39, 2.84193813800811770000e-001) (40, -6.76663446426391600000e+000) (41, -6.96526098251342770000e+000) (42, -6.97498607635498050000e+000) (43, -6.94267368316650390000e+000) (44, -7.13900089263916020000e+000) (45, -6.89212560653686520000e+000) (46, -6.73781871795654300000e+000) (47, -6.56412696838378910000e+000) (48, -6.39317464828491210000e+000) (49, -4.84851169586181640000e+000) (50, -7.42786645889282230000e+000) (51, -6.87753152847290040000e+000) (52, -7.13690996170043950000e+000) (53, -6.11393165588378910000e+000) (54, -6.90305852890014650000e+000) (55, -6.78089857101440430000e+000) (56, 4.17688071727752690000e-001) (57, -6.79668283462524410000e+000) (58, -7.25699520111083980000e+000) (59, -6.95737791061401370000e+000) (60, -6.51702690124511720000e+000) (61, -7.09915971755981450000e+000) (62, -7.20205926895141600000e+000) (63, -7.18914651870727540000e+000) (64, -5.40736961364746090000e+000) (65, -6.76132726669311520000e+000) (66, 1.64659425616264340000e-001) (67, -1.21971093118190770000e-001) (68, -7.45512485504150390000e+000) (69, -7.42007637023925780000e+000) (70, -7.33447837829589840000e+000) (71, -6.93345642089843750000e+000) (72, -7.31183910369873050000e+000) (73, -7.46540498733520510000e+000) (74, -7.22220468521118160000e+000) (75, -7.36173868179321290000e+000) (76, -6.86699724197387700000e+000) (77, -6.63223934173583980000e+000) (11, -7.50653839111328120000e+000) (12, -4.79592847824096680000e+000) (13, -7.28588247299194340000e+000) (14, -5.34095525741577150000e-001) (15, -6.80235576629638670000e+000) (16, 2.85566151142120360000e-001) (17, -7.50690889358520510000e+000) (18, -7.44601583480834960000e+000) (19, -6.33643198013305660000e+000) (20, -6.08900594711303710000e+000) (21, -7.15026617050170900000e+000) (22, 3.22440713644027710000e-001) (23, -5.65734672546386720000e+000) (24, -7.27928829193115230000e+000) (25, -3.32301068305969240000e+000) (26, 3.57341885566711430000e-001) (27, -3.15712547302246090000e+000) (28, -7.25498867034912110000e+000) (29, -7.41326045989990230000e+000) (30, -6.76292848587036130000e+000) (31, -6.85717773437500000000e+000) (32, -6.74589157104492190000e+000) (33, -7.33778715133666990000e+000) (34, 2.76986956596374510000e-002) (35, -2.98470711708068850000e+000) (36, -7.45825242996215820000e+000) (37, -5.97243547439575200000e+000) (38, 1.24206945300102230000e-001) (39, 2.24806115031242370000e-001) (40, -7.28091049194335940000e+000) (41, -7.65886306762695310000e+000) (42, -7.06300497055053710000e+000) (43, -7.34908246994018550000e+000) (44, -7.46639776229858400000e+000) (45, -6.59257650375366210000e+000) (46, -6.67115402221679690000e+000) (47, -6.57324409484863280000e+000) (48, -5.96968317031860350000e+000) (49, -4.49486827850341800000e+000) (50, -7.13146114349365230000e+000) (51, -6.13850927352905270000e+000) (52, -6.66759824752807620000e+000) (53, -5.90667867660522460000e+000) (54, -7.76880264282226560000e+000) (55, -6.95016050338745120000e+000) (56, -7.52312019467353820000e-002) (57, -6.36856698989868160000e+000) (58, -6.80908727645874020000e+000) (59, -5.77088165283203130000e+000) (60, -6.12066650390625000000e+000) (61, -7.24185466766357420000e+000) (62, -7.44543266296386720000e+000) (63, -7.52300643920898440000e+000) (64, -5.46340274810791020000e+000) (65, -7.49151849746704100000e+000) (66, -3.05826097726821900000e-001) (67, -3.08468669652938840000e-001) (68, -6.82207822799682620000e+000) (69, -7.13183355331420900000e+000) (70, -6.76610708236694340000e+000) (71, -7.34741163253784180000e+000) (72, -7.18067884445190430000e+000) (73, -7.27554607391357420000e+000) (74, -7.69942569732666020000e+000) (75, -6.86717271804809570000e+000) (76, -7.07501792907714840000e+000) (77, -7.51961898803710940000e+000) (11, -7.23542404174804690000e+000) (12, -4.14229297637939450000e+000) (13, -6.38267803192138670000e+000) (14, -1.30475535988807680000e-001) (15, -7.72568655014038090000e+000) (16, 4.02961432933807370000e-001) (17, -6.98362779617309570000e+000) (18, -6.89796924591064450000e+000) (19, -6.55604171752929690000e+000) (20, -6.31573009490966800000e+000) (21, -7.27541780471801760000e+000) (22, -3.77635359764099120000e-001) (23, -5.03749752044677730000e+000) (24, -6.93646717071533200000e+000) (25, -3.87717771530151370000e+000) (26, -1.45405843853950500000e-001) (27, -3.02870774269104000000e+000) (28, -7.61727142333984370000e+000) (29, -6.86547946929931640000e+000) (30, -6.93216657638549800000e+000) (31, -7.35767459869384770000e+000) (32, -7.35531806945800780000e+000) (33, -7.19555854797363280000e+000) (34, -2.39666074514389040000e-001) (35, -2.43986535072326660000e+000) (36, -7.76757049560546870000e+000) (37, -6.64746761322021480000e+000) (38, -1.26179948449134830000e-001) (39, -6.56481012701988220000e-002) (40, -7.24228096008300780000e+000) (41, -6.87381362915039060000e+000) (42, -7.47264623641967770000e+000) (43, -7.10587358474731450000e+000) (44, -7.21552515029907230000e+000) (45, -7.16026449203491210000e+000) (46, -6.45910549163818360000e+000) (47, -6.32682085037231450000e+000) (48, -5.86429977416992190000e+000) (49, -4.85872554779052730000e+000) (50, -6.90349102020263670000e+000) (51, -6.31452274322509770000e+000) (52, -6.10095167160034180000e+000) (53, -6.29148864746093750000e+000) (54, -7.25818967819213870000e+000) (55, -6.89597606658935550000e+000) (56, 3.67621004581451420000e-001) (57, -6.72751855850219730000e+000) (58, -7.11885356903076170000e+000) (59, -6.78684711456298830000e+000) (60, -6.32317113876342770000e+000) (61, -6.76771545410156250000e+000) (62, -7.37655591964721680000e+000) (63, -7.44326400756835940000e+000) (64, -5.86594724655151370000e+000) (65, -7.56495380401611330000e+000) (66, 1.97215706110000610000e-001) (67, -4.42205220460891720000e-001) (68, -7.72083759307861330000e+000) (69, -6.91586065292358400000e+000) (70, -7.50890970230102540000e+000) (71, -7.55358886718750000000e+000) (72, -7.51027011871337890000e+000) (73, -7.21878194808959960000e+000) (74, -7.27798795700073240000e+000) (75, -6.91726493835449220000e+000) (76, -7.44636344909667970000e+000) (77, -7.17389345169067380000e+000) (11, -7.38680028915405270000e+000) (12, -4.73388671875000000000e+000) (13, -5.97229671478271480000e+000) (14, 4.24556016921997070000e-001) (15, -6.90814065933227540000e+000) (16, 3.16580355167388920000e-001) (17, -7.65097188949584960000e+000) (18, -7.42893934249877930000e+000) (19, -6.39663076400756840000e+000) (20, -6.78044319152832030000e+000) (21, -7.40954732894897460000e+000) (22, -2.77879893779754640000e-001) (23, -5.64279747009277340000e+000) (24, -7.31893777847290040000e+000) (25, -3.23431253433227540000e+000) (26, 2.30246886610984800000e-001) (27, -3.35334491729736330000e+000) (28, -7.52847099304199220000e+000) (29, -6.90465497970581050000e+000) (30, -6.85960435867309570000e+000) (31, -7.46128177642822270000e+000) (32, -6.76730251312255860000e+000) (33, -7.13599109649658200000e+000) (34, -2.03072890639305110000e-001) (35, -2.94744682312011720000e+000) (36, -7.65370988845825200000e+000) (37, -6.70777511596679690000e+000) (38, -4.76922601461410520000e-001) (39, 6.34845793247222900000e-002) (40, -7.09494638442993160000e+000) (41, -7.33442401885986330000e+000) (42, -7.20451498031616210000e+000) (43, -6.98107481002807620000e+000) (44, -6.79750728607177730000e+000) (45, -7.09305429458618160000e+000) (46, -6.88535928726196290000e+000) (47, -6.11281776428222660000e+000) (48, -6.17890882492065430000e+000) (49, -4.45294046401977540000e+000) (50, -6.89746046066284180000e+000) (51, -6.78548479080200200000e+000) (52, -6.79693794250488280000e+000) (53, -6.19757556915283200000e+000) (54, -7.49709987640380860000e+000) (55, -6.99709081649780270000e+000) (56, -4.31944400072097780000e-001) (57, -6.84934329986572270000e+000) (58, -7.09827995300292970000e+000) (59, -6.85618257522583010000e+000) (60, -6.31449699401855470000e+000) (61, -6.98694276809692380000e+000) (62, -7.02649497985839840000e+000) (63, -7.30897569656372070000e+000) (64, -5.69018363952636720000e+000) (65, -6.77793788909912110000e+000) (66, -4.07192185521125790000e-002) (67, -2.74911314249038700000e-001) (68, -7.44619798660278320000e+000) (69, -6.93165731430053710000e+000) (70, -6.91182470321655270000e+000) (71, -6.75267744064331050000e+000) (72, -7.20700550079345700000e+000) (73, -7.08280134201049800000e+000) (74, -6.74403810501098630000e+000) (75, -7.13273286819458010000e+000) (76, -7.29153347015380860000e+000) (77, -6.89743471145629880000e+000) (11, -6.85817098617553710000e+000) (12, -4.02871561050415040000e+000) (13, -6.45910453796386720000e+000) (14, -1.33661523461341860000e-001) (15, -7.14771318435668950000e+000) (16, -2.81311035156250000000e-001) (17, -7.52317857742309570000e+000) (18, -7.61417055130004880000e+000) (19, -6.89069318771362300000e+000) (20, -6.24051856994628910000e+000) (21, -6.91907882690429690000e+000) (22, -3.77915471792221070000e-001) (23, -5.68624877929687500000e+000) (24, -7.00895595550537110000e+000) (25, -3.36226511001586910000e+000) (26, 2.79650777578353880000e-001) (27, -2.72920608520507810000e+000) (28, -7.68551588058471680000e+000) (29, -7.45481014251708980000e+000) (30, -7.42797803878784180000e+000) (31, -7.35706710815429690000e+000) (32, -7.63158750534057620000e+000) (33, -6.73315000534057620000e+000) (34, -2.55223453044891360000e-001) (35, -2.24360728263854980000e+000) (36, -6.82426261901855470000e+000) (37, -6.41926431655883790000e+000) (38, 3.30301702022552490000e-001) (39, -5.56016147136688230000e-001) (40, -7.33090591430664060000e+000) (41, -6.93948793411254880000e+000) (42, -7.12767171859741210000e+000) (43, -7.40367269515991210000e+000) (44, -6.82565355300903320000e+000) (45, -6.87813186645507810000e+000) (46, -6.39770793914794920000e+000) (47, -6.62373590469360350000e+000) (48, -6.20554685592651370000e+000) (49, -4.97125864028930660000e+000) (50, -7.05773448944091800000e+000) (51, -6.45693492889404300000e+000) (52, -6.32790946960449220000e+000) (53, -6.32635545730590820000e+000) (54, -7.26610279083251950000e+000) (55, -7.19608211517333980000e+000) (56, 7.11121335625648500000e-002) (57, -6.44143772125244140000e+000) (58, -7.57955312728881840000e+000) (59, -6.50007295608520510000e+000) (60, -6.66329431533813480000e+000) (61, -6.87936878204345700000e+000) (62, -6.77453279495239260000e+000) (63, -7.56024456024169920000e+000) (64, -6.16533708572387700000e+000) (65, -6.71812534332275390000e+000) (66, -5.38863420486450200000e-001) (67, 9.22987833619117740000e-002) (68, -7.46241855621337890000e+000) (69, -7.38814926147460940000e+000) (70, -7.17232894897460940000e+000) (71, -6.71761417388916020000e+000) (72, -7.20408296585083010000e+000) (73, -7.55396747589111330000e+000) (74, -7.07403945922851560000e+000) (75, -7.17995738983154300000e+000) (76, -7.09163093566894530000e+000) (77, -7.43020963668823240000e+000) (11, -6.70730400085449220000e+000) (12, -4.04896116256713870000e+000) (13, -6.32896900177001950000e+000) (14, 1.75390467047691350000e-001) (15, -7.25817537307739260000e+000) (16, 2.55379360169172290000e-002) (17, -7.42128658294677730000e+000) (18, -7.28942728042602540000e+000) (19, -6.77025127410888670000e+000) (20, -6.59609985351562500000e+000) (21, -6.92755126953125000000e+000) (22, -2.45983228087425230000e-001) (23, -5.21789073944091800000e+000) (24, -7.58317708969116210000e+000) (25, -3.43237233161926270000e+000) (26, 3.35164517164230350000e-001) (27, -3.32593584060668950000e+000) (28, -7.28447151184082030000e+000) (29, -6.92308282852172850000e+000) (30, -6.34721755981445310000e+000) (31, -6.30342340469360350000e+000) (32, -7.47906494140625000000e+000) (33, -7.54197835922241210000e+000) (34, -7.79100000858306880000e-001) (35, -2.80088138580322270000e+000) (36, -6.97510194778442380000e+000) (37, -6.66363430023193360000e+000) (38, -9.28082391619682310000e-002) (39, -1.16810761392116550000e-002) (40, -7.12784624099731450000e+000) (41, -6.62928009033203130000e+000) (42, -7.46605348587036130000e+000) (43, -6.66080427169799800000e+000) (44, -6.64724349975585940000e+000) (45, -6.72327613830566410000e+000) (46, -6.75667905807495120000e+000) (47, -7.20415067672729490000e+000) (48, -6.58446025848388670000e+000) (49, -4.65139532089233400000e+000) (50, -7.11918401718139650000e+000) (51, -6.51319122314453130000e+000) (52, -6.75882053375244140000e+000) (53, -6.49717569351196290000e+000) (54, -7.05507850646972660000e+000) (55, -7.58163881301879880000e+000) (56, 3.19163799285888670000e-001) (57, -6.69837045669555660000e+000) (58, -7.33636522293090820000e+000) (59, -6.25047159194946290000e+000) (60, -6.88808298110961910000e+000) (61, -6.71789360046386720000e+000) (62, -7.50702905654907230000e+000) (63, -7.05897188186645510000e+000) (64, -5.98164081573486330000e+000) (65, -6.97260427474975590000e+000) (66, 1.92546471953392030000e-001) (67, 1.89711391925811770000e-001) (68, -7.58265638351440430000e+000) (69, -6.73262643814086910000e+000) (70, -7.28366565704345700000e+000) (71, -6.86640071868896480000e+000) (72, -6.67027187347412110000e+000) (73, -7.00927448272705080000e+000) (74, -7.03377485275268550000e+000) (75, -7.45102643966674800000e+000) (76, -7.53785467147827150000e+000) (77, -7.01643657684326170000e+000) (11, -6.73041391372680660000e+000) (12, -4.45559692382812500000e+000) (13, -6.07055521011352540000e+000) (14, 1.38922572135925290000e-001) (15, -7.67666959762573240000e+000) (16, 3.13373595476150510000e-001) (17, -6.87222528457641600000e+000) (18, -6.79067373275756840000e+000) (19, -6.46931266784667970000e+000) (20, -6.37607812881469730000e+000) (21, -7.13438844680786130000e+000) (22, -2.47951090335845950000e-001) (23, -5.68200492858886720000e+000) (24, -7.08974695205688480000e+000) (25, -3.97734308242797850000e+000) (26, 5.31942350789904590000e-003) (27, -2.57504010200500490000e+000) (28, -7.04514694213867190000e+000) (29, -6.82220697402954100000e+000) (30, -6.91210079193115230000e+000) (31, -7.37340068817138670000e+000) (32, -6.93683910369873050000e+000) (33, -7.02499771118164060000e+000) (34, -1.20881550014019010000e-001) (35, -2.33270716667175290000e+000) (36, -6.95007324218750000000e+000) (37, -6.15111637115478520000e+000) (38, -1.94850154221057890000e-002) (39, 3.68858933448791500000e-001) (40, -7.22639083862304690000e+000) (41, -7.19609260559082030000e+000) (42, -7.12489175796508790000e+000) (43, -7.56579971313476560000e+000) (44, -7.31671285629272460000e+000) (45, -6.49536705017089840000e+000) (46, -6.85579919815063480000e+000) (47, -6.16758775711059570000e+000) (48, -6.60689258575439450000e+000) (49, -4.55385112762451170000e+000) (50, -7.26878499984741210000e+000) (51, -6.18120813369750980000e+000) (52, -7.06691169738769530000e+000) (53, -6.54553222656250000000e+000) (54, -7.14983081817626950000e+000) (55, -7.21844673156738280000e+000) (56, -1.06961548328399660000e-001) (57, -7.23123311996459960000e+000) (58, -7.41106033325195310000e+000) (59, -6.60886383056640620000e+000) (60, -6.95853567123413090000e+000) (61, -6.81060314178466800000e+000) (62, -6.91827917098999020000e+000) (63, -6.82361078262329100000e+000) (64, -5.60452604293823240000e+000) (65, -7.15220832824707030000e+000) (66, 2.08229884505271910000e-001) (67, -3.18157762289047240000e-001) (68, -7.62026977539062500000e+000) (69, -7.43550252914428710000e+000) (70, -7.58598089218139650000e+000) (71, -7.30844259262084960000e+000) (72, -7.35144042968750000000e+000) (73, -7.12224864959716800000e+000) (74, -7.01554918289184570000e+000) (75, -7.28746652603149410000e+000) (76, -7.23051595687866210000e+000) (77, -7.71862363815307620000e+000) (11, -7.58149480819702150000e+000) (12, -4.42852115631103520000e+000) (13, -6.14064741134643550000e+000) (14, -4.47674334049224850000e-001) (15, -6.89642763137817380000e+000) (16, 3.35664927959442140000e-001) (17, -6.87274217605590820000e+000) (18, -7.27793741226196290000e+000) (19, -6.84979915618896480000e+000) (20, -6.21560382843017580000e+000) (21, -7.08481979370117190000e+000) (22, -3.21627825498580930000e-001) (23, -5.28933048248291020000e+000) (24, -7.60629272460937500000e+000) (25, -3.90886020660400390000e+000) (26, 3.61800312995910640000e-001) (27, -3.20460438728332520000e+000) (28, -6.72448110580444340000e+000) (29, -7.32132434844970700000e+000) (30, -6.45204305648803710000e+000) (31, -6.84795856475830080000e+000) (32, -6.85071611404418950000e+000) (33, -7.32168340682983400000e+000) (34, -4.17219191789627080000e-001) (35, -2.20168375968933110000e+000) (36, -7.23116493225097660000e+000) (37, -6.02778673171997070000e+000) (38, 4.36214320361614230000e-002) (39, -2.56636649370193480000e-001) (40, -7.48683452606201170000e+000) (41, -7.02470541000366210000e+000) (42, -7.27577877044677730000e+000) (43, -6.95976543426513670000e+000) (44, -6.50063133239746090000e+000) (45, -6.56023073196411130000e+000) (46, -6.61897039413452150000e+000) (47, -6.78155136108398440000e+000) (48, -6.55585432052612300000e+000) (49, -4.63464641571044920000e+000) (50, -7.10729837417602540000e+000) (51, -7.07633829116821290000e+000) (52, -6.77804660797119140000e+000) (53, -6.38241243362426760000e+000) (54, -7.04498815536499020000e+000) (55, -7.14550256729125980000e+000) (56, 4.41539555788040160000e-001) (57, -7.37754774093627930000e+000) (58, -7.08206462860107420000e+000) (59, -6.50507879257202150000e+000) (60, -7.14010715484619140000e+000) (61, -7.19467449188232420000e+000) (62, -6.92562389373779300000e+000) (63, -7.63010311126708980000e+000) (64, -5.51806068420410160000e+000) (65, -7.59324121475219730000e+000) (66, -3.19066047668457030000e-001) (67, 3.32792818546295170000e-001) (68, -7.10398769378662110000e+000) (69, -7.41770792007446290000e+000) (70, -7.32858800888061520000e+000) (71, -7.15370798110961910000e+000) (72, -7.29629945755004880000e+000) (73, -6.82221937179565430000e+000) (74, -7.46840906143188480000e+000) (75, -7.03166913986206050000e+000) (76, -6.85864973068237300000e+000) (77, -7.26145076751708980000e+000) (11, -6.90196514129638670000e+000) (12, -3.97652077674865720000e+000) (13, -6.07826232910156250000e+000) (14, 2.67574757337570190000e-001) (15, -6.91041231155395510000e+000) (16, -4.12881255149841310000e-001) (17, -7.26437759399414060000e+000) (18, -6.79250907897949220000e+000) (19, -6.97844791412353520000e+000) (20, -6.82339334487915040000e+000) (21, -6.92257404327392580000e+000) (22, -3.23015183210372920000e-001) (23, -5.44917631149291990000e+000) (24, -6.78474092483520510000e+000) (25, -3.85570597648620610000e+000) (26, 4.57144767045974730000e-001) (27, -2.66107797622680660000e+000) (28, -6.81341934204101560000e+000) (29, -7.59229135513305660000e+000) (30, -6.46050643920898440000e+000) (31, -6.86118507385253910000e+000) (32, -7.51007843017578130000e+000) (33, -7.17863321304321290000e+000) (34, -1.12056583166122440000e-001) (35, -2.45907139778137210000e+000) (36, -7.57142305374145510000e+000) (37, -6.15208339691162110000e+000) (38, -2.29799732565879820000e-001) (39, 4.24718022346496580000e-001) (40, -6.97802543640136720000e+000) (41, -6.99436521530151370000e+000) (42, -7.39873409271240230000e+000) (43, -7.27744579315185550000e+000) (44, -6.81277084350585940000e+000) (45, -6.31478595733642580000e+000) (46, -6.55532312393188480000e+000) (47, -6.33815479278564450000e+000) (48, -6.24148464202880860000e+000) (49, -5.11097002029418950000e+000) (50, -7.43798446655273440000e+000) (51, -6.89910793304443360000e+000) (52, -7.10146856307983400000e+000) (53, -6.55311822891235350000e+000) (54, -7.14882230758666990000e+000) (55, -6.96882104873657230000e+000) (56, -3.14916670322418210000e-003) (57, -7.24510860443115230000e+000) (58, -7.15293884277343750000e+000) (59, -7.14236831665039060000e+000) (60, -6.39857196807861330000e+000) (61, -7.40289497375488280000e+000) (62, -7.13232088088989260000e+000) (63, -7.51469135284423830000e+000) (64, -5.99465227127075200000e+000) (65, -7.45282936096191410000e+000) (66, 3.53869050741195680000e-001) (67, 7.54063129425048830000e-002) (68, -6.85178756713867190000e+000) (69, -7.28433942794799800000e+000) (70, -7.21193552017211910000e+000) (71, -7.54263210296630860000e+000) (72, -7.54972219467163090000e+000) (73, -7.20254755020141600000e+000) (74, -6.72064113616943360000e+000) (75, -7.58693027496337890000e+000) (76, -6.68836593627929690000e+000) (77, -6.87307453155517580000e+000) (11, -6.94713687896728520000e+000) (12, -4.25074481964111330000e+000) (13, -6.05715417861938480000e+000) (14, 2.79447436332702640000e-001) (15, -6.75013065338134770000e+000) (16, -9.05478075146675110000e-002) (17, -7.67307710647583010000e+000) (18, -7.29190587997436520000e+000) (19, -6.85802698135375980000e+000) (20, -5.91204357147216800000e+000) (21, -7.67230939865112300000e+000) (22, 4.78761166334152220000e-001) (23, -5.58544778823852540000e+000) (24, -7.48519897460937500000e+000) (25, -3.31335067749023440000e+000) (26, -4.29857261478900910000e-002) (27, -2.83751130104064940000e+000) (28, -7.13269281387329100000e+000) (29, -7.01336717605590820000e+000) (30, -6.78020524978637700000e+000) (31, -6.65748167037963870000e+000) (32, -6.91249179840087890000e+000) (33, -7.67617034912109380000e+000) (34, -1.72533422708511350000e-001) (35, -2.70575213432312010000e+000) (36, -6.78131341934204100000e+000) (37, -6.44305658340454100000e+000) (38, -4.52927768230438230000e-001) (39, 3.05205047130584720000e-001) (40, -7.70275592803955080000e+000) (41, -7.54153537750244140000e+000) (42, -7.22419738769531250000e+000) (43, -6.86571311950683590000e+000) (44, -6.82180452346801760000e+000) (45, -6.31001091003417970000e+000) (46, -6.49488878250122070000e+000) (47, -6.10030126571655270000e+000) (48, -6.70615196228027340000e+000) (49, -5.00226593017578120000e+000) (50, -7.43583679199218750000e+000) (51, -6.53932714462280270000e+000) (52, -6.76994848251342770000e+000) (53, -6.84710359573364260000e+000) (54, -7.69498443603515630000e+000) (55, -7.21165752410888670000e+000) (56, 1.69177085161209110000e-001) (57, -6.55782270431518550000e+000) (58, -7.12015247344970700000e+000) (59, -7.04973077774047850000e+000) (60, -6.26829671859741210000e+000) (61, -6.94722032546997070000e+000) (62, -7.43927955627441410000e+000) (63, -7.53561019897460940000e+000) (64, -5.63218116760253910000e+000) (65, -6.73673915863037110000e+000) (66, 