FANN_FLO_2.1
num_layers=4
learning_rate=0.700000
connection_rate=1.000000
network_type=0
learning_momentum=0.000000
training_algorithm=2
train_error_function=1
train_stop_function=0
cascade_output_change_fraction=0.010000
quickprop_decay=-0.000100
quickprop_mu=1.750000
rprop_increase_factor=1.200000
rprop_decrease_factor=0.500000
rprop_delta_min=0.000000
rprop_delta_max=50.000000
rprop_delta_zero=0.100000
cascade_output_stagnation_epochs=12
cascade_candidate_change_fraction=0.010000
cascade_candidate_stagnation_epochs=12
cascade_max_out_epochs=150
cascade_max_cand_epochs=150
cascade_num_candidate_groups=2
bit_fail_limit=3.49999994039535520000e-001
cascade_candidate_limit=1.00000000000000000000e+003
cascade_weight_multiplier=4.00000005960464480000e-001
cascade_activation_functions_count=10
cascade_activation_functions=3 5 7 8 10 11 14 15 16 17 
cascade_activation_steepnesses_count=4
cascade_activation_steepnesses=2.50000000000000000000e-001 5.00000000000000000000e-001 7.50000000000000000000e-001 1.00000000000000000000e+000 
layer_sizes=11 67 45 3 
scale_included=0
neurons (num_inputs, activation_function, activation_steepness)=(0, 0, 0.00000000000000000000e+000) (0, 0, 0.00000000000000000000e+000) (0, 0, 0.00000000000000000000e+000) (0, 0, 0.00000000000000000000e+000) (0, 0, 0.00000000000000000000e+000) (0, 0, 0.00000000000000000000e+000) (0, 0, 0.00000000000000000000e+000) (0, 0, 0.00000000000000000000e+000) (0, 0, 0.00000000000000000000e+000) (0, 0, 0.00000000000000000000e+000) (0, 0, 0.00000000000000000000e+000) (11, 10, 5.00000000000000000000e-001) (11, 10, 5.00000000000000000000e-001) (11, 10, 5.00000000000000000000e-001) (11, 10, 5.00000000000000000000e-001) (11, 10, 5.00000000000000000000e-001) (11, 10, 5.00000000000000000000e-001) (11, 10, 5.00000000000000000000e-001) (11, 10, 5.00000000000000000000e-001) (11, 10, 5.00000000000000000000e-001) (11, 10, 5.00000000000000000000e-001) (11, 10, 5.00000000000000000000e-001) (11, 10, 5.00000000000000000000e-001) (11, 10, 5.00000000000000000000e-001) (11, 10, 5.00000000000000000000e-001) (11, 10, 5.00000000000000000000e-001) (11, 10, 5.00000000000000000000e-001) (11, 10, 5.00000000000000000000e-001) (11, 10, 5.00000000000000000000e-001) (11, 10, 5.00000000000000000000e-001) (11, 10, 5.00000000000000000000e-001) (11, 10, 5.00000000000000000000e-001) (11, 10, 5.00000000000000000000e-001) (11, 10, 5.00000000000000000000e-001) (11, 10, 5.00000000000000000000e-001) (11, 10, 5.00000000000000000000e-001) (11, 10, 5.00000000000000000000e-001) (11, 10, 5.00000000000000000000e-001) (11, 10, 5.00000000000000000000e-001) (11, 10, 5.00000000000000000000e-001) (11, 10, 5.00000000000000000000e-001) (11, 10, 5.00000000000000000000e-001) (11, 10, 5.00000000000000000000e-001) (11, 10, 5.00000000000000000000e-001) (11, 10, 5.00000000000000000000e-001) (11, 10, 5.00000000000000000000e-001) (11, 10, 5.00000000000000000000e-001) (11, 10, 5.00000000000000000000e-001) (11, 10, 5.00000000000000000000e-001) (11, 10, 5.00000000000000000000e-001) (11, 10, 5.00000000000000000000e-001) (11, 10, 5.00000000000000000000e-001) (11, 10, 5.00000000000000000000e-001) (11, 10, 5.00000000000000000000e-001) (11, 10, 5.00000000000000000000e-001) (11, 10, 5.00000000000000000000e-001) (11, 10, 5.00000000000000000000e-001) (11, 10, 5.00000000000000000000e-001) (11, 10, 5.00000000000000000000e-001) (11, 10, 5.00000000000000000000e-001) (11, 10, 5.00000000000000000000e-001) (11, 10, 5.00000000000000000000e-001) (11, 10, 5.00000000000000000000e-001) (11, 10, 5.00000000000000000000e-001) (11, 10, 5.00000000000000000000e-001) (11, 10, 5.00000000000000000000e-001) (11, 10, 5.00000000000000000000e-001) (11, 10, 5.00000000000000000000e-001) (11, 10, 5.00000000000000000000e-001) (11, 10, 5.00000000000000000000e-001) (11, 10, 5.00000000000000000000e-001) (11, 10, 5.00000000000000000000e-001) (11, 10, 5.00000000000000000000e-001) (11, 10, 5.00000000000000000000e-001) (11, 10, 5.00000000000000000000e-001) (11, 10, 5.00000000000000000000e-001) (11, 10, 5.00000000000000000000e-001) (0, 10, 5.00000000000000000000e-001) (67, 10, 5.00000000000000000000e-001) (67, 10, 5.00000000000000000000e-001) (67, 10, 5.00000000000000000000e-001) (67, 10, 5.00000000000000000000e-001) (67, 10, 5.00000000000000000000e-001) (67, 10, 5.00000000000000000000e-001) (67, 10, 5.00000000000000000000e-001) (67, 10, 5.00000000000000000000e-001) (67, 10, 5.00000000000000000000e-001) (67, 10, 5.00000000000000000000e-001) (67, 10, 5.00000000000000000000e-001) (67, 10, 5.00000000000000000000e-001) (67, 10, 5.00000000000000000000e-001) (67, 10, 5.00000000000000000000e-001) (67, 10, 5.00000000000000000000e-001) (67, 10, 5.00000000000000000000e-001) (67, 10, 5.00000000000000000000e-001) (67, 10, 5.00000000000000000000e-001) (67, 10, 5.00000000000000000000e-001) (67, 10, 5.00000000000000000000e-001) (67, 10, 5.00000000000000000000e-001) (67, 10, 5.00000000000000000000e-001) (67, 10, 5.00000000000000000000e-001) (67, 10, 5.00000000000000000000e-001) (67, 10, 5.00000000000000000000e-001) (67, 10, 5.00000000000000000000e-001) (67, 10, 5.00000000000000000000e-001) (67, 10, 5.00000000000000000000e-001) (67, 10, 5.00000000000000000000e-001) (67, 10, 5.00000000000000000000e-001) (67, 10, 5.00000000000000000000e-001) (67, 10, 5.00000000000000000000e-001) (67, 10, 5.00000000000000000000e-001) (67, 10, 5.00000000000000000000e-001) (67, 10, 5.00000000000000000000e-001) (67, 10, 5.00000000000000000000e-001) (67, 10, 5.00000000000000000000e-001) (67, 10, 5.00000000000000000000e-001) (67, 10, 5.00000000000000000000e-001) (67, 10, 5.00000000000000000000e-001) (67, 10, 5.00000000000000000000e-001) (67, 10, 5.00000000000000000000e-001) (67, 10, 5.00000000000000000000e-001) (67, 10, 5.00000000000000000000e-001) (0, 10, 5.00000000000000000000e-001) (45, 0, 5.00000000000000000000e-001) (45, 0, 5.00000000000000000000e-001) (0, 0, 5.00000000000000000000e-001) 
connections (connected_to_neuron, weight)=(0, 1.59016326069831850000e-001) (1, 3.00668883323669430000e+000) (2, 1.89703595638275150000e+000) (3, 1.28456032276153560000e+000) (4, 9.90358173847198490000e-001) (5, 2.16302514076232910000e+000) (6, 2.36433863639831540000e+000) (7, 2.24944785237312320000e-001) (8, 4.19420003890991210000e+000) (9, 9.17404115200042720000e-001) (10, -1.23224586248397830000e-001) (0, 4.57812875509262080000e-001) (1, -4.30130481719970700000e+000) (2, -1.40986251831054690000e+000) (3, -1.81644916534423830000e+000) (4, -1.31022560596466060000e+000) (5, 4.24135208129882810000e+000) (6, -1.72825157642364500000e+000) (7, -2.88544893264770510000e-001) (8, -3.66098380088806150000e+000) (9, -1.52700853347778320000e+000) (10, -1.73859015107154850000e-001) (0, 1.08325660228729250000e-001) (1, -2.92178940773010250000e+000) (2, -8.77318382263183590000e-001) (3, -4.09142285585403440000e-001) (4, -1.70490574836730960000e+000) (5, 2.53910970687866210000e+000) (6, -2.04786801338195800000e+000) (7, -1.14549410343170170000e+000) (8, -6.25253379344940190000e-001) (9, -1.07304120063781740000e+000) (10, -2.79956489801406860000e-001) (0, 6.87947543337941170000e-003) (1, -4.41222190856933590000e+000) (2, -2.05676627159118650000e+000) (3, -5.94883143901824950000e-001) (4, -5.39263248443603520000e-001) (5, 3.98542189598083500000e+000) (6, -5.27160835266113280000e+000) (7, -2.38645625114440920000e+000) (8, -5.39850044250488280000e+000) (9, -5.52176904678344730000e+000) (10, 1.00062593817710880000e-001) (0, 7.26170018315315250000e-002) (1, -6.28762435913085940000e+000) (2, -1.15295445919036870000e+000) (3, -3.84945094585418700000e-001) (4, -3.41886734962463380000e+000) (5, 5.57108211517333980000e+000) (6, -3.41089367866516110000e+000) (7, -1.34582531452178960000e+000) (8, -3.93746018409729000000e+000) (9, -2.79904294013977050000e+000) (10, 1.69230297207832340000e-001) (0, 3.30318182706832890000e-001) (1, -4.46768462657928470000e-001) (2, -2.45261907577514650000e-001) (3, 1.23761333525180820000e-001) (4, -3.25862228870391850000e-001) (5, -3.01368445158004760000e-001) (6, -4.58009749650955200000e-001) (7, -3.97295325994491580000e-001) (8, -2.61206269264221190000e-001) (9, 2.22179368138313290000e-001) (10, -2.38234430551528930000e-001) (0, 3.05609077215194700000e-001) (1, 1.53842258453369140000e+000) (2, 1.81828844547271730000e+000) (3, 5.34621179103851320000e-001) (4, 9.57547068595886230000e-001) (5, 2.19360899925231930000e+000) (6, 2.05205392837524410000e+000) (7, -1.79546982049942020000e-001) (8, 3.61593294143676760000e+000) (9, 1.17094671726226810000e+000) (10, 1.94646596908569340000e-001) (0, 1.63065865635871890000e-001) (1, 2.26875424385070800000e-001) (2, 1.61955738067626950000e+000) (3, 2.06353044509887700000e+000) (4, -5.51772892475128170000e-001) (5, 9.38087701797485350000e-001) (6, 2.57437372207641600000e+000) (7, 3.83332610130310060000e-001) (8, 7.07435083389282230000e+000) (9, 2.08678078651428220000e+000) (10, -3.78763139247894290000e-001) (0, 1.31909281015396120000e-001) (1, -9.51851081848144530000e+000) (2, -2.27983784675598140000e+000) (3, -2.75201892852783200000e+000) (4, -5.01046466827392580000e+000) (5, 5.16644620895385740000e+000) (6, -4.23987340927124020000e+000) (7, -1.85021626949310300000e+000) (8, -4.26349878311157230000e+000) (9, -2.02485847473144530000e+000) (10, -1.64070025086402890000e-001) (0, -3.51571947336196900000e-001) (1, -4.84617424011230470000e+000) (2, -4.81010055541992190000e+000) (3, -2.59531885385513310000e-001) (4, -2.21765661239624020000e+000) (5, -3.64388418197631840000e+000) (6, -2.34525394439697270000e+000) (7, -4.40024852752685550000e-001) (8, 1.42603009939193730000e-001) (9, -5.10904371738433840000e-001) (10, -1.53289064764976500000e-001) (0, 2.19557493925094600000e-001) (1, -1.78897178173065190000e+000) (2, -4.50504869222640990000e-001) (3, 2.96248883008956910000e-001) (4, -1.34553623199462890000e+000) (5, -1.69298708438873290000e+000) (6, -1.48853445053100590000e+000) (7, -4.80876639485359190000e-002) (8, 2.16393649578094480000e-001) (9, -2.31536197662353520000e+000) (10, -4.97044056653976440000e-001) (0, 3.77465635538101200000e-001) (1, -1.98203620910644530000e+001) (2, -1.21366825103759770000e+001) (3, -2.42107200622558590000e+000) (4, -6.49815845489501950000e+000) (5, 5.88175916671752930000e+000) (6, -2.03238830566406250000e+001) (7, 9.04065147042274480000e-002) (8, 5.16550779342651370000e-001) (9, -1.38314723968505860000e+001) (10, -3.16884636878967290000e-001) (0, -1.30810901522636410000e-001) (1, 3.88332962989807130000e+000) (2, 1.52107965946197510000e+000) (3, 3.26978623867034910000e-001) (4, 1.85273945331573490000e+000) (5, 2.28208827972412110000e+000) (6, 3.10176563262939450000e+000) (7, -5.20743429660797120000e-001) (8, 4.06458187103271480000e+000) (9, 2.84879088401794430000e+000) (10, -1.84462368488311770000e-001) (0, 3.55051547288894650000e-001) (1, 6.43533706665039060000e+000) (2, 2.01773792505264280000e-001) (3, 9.70533370971679690000e-001) (4, 3.08246302604675290000e+000) (5, 6.99512720108032230000e+000) (6, 6.97575950622558590000e+000) (7, -1.89255028963088990000e-002) (8, 3.64683914184570310000e+000) (9, 6.78797531127929690000e+000) (10, 3.96742522716522220000e-001) (0, -1.32711693644523620000e-001) (1, -4.94034528732299800000e+000) (2, -1.25867474079132080000e+000) (3, 3.02516669034957890000e-001) (4, -2.01733613014221190000e+000) (5, 1.42055368423461910000e+000) (6, -2.49239158630371090000e+000) (7, -1.16991376876831050000e+000) (8, 7.81012028455734250000e-002) (9, -9.27737176418304440000e-001) (10, 9.31375250220298770000e-002) (0, 1.42275109887123110000e-001) (1, -1.74787759780883790000e+000) (2, -1.10401964187622070000e+000) (3, -2.84976363182067870000e-001) (4, -1.20624530315399170000e+000) (5, -1.68091464042663570000e+000) (6, -6.13598883152008060000e-001) (7, -5.18246889114379880000e-001) (8, -1.02911040186882020000e-001) (9, -8.19582790136337280000e-002) (10, -1.59316230565309520000e-002) (0, -3.00229370594024660000e-001) (1, -1.77545089721679690000e+001) (2, -6.86768245697021480000e+000) (3, -4.67334365844726560000e+000) (4, -4.83790427446365360000e-001) (5, 9.28653717041015620000e+000) (6, -1.13031682968139650000e+001) (7, 4.92739938199520110000e-002) (8, -8.54424774646759030000e-001) (9, -8.94430828094482420000e+000) (10, 2.74799782782793050000e-002) (0, 2.13323608040809630000e-001) (1, -1.88209009170532230000e+000) (2, 1.61276444792747500000e-001) (3, 1.97218328714370730000e-001) (4, -1.37075984477996830000e+000) (5, -1.61159145832061770000e+000) (6, -1.81817281246185300000e+000) (7, -4.46834862232208250000e-002) (8, 1.12340897321701050000e-001) (9, -2.38942384719848630000e+000) (10, 1.32136955857276920000e-001) (0, 2.18421295285224910000e-001) (1, -1.07504594326019290000e+000) (2, -2.80647486448287960000e-001) (3, -8.59110057353973390000e-002) (4, -4.97883766889572140000e-001) (5, -1.16830182075500490000e+000) (6, -8.27874541282653810000e-001) (7, 4.90824162960052490000e-001) (8, -4.51428055763244630000e-001) (9, -4.32763159275054930000e-001) (10, 3.53592216968536380000e-001) (0, 1.64768155664205550000e-002) (1, 9.93516921997070310000e+000) (2, 2.06338167190551760000e+000) (3, 5.02869415283203130000e+000) (4, 8.05722713470458980000e+000) (5, 1.20973625183105470000e+001) (6, 2.02350330352783200000e+000) (7, 2.07392501831054690000e+000) (8, 1.61469650268554690000e+001) (9, 3.39877271652221680000e+000) (10, 1.77762761712074280000e-001) (0, 3.85944426059722900000e-001) (1, 2.49661135673522950000e+000) (2, 1.84570622444152830000e+000) (3, 1.00044882297515870000e+000) (4, -3.45417201519012450000e-001) (5, 2.32040405273437500000e+000) (6, 3.33621454238891600000e+000) (7, -1.54229655861854550000e-001) (8, 4.21056652069091800000e+000) (9, 2.26132678985595700000e+000) (10, -4.55898404121398930000e-001) (0, 4.77265089750289920000e-001) (1, -4.54459428787231450000e+000) (2, -6.91859364509582520000e-001) (3, -4.80083197355270390000e-001) (4, -2.61563324928283690000e+000) (5, 6.44092082977294920000e-001) (6, -3.12643837928771970000e+000) (7, -8.37703168392181400000e-001) (8, -8.72983551025390620000e+000) (9, -2.19776177406311040000e+000) (10, 2.70482689142227170000e-001) (0, 4.19038794934749600000e-002) (1, -7.08375835418701170000e+000) (2, 4.94057446718215940000e-001) (3, -3.80207657814025880000e-001) (4, -3.98050570487976070000e+000) (5, -6.93649005889892580000e+000) (6, -7.60372686386108400000e+000) (7, -3.27705621719360350000e-001) (8, -8.45909357070922850000e-001) (9, -6.82214975357055660000e+000) (10, -6.58047795295715330000e-002) (0, -2.62897014617919920000e-001) (1, 2.19469475746154790000e+000) (2, 1.44681978225708010000e+000) (3, 1.22782993316650390000e+000) (4, 1.23967874050140380000e+000) (5, 2.69246602058410640000e+000) (6, 1.72304368019104000000e+000) (7, -2.60417222976684570000e-001) (8, 4.55352020263671870000e+000) (9, 1.45678961277008060000e+000) (10, 3.64834576845169070000e-001) (0, 4.35830682516098020000e-001) (1, -1.96106815338134770000e+000) (2, -1.78084522485733030000e-001) (3, -2.02126756310462950000e-001) (4, -1.53713071346282960000e+000) (5, 1.17363107204437260000e+000) (6, -7.91598796844482420000e-001) (7, -4.71836656332015990000e-001) (8, 2.44933124631643300000e-002) (9, -6.35948419570922850000e-001) (10, 2.34440043568611150000e-001) (0, 1.47605225443840030000e-001) (1, -2.12930965423583980000e+000) (2, -6.01629018783569340000e+000) (3, -6.72372388839721680000e+000) (4, 7.98302364349365230000e+000) (5, 1.11868906021118160000e+001) (6, -1.08642673492431640000e+001) (7, -1.33455431461334230000e+000) (8, -1.03228015899658200000e+001) (9, -6.15752935409545900000e+000) (10, -4.01820302009582520000e-001) (0, -2.46669590473175050000e-001) (1, 1.88527166843414310000e+000) (2, 1.48076713085174560000e+000) (3, 8.07998418807983400000e-001) (4, -2.39523038268089290000e-001) (5, 3.02349352836608890000e+000) (6, 3.28704261779785160000e+000) (7, -8.14225450158119200000e-002) (8, 5.70172977447509770000e+000) (9, 4.16829681396484370000e+000) (10, 4.24316406250000000000e-001) (0, -4.91987347602844240000e-001) (1, -4.70460605621337890000e+000) (2, -1.92994475364685060000e+000) (3, 2.78049081563949580000e-001) (4, -3.09600496292114260000e+000) (5, 3.23245573043823240000e+000) (6, -2.63671827316284180000e+000) (7, -8.86734306812286380000e-001) (8, -1.84460663795471190000e+000) (9, -9.01835441589355470000e-001) (10, 2.95091569423675540000e-001) (0, -4.03936773538589480000e-001) (1, -4.71029233932495120000e+000) (2, -1.92160093784332280000e+000) (3, -3.46780347824096680000e+000) (4, -7.18765377998352050000e-001) (5, 5.84393310546875000000e+000) (6, -4.89958238601684570000e+000) (7, -6.37998759746551510000e-001) (8, -6.85087060928344730000e+000) (9, -5.88797521591186520000e+000) (10, -5.06793916225433350000e-001) (0, 3.10018569231033330000e-001) (1, -2.76739311218261720000e+000) (2, -2.37532496452331540000e+000) (3, -7.95919746160507200000e-002) (4, -1.19657444953918460000e+000) (5, 2.34783601760864260000e+000) (6, -2.49072241783142090000e+000) (7, -4.14228513836860660000e-002) (8, -1.69461444020271300000e-001) (9, -1.68533766269683840000e+000) (10, -4.62854295969009400000e-001) (0, 4.28451627492904660000e-001) (1, 1.01095712184906010000e+000) (2, 1.03686952590942380000e+000) (3, 1.16182696819305420000e+000) (4, 5.10576367378234860000e-001) (5, 1.67162930965423580000e+000) (6, 6.92830383777618410000e-001) (7, -2.59986490011215210000e-001) (8, 2.65224647521972660000e+000) (9, 1.38214325904846190000e+000) (10, 6.04505054652690890000e-002) (0, -1.76376670598983760000e-001) (1, 3.15696668624877930000e+000) (2, 5.97611069679260250000e-001) (3, 3.31515192985534670000e-001) (4, 1.46208214759826660000e+000) (5, 3.08001971244812010000e+000) (6, 2.30105447769165040000e+000) (7, -1.35069727897644040000e-001) (8, 3.82929754257202150000e+000) (9, 2.71993446350097660000e+000) (10, 4.66976046562194820000e-001) (0, -1.70480310916900630000e-001) (1, -2.70493292808532710000e+000) (2, -4.37824010848999020000e-001) (3, -4.13054466247558590000e-001) (4, -2.37652373313903810000e+000) (5, 4.27654951810836790000e-001) (6, -4.44160372018814090000e-001) (7, -2.19673442840576170000e+000) (8, -2.23051160573959350000e-001) (9, -6.08390688896179200000e-001) (10, -2.52884805202484130000e-001) (0, 4.63708400726318360000e-001) (1, 1.55890607833862300000e+000) (2, 1.72694838047027590000e+000) (3, 1.61758422851562500000e+000) (4, 5.67997336387634280000e-001) (5, 2.11798453330993650000e+000) (6, 2.50311160087585450000e+000) (7, -9.82373394072055820000e-003) (8, 4.37722492218017580000e+000) (9, 2.10671663284301760000e+000) (10, -4.67085421085357670000e-001) (0, 4.48345601558685300000e-001) (1, 2.92942786216735840000e+000) (2, 2.24688601493835450000e+000) (3, 5.61829864978790280000e-001) (4, 1.79069614410400390000e+000) (5, 1.87110602855682370000e+000) (6, 1.10550975799560550000e+000) (7, -3.96325364708900450000e-002) (8, 3.99522686004638670000e+000) (9, 8.04788708686828610000e-001) (10, -3.67507964372634890000e-001) (0, -3.57258498668670650000e-001) (1, 4.66871070861816410000e+000) (2, -2.33033448457717900000e-001) (3, 7.61925995349884030000e-001) (4, 1.78548073768615720000e+000) (5, 5.37612009048461910000e+000) (6, 4.39922332763671880000e+000) (7, -1.17786144837737080000e-002) (8, 3.44453835487365720000e+000) (9, 4.37193012237548830000e+000) (10, 2.43765577673912050000e-001) (0, -4.20061975717544560000e-001) (1, 4.84886980056762700000e+000) (2, 3.76033306121826170000e-001) (3, 8.65103065967559810000e-001) (4, 2.06179785728454590000e+000) (5, 4.84040212631225590000e+000) (6, 4.78559207916259770000e+000) (7, 4.05875034630298610000e-003) (8, 3.49576330184936520000e+000) (9, 4.20982599258422850000e+000) (10, 2.54686661064624790000e-002) (0, -2.50580571591854100000e-002) (1, 2.89670729637146000000e+000) (2, 9.66331720352172850000e-001) (3, 8.19967567920684810000e-001) (4, 9.61706161499023440000e-001) (5, 2.47491836547851560000e+000) (6, 1.72049510478973390000e+000) (7, -7.12208628654479980000e-001) (8, 3.78231549263000490000e+000) (9, 8.09823453426361080000e-001) (10, -3.15219745971262450000e-003) (0, -3.08109819889068600000e-001) (1, 2.97709107398986820000e+000) (2, 7.02037453651428220000e-001) (3, 4.00607109069824220000e-001) (4, 1.55860066413879390000e+000) (5, 4.77803677320480350000e-001) (6, 1.59192538261413570000e+000) (7, -1.44678633660078050000e-002) (8, 3.58038187026977540000e+000) (9, 1.67349004745483400000e+000) (10, -4.22886013984680180000e-001) (0, 3.88576239347457890000e-001) (1, 1.97555553913116460000e+000) (2, 5.34341514110565190000e-001) (3, 9.23960328102111820000e-001) (4, 3.26087743043899540000e-001) (5, 9.71846818923950200000e-001) (6, 1.37303328514099120000e+000) (7, 2.09688153117895130000e-002) (8, 2.91378545761108400000e+000) (9, 7.49699413776397710000e-001) (10, -2.05078005790710450000e-001) (0, -2.73144304752349850000e-001) (1, -7.55252420902252200000e-001) (2, 4.94694918394088750000e-001) (3, -3.94339978694915770000e-001) (4, -5.50227046012878420000e-001) (5, -5.67777276039123540000e-001) (6, -1.06810390949249270000e+000) (7, 4.17500495910644530000e-001) (8, -1.84713169932365420000e-001) (9, -8.46667528152465820000e-001) (10, -2.54645705223083500000e-001) (0, 5.30588686466217040000e-001) (1, 3.33508801460266110000e+000) (2, 1.36361277103424070000e+000) (3, 1.33046770095825200000e+000) (4, 8.36011648178100590000e-001) (5, 5.02709722518920900000e+000) (6, 4.77358627319335940000e+000) (7, 6.89996600151062010000e-001) (8, 6.69002008438110350000e+000) (9, 5.28806352615356450000e+000) (10, 3.49615931510925290000e-001) (0, -2.43426814675331120000e-001) (1, -7.50822734832763670000e+000) (2, 1.99233397841453550000e-001) (3, -9.45652902126312260000e-001) (4, 2.85546565055847170000e+000) (5, 1.40425119400024410000e+001) (6, -3.95408201217651370000e+000) (7, -1.41420471668243410000e+000) (8, 2.08678646087646480000e+001) (9, 1.09991383552551270000e+000) (10, 3.69617231190204620000e-002) (0, 1.78988739848136900000e-001) (1, 3.13293099403381350000e+000) (2, 1.57095313072204590000e+000) (3, 1.50975155830383300000e+000) (4, 3.10924530029296870000e+000) (5, 2.23074722290039060000e+000) (6, 1.26292121410369870000e+000) (7, 4.13830935955047610000e-001) (8, 8.01728248596191410000e+000) (9, 8.46075892448425290000e-001) (10, -1.14258997142314910000e-001) (0, -3.87873947620391850000e-001) (1, -9.23506379127502440000e-001) (2, 5.26338386535644530000e+000) (3, 3.46988487243652340000e+000) (4, 1.76320219039916990000e+000) (5, 2.17033410072326660000e+000) (6, 2.33838987350463870000e+000) (7, 7.54727649688720700000e+000) (8, 3.97934036254882810000e+001) (9, 2.79134845733642580000e+000) (10, 3.22378367185592650000e-001) (0, -8.94092097878456120000e-002) (1, -8.48006439208984370000e+000) (2, -1.78054511547088620000e+000) (3, -6.81357532739639280000e-002) (4, -3.76091051101684570000e+000) (5, 7.79362821578979490000e+000) (6, -3.40614986419677730000e+000) (7, -1.96054649353027340000e+000) (8, 2.45469108223915100000e-001) (9, -2.60377287864685060000e+000) (10, -2.29100480675697330000e-001) (0, 5.98874576389789580000e-002) (1, -7.18917417526245120000e+000) (2, -3.29640209674835210000e-001) (3, 2.83859640359878540000e-001) (4, -4.04898738861083980000e+000) (5, -7.84224987030029300000e+000) (6, -6.98194265365600590000e+000) (7, 2.72323668003082280000e-001) (8, -1.11570703983306880000e+000) (9, -7.71834564208984370000e+000) (10, -3.62032622098922730000e-001) (0, -1.37150868773460390000e-001) (1, -6.31896734237670900000e+000) (2, -2.05723953247070310000e+000) (3, -1.40876603126525880000e+000) (4, -2.32232284545898440000e+000) (5, -4.21832710504531860000e-001) (6, -3.21611237525939940000e+000) (7, -4.36278760433197020000e-001) (8, -4.71892565488815310000e-001) (9, -8.09328496456146240000e-001) (10, 1.72850936651229860000e-001) (0, 5.16902685165405270000e-001) (1, -1.77586460113525390000e+001) (2, -5.73040628433227540000e+000) (3, -8.36196231842041020000e+000) (4, -3.91377925872802730000e+000) (5, 2.96216416358947750000e+000) (6, -1.39725093841552730000e+001) (7, -1.76064574718475340000e+000) (8, -5.27148818969726560000e+000) (9, -1.39971942901611330000e+001) (10, -3.50436538457870480000e-001) (0, 1.15946404635906220000e-001) (1, -7.83221149444580080000e+000) (2, -3.79519701004028320000e+000) (3, 6.74080312252044680000e-001) (4, -2.55140972137451170000e+000) (5, 9.81833267211914060000e+000) (6, -6.70372295379638670000e+000) (7, -2.48428821563720700000e+000) (8, -4.44264084100723270000e-001) (9, -6.47177600860595700000e+000) (10, -5.78295946121215820000e-001) (0, -2.91491508483886720000e-001) (1, 2.20530247688293460000e+000) (2, 5.18570184707641600000e-001) (3, 1.02163720130920410000e+000) (4, 1.46862542629241940000e+000) (5, 3.29261207580566410000e+000) (6, 6.99833691120147710000e-001) (7, -6.05712458491325380000e-003) (8, 4.37409734725952150000e+000) (9, 7.77008771896362300000e-001) (10, -2.31769263744354250000e-001) (0, 2.19981715083122250000e-001) (1, -3.78278803825378420000e+000) (2, -5.06076455116271970000e-001) (3, -1.53006613254547120000e+000) (4, -1.14595544338226320000e+000) (5, 3.55485486984252930000e+000) (6, -2.95691299438476560000e+000) (7, -2.81919300556182860000e-001) (8, -8.09862494468688960000e-001) (9, -2.75646543502807620000e+000) (10, -3.12643259763717650000e-001) (0, -3.32513630390167240000e-001) (1, 3.17871475219726560000e+000) (2, 1.86475479602813720000e+000) (3, 7.63312757015228270000e-001) (4, 2.07997131347656250000e+000) (5, 2.25974774360656740000e+000) (6, 9.70551490783691410000e-001) (7, -1.87410846352577210000e-001) (8, 3.09301590919494630000e+000) (9, 2.57612884044647220000e-001) (10, -1.71131357550621030000e-001) (0, 3.71159970760345460000e-001) (1, -3.09431958198547360000e+000) (2, -1.30960428714752200000e+000) (3, 6.82997032999992370000e-002) (4, -8.43621194362640380000e-001) (5, 1.33251392841339110000e+000) (6, -1.92057859897613530000e+000) (7, 1.70593059062957760000e+000) (8, -5.15899732708930970000e-002) (9, -2.18343520164489750000e+000) (10, -3.07760052382946010000e-002) (0, 2.83913433551788330000e-001) (1, -1.52482736110687260000e+000) (2, 4.76171411573886870000e-002) (3, -5.21228492259979250000e-001) (4, -1.22960519790649410000e+000) (5, 1.86670422554016110000e+000) (6, -6.69206738471984860000e-001) (7, -3.39369513094425200000e-002) (8, -1.98457866907119750000e-001) (9, -7.81526416540145870000e-003) (10, -2.82985925674438480000e-001) (0, -1.87908500432968140000e-001) (1, 1.08879613876342770000e+000) (2, 3.32730561494827270000e-001) (3, 5.58781683444976810000e-001) (4, 7.49598681926727290000e-001) (5, 1.58354115486145020000e+000) (6, 1.33941924571990970000e+000) (7, -1.62116989493370060000e-001) (8, 3.21723008155822750000e+000) (9, 1.14829850196838380000e+000) (10, 3.70431751012802120000e-001) (0, 6.49416893720626830000e-002) (1, -5.37439060211181640000e+000) (2, -3.10236167907714840000e+000) (3, -3.37941312789916990000e+000) (4, -1.40794682502746580000e+000) (5, 2.76888757944107060000e-001) (6, -4.68430995941162110000e+000) (7, -1.35085999965667720000e-001) (8, -2.60312232971191410000e+001) (9, -5.38858413696289060000e+000) (10, -3.40874701738357540000e-001) (0, 1.64487678557634350000e-002) (1, -1.09278090298175810000e-001) (2, -2.71315217018127440000e-001) (3, -6.77937865257263180000e-002) (4, -4.53474760055541990000e-001) (5, -2.03294888138771060000e-001) (6, -4.86346244812011720000e-001) (7, -5.42666196823120120000e-001) (8, -1.93719506263732910000e-001) (9, -5.11465191841125490000e-001) (10, -1.29111349582672120000e-001) (0, 9.37111899256706240000e-002) (1, -8.65266799926757810000e-001) (2, -2.74117916822433470000e-001) (3, -5.00460386276245120000e-001) (4, 1.68218389153480530000e-001) (5, -4.35785919427871700000e-001) (6, -9.63208824396133420000e-002) (7, 3.31948459148406980000e-001) (8, -5.45994043350219730000e-001) (9, 1.19676264002919200000e-002) (10, -3.16508978605270390000e-001) (0, 5.96851622685790060000e-003) (1, -2.62399673461914060000e-001) (2, -4.14152830839157100000e-001) (3, -4.24258261919021610000e-001) (4, -1.12975798547267910000e-001) (5, 1.55540080741047860000e-002) (6, -3.29391866922378540000e-001) (7, -1.07474857941269870000e-002) (8, 3.15747335553169250000e-002) (9, -3.44362109899520870000e-001) (10, -4.53627854585647580000e-001) (0, -3.12018692493438720000e-001) (1, -5.19520568847656250000e+000) (2, -1.84685957431793210000e+000) (3, -3.91767668724060060000e+000) (4, 7.40439653396606450000e-001) (5, 5.64945650100708010000e+000) (6, -3.96803140640258790000e+000) (7, -1.77831962704658510000e-001) (8, -4.07165145874023440000e+000) (9, -2.46411538124084470000e+000) (10, -1.59384191036224370000e-001) (0, 2.90879905223846440000e-002) (1, -4.81910514831542970000e+000) (2, -5.53721666336059570000e+000) (3, -5.25772690773010250000e-001) (4, -2.45695972442626950000e+000) (5, -5.27985763549804690000e+000) (6, -3.05337786674499510000e+000) (7, -8.02173912525177000000e-002) (8, -1.06217455863952640000e+000) (9, -6.86128199100494380000e-001) (10, 1.94168806076049800000e-001) (0, 4.69027552753686900000e-003) (1, 2.35045385360717770000e+000) (2, -1.52188995853066440000e-002) (3, 8.33039224147796630000e-001) (4, 1.24146640300750730000e+000) (5, 2.00016188621521000000e+000) (6, 1.97027587890625000000e+000) (7, 2.97937780618667600000e-001) (8, 2.79797482490539550000e+000) (9, 2.52489781379699710000e+000) (10, -9.69603843986988070000e-003) (0, 3.58981788158416750000e-001) (1, -3.85768890380859380000e-001) (2, -2.32344239950180050000e-001) (3, -1.82568840682506560000e-002) (4, -4.50657248497009280000e-001) (5, -2.20871806144714360000e-001) (6, -8.43139886856079100000e-001) (7, 4.45898562669754030000e-001) (8, 1.54383713379502300000e-002) (9, -8.72030794620513920000e-001) (10, 2.91443645954132080000e-001) (0, 2.58119016885757450000e-001) (1, 1.34041976928710940000e+000) (2, 4.85805004835128780000e-001) (3, 1.21861331164836880000e-001) (4, 5.95223009586334230000e-001) (5, 1.60400009155273440000e+000) (6, 1.64628314971923830000e+000) (7, -1.52716070413589480000e-001) (8, 3.75352644920349120000e+000) (9, 1.36909472942352290000e+000) (10, -8.18843469023704530000e-002) (0, 6.92261084914207460000e-002) (1, -8.61830949783325200000e-001) (2, -8.88699889183044430000e-001) (3, -5.33439636230468750000e-001) (4, -1.26396405696868900000e+000) (5, 1.59384274482727050000e+000) (6, -1.20628333091735840000e+000) (7, -7.73998051881790160000e-002) (8, -1.95536530017852780000e+000) (9, -1.34635710716247560000e+000) (10, 4.66814309358596800000e-001) (11, -9.37372398376464840000e+000) (12, -6.78826189041137700000e+000) (13, -6.08156681060791020000e+000) (14, -4.43063402175903320000e+000) (15, -6.02532577514648440000e+000) (16, -1.28497779369354250000e-001) (17, -1.04977664947509770000e+001) (18, -8.39511108398437500000e+000) (19, -6.47858667373657230000e+000) (20, -7.55936026573181150000e-001) (21, -8.28621923923492430000e-001) (22, -5.05293464660644530000e+000) (23, -1.02680349349975590000e+001) (24, -1.00947351455688480000e+001) (25, -5.99981832504272460000e+000) (26, -3.35982233285903930000e-001) (27, -8.49390697479248050000e+000) (28, -1.95643842220306400000e-001) (29, -3.75777900218963620000e-001) (30, -1.09055938720703130000e+001) (31, -1.01909847259521480000e+001) (32, -5.66909122467041020000e+000) (33, 2.64721691608428960000e-001) (34, -1.07646617889404300000e+001) (35, -5.04640769958496090000e+000) (36, -7.15098524093627930000e+000) (37, -1.03053598403930660000e+001) (38, -7.28230333328247070000e+000) (39, -4.22924041748046870000e+000) (40, -6.90111780166625980000e+000) (41, -2.21563744544982910000e+000) (42, -1.00769815444946290000e+001) (43, -4.50306558609008790000e+000) (44, -1.06967706680297850000e+001) (45, -1.04356403350830080000e+001) (46, -9.21657180786132810000e+000) (47, -9.29485702514648440000e+000) (48, -9.39794540405273440000e+000) (49, -1.03849563598632810000e+001) (50, -9.42066478729248050000e+000) (51, -1.27026468515396120000e-001) (52, -8.83666706085205080000e+000) (53, -9.76175498962402340000e+000) (54, -9.74465751647949220000e+000) (55, -1.05369234085083010000e+001) (56, -6.72281599044799800000e+000) (57, -9.59598086774349210000e-003) (58, -3.97252941131591800000e+000) (59, -6.66814470291137700000e+000) (60, -8.07442092895507810000e+000) (61, -1.01375837326049800000e+001) (62, -8.09857082366943360000e+000) (63, -1.04315147399902340000e+001) (64, -1.01091849803924560000e+000) (65, -3.87564468383789060000e+000) (66, -9.09044075012207030000e+000) (67, -7.91477108001708980000e+000) (68, 2.55162447690963750000e-001) (69, 1.57867893576622010000e-001) (70, -4.99615557491779330000e-002) (71, -4.36769342422485350000e+000) (72, 2.52920925617218020000e-001) (73, -9.90617465972900390000e+000) (74, -1.98071315884590150000e-001) (75, -1.07683038711547850000e+001) (76, -7.73838460445404050000e-001) (77, -1.05001993179321290000e+001) (11, -8.95543003082275390000e+000) (12, -6.72915887832641600000e+000) (13, -6.53874492645263670000e+000) (14, -3.72827053070068360000e+000) (15, -5.80510282516479490000e+000) (16, 3.58632981777191160000e-001) (17, -1.02170705795288090000e+001) (18, -8.40523052215576170000e+000) (19, -6.66238880157470700000e+000) (20, -2.82361507415771480000e-001) (21, -6.16551339626312260000e-001) (22, -4.93736648559570310000e+000) (23, -1.03057041168212890000e+001) (24, -9.76765251159667970000e+000) (25, -6.17894124984741210000e+000) (26, 1.06295742094516750000e-001) (27, -8.63419151306152340000e+000) (28, -1.99361965060234070000e-001) (29, 3.35460931062698360000e-001) (30, -1.07381334304809570000e+001) (31, -1.00551595687866210000e+001) (32, -5.81202602386474610000e+000) (33, -5.14279842376708980000e-001) (34, -1.04488649368286130000e+001) (35, -5.22691249847412110000e+000) (36, -6.65799093246459960000e+000) (37, -9.68122482299804690000e+000) (38, -6.47640132904052730000e+000) (39, -4.29749155044555660000e+000) (40, -6.64302349090576170000e+000) (41, -2.91599631309509280000e+000) (42, -1.01186466217041020000e+001) (43, -4.84021425247192380000e+000) (44, -9.89488983154296870000e+000) (45, -1.08402299880981450000e+001) (46, -1.00264215469360350000e+001) (47, -9.51989459991455080000e+000) (48, -1.01006650924682620000e+001) (49, -1.04916048049926760000e+001) (50, -8.76791191101074220000e+000) (51, -2.16529026627540590000e-001) (52, -9.97898292541503910000e+000) (53, -9.34395313262939450000e+000) (54, -9.55116176605224610000e+000) (55, -1.03958339691162110000e+001) (56, -6.53182077407836910000e+000) (57, 1.89322844147682190000e-001) (58, -4.27747631072998050000e+000) (59, -6.77566289901733400000e+000) (60, -7.98892974853515630000e+000) (61, -1.08219594955444340000e+001) (62, -8.03455066680908200000e+000) (63, -1.04386501312255860000e+001) (64, -4.85505640506744380000e-001) (65, -4.26802110671997070000e+000) (66, -1.01097087860107420000e+001) (67, -7.02270841598510740000e+000) (68, 2.57482558488845830000e-001) (69, 8.93801972270011900000e-002) (70, -3.19315642118453980000e-001) (71, -4.52810811996459960000e+000) (72, 2.86271244287490840000e-001) (73, -9.73101234436035160000e+000) (74, -4.69789177179336550000e-001) (75, -1.00977592468261720000e+001) (76, -7.29100465774536130000e-001) (77, -1.07858762741088870000e+001) (11, -8.86826038360595700000e+000) (12, -6.97993087768554690000e+000) (13, -6.33824777603149410000e+000) (14, -3.86853933334350590000e+000) (15, -5.72465467453002930000e+000) (16, 3.97536903619766240000e-001) (17, -1.08315000534057620000e+001) (18, -8.38320636749267580000e+000) (19, -6.40883255004882810000e+000) (20, -5.41071891784667970000e-001) (21, -9.44682955741882320000e-001) (22, -4.95926809310913090000e+000) (23, -9.97563552856445310000e+000) (24, -1.01784687042236330000e+001) (25, -5.43442678451538090000e+000) (26, -3.17129462957382200000e-001) (27, -9.01217555999755860000e+000) (28, -4.23518598079681400000e-001) (29, -6.73255547881126400000e-002) (30, -1.07259178161621090000e+001) (31, -9.95287990570068360000e+000) (32, -5.58985757827758790000e+000) (33, -5.58523595333099370000e-001) (34, -1.08800954818725590000e+001) (35, -5.16236829757690430000e+000) (36, -7.00773620605468750000e+000) (37, -1.03895339965820310000e+001) (38, -7.39648103713989260000e+000) (39, -4.72011852264404300000e+000) (40, -6.56728219985961910000e+000) (41, -2.53978109359741210000e+000) (42, -1.08561410903930660000e+001) (43, -4.47166585922241210000e+000) (44, -1.01179351806640620000e+001) (45, -1.00910673141479490000e+001) (46, -1.01848163604736330000e+001) (47, -9.96616935729980470000e+000) (48, -9.95416736602783200000e+000) (49, -9.97937011718750000000e+000) (50, -8.98816871643066410000e+000) (51, 2.90924429893493650000e-001) (52, -9.43553543090820310000e+000) (53, -9.65732765197753910000e+000) (54, -9.39906501770019530000e+000) (55, -9.63669013977050780000e+000) (56, -6.66078329086303710000e+000) (57, 2.88087073713541030000e-002) (58, -4.07521677017211910000e+000) (59, -6.75175523757934570000e+000) (60, -7.91923236846923830000e+000) (61, -1.07645311355590820000e+001) (62, -7.97764015197753910000e+000) (63, -1.04800195693969730000e+001) (64, -1.21541452407836910000e+000) (65, -3.79643201828002930000e+000) (66, -9.16508674621582030000e+000) (67, -7.70374727249145510000e+000) (68, -1.10592909157276150000e-001) (69, 3.48230935633182530000e-002) (70, -3.83641272783279420000e-001) (71, -4.12538862228393550000e+000) (72, 2.06926181912422180000e-001) (73, -9.43979263305664060000e+000) (74, 5.30147179961204530000e-002) (75, -1.04667358398437500000e+001) (76, -7.81701862812042240000e-001) (77, -1.06307477951049800000e+001) (11, -8.50416183471679690000e+000) (12, -6.42711687088012700000e+000) (13, -5.97295618057250980000e+000) (14, -4.43023586273193360000e+000) (15, -6.15598058700561520000e+000) (16, 2.76045799255371090000e-001) (17, -1.00752677917480470000e+001) (18, -8.04782390594482420000e+000) (19, -6.46822834014892580000e+000) (20, -1.03359974920749660000e-001) (21, -3.72606009244918820000e-001) (22, -4.90757989883422850000e+000) (23, -1.08425436019897460000e+001) (24, -9.89688682556152340000e+000) (25, -5.76841640472412110000e+000) (26, 4.74633038043975830000e-001) (27, -8.59694004058837890000e+000) (28, 1.67422294616699220000e-001) (29, 3.12746226787567140000e-001) (30, -1.04621744155883790000e+001) (31, -1.00644006729125980000e+001) (32, -5.43030786514282230000e+000) (33, -2.44656965136528020000e-001) (34, -1.03601083755493160000e+001) (35, -4.89988374710083010000e+000) (36, -6.73296594619750980000e+000) (37, -9.75018119812011720000e+000) (38, -6.81631374359130860000e+000) (39, -3.87963414192199710000e+000) (40, -6.32872676849365230000e+000) (41, -2.64518570899963380000e+000) (42, -1.09101619720458980000e+001) (43, -4.58926677703857420000e+000) (44, -1.05750122070312500000e+001) (45, -9.99705219268798830000e+000) (46, -9.84980297088623050000e+000) (47, -1.01549816131591800000e+001) (48, -1.02374000549316410000e+001) (49, -1.04051656723022460000e+001) (50, -8.82555103302001950000e+000) (51, -7.35481753945350650000e-002) (52, -9.45646190643310550000e+000) (53, -1.01018457412719730000e+001) (54, -9.84466266632080080000e+000) (55, -9.76072311401367190000e+000) (56, -6.19732141494750980000e+000) (57, -1.05104610323905940000e-001) (58, -4.08121395111083980000e+000) (59, -6.79891967773437500000e+000) (60, -7.85261249542236330000e+000) (61, -1.03856430053710940000e+001) (62, -8.15576553344726560000e+000) (63, -1.00260906219482420000e+001) (64, -5.66472947597503660000e-001) (65, -4.42500448226928710000e+000) (66, -1.02099771499633790000e+001) (67, -7.90628671646118160000e+000) (68, 3.85728061199188230000e-001) (69, -3.17817866802215580000e-001) (70, -3.46153289079666140000e-001) (71, -4.78501987457275390000e+000) (72, 3.55267792940139770000e-001) (73, -1.04284925460815430000e+001) (74, 4.18858408927917480000e-001) (75, -9.97234821319580080000e+000) (76, -5.70362687110900880000e-001) (77, -1.06319103240966800000e+001) (11, -8.68399524688720700000e+000) (12, -6.96639204025268550000e+000) (13, -6.24969768524169920000e+000) (14, -4.23291206359863280000e+000) (15, -5.19363594055175780000e+000) (16, -2.03983232378959660000e-001) (17, -1.04163722991943360000e+001) (18, -7.83774995803833010000e+000) (19, -5.69382667541503910000e+000) (20, -2.17677068710327150000e+000) (21, -2.11954545974731450000e+000) (22, -5.26426076889038090000e+000) (23, -1.06091527938842770000e+001) (24, -1.00430126190185550000e+001) (25, -6.50383806228637700000e+000) (26, -1.01884856820106510000e-001) (27, -8.73318862915039060000e+000) (28, -5.99039733409881590000e-001) (29, -4.63959544897079470000e-001) (30, -1.13691139221191410000e+001) (31, -1.05477151870727540000e+001) (32, -6.45532655715942380000e+000) (33, -1.01355746388435360000e-001) (34, -1.12963666915893550000e+001) (35, -4.81973695755004880000e+000) (36, -7.31009531021118160000e+000) (37, -1.06875114440917970000e+001) (38, -7.62520647048950200000e+000) (39, -5.44569826126098630000e+000) (40, -6.75329732894897460000e+000) (41, -2.53343296051025390000e+000) (42, -1.11205949783325200000e+001) (43, -3.57571077346801760000e+000) (44, -1.04520397186279300000e+001) (45, -1.09521293640136720000e+001) (46, -9.15152835845947270000e+000) (47, -8.97758579254150390000e+000) (48, -8.75562095642089840000e+000) (49, -1.06960868835449220000e+001) (50, -8.77400779724121090000e+000) (51, -6.26433670520782470000e-001) (52, -8.60730648040771480000e+000) (53, -8.74277591705322270000e+000) (54, -8.39923000335693360000e+000) (55, -1.06979999542236330000e+001) (56, -6.93507957458496090000e+000) (57, -2.93220371007919310000e-001) (58, -3.36709117889404300000e+000) (59, -6.89728546142578130000e+000) (60, -8.64037704467773440000e+000) (61, -1.10737838745117190000e+001) (62, -9.00812816619873050000e+000) (63, -1.11403007507324220000e+001) (64, -7.23872542381286620000e-001) (65, -3.97606706619262700000e+000) (66, -8.97892665863037110000e+000) (67, -7.74824857711791990000e+000) (68, 1.29718631505966190000e-001) (69, 3.42928081750869750000e-001) (70, 3.46351593732833860000e-001) (71, -3.58467364311218260000e+000) (72, 4.20086473226547240000e-001) (73, -9.02111625671386720000e+000) (74, 7.57558271288871770000e-002) (75, -1.04645872116088870000e+001) (76, -2.71540808677673340000e+000) (77, -1.14686260223388670000e+001) (11, -8.71649265289306640000e+000) (12, -6.98591089248657230000e+000) (13, -6.57626199722290040000e+000) (14, -3.79792475700378420000e+000) (15, -5.68999624252319340000e+000) (16, -2.84350842237472530000e-001) (17, -1.00562677383422850000e+001) (18, -8.54167556762695310000e+000) (19, -6.51187086105346680000e+000) (20, -6.90073907375335690000e-001) (21, -1.23300123214721680000e+000) (22, -4.80546092987060550000e+000) (23, -1.03019914627075200000e+001) (24, -9.69577217102050780000e+000) (25, -6.03698110580444340000e+000) (26, -3.74421447515487670000e-001) (27, -8.52523231506347660000e+000) (28, 1.99322193861007690000e-001) (29, -6.19510449469089510000e-002) (30, -1.04437932968139650000e+001) (31, -1.03803548812866210000e+001) (32, -5.43269920349121090000e+000) (33, -5.94882130622863770000e-001) (34, -1.07438364028930660000e+001) (35, -5.46860837936401370000e+000) (36, -6.64126253128051760000e+000) (37, -9.92880058288574220000e+000) (38, -6.73915529251098630000e+000) (39, -3.78157567977905270000e+000) (40, -6.83208131790161130000e+000) (41, -2.76033377647399900000e+000) (42, -1.08346519470214840000e+001) (43, -4.75242233276367190000e+000) (44, -9.94616985321044920000e+000) (45, -1.04170894622802730000e+001) (46, -1.00037107467651370000e+001) (47, -9.39174938201904300000e+000) (48, -9.48767089843750000000e+000) (49, -1.06402606964111330000e+001) (50, -8.82989692687988280000e+000) (51, -5.02038121223449710000e-001) (52, -9.12281894683837890000e+000) (53, -9.82174873352050780000e+000) (54, -1.00728607177734370000e+001) (55, -1.04258117675781250000e+001) (56, -6.29382705688476560000e+000) (57, -4.02171850204467770000e-001) (58, -3.76071310043334960000e+000) (59, -6.85092639923095700000e+000) (60, -7.96119880676269530000e+000) (61, -1.08755912780761720000e+001) (62, -8.33016872406005860000e+000) (63, -9.91707801818847660000e+000) (64, -4.59798574447631840000e-001) (65, -3.92505359649658200000e+000) (66, -1.00523881912231450000e+001) (67, -7.11434125900268550000e+000) (68, 3.49423646926879880000e-001) (69, -2.95853823423385620000e-001) (70, -4.52087968587875370000e-001) (71, -4.88179540634155270000e+000) (72, 4.14010345935821530000e-001) (73, -9.75135517120361330000e+000) (74, 1.41138866543769840000e-001) (75, -1.08166437149047850000e+001) (76, -1.39024758338928220000e+000) (77, -1.05220375061035160000e+001) (11, -8.60855388641357420000e+000) (12, -6.91198778152465820000e+000) (13, -6.07224416732788090000e+000) (14, -4.16888761520385740000e+000) (15, -5.84185695648193360000e+000) (16, -1.05877816677093510000e-001) (17, -1.00797748565673830000e+001) (18, -8.58552646636962890000e+000) (19, -6.63585805892944340000e+000) (20, -8.91962707042694090000e-001) (21, -8.78402948379516600000e-001) (22, -4.74545192718505860000e+000) (23, -1.07220096588134770000e+001) (24, -1.02303323745727540000e+001) (25, -5.78636837005615230000e+000) (26, 1.94564223289489750000e-001) (27, -8.32150268554687500000e+000) (28, -1.08265936374664310000e-001) (29, 3.25114242732524870000e-002) (30, -1.06653203964233400000e+001) (31, -1.06218051910400390000e+001) (32, -6.02885055541992190000e+000) (33, -3.09717297554016110000e-001) (34, -1.04078063964843750000e+001) (35, -5.06276416778564450000e+000) (36, -6.42805051803588870000e+000) (37, -1.00865621566772460000e+001) (38, -6.42203521728515620000e+000) (39, -4.08202314376831050000e+000) (40, -6.11254119873046870000e+000) (41, -2.14251160621643070000e+000) (42, -1.04136266708374020000e+001) (43, -4.49445152282714840000e+000) (44, -1.07052841186523440000e+001) (45, -1.07391910552978520000e+001) (46, -9.70343208312988280000e+000) (47, -9.79463672637939450000e+000) (48, -9.51851558685302730000e+000) (49, -1.03869361877441410000e+001) (50, -8.84817314147949220000e+000) (51, 2.86931008100509640000e-001) (52, -9.55021095275878910000e+000) (53, -9.56587982177734370000e+000) (54, -9.57417964935302730000e+000) (55, -1.00395078659057620000e+001) (56, -6.37728309631347660000e+000) (57, 3.52519869804382320000e-001) (58, -3.52552938461303710000e+000) (59, -6.25594043731689450000e+000) (60, -7.63878297805786130000e+000) (61, -1.04342193603515620000e+001) (62, -8.42834568023681640000e+000) (63, -1.06828727722167970000e+001) (64, -1.12699258327484130000e+000) (65, -3.97454905509948730000e+000) (66, -9.78600978851318360000e+000) (67, -7.83611631393432620000e+000) (68, -3.51052492856979370000e-001) (69, -4.00297135114669800000e-001) (70, 9.04729142785072330000e-002) (71, -4.90651082992553710000e+000) (72, -4.64914500713348390000e-001) (73, -9.82074451446533200000e+000) (74, -3.73810976743698120000e-001) (75, -1.02650804519653320000e+001) (76, -9.65695858001708980000e-001) (77, -1.06648778915405270000e+001) (11, -9.10341835021972660000e+000) (12, -7.09916830062866210000e+000) (13, -6.29512691497802730000e+000) (14, -4.09750556945800780000e+000) (15, -6.12415122985839840000e+000) (16, -3.20705652236938480000e-001) (17, -1.04598712921142580000e+001) (18, -8.15368366241455080000e+000) (19, -6.52778816223144530000e+000) (20, -1.01055383682250980000e+000) (21, -3.97677570581436160000e-001) (22, -4.40660953521728520000e+000) (23, -1.07262830734252930000e+001) (24, -1.03973388671875000000e+001) (25, -5.81952667236328120000e+000) (26, -2.55267024040222170000e-001) (27, -8.26927280426025390000e+000) (28, 1.32748812437057500000e-001) (29, -5.44323205947875980000e-001) (30, -1.04564752578735350000e+001) (31, -1.06853609085083010000e+001) (32, -5.16918802261352540000e+000) (33, 3.29106926918029790000e-001) (34, -1.04695043563842770000e+001) (35, -4.68766355514526370000e+000) (36, -6.74119901657104490000e+000) (37, -1.00329113006591800000e+001) (38, -6.96473550796508790000e+000) (39, -3.91593503952026370000e+000) (40, -6.35394334793090820000e+000) (41, -2.49569320678710940000e+000) (42, -1.00394105911254880000e+001) (43, -4.78106641769409180000e+000) (44, -1.06653108596801760000e+001) (45, -1.02516412734985350000e+001) (46, -9.85079097747802730000e+000) (47, -9.57449817657470700000e+000) (48, -9.11090946197509770000e+000) (49, -1.04378166198730470000e+001) (50, -9.26109123229980470000e+000) (51, -3.34412366151809690000e-001) (52, -9.73283290863037110000e+000) (53, -1.00077419281005860000e+001) (54, -9.20541381835937500000e+000) (55, -1.01741409301757810000e+001) (56, -6.90789318084716800000e+000) (57, 3.09315651655197140000e-001) (58, -3.27843046188354490000e+000) (59, -6.05105447769165040000e+000) (60, -7.67809772491455080000e+000) (61, -1.05987596511840820000e+001) (62, -8.57588386535644530000e+000) (63, -1.04220895767211910000e+001) (64, -1.00708889961242680000e+000) (65, -4.26967239379882810000e+000) (66, -9.48042011260986330000e+000) (67, -7.06380939483642580000e+000) (68, -1.47028073668479920000e-001) (69, -3.07923734188079830000e-001) (70, 6.78813317790627480000e-003) (71, -4.36255311965942380000e+000) (72, 2.76602394878864290000e-002) (73, -1.01733922958374020000e+001) (74, 3.93375486135482790000e-001) (75, -1.04865159988403320000e+001) (76, -2.56593018770217900000e-001) (77, -1.04392032623291020000e+001) (11, -9.12267303466796870000e+000) (12, -6.66494703292846680000e+000) (13, -6.45162105560302730000e+000) (14, -4.52141809463500980000e+000) (15, -6.24497413635253910000e+000) (16, -7.82088041305541990000e-002) (17, -1.07439975738525390000e+001) (18, -8.37155723571777340000e+000) (19, -6.75572919845581050000e+000) (20, -5.62378227710723880000e-001) (21, -6.01268589496612550000e-001) (22, -4.37150573730468750000e+000) (23, -1.05753736495971680000e+001) (24, -1.01711978912353520000e+001) (25, -5.53059482574462890000e+000) (26, -2.77824759483337400000e-001) (27, -8.25156593322753910000e+000) (28, -4.12999242544174190000e-002) (29, -2.93303817510604860000e-001) (30, -1.05297470092773440000e+001) (31, -9.85160255432128910000e+000) (32, -5.97136497497558590000e+000) (33, -1.16762548685073850000e-001) (34, -1.00904245376586910000e+001) (35, -5.14637613296508790000e+000) (36, -6.82962083816528320000e+000) (37, -9.63224315643310550000e+000) (38, -6.94731569290161130000e+000) (39, -4.28198099136352540000e+000) (40, -6.45163011550903320000e+000) (41, -2.00258564949035640000e+000) (42, -1.07205648422241210000e+001) (43, -5.16151762008666990000e+000) (44, -1.03134469985961910000e+001) (45, -1.08602695465087890000e+001) (46, -9.55020904541015620000e+000) (47, -9.91373062133789060000e+000) (48, -9.34099960327148440000e+000) (49, -1.01717491149902340000e+001) (50, -9.64707469940185550000e+000) (51, 3.64824570715427400000e-002) (52, -9.45080184936523440000e+000) (53, -1.02282047271728520000e+001) (54, -9.85702705383300780000e+000) (55, -9.95265483856201170000e+000) (56, -6.33381509780883790000e+000) (57, 4.95306067168712620000e-002) (58, -3.91827321052551270000e+000) (59, -6.98427200317382810000e+000) (60, -7.67290592193603520000e+000) (61, -1.05417375564575200000e+001) (62, -8.16663742065429690000e+000) (63, -1.04224996566772460000e+001) (64, -9.52920556068420410000e-001) (65, -3.86522269248962400000e+000) (66, -9.54930114746093750000e+000) (67, -7.79991626739501950000e+000) (68, -2.96410441398620610000e-001) (69, -1.15214616060256960000e-001) (70, 3.21783363819122310000e-001) (71, -3.92510628700256350000e+000) (72, -5.09833805263042450000e-002) (73, -9.48814678192138670000e+000) (74, 6.29279166460037230000e-002) (75, -1.01395120620727540000e+001) (76, -6.82107210159301760000e-001) (77, -1.09265975952148440000e+001) (11, -9.16350746154785160000e+000) (12, -6.79817533493041990000e+000) (13, -5.85924100875854490000e+000) (14, -3.83948135375976560000e+000) (15, -5.97257995605468750000e+000) (16, -4.00539070367813110000e-001) (17, -1.03697834014892580000e+001) (18, -8.22877597808837890000e+000) (19, -7.33992767333984370000e+000) (20, -7.54155039787292480000e-001) (21, -1.48704051971435550000e-001) (22, -5.10748100280761720000e+000) (23, -9.89548015594482420000e+000) (24, -9.92929172515869140000e+000) (25, -5.60560464859008790000e+000) (26, 1.15523993968963620000e-001) (27, -8.88512229919433590000e+000) (28, 3.85336279869079590000e-002) (29, -3.27660977840423580000e-001) (30, -1.05999650955200200000e+001) (31, -1.05608110427856450000e+001) (32, -5.45122814178466800000e+000) (33, -5.65996050834655760000e-001) (34, -1.06116390228271480000e+001) (35, -5.27811145782470700000e+000) (36, -6.62875986099243160000e+000) (37, -9.70093250274658200000e+000) (38, -7.07908773422241210000e+000) (39, -4.33890581130981450000e+000) (40, -6.33236646652221680000e+000) (41, -2.09914970397949220000e+000) (42, -1.05980615615844730000e+001) (43, -4.90908002853393550000e+000) (44, -1.05487594604492190000e+001) (45, -1.06357927322387700000e+001) (46, -1.01074876785278320000e+001) (47, -1.01481590270996090000e+001) (48, -9.80439090728759770000e+000) (49, -1.02323417663574220000e+001) (50, -8.83933830261230470000e+000) (51, -7.47210979461669920000e-001) (52, -9.57174587249755860000e+000) (53, -9.45912361145019530000e+000) (54, -1.01364278793334960000e+001) (55, -1.04438571929931640000e+001) (56, -6.82401084899902340000e+000) (57, 3.95017564296722410000e-001) (58, -3.95745825767517090000e+000) (59, -6.81364011764526370000e+000) (60, -8.04848670959472660000e+000) (61, -1.00692787170410160000e+001) (62, -7.61414003372192380000e+000) (63, -1.00907907485961910000e+001) (64, -6.97637021541595460000e-001) (65, -4.15798711776733400000e+000) (66, -9.98448753356933590000e+000) (67, -7.79238700866699220000e+000) (68, 2.65895009040832520000e-001) (69, 7.74430781602859500000e-002) (70, 1.55839771032333370000e-001) (71, -4.69678068161010740000e+000) (72, 2.40161895751953130000e-001) (73, -1.03855676651000980000e+001) (74, -3.77595663070678710000e-001) (75, -9.53211784362792970000e+000) (76, -2.39972323179245000000e-001) (77, -1.00183572769165040000e+001) (11, -8.56379985809326170000e+000) (12, -7.19933891296386720000e+000) (13, -7.29110622406005860000e+000) (14, -3.70305633544921870000e+000) (15, -4.48527336120605470000e+000) (16, -3.92885327339172360000e-001) (17, -1.13677921295166020000e+001) (18, -8.01059246063232420000e+000) (19, -4.90946435928344730000e+000) (20, -3.32420849800109860000e+000) (21, -2.67783641815185550000e+000) (22, -4.97644567489624020000e+000) (23, -1.11282367706298830000e+001) (24, -9.86725616455078130000e+000) (25, -6.32481527328491210000e+000) (26, -3.14038366079330440000e-001) (27, -9.00666427612304690000e+000) (28, -2.70874321460723880000e-001) (29, -2.51648575067520140000e-001) (30, -1.15611419677734380000e+001) (31, -1.11215248107910160000e+001) (32, -6.11801815032958980000e+000) (33, -9.19817268848419190000e-001) (34, -1.10992145538330080000e+001) (35, -4.07312250137329100000e+000) (36, -8.04179954528808590000e+000) (37, -1.07426443099975590000e+001) (38, -7.84505748748779300000e+000) (39, -5.66984510421752930000e+000) (40, -7.34322547912597660000e+000) (41, -2.64572477340698240000e+000) (42, -1.10381622314453130000e+001) (43, -3.55527710914611820000e+000) (44, -1.08269271850585940000e+001) (45, -1.12853441238403320000e+001) (46, -8.82995891571044920000e+000) (47, -9.09477615356445310000e+000) (48, -8.37658882141113280000e+000) (49, -1.14075136184692380000e+001) (50, -7.84275293350219730000e+000) (51, 1.71403050422668460000e-001) (52, -7.80301523208618160000e+000) (53, -8.70001697540283200000e+000) (54, -8.45007514953613280000e+000) (55, -1.05683708190917970000e+001) (56, -7.18752956390380860000e+000) (57, -3.24946582317352290000e-001) (58, -3.19681835174560550000e+000) (59, -7.20782518386840820000e+000) (60, -9.04077816009521480000e+000) (61, -1.08060865402221680000e+001) (62, -9.44426059722900390000e+000) (63, -1.08503437042236330000e+001) (64, -1.10701417922973630000e+000) (65, -3.19227862358093260000e+000) (66, -8.29072570800781250000e+000) (67, -8.37175559997558590000e+000) (68, -5.01091122627258300000e-001) (69, -2.14547172188758850000e-001) (70, 3.34614098072052000000e-001) (71, -3.62417840957641600000e+000) (72, -3.33636254072189330000e-001) (73, -8.40448093414306640000e+000) (74, 3.08705270290374760000e-001) (75, -1.13186378479003910000e+001) (76, -2.51440095901489260000e+000) (77, -1.10775489807128910000e+001) (11, -9.21608352661132810000e+000) (12, -7.10409402847290040000e+000) (13, -5.55113983154296870000e+000) (14, -4.40759229660034180000e+000) (15, -6.07784509658813480000e+000) (16, -4.26280111074447630000e-001) (17, -1.03476066589355470000e+001) (18, -8.50009536743164060000e+000) (19, -6.80096721649169920000e+000) (20, 2.92923375964164730000e-002) (21, -6.41382038593292240000e-001) (22, -5.09759521484375000000e+000) (23, -1.00316705703735350000e+001) (24, -1.01403083801269530000e+001) (25, -5.58828020095825200000e+000) (26, -3.48415551707148550000e-003) (27, -8.23843383789062500000e+000) (28, -5.40637850761413570000e-001) (29, 9.11921337246894840000e-002) (30, -1.06766271591186520000e+001) (31, -1.02781028747558590000e+001) (32, -5.11112880706787110000e+000) (33, -8.26972484588623050000e-001) (34, -1.03580942153930660000e+001) (35, -5.59356451034545900000e+000) (36, -6.38709449768066410000e+000) (37, -9.77020645141601560000e+000) (38, -6.63130140304565430000e+000) (39, -4.25269222259521480000e+000) (40, -6.23992347717285160000e+000) (41, -2.22428059577941890000e+000) (42, -1.04794511795043950000e+001) (43, -5.25201797485351560000e+000) (44, -1.02604656219482420000e+001) (45, -1.03501329421997070000e+001) (46, -9.47535133361816410000e+000) (47, -9.86778354644775390000e+000) (48, -9.97069835662841800000e+000) (49, -1.07364187240600590000e+001) (50, -8.75607013702392580000e+000) (51, 1.02955609560012820000e-001) (52, -9.87453460693359380000e+000) (53, -9.61115932464599610000e+000) (54, -1.02856416702270510000e+001) (55, -9.65778923034667970000e+000) (56, -6.47836017608642580000e+000) (57, 1.98142811655998230000e-001) (58, -3.99238944053649900000e+000) (59, -6.73701429367065430000e+000) (60, -8.03038215637207030000e+000) (61, -1.04407444000244140000e+001) (62, -8.39213466644287110000e+000) (63, -1.01377220153808590000e+001) (64, -8.26621294021606450000e-001) (65, -4.29362249374389650000e+000) (66, -9.92606830596923830000e+000) (67, -7.54546260833740230000e+000) (68, -1.04677669703960420000e-001) (69, -2.54580944776535030000e-001) (70, -2.02481791377067570000e-001) (71, -4.56403970718383790000e+000) (72, 5.85041083395481110000e-002) (73, -1.03711671829223630000e+001) (74, 1.30858430638909340000e-002) (75, -9.86312770843505860000e+000) (76, -4.20342057943344120000e-001) (77, -1.04106931686401370000e+001) (11, -8.85359954833984370000e+000) (12, -7.23100042343139650000e+000) (13, -6.18143320083618160000e+000) (14, -4.51046228408813480000e+000) (15, -6.37252521514892580000e+000) (16, -7.41459056735038760000e-002) (17, -1.05372619628906250000e+001) (18, -8.31439495086669920000e+000) (19, -7.20970392227172850000e+000) (20, -1.75587013363838200000e-001) (21, -8.70466679334640500000e-002) (22, -4.51629972457885740000e+000) (23, -1.03281612396240230000e+001) (24, -9.79647731781005860000e+000) (25, -5.99922847747802730000e+000) (26, -3.05838305503129960000e-002) (27, -8.77924156188964840000e+000) (28, 3.14204752445220950000e-001) (29, -1.46027415990829470000e-001) (30, -1.07749881744384770000e+001) (31, -9.91699409484863280000e+000) (32, -5.60006713867187500000e+000) (33, 1.13684110343456270000e-001) (34, -1.05194072723388670000e+001) (35, -5.20374822616577150000e+000) (36, -6.52962827682495120000e+000) (37, -1.00941743850708010000e+001) (38, -7.02821588516235350000e+000) (39, -4.01190376281738280000e+000) (40, -6.59685039520263670000e+000) (41, -2.82215762138366700000e+000) (42, -1.02107839584350590000e+001) (43, -4.73282098770141600000e+000) (44, -1.09196023941040040000e+001) (45, -1.02474107742309570000e+001) (46, -9.49695682525634770000e+000) (47, -1.06360540390014650000e+001) (48, -1.04425086975097660000e+001) (49, -1.04351606369018550000e+001) (50, -8.89737606048583980000e+000) (51, -1.96889758110046390000e-001) (52, -9.47560024261474610000e+000) (53, -9.83819866180419920000e+000) (54, -9.99984264373779300000e+000) (55, -9.73626899719238280000e+000) (56, -6.45678853988647460000e+000) (57, -5.09541034698486330000e-001) (58, -4.30269718170166020000e+000) (59, -6.86140775680541990000e+000) (60, -7.74139404296875000000e+000) (61, -9.98264312744140620000e+000) (62, -7.88620185852050780000e+000) (63, -9.83378410339355470000e+000) (64, -1.01558423042297360000e+000) (65, -3.80711245536804200000e+000) (66, -9.88593578338623050000e+000) (67, -7.26317501068115230000e+000) (68, -5.38153052330017090000e-001) (69, -1.56794469803571700000e-002) (70, 4.41821180284023280000e-002) (71, -4.85771465301513670000e+000) (72, -9.18520241975784300000e-002) (73, -9.43105125427246090000e+000) (74, 1.49234026670455930000e-001) (75, -9.87325191497802730000e+000) (76, -2.95171380043029790000e-001) (77, -1.08705101013183590000e+001) (11, -9.19425868988037110000e+000) (12, -6.54727363586425780000e+000) (13, -5.98823642730712890000e+000) (14, -4.16503334045410160000e+000) (15, -5.47061061859130860000e+000) (16, 9.43908095359802250000e-002) (17, -9.71168708801269530000e+000) (18, -7.94960832595825200000e+000) (19, -7.52150011062622070000e+000) (20, 5.90275883674621580000e-001) (21, -2.14433491230010990000e-001) (22, -5.00315761566162110000e+000) (23, -1.04125213623046870000e+001) (24, -1.10873403549194340000e+001) (25, -5.86516189575195310000e+000) (26, 1.51138171553611760000e-001) (27, -8.38653945922851560000e+000) (28, 1.61354631185531620000e-001) (29, -2.11046695709228520000e-001) (30, -1.05276260375976560000e+001) (31, -8.92778587341308590000e+000) (32, -5.94911289215087890000e+000) (33, 4.99660491943359380000e-001) (34, -1.07426223754882810000e+001) (35, -4.52775764465332030000e+000) (36, -6.57127380371093750000e+000) (37, -9.05111598968505860000e+000) (38, -7.07246351242065430000e+000) (39, -4.03935241699218750000e+000) (40, -6.75317811965942380000e+000) (41, -2.13013291358947750000e+000) (42, -1.06066398620605470000e+001) (43, -4.94839191436767580000e+000) (44, -1.01457099914550780000e+001) (45, -9.96642494201660160000e+000) (46, -1.02673187255859370000e+001) (47, -1.03128614425659180000e+001) (48, -1.06209115982055660000e+001) (49, -1.00419864654541020000e+001) (50, -9.68124008178710940000e+000) (51, 3.88791382312774660000e-001) (52, -1.03093614578247070000e+001) (53, -9.54369831085205080000e+000) (54, -1.08055648803710940000e+001) (55, -9.55981159210205080000e+000) (56, -6.35505342483520510000e+000) (57, 3.19160342216491700000e-001) (58, -3.46451544761657710000e+000) (59, -6.24716424942016600000e+000) (60, -7.81698465347290040000e+000) (61, -1.04728097915649410000e+001) (62, -8.14859485626220700000e+000) (63, -1.02010002136230470000e+001) (64, -5.47455787658691410000e-001) (65, -4.21170806884765620000e+000) (66, -9.18805408477783200000e+000) (67, -7.07838916778564450000e+000) (68, 3.01079034805297850000e-001) (69, -1.98961958289146420000e-001) (70, 9.75087806582450870000e-002) (71, -4.26630258560180660000e+000) (72, -3.40237468481063840000e-001) (73, -1.05828466415405270000e+001) (74, 2.40347504615783690000e-001) (75, -9.76926517486572270000e+000) (76, 2.32237596064805980000e-002) (77, -1.07261905670166020000e+001) (11, -9.15985012054443360000e+000) (12, -6.68861865997314450000e+000) (13, -6.00639867782592770000e+000) (14, -3.81286263465881350000e+000) (15, -4.97563600540161130000e+000) (16, -2.07228809595108030000e-001) (17, -1.06588201522827150000e+001) (18, -7.99449968338012700000e+000) (19, -6.28273010253906250000e+000) (20, -1.43543577194213870000e+000) (21, -1.26436626911163330000e+000) (22, -4.28739738464355470000e+000) (23, -1.07044839859008790000e+001) (24, -1.00306911468505860000e+001) (25, -6.30339717864990230000e+000) (26, -8.56931693851947780000e-003) (27, -8.97965526580810550000e+000) (28, 9.50026586651802060000e-002) (29, -1.05759307742118840000e-001) (30, -1.08810415267944340000e+001) (31, -1.06544227600097660000e+001) (32, -5.77434968948364260000e+000) (33, -1.47993549704551700000e-001) (34, -1.03537149429321290000e+001) (35, -4.96292591094970700000e+000) (36, -7.36472797393798830000e+000) (37, -1.05768222808837890000e+001) (38, -7.21880912780761720000e+000) (39, -4.65008878707885740000e+000) (40, -6.48113584518432620000e+000) (41, -2.76336812973022460000e+000) (42, -1.03201971054077150000e+001) (43, -3.65085172653198240000e+000) (44, -1.06673860549926760000e+001) (45, -1.09938182830810550000e+001) (46, -9.11420631408691410000e+000) (47, -9.55061054229736330000e+000) (48, -9.36690998077392580000e+000) (49, -1.08392705917358400000e+001) (50, -8.78745269775390620000e+000) (51, -9.44896489381790160000e-002) (52, -9.29428672790527340000e+000) (53, -9.15029144287109370000e+000) (54, -9.34398078918457030000e+000) (55, -1.04907436370849610000e+001) (56, -7.17367792129516600000e+000) (57, -3.74627560377120970000e-001) (58, -3.55721783638000490000e+000) (59, -6.82632160186767580000e+000) (60, -7.76781034469604490000e+000) (61, -1.09253578186035160000e+001) (62, -8.37501335144042970000e+000) (63, -1.03970680236816410000e+001) (64, -9.08774793148040770000e-001) (65, -3.57386374473571780000e+000) (66, -9.30068206787109370000e+000) (67, -7.53627872467041020000e+000) (68, -6.13183863461017610000e-002) (69, -3.75183582305908200000e-001) (70, -3.41919004917144780000e-001) (71, -4.09538412094116210000e+000) (72, -4.52309042215347290000e-001) (73, -8.75588417053222660000e+000) (74, 1.55665904283523560000e-001) (75, -1.09779443740844730000e+001) (76, -1.64805352687835690000e+000) (77, -1.06362638473510740000e+001) (11, -9.32288360595703120000e+000) (12, -6.98889732360839840000e+000) (13, -6.01464700698852540000e+000) (14, -4.33689117431640620000e+000) (15, -6.29895019531250000000e+000) (16, 3.19553732872009280000e-001) (17, -9.87593746185302730000e+000) (18, -8.50176620483398440000e+000) (19, -6.79899835586547850000e+000) (20, -1.34624451398849490000e-001) (21, -1.01830944418907170000e-001) (22, -5.12005186080932620000e+000) (23, -1.05560770034790040000e+001) (24, -1.07420368194580080000e+001) (25, -5.94754123687744140000e+000) (26, 4.30851042270660400000e-001) (27, -8.71046066284179690000e+000) (28, -3.51231932640075680000e-001) (29, -4.61637735366821290000e-001) (30, -1.04413881301879880000e+001) (31, -1.00625038146972660000e+001) (32, -5.93684196472167970000e+000) (33, 1.88831835985183720000e-001) (34, -1.00889959335327150000e+001) (35, -5.54073429107666020000e+000) (36, -6.88261890411376950000e+000) (37, -9.54118824005126950000e+000) (38, -6.78644847869873050000e+000) (39, -4.54938316345214840000e+000) (40, -6.99056482315063480000e+000) (41, -1.95881450176239010000e+000) (42, -1.01690702438354490000e+001) (43, -5.26865768432617190000e+000) (44, -1.01738891601562500000e+001) (45, -1.02201681137084960000e+001) (46, -9.63905334472656250000e+000) (47, -1.00929288864135740000e+001) (48, -1.00594596862792970000e+001) (49, -1.01193609237670900000e+001) (50, -9.43683815002441410000e+000) (51, -4.06963884830474850000e-001) (52, -9.44065570831298830000e+000) (53, -9.42190647125244140000e+000) (54, -1.01235074996948240000e+001) (55, -9.85046577453613280000e+000) (56, -6.06048297882080080000e+000) (57, -3.54716598987579350000e-001) (58, -4.20683956146240230000e+000) (59, -6.11507558822631840000e+000) (60, -7.68317270278930660000e+000) (61, -1.07854127883911130000e+001) (62, -8.43168735504150390000e+000) (63, -1.09280452728271480000e+001) (64, -1.02631509304046630000e+000) (65, -3.75597786903381350000e+000) (66, -9.48429679870605470000e+000) (67, -7.08217906951904300000e+000) (68, 1.41064533963799480000e-002) (69, -3.99066209793090820000e-001) (70, 1.12513296306133270000e-001) (71, -4.25543308258056640000e+000) (72, 4.82424676418304440000e-001) (73, -1.01941604614257810000e+001) (74, 3.63822549581527710000e-001) (75, -1.04511976242065430000e+001) (76, -3.24448943138122560000e-001) (77, -9.99289035797119140000e+000) (11, -8.88218307495117190000e+000) (12, -6.48515176773071290000e+000) (13, -6.24031829833984370000e+000) (14, -3.72731375694274900000e+000) (15, -6.31513929367065430000e+000) (16, 2.29381695389747620000e-001) (17, -1.03423748016357420000e+001) (18, -8.06398868560791020000e+000) (19, -7.42091178894042970000e+000) (20, -2.22757030278444290000e-002) (21, 7.21218287944793700000e-002) (22, -4.55321836471557620000e+000) (23, -1.00425729751586910000e+001) (24, -1.06270093917846680000e+001) (25, -6.03399038314819340000e+000) (26, 4.76686954498291020000e-001) (27, -8.66377258300781250000e+000) (28, -5.75791019946336750000e-003) (29, 3.60632300376892090000e-001) (30, -1.01834068298339840000e+001) (31, -1.00827932357788090000e+001) (32, -4.92357826232910160000e+000) (33, -5.10067455470561980000e-002) (34, -9.75860023498535160000e+000) (35, -5.16915798187255860000e+000) (36, -6.92983675003051760000e+000) (37, -9.72997665405273440000e+000) (38, -7.07955503463745120000e+000) (39, -3.98477602005004880000e+000) (40, -6.52516365051269530000e+000) (41, -2.58398652076721190000e+000) (42, -1.05228109359741210000e+001) (43, -5.10652303695678710000e+000) (44, -1.04741725921630860000e+001) (45, -1.03891324996948240000e+001) (46, -9.84473419189453120000e+000) (47, -1.02095336914062500000e+001) (48, -1.05337457656860350000e+001) (49, -9.84573173522949220000e+000) (50, -9.66402721405029300000e+000) (51, 3.80089372396469120000e-001) (52, -9.58603763580322270000e+000) (53, -1.00620613098144530000e+001) (54, -9.95297145843505860000e+000) (55, -1.01134967803955080000e+001) (56, -6.46874427795410160000e+000) (57, 3.68839085102081300000e-001) (58, -3.56441926956176760000e+000) (59, -6.64491748809814450000e+000) (60, -8.10151863098144530000e+000) (61, -1.03549680709838870000e+001) (62, -8.33355712890625000000e+000) (63, -9.74308681488037110000e+000) (64, -5.18465638160705570000e-001) (65, -4.16829633712768550000e+000) (66, -1.03080492019653320000e+001) (67, -7.38310050964355470000e+000) (68, 4.45094779133796690000e-002) (69, 1.55477613210678100000e-001) (70, -2.09588229656219480000e-001) (71, -4.89204454421997070000e+000) (72, -3.32472383975982670000e-001) (73, -9.87471580505371090000e+000) (74, 9.38415080308914180000e-002) (75, -9.95316123962402340000e+000) (76, -7.27261424064636230000e-001) (77, -1.03920030593872070000e+001) (11, -9.05469036102294920000e+000) (12, -6.82108688354492190000e+000) (13, -6.30362939834594730000e+000) (14, -4.19131231307983400000e+000) (15, -6.01016044616699220000e+000) (16, 3.19657057523727420000e-001) (17, -9.93077659606933590000e+000) (18, -8.43969535827636720000e+000) (19, -6.75354051589965820000e+000) (20, -3.23876470327377320000e-001) (21, -2.53089845180511470000e-001) (22, -5.25508022308349610000e+000) (23, -1.08184051513671880000e+001) (24, -1.03707666397094730000e+001) (25, -5.50353336334228520000e+000) (26, 2.79442280530929570000e-001) (27, -8.22816753387451170000e+000) (28, -1.01784214377403260000e-001) (29, 9.58047732710838320000e-002) (30, -1.12282314300537110000e+001) (31, -1.05760383605957030000e+001) (32, -6.06427431106567380000e+000) (33, -3.89240413904190060000e-001) (34, -1.04980239868164060000e+001) (35, -4.81052827835083010000e+000) (36, -6.81690216064453130000e+000) (37, -9.69478034973144530000e+000) (38, -6.78888607025146480000e+000) (39, -4.65717220306396480000e+000) (40, -6.59956073760986330000e+000) (41, -2.32692146301269530000e+000) (42, -9.87684440612792970000e+000) (43, -4.36878824234008790000e+000) (44, -1.06340522766113280000e+001) (45, -1.06210355758666990000e+001) (46, -1.00030336380004880000e+001) (47, -9.61270713806152340000e+000) (48, -9.88371372222900390000e+000) (49, -9.95272445678710940000e+000) (50, -8.77411270141601560000e+000) (51, 6.91983848810195920000e-002) (52, -9.14428901672363280000e+000) (53, -9.92094802856445310000e+000) (54, -9.73240661621093750000e+000) (55, -1.01105499267578120000e+001) (56, -6.95211315155029300000e+000) (57, -5.65374568104743960000e-002) (58, -3.94551038742065430000e+000) (59, -6.86553525924682620000e+000) (60, -7.95041465759277340000e+000) (61, -1.04164524078369140000e+001) (62, -8.35055065155029300000e+000) (63, -1.00194807052612300000e+001) (64, -9.91556107997894290000e-001) (65, -3.91833233833312990000e+000) (66, -9.62067890167236330000e+000) (67, -7.53680515289306640000e+000) (68, -4.49428260326385500000e-001) (69, 1.97887253016233440000e-002) (70, 8.36397111415863040000e-002) (71, -4.50917243957519530000e+000) (72, 3.40582340955734250000e-001) (73, -1.03730278015136720000e+001) (74, 3.74857634305953980000e-001) (75, -9.90215969085693360000e+000) (76, -1.18347577750682830000e-001) (77, -1.03254566192626950000e+001) (11, -8.85351657867431640000e+000) (12, -6.89439678192138670000e+000) (13, -5.65358209609985350000e+000) (14, -4.19454860687255860000e+000) (15, -6.06083822250366210000e+000) (16, -8.99663716554641720000e-002) (17, -1.01960649490356450000e+001) (18, -8.62625885009765630000e+000) (19, -7.23650407791137700000e+000) (20, -2.12336808443069460000e-001) (21, -7.78580904006958010000e-001) (22, -4.78276634216308590000e+000) (23, -1.01406421661376950000e+001) (24, -9.89357089996337890000e+000) (25, -5.18898105621337890000e+000) (26, -4.96789425611495970000e-001) (27, -8.02141761779785160000e+000) (28, -2.08281725645065310000e-001) (29, -1.13096032291650770000e-002) (30, -1.08999881744384770000e+001) (31, -1.05772199630737300000e+001) (32, -5.64512777328491210000e+000) (33, -3.61213088035583500000e-001) (34, -1.01879892349243160000e+001) (35, -5.13415479660034180000e+000) (36, -6.96395301818847660000e+000) (37, -9.03980731964111330000e+000) (38, -7.10225200653076170000e+000) (39, -4.51700496673583980000e+000) (40, -6.72120952606201170000e+000) (41, -2.85493206977844240000e+000) (42, -1.04370479583740230000e+001) (43, -5.04314470291137700000e+000) (44, -1.04682874679565430000e+001) (45, -9.83617305755615230000e+000) (46, -9.93868255615234370000e+000) (47, -1.03224172592163090000e+001) (48, -1.03037290573120120000e+001) (49, -1.00303840637207030000e+001) (50, -8.92927646636962890000e+000) (51, -4.85919624567031860000e-001) (52, -9.30170249938964840000e+000) (53, -1.00271024703979490000e+001) (54, -1.01285200119018550000e+001) (55, -9.95077991485595700000e+000) (56, -5.94848251342773440000e+000) (57, 2.50121027231216430000e-001) (58, -4.04023694992065430000e+000) (59, -6.82216501235961910000e+000) (60, -7.86083269119262700000e+000) (61, -1.06681032180786130000e+001) (62, -8.10888671875000000000e+000) (63, -1.06434860229492190000e+001) (64, -9.08245146274566650000e-001) (65, -3.76739454269409180000e+000) (66, -1.03275775909423830000e+001) (67, -7.78531789779663090000e+000) (68, -1.00322686135768890000e-001) (69, -3.84793490171432500000e-001) (70, -7.92155638337135310000e-002) (71, -4.94366836547851560000e+000) (72, 8.84150341153144840000e-003) (73, -1.03089962005615230000e+001) (74, -2.61143725365400310000e-002) (75, -9.66490650177001950000e+000) (76, -5.00981032848358150000e-001) (77, -9.83025932312011720000e+000) (11, -8.41802406311035160000e+000) (12, -7.10221338272094730000e+000) (13, -5.95074033737182620000e+000) (14, -3.79087758064270020000e+000) (15, -5.79907035827636720000e+000) (16, -5.35800755023956300000e-001) (17, -1.02880086898803710000e+001) (18, -8.01932430267333980000e+000) (19, -6.98099946975708010000e+000) (20, -5.81289231777191160000e-001) (21, -8.79244446754455570000e-001) (22, -4.80356264114379880000e+000) (23, -1.02166852951049800000e+001) (24, -1.02629604339599610000e+001) (25, -5.86014509201049800000e+000) (26, -4.37976181507110600000e-001) (27, -8.44515800476074220000e+000) (28, 1.92330703139305110000e-001) (29, 1.32329016923904420000e-001) (30, -1.02006521224975590000e+001) (31, -1.03495435714721680000e+001) (32, -5.27525901794433590000e+000) (33, -2.69686996936798100000e-001) (34, -1.01637639999389650000e+001) (35, -5.52074146270751950000e+000) (36, -6.61289453506469730000e+000) (37, -9.82085132598876950000e+000) (38, -6.88592433929443360000e+000) (39, -4.24465751647949220000e+000) (40, -6.85888385772705080000e+000) (41, -2.62922883033752440000e+000) (42, -9.90736293792724610000e+000) (43, -5.13239526748657230000e+000) (44, -1.07172288894653320000e+001) (45, -1.09200334548950200000e+001) (46, -9.65310478210449220000e+000) (47, -1.01734781265258790000e+001) (48, -1.02747030258178710000e+001) (49, -9.99620056152343750000e+000) (50, -9.25622558593750000000e+000) (51, 7.64374136924743650000e-002) (52, -9.27888679504394530000e+000) (53, -9.85425758361816410000e+000) (54, -9.97219753265380860000e+000) (55, -1.02352981567382810000e+001) (56, -6.39997291564941410000e+000) (57, -1.87741920351982120000e-001) (58, -4.05947017669677730000e+000) (59, -6.73899078369140620000e+000) (60, -8.35070514678955080000e+000) (61, -1.01444940567016600000e+001) (62, -8.09393596649169920000e+000) (63, -1.01399497985839840000e+001) (64, -6.59720599651336670000e-001) (65, -4.23455619812011720000e+000) (66, -1.01205320358276370000e+001) (67, -7.02309751510620120000e+000) (68, -4.89988952875137330000e-001) (69, 6.24512359499931340000e-002) (70, 3.24091106653213500000e-001) (71, -4.37535142898559570000e+000) (72, -4.98226225376129150000e-001) (73, -1.01618394851684570000e+001) (74, 8.20815190672874450000e-002) (75, -1.05648450851440430000e+001) (76, -9.22549307346343990000e-001) (77, -1.04056015014648440000e+001) (11, -9.08166122436523440000e+000) (12, -6.61291980743408200000e+000) (13, -6.45993089675903320000e+000) (14, -4.54259347915649410000e+000) (15, -5.58967876434326170000e+000) (16, -6.20729429647326470000e-003) (17, -1.06661033630371090000e+001) (18, -7.83578968048095700000e+000) (19, -6.60538053512573240000e+000) (20, -3.85950297117233280000e-001) (21, -7.08743408322334290000e-002) (22, -4.84413719177246090000e+000) (23, -1.06259059906005860000e+001) (24, -1.03734998703002930000e+001) (25, -6.04305648803710940000e+000) (26, 1.59381553530693050000e-001) (27, -8.07676696777343750000e+000) (28, 6.32841885089874270000e-002) (29, -2.42209166288375850000e-001) (30, -1.10826921463012700000e+001) (31, -9.74287605285644530000e+000) (32, -5.75206565856933590000e+000) (33, -1.35965213179588320000e-001) (34, -9.92699909210205080000e+000) (35, -5.67212581634521480000e+000) (36, -7.04551267623901370000e+000) (37, -9.72685146331787110000e+000) (38, -6.56754112243652340000e+000) (39, -3.90738511085510250000e+000) (40, -5.85533189773559570000e+000) (41, -2.62713885307312010000e+000) (42, -1.03818092346191410000e+001) (43, -4.42175436019897460000e+000) (44, -1.01350336074829100000e+001) (45, -1.01940202713012700000e+001) (46, -1.00405006408691410000e+001) (47, -1.06866254806518550000e+001) (48, -1.01930379867553710000e+001) (49, -1.03891162872314450000e+001) (50, -8.80689620971679690000e+000) (51, -2.94683665037155150000e-001) (52, -9.59681606292724610000e+000) (53, -1.01517562866210940000e+001) (54, -9.60065174102783200000e+000) (55, -1.02302637100219730000e+001) (56, -6.23960685729980470000e+000) (57, -5.30242919921875000000e-001) (58, -3.96681642532348630000e+000) (59, -6.55547618865966800000e+000) (60, -8.09309387207031250000e+000) (61, -1.03185234069824220000e+001) (62, -7.70789051055908200000e+000) (63, -1.04572629928588870000e+001) (64, -7.99158573150634770000e-001) (65, -4.42173767089843750000e+000) (66, -9.94955444335937500000e+000) (67, -7.35037899017333980000e+000) (68, -1.37866318225860600000e-001) (69, -6.06701634824275970000e-002) (70, -5.48023760318756100000e-001) (71, -4.16503381729125980000e+000) (72, -2.70026803016662600000e-001) (73, -9.84671306610107420000e+000) (74, 2.07983031868934630000e-001) (75, -9.45877075195312500000e+000) (76, -5.47589540481567380000e-001) (77, -1.07821187973022460000e+001) (11, -7.82109212875366210000e+000) (12, -8.00923442840576170000e+000) (13, -7.22687482833862300000e+000) (14, -3.01179671287536620000e+000) (15, -3.60306859016418460000e+000) (16, 8.31845030188560490000e-002) (17, -1.16076526641845700000e+001) (18, -7.35333871841430660000e+000) (19, -5.06491756439208980000e+000) (20, -3.68999266624450680000e+000) (21, -3.97544813156127930000e+000) (22, -4.68381023406982420000e+000) (23, -1.11987199783325200000e+001) (24, -1.04761075973510740000e+001) (25, -6.60831451416015630000e+000) (26, -9.62088331580162050000e-002) (27, -9.92485427856445310000e+000) (28, -1.00859388709068300000e-001) (29, 6.83533176779747010000e-002) (30, -1.17976446151733400000e+001) (31, -1.15260257720947270000e+001) (32, -6.71179342269897460000e+000) (33, -3.88306856155395510000e-001) (34, -1.19810085296630860000e+001) (35, -3.98008060455322270000e+000) (36, -7.95356464385986330000e+000) (37, -1.09694795608520510000e+001) (38, -7.59904718399047850000e+000) (39, -5.89748764038085940000e+000) (40, -7.96170473098754880000e+000) (41, -2.51311969757080080000e+000) (42, -1.16310062408447270000e+001) (43, -3.07608985900878910000e+000) (44, -1.14611349105834960000e+001) (45, -1.19373006820678710000e+001) (46, -7.73554229736328120000e+000) (47, -8.24730491638183590000e+000) (48, -7.75990438461303710000e+000) (49, -1.15092706680297850000e+001) (50, -7.87210845947265620000e+000) (51, -4.20509934425354000000e-001) (52, -7.06649494171142580000e+000) (53, -7.89091491699218750000e+000) (54, -7.91998624801635740000e+000) (55, -1.08701305389404300000e+001) (56, -7.96246480941772460000e+000) (57, -1.67795687913894650000e-001) (58, -2.70358014106750490000e+000) (59, -7.30833339691162110000e+000) (60, -8.67343902587890630000e+000) (61, -1.16120204925537110000e+001) (62, -9.08643054962158200000e+000) (63, -1.10632057189941410000e+001) (64, -3.66409271955490110000e-001) (65, -2.50631666183471680000e+000) (66, -7.99614000320434570000e+000) (67, -8.98060798645019530000e+000) (68, 1.23185411095619200000e-001) (69, -3.37224245071411130000e-001) (70, 8.41200500726699830000e-002) (71, -2.96748542785644530000e+000) (72, 1.13927140831947330000e-001) (73, -8.28370761871337890000e+000) (74, 1.09343200922012330000e-001) (75, -1.16777610778808590000e+001) (76, -4.17132949829101560000e+000) (77, -1.15671882629394530000e+001) (11, -8.92766189575195310000e+000) (12, -6.85144186019897460000e+000) (13, -5.72493696212768550000e+000) (14, -3.69513106346130370000e+000) (15, -6.10814571380615230000e+000) (16, -1.50148585438728330000e-001) (17, -9.80582714080810550000e+000) (18, -8.70432949066162110000e+000) (19, -6.86714172363281250000e+000) (20, -1.74687072634696960000e-001) (21, -1.01257689297199250000e-001) (22, -4.83863162994384770000e+000) (23, -1.05420703887939450000e+001) (24, -9.98841285705566410000e+000) (25, -5.47606086730957030000e+000) (26, 1.17376156151294710000e-001) (27, -8.83079528808593750000e+000) (28, 1.06290623545646670000e-001) (29, -3.04041355848312380000e-001) (30, -1.12248401641845700000e+001) (31, -1.01518602371215820000e+001) (32, -6.05476236343383790000e+000) (33, -6.39326050877571110000e-002) (34, -9.83891105651855470000e+000) (35, -4.87822675704956050000e+000) (36, -6.68978118896484370000e+000) (37, -9.79766464233398440000e+000) (38, -6.74693489074707030000e+000) (39, -4.37837982177734370000e+000) (40, -6.05123805999755860000e+000) (41, -2.61219286918640140000e+000) (42, -1.01756210327148440000e+001) (43, -4.91508865356445310000e+000) (44, -1.03313264846801760000e+001) (45, -1.01877908706665040000e+001) (46, -9.49428749084472660000e+000) (47, -9.84987068176269530000e+000) (48, -9.81171131134033200000e+000) (49, -1.04612674713134770000e+001) (50, -8.61699008941650390000e+000) (51, -4.47967290878295900000e-001) (52, -9.90124797821044920000e+000) (53, -1.00708370208740230000e+001) (54, -9.59953403472900390000e+000) (55, -1.04760894775390620000e+001) (56, -6.77007246017456050000e+000) (57, 2.00989708304405210000e-001) (58, -3.87179994583129880000e+000) (59, -6.96407556533813480000e+000) (60, -7.96532249450683590000e+000) (61, -1.04207544326782230000e+001) (62, -8.34562301635742190000e+000) (63, -1.04910163879394530000e+001) (64, -6.22568547725677490000e-001) (65, -4.22784042358398440000e+000) (66, -1.01089324951171870000e+001) (67, -6.97842502593994140000e+000) (68, -3.84036861360073090000e-002) (69, 3.94333779811859130000e-001) (70, -3.00118476152420040000e-001) (71, -4.44681930541992190000e+000) (72, 3.81087094545364380000e-001) (73, -1.00196180343627930000e+001) (74, -4.44797933101654050000e-001) (75, -1.01625070571899410000e+001) (76, -4.41543877124786380000e-001) (77, -1.07886953353881840000e+001) (11, -8.52400779724121090000e+000) (12, -6.50478744506835940000e+000) (13, -6.34681367874145510000e+000) (14, -3.82283353805541990000e+000) (15, -6.44743204116821290000e+000) (16, 1.61402635276317600000e-002) (17, -9.76338863372802730000e+000) (18, -8.41513156890869140000e+000) (19, -7.17505359649658200000e+000) (20, -4.47362601757049560000e-001) (21, -3.06961238384246830000e-001) (22, -4.98293113708496090000e+000) (23, -9.93719482421875000000e+000) (24, -9.98272514343261720000e+000) (25, -5.57211160659790040000e+000) (26, 2.88550436496734620000e-001) (27, -8.17668151855468750000e+000) (28, -5.04334628582000730000e-001) (29, 2.68276453018188480000e-001) (30, -1.06412963867187500000e+001) (31, -9.89074802398681640000e+000) (32, -5.21772575378417970000e+000) (33, -8.42471942305564880000e-002) (34, -1.01406316757202150000e+001) (35, -5.28930568695068360000e+000) (36, -7.10654640197753910000e+000) (37, -9.43027591705322270000e+000) (38, -6.49465942382812500000e+000) (39, -4.27858018875122070000e+000) (40, -6.51834678649902340000e+000) (41, -2.81603860855102540000e+000) (42, -1.04887952804565430000e+001) (43, -4.99810838699340820000e+000) (44, -1.05313949584960940000e+001) (45, -1.06707983016967770000e+001) (46, -1.00880432128906250000e+001) (47, -1.02773551940917970000e+001) (48, -1.03030719757080080000e+001) (49, -1.04509706497192380000e+001) (50, -9.41987991333007810000e+000) (51, -5.61013519763946530000e-001) (52, -9.17210197448730470000e+000) (53, -9.75453472137451170000e+000) (54, -9.63965702056884770000e+000) (55, -1.04707803726196290000e+001) (56, -6.43559551239013670000e+000) (57, 1.78962096571922300000e-001) (58, -3.67390608787536620000e+000) (59, -6.60755300521850590000e+000) (60, -7.97063636779785160000e+000) (61, -1.07356243133544920000e+001) (62, -8.31501960754394530000e+000) (63, -1.02847929000854490000e+001) (64, -4.10959959030151370000e-001) (65, -3.72004055976867680000e+000) (66, -1.04920711517333980000e+001) (67, -6.83217573165893550000e+000) (68, -4.29305911064147950000e-001) (69, 2.59647428989410400000e-001) (70, -2.46735334396362300000e-001) (71, -4.52804851531982420000e+000) (72, -4.37309861183166500000e-001) (73, -1.01079053878784180000e+001) (74, -3.21206927299499510000e-001) (75, -1.01195621490478520000e+001) (76, -4.15256649255752560000e-001) (77, -1.02504558563232420000e+001) (11, -8.85367488861083980000e+000) (12, -6.45684051513671880000e+000) (13, -6.41723203659057620000e+000) (14, -3.71165585517883300000e+000) (15, -6.04034090042114260000e+000) (16, 4.96497377753257750000e-002) (17, -9.79640102386474610000e+000) (18, -8.54262828826904300000e+000) (19, -7.18993759155273440000e+000) (20, -7.33702361583709720000e-001) (21, -4.51876848936080930000e-001) (22, -4.50369119644165040000e+000) (23, -1.01412305831909180000e+001) (24, -9.98385620117187500000e+000) (25, -6.07759904861450200000e+000) (26, -3.79100829362869260000e-001) (27, -8.82085990905761720000e+000) (28, 2.84308165311813350000e-001) (29, -2.69899457693099980000e-001) (30, -1.06842727661132810000e+001) (31, -1.04847726821899410000e+001) (32, -5.61800432205200200000e+000) (33, -4.74508821964263920000e-001) (34, -1.05916891098022460000e+001) (35, -5.26467180252075200000e+000) (36, -6.54881048202514650000e+000) (37, -9.19386100769042970000e+000) (38, -6.79871845245361330000e+000) (39, -4.04191350936889650000e+000) (40, -6.88846540451049800000e+000) (41, -2.62724971771240230000e+000) (42, -1.05010499954223630000e+001) (43, -5.12487411499023440000e+000) (44, -1.04763097763061520000e+001) (45, -1.07471590042114260000e+001) (46, -1.03623046875000000000e+001) (47, -1.01889057159423830000e+001) (48, -9.62767696380615230000e+000) (49, -1.06887407302856450000e+001) (50, -8.95392036437988280000e+000) (51, -5.07584333419799800000e-001) (52, -9.97132587432861330000e+000) (53, -1.02633876800537110000e+001) (54, -1.01623306274414060000e+001) (55, -9.57098484039306640000e+000) (56, -6.00167846679687500000e+000) (57, -2.40401834249496460000e-001) (58, -3.99225521087646480000e+000) (59, -6.00414323806762700000e+000) (60, -8.15445041656494140000e+000) (61, -1.03338251113891600000e+001) (62, -8.19826412200927730000e+000) (63, -9.86959362030029300000e+000) (64, -8.98860931396484380000e-001) (65, -4.50995826721191410000e+000) (66, -9.85166454315185550000e+000) (67, -7.18612623214721680000e+000) (68, -5.19100487232208250000e-001) (69, 2.28684648871421810000e-001) (70, 2.71010279655456540000e-001) (71, -4.14468908309936520000e+000) (72, -2.68905431032180790000e-001) (73, -1.00746355056762700000e+001) (74, -4.24377530813217160000e-001) (75, -9.52229022979736330000e+000) (76, -7.97920048236846920000e-001) (77, -1.03319587707519530000e+001) (11, -9.12101173400878910000e+000) (12, -6.96380424499511720000e+000) (13, -6.35179424285888670000e+000) (14, -3.63927292823791500000e+000) (15, -6.25515174865722660000e+000) (16, 1.18720196187496190000e-001) (17, -1.01114788055419920000e+001) (18, -8.74641513824462890000e+000) (19, -7.22636604309082030000e+000) (20, -8.88936042785644530000e-001) (21, -9.97508466243743900000e-001) (22, -5.29268217086791990000e+000) (23, -1.05090875625610350000e+001) (24, -9.72949600219726560000e+000) (25, -5.56495237350463870000e+000) (26, 1.47528856992721560000e-001) (27, -8.73626708984375000000e+000) (28, 2.60089188814163210000e-001) (29, -2.24340453743934630000e-001) (30, -1.04002647399902340000e+001) (31, -1.02543869018554690000e+001) (32, -5.14474630355834960000e+000) (33, -4.92961704730987550000e-001) (34, -9.96731758117675780000e+000) (35, -5.27594280242919920000e+000) (36, -7.21550893783569340000e+000) (37, -9.27270317077636720000e+000) (38, -6.72646713256835940000e+000) (39, -4.10010194778442380000e+000) (40, -6.12276029586791990000e+000) (41, -2.23672008514404300000e+000) (42, -1.01034660339355470000e+001) (43, -4.86285734176635740000e+000) (44, -1.09535264968872070000e+001) (45, -1.01254758834838870000e+001) (46, -9.97515964508056640000e+000) (47, -9.72840213775634770000e+000) (48, -9.99109649658203120000e+000) (49, -1.00163269042968750000e+001) (50, -9.13222885131835940000e+000) (51, 5.74676990509033200000e-002) (52, -1.00676155090332030000e+001) (53, -9.85171127319335940000e+000) (54, -9.82760047912597660000e+000) (55, -1.04389047622680660000e+001) (56, -6.87763786315917970000e+000) (57, -3.37156176567077640000e-001) (58, -4.09462451934814450000e+000) (59, -6.82658338546752930000e+000) (60, -7.65794324874877930000e+000) (61, -1.08742113113403320000e+001) (62, -8.22833919525146480000e+000) (63, -1.01903505325317380000e+001) (64, -8.80304038524627690000e-001) (65, -4.49611377716064450000e+000) (66, -9.87272548675537110000e+000) (67, -7.54109477996826170000e+000) (68, 2.18167200684547420000e-001) (69, -2.66127645969390870000e-001) (70, -3.11719894409179690000e-001) (71, -4.75625896453857420000e+000) (72, 7.54967927932739260000e-002) (73, -9.99243354797363280000e+000) (74, -1.37915268540382390000e-001) (75, -9.73741340637207030000e+000) (76, -7.44225561618804930000e-001) (77, -1.03082304000854490000e+001) (11, -8.56691455841064450000e+000) (12, -6.98192358016967770000e+000) (13, -6.19613695144653320000e+000) (14, -4.31545782089233400000e+000) (15, -6.02402877807617190000e+000) (16, 1.18552014231681820000e-001) (17, -9.64216041564941410000e+000) (18, -8.49695301055908200000e+000) (19, -7.09796571731567380000e+000) (20, 1.79702639579772950000e-001) (21, 3.87397378683090210000e-001) (22, -4.88038301467895510000e+000) (23, -9.80925273895263670000e+000) (24, -1.10965156555175780000e+001) (25, -5.98175525665283200000e+000) (26, -2.44925525039434430000e-002) (27, -8.41924667358398440000e+000) (28, -3.57366949319839480000e-001) (29, -2.55975276231765750000e-002) (30, -1.06668081283569340000e+001) (31, -9.25905895233154300000e+000) (32, -5.51959896087646480000e+000) (33, 2.69302427768707280000e-001) (34, -1.11885547637939450000e+001) (35, -4.59394454956054690000e+000) (36, -7.00952672958374020000e+000) (37, -9.12476444244384770000e+000) (38, -6.84974288940429690000e+000) (39, -4.27939033508300780000e+000) (40, -7.27952623367309570000e+000) (41, -2.20902633666992190000e+000) (42, -1.03630132675170900000e+001) (43, -5.21200799942016600000e+000) (44, -1.05847187042236330000e+001) (45, -1.01791772842407230000e+001) (46, -1.01933145523071290000e+001) (47, -1.00573387145996090000e+001) (48, -1.06317329406738280000e+001) (49, -9.96579933166503910000e+000) (50, -9.16390132904052730000e+000) (51, 5.18824398517608640000e-001) (52, -1.01638660430908200000e+001) (53, -9.73561000823974610000e+000) (54, -1.05867071151733400000e+001) (55, -9.60420799255371090000e+000) (56, -5.89986515045166020000e+000) (57, 4.54805821180343630000e-001) (58, -3.53910207748413090000e+000) (59, -6.65167522430419920000e+000) (60, -7.69551849365234370000e+000) (61, -9.92331409454345700000e+000) (62, -8.82878017425537110000e+000) (63, -1.04541387557983400000e+001) (64, -8.23484957218170170000e-001) (65, -4.03820896148681640000e+000) (66, -9.32797431945800780000e+000) (67, -7.43516921997070310000e+000) (68, -2.90048032999038700000e-001) (69, 8.04059356451034550000e-002) (70, 1.98846906423568730000e-001) (71, -4.76443815231323240000e+000) (72, 2.38235309720039370000e-001) (73, -1.04142370223999020000e+001) (74, 4.35634143650531770000e-002) (75, -1.03537549972534180000e+001) (76, 4.91687983274459840000e-001) (77, -1.00312938690185550000e+001) (11, -9.00402927398681640000e+000) (12, -7.23489618301391600000e+000) (13, -6.35182189941406250000e+000) (14, -4.17454671859741210000e+000) (15, -5.28787708282470700000e+000) (16, -9.31440219283103940000e-002) (17, -1.04953022003173830000e+001) (18, -8.69425487518310550000e+000) (19, -6.65406990051269530000e+000) (20, -9.37527835369110110000e-001) (21, -6.66012883186340330000e-001) (22, -5.04594135284423830000e+000) (23, -1.07458600997924800000e+001) (24, -1.01200838088989260000e+001) (25, -5.93542242050170900000e+000) (26, 2.40847781300544740000e-001) (27, -8.26583194732666020000e+000) (28, 1.46626383066177370000e-001) (29, -5.68872928619384770000e-001) (30, -1.02151775360107420000e+001) (31, -1.05701847076416020000e+001) (32, -5.96842384338378910000e+000) (33, -5.01709759235382080000e-001) (34, -1.03845357894897460000e+001) (35, -5.36522102355957030000e+000) (36, -6.99525642395019530000e+000) (37, -9.58103752136230470000e+000) (38, -7.30702447891235350000e+000) (39, -3.77492237091064450000e+000) (40, -6.71156406402587890000e+000) (41, -2.77795743942260740000e+000) (42, -1.06577472686767580000e+001) (43, -4.13093471527099610000e+000) (44, -1.07455015182495120000e+001) (45, -1.05256786346435550000e+001) (46, -1.00511350631713870000e+001) (47, -1.00099229812622070000e+001) (48, -9.88186359405517580000e+000) (49, -1.07493715286254880000e+001) (50, -9.60823822021484370000e+000) (51, 2.52027601003646850000e-001) (52, -9.46899509429931640000e+000) (53, -9.11242198944091800000e+000) (54, -9.40557003021240230000e+000) (55, -9.57265758514404300000e+000) (56, -6.36620950698852540000e+000) (57, -3.55391830205917360000e-001) (58, -4.09029340744018550000e+000) (59, -6.66718149185180660000e+000) (60, -7.51195526123046870000e+000) (61, -9.95919799804687500000e+000) (62, -8.32228279113769530000e+000) (63, -1.03426342010498050000e+001) (64, -2.44144231081008910000e-001) (65, -4.19505357742309570000e+000) (66, -9.67686557769775390000e+000) (67, -7.41587829589843750000e+000) (68, -4.43436764180660250000e-002) (69, 1.74445301294326780000e-001) (70, 3.18717092275619510000e-001) (71, -4.52108335494995120000e+000) (72, 1.31910771131515500000e-001) (73, -9.20672702789306640000e+000) (74, -3.03331851959228520000e-001) (75, -1.04104204177856450000e+001) (76, -1.14455807209014890000e+000) (77, -1.03897066116333010000e+001) (11, -8.63393878936767580000e+000) (12, -7.01021337509155270000e+000) (13, -6.07170295715332030000e+000) (14, -4.58406972885131840000e+000) (15, -6.09161472320556640000e+000) (16, 2.92089521884918210000e-001) (17, -1.00220375061035160000e+001) (18, -8.57621479034423830000e+000) (19, -6.75580787658691410000e+000) (20, -7.60818898677825930000e-001) (21, -8.67518484592437740000e-001) (22, -4.82076311111450200000e+000) (23, -1.00522699356079100000e+001) (24, -1.01806526184082030000e+001) (25, -6.17433404922485350000e+000) (26, 3.69038013741374020000e-003) (27, -9.08876037597656250000e+000) (28, 2.46412277221679690000e-001) (29, 3.50730925798416140000e-001) (30, -1.04725933074951170000e+001) (31, -1.00876350402832030000e+001) (32, -5.91817760467529300000e+000) (33, -2.11748331785202030000e-001) (34, -1.03419370651245120000e+001) (35, -5.02067422866821290000e+000) (36, -6.50068759918212890000e+000) (37, -9.48283386230468750000e+000) (38, -7.38523769378662110000e+000) (39, -4.49758625030517580000e+000) (40, -6.54632854461669920000e+000) (41, -2.02896952629089360000e+000) (42, -1.03338451385498050000e+001) (43, -5.12123203277587890000e+000) (44, -1.02757406234741210000e+001) (45, -1.05162544250488280000e+001) (46, -9.79027748107910160000e+000) (47, -1.04877071380615230000e+001) (48, -9.88028526306152340000e+000) (49, -1.00964879989624020000e+001) (50, -9.15390110015869140000e+000) (51, 1.98699668049812320000e-001) (52, -1.00455989837646480000e+001) (53, -9.50717926025390630000e+000) (54, -1.02112483978271480000e+001) (55, -9.96421337127685550000e+000) (56, -6.78408002853393550000e+000) (57, -2.80141711235046390000e-001) (58, -3.97573637962341310000e+000) (59, -6.46956014633178710000e+000) (60, -8.21191883087158200000e+000) (61, -1.07266025543212890000e+001) (62, -8.33379077911376950000e+000) (63, -1.02457780838012700000e+001) (64, -6.56837940216064450000e-001) (65, -4.13696002960205080000e+000) (66, -9.89895915985107420000e+000) (67, -7.06722259521484380000e+000) (68, 2.56575703620910640000e-001) (69, 4.05167967081069950000e-001) (70, -5.18603324890136720000e-001) (71, -4.61653900146484370000e+000) (72, 3.25875550508499150000e-001) (73, -9.84768009185791020000e+000) (74, 7.73598924279212950000e-002) (75, -1.04048652648925780000e+001) (76, -5.35403907299041750000e-001) (77, -1.00831279754638670000e+001) (11, -8.53031444549560550000e+000) (12, -6.91264438629150390000e+000) (13, -6.46117210388183590000e+000) (14, -3.72526478767395020000e+000) (15, -5.67748594284057620000e+000) (16, 1.59586355090141300000e-001) (17, -8.82496261596679690000e+000) (18, -8.62404727935791020000e+000) (19, -7.20143890380859380000e+000) (20, 5.26746571063995360000e-001) (21, -8.03197622299194340000e-002) (22, -4.77777528762817380000e+000) (23, -1.02961835861206050000e+001) (24, -1.07926273345947270000e+001) (25, -5.71944189071655270000e+000) (26, 4.89541023969650270000e-001) (27, -8.86559200286865230000e+000) (28, 2.00096994638442990000e-001) (29, -5.02436980605125430000e-002) (30, -1.06501121520996090000e+001) (31, -9.39976501464843750000e+000) (32, -5.29600667953491210000e+000) (33, 2.47989684343338010000e-001) (34, -1.05271167755126950000e+001) (35, -4.59493875503540040000e+000) (36, -7.28984546661376950000e+000) (37, -8.55984973907470700000e+000) (38, -6.63956642150878910000e+000) (39, -4.82001638412475590000e+000) (40, -6.58740091323852540000e+000) (41, -2.29053473472595210000e+000) (42, -1.03267583847045900000e+001) (43, -3.86783576011657710000e+000) (44, -9.94931888580322270000e+000) (45, -1.07531013488769530000e+001) (46, -1.09301595687866210000e+001) (47, -1.03410320281982420000e+001) (48, -1.01101055145263670000e+001) (49, -1.05939407348632810000e+001) (50, -8.71542453765869140000e+000) (51, 5.73181509971618650000e-001) (52, -1.04149713516235350000e+001) (53, -9.54390239715576170000e+000) (54, -1.04672040939331050000e+001) (55, -9.90731239318847660000e+000) (56, -6.84971475601196290000e+000) (57, -4.17589992284774780000e-001) (58, -3.62237787246704100000e+000) (59, -6.39152240753173830000e+000) (60, -7.87653493881225590000e+000) (61, 