FANN_FLO_2.1
num_layers=4
learning_rate=0.700000
connection_rate=1.000000
network_type=0
learning_momentum=0.000000
training_algorithm=2
train_error_function=1
train_stop_function=0
cascade_output_change_fraction=0.010000
quickprop_decay=-0.000100
quickprop_mu=1.750000
rprop_increase_factor=1.200000
rprop_decrease_factor=0.500000
rprop_delta_min=0.000000
rprop_delta_max=50.000000
rprop_delta_zero=0.100000
cascade_output_stagnation_epochs=12
cascade_candidate_change_fraction=0.010000
cascade_candidate_stagnation_epochs=12
cascade_max_out_epochs=150
cascade_max_cand_epochs=150
cascade_num_candidate_groups=2
bit_fail_limit=3.49999994039535520000e-001
cascade_candidate_limit=1.00000000000000000000e+003
cascade_weight_multiplier=4.00000005960464480000e-001
cascade_activation_functions_count=10
cascade_activation_functions=3 5 7 8 10 11 14 15 16 17 
cascade_activation_steepnesses_count=4
cascade_activation_steepnesses=2.50000000000000000000e-001 5.00000000000000000000e-001 7.50000000000000000000e-001 1.00000000000000000000e+000 
layer_sizes=11 67 45 3 
scale_included=0
neurons (num_inputs, activation_function, activation_steepness)=(0, 0, 0.00000000000000000000e+000) (0, 0, 0.00000000000000000000e+000) (0, 0, 0.00000000000000000000e+000) (0, 0, 0.00000000000000000000e+000) (0, 0, 0.00000000000000000000e+000) (0, 0, 0.00000000000000000000e+000) (0, 0, 0.00000000000000000000e+000) (0, 0, 0.00000000000000000000e+000) (0, 0, 0.00000000000000000000e+000) (0, 0, 0.00000000000000000000e+000) (0, 0, 0.00000000000000000000e+000) (11, 10, 5.00000000000000000000e-001) (11, 10, 5.00000000000000000000e-001) (11, 10, 5.00000000000000000000e-001) (11, 10, 5.00000000000000000000e-001) (11, 10, 5.00000000000000000000e-001) (11, 10, 5.00000000000000000000e-001) (11, 10, 5.00000000000000000000e-001) (11, 10, 5.00000000000000000000e-001) (11, 10, 5.00000000000000000000e-001) (11, 10, 5.00000000000000000000e-001) (11, 10, 5.00000000000000000000e-001) (11, 10, 5.00000000000000000000e-001) (11, 10, 5.00000000000000000000e-001) (11, 10, 5.00000000000000000000e-001) (11, 10, 5.00000000000000000000e-001) (11, 10, 5.00000000000000000000e-001) (11, 10, 5.00000000000000000000e-001) (11, 10, 5.00000000000000000000e-001) (11, 10, 5.00000000000000000000e-001) (11, 10, 5.00000000000000000000e-001) (11, 10, 5.00000000000000000000e-001) (11, 10, 5.00000000000000000000e-001) (11, 10, 5.00000000000000000000e-001) (11, 10, 5.00000000000000000000e-001) (11, 10, 5.00000000000000000000e-001) (11, 10, 5.00000000000000000000e-001) (11, 10, 5.00000000000000000000e-001) (11, 10, 5.00000000000000000000e-001) (11, 10, 5.00000000000000000000e-001) (11, 10, 5.00000000000000000000e-001) (11, 10, 5.00000000000000000000e-001) (11, 10, 5.00000000000000000000e-001) (11, 10, 5.00000000000000000000e-001) (11, 10, 5.00000000000000000000e-001) (11, 10, 5.00000000000000000000e-001) (11, 10, 5.00000000000000000000e-001) (11, 10, 5.00000000000000000000e-001) (11, 10, 5.00000000000000000000e-001) (11, 10, 5.00000000000000000000e-001) (11, 10, 5.00000000000000000000e-001) (11, 10, 5.00000000000000000000e-001) (11, 10, 5.00000000000000000000e-001) (11, 10, 5.00000000000000000000e-001) (11, 10, 5.00000000000000000000e-001) (11, 10, 5.00000000000000000000e-001) (11, 10, 5.00000000000000000000e-001) (11, 10, 5.00000000000000000000e-001) (11, 10, 5.00000000000000000000e-001) (11, 10, 5.00000000000000000000e-001) (11, 10, 5.00000000000000000000e-001) (11, 10, 5.00000000000000000000e-001) (11, 10, 5.00000000000000000000e-001) (11, 10, 5.00000000000000000000e-001) (11, 10, 5.00000000000000000000e-001) (11, 10, 5.00000000000000000000e-001) (11, 10, 5.00000000000000000000e-001) (11, 10, 5.00000000000000000000e-001) (11, 10, 5.00000000000000000000e-001) (11, 10, 5.00000000000000000000e-001) (11, 10, 5.00000000000000000000e-001) (11, 10, 5.00000000000000000000e-001) (11, 10, 5.00000000000000000000e-001) (11, 10, 5.00000000000000000000e-001) (11, 10, 5.00000000000000000000e-001) (11, 10, 5.00000000000000000000e-001) (11, 10, 5.00000000000000000000e-001) (0, 10, 5.00000000000000000000e-001) (67, 10, 5.00000000000000000000e-001) (67, 10, 5.00000000000000000000e-001) (67, 10, 5.00000000000000000000e-001) (67, 10, 5.00000000000000000000e-001) (67, 10, 5.00000000000000000000e-001) (67, 10, 5.00000000000000000000e-001) (67, 10, 5.00000000000000000000e-001) (67, 10, 5.00000000000000000000e-001) (67, 10, 5.00000000000000000000e-001) (67, 10, 5.00000000000000000000e-001) (67, 10, 5.00000000000000000000e-001) (67, 10, 5.00000000000000000000e-001) (67, 10, 5.00000000000000000000e-001) (67, 10, 5.00000000000000000000e-001) (67, 10, 5.00000000000000000000e-001) (67, 10, 5.00000000000000000000e-001) (67, 10, 5.00000000000000000000e-001) (67, 10, 5.00000000000000000000e-001) (67, 10, 5.00000000000000000000e-001) (67, 10, 5.00000000000000000000e-001) (67, 10, 5.00000000000000000000e-001) (67, 10, 5.00000000000000000000e-001) (67, 10, 5.00000000000000000000e-001) (67, 10, 5.00000000000000000000e-001) (67, 10, 5.00000000000000000000e-001) (67, 10, 5.00000000000000000000e-001) (67, 10, 5.00000000000000000000e-001) (67, 10, 5.00000000000000000000e-001) (67, 10, 5.00000000000000000000e-001) (67, 10, 5.00000000000000000000e-001) (67, 10, 5.00000000000000000000e-001) (67, 10, 5.00000000000000000000e-001) (67, 10, 5.00000000000000000000e-001) (67, 10, 5.00000000000000000000e-001) (67, 10, 5.00000000000000000000e-001) (67, 10, 5.00000000000000000000e-001) (67, 10, 5.00000000000000000000e-001) (67, 10, 5.00000000000000000000e-001) (67, 10, 5.00000000000000000000e-001) (67, 10, 5.00000000000000000000e-001) (67, 10, 5.00000000000000000000e-001) (67, 10, 5.00000000000000000000e-001) (67, 10, 5.00000000000000000000e-001) (67, 10, 5.00000000000000000000e-001) (0, 10, 5.00000000000000000000e-001) (45, 0, 5.00000000000000000000e-001) (45, 0, 5.00000000000000000000e-001) (0, 0, 5.00000000000000000000e-001) 
connections (connected_to_neuron, weight)=(0, -2.01580449938774110000e-001) (1, -1.80095088481903080000e+000) (2, 3.18586468696594240000e-001) (3, 1.31227880716323850000e-001) (4, -8.16262006759643550000e-001) (5, -1.51459169387817380000e+000) (6, -1.58233928680419920000e+000) (7, -4.44831669330596920000e-001) (8, 1.77369475364685060000e-001) (9, -1.49419760704040530000e+000) (10, 5.29988259077072140000e-002) (0, -3.67772936820983890000e-001) (1, 4.18223559856414790000e-001) (2, 4.55300211906433110000e-001) (3, 3.20554763078689580000e-001) (4, 5.22944450378417970000e-001) (5, 7.84644961357116700000e-001) (6, 4.66456323862075810000e-001) (7, 1.52642965316772460000e-001) (8, 2.26727318763732910000e+000) (9, 6.09234929084777830000e-001) (10, 1.47272884845733640000e-001) (0, -2.80582867562770840000e-002) (1, 9.26290154457092290000e-001) (2, 2.98516720533370970000e-001) (3, -7.55980685353279110000e-002) (4, 1.66807714849710460000e-002) (5, 2.22443431615829470000e-001) (6, 6.74263894557952880000e-001) (7, -2.41845428943634030000e-001) (8, 7.09041476249694820000e-001) (9, 2.17791214585304260000e-001) (10, 3.12554952688515190000e-003) (0, -3.07474642992019650000e-001) (1, -1.78443324565887450000e+000) (2, -1.85119152069091800000e+000) (3, 4.71299409866333010000e-001) (4, -1.06255769729614260000e+000) (5, -7.73952782154083250000e-001) (6, -3.32727909088134770000e-001) (7, -2.95317977666854860000e-001) (8, -8.79249349236488340000e-002) (9, -4.84827637672424320000e-001) (10, -3.81900638341903690000e-001) (0, -3.38453829288482670000e-001) (1, 1.24944090843200680000e+000) (2, 4.13312762975692750000e-001) (3, 7.33945906162261960000e-001) (4, 4.14435237646102910000e-001) (5, 1.06510436534881590000e+000) (6, 5.23020386695861820000e-001) (7, 2.09736242890357970000e-001) (8, 1.60252869129180910000e+000) (9, 9.18682396411895750000e-001) (10, -4.40896898508071900000e-001) (0, -1.99472114443778990000e-001) (1, 1.02127933502197270000e+000) (2, 2.71984308958053590000e-001) (3, -1.90838620066642760000e-001) (4, 6.62407577037811280000e-001) (5, 1.12313735485076900000e+000) (6, 7.86858022212982180000e-001) (7, 2.43906736373901370000e-001) (8, 1.45671260356903080000e+000) (9, 9.08358216285705570000e-001) (10, -1.47440686821937560000e-001) (0, -2.19404250383377080000e-001) (1, 1.26324796676635740000e+000) (2, 6.77252173423767090000e-001) (3, -1.24035120010375980000e-001) (4, 6.70766770839691160000e-001) (5, 7.75066375732421880000e-001) (6, 5.84262251853942870000e-001) (7, -6.62887468934059140000e-002) (8, 1.72311913967132570000e+000) (9, 8.46962869167327880000e-001) (10, 1.76167979836463930000e-001) (0, 3.69970686733722690000e-002) (1, 6.02265775203704830000e-001) (2, 3.44197541475296020000e-001) (3, 2.97175556421279910000e-001) (4, 3.78344535827636720000e-001) (5, 9.47967052459716800000e-001) (6, 6.96013748645782470000e-001) (7, 2.83585637807846070000e-001) (8, 1.45138156414031980000e+000) (9, 6.55686438083648680000e-001) (10, -1.83836847543716430000e-001) (0, -3.53999495506286620000e-001) (1, 1.01974954605102540000e+001) (2, 9.84575176239013670000e+000) (3, -1.45772904157638550000e-001) (4, 5.56806087493896480000e+000) (5, 1.01405134201049800000e+001) (6, 5.94270038604736330000e+000) (7, 9.66996610164642330000e-001) (8, 2.37334656715393070000e+000) (9, 1.95066893100738530000e+000) (10, 2.94619202613830570000e-001) (0, 3.62677752971649170000e-001) (1, 4.81806099414825440000e-001) (2, 5.47249615192413330000e-001) (3, 3.99335235357284550000e-001) (4, 1.43742978572845460000e-001) (5, -4.16456818580627440000e-001) (6, -1.14733017981052400000e-001) (7, -1.42231553792953490000e-001) (8, 3.05780619382858280000e-001) (9, 5.59055805206298830000e-001) (10, 2.95491665601730350000e-001) (0, -3.29103827476501460000e-001) (1, 8.25747907161712650000e-001) (2, 4.39385026693344120000e-001) (3, 2.06463068723678590000e-001) (4, 4.42379675805568700000e-002) (5, 5.46377241611480710000e-001) (6, 4.43914473056793210000e-001) (7, -2.30099290609359740000e-001) (8, 1.74712932109832760000e+000) (9, 3.38105738162994380000e-001) (10, 4.19413238763809200000e-001) (0, 3.14964950084686280000e-001) (1, -5.84016680717468260000e-001) (2, 4.11814525723457340000e-002) (3, 1.81133925914764400000e-001) (4, -1.50272101163864140000e-001) (5, -3.91154736280441280000e-001) (6, -1.87229782342910770000e-001) (7, -1.09841302037239070000e-001) (8, -4.13424730300903320000e-001) (9, -2.21901357173919680000e-001) (10, 3.53547930717468260000e-001) (0, -2.79159665107727050000e-001) (1, 1.22859597206115720000e+000) (2, 2.25102633237838750000e-001) (3, 5.51777362823486330000e-001) (4, 4.46475714445114140000e-001) (5, 8.60655844211578370000e-001) (6, 8.22648167610168460000e-001) (7, -7.09008499979972840000e-002) (8, 1.31323170661926270000e+000) (9, 8.67545902729034420000e-001) (10, 4.91172671318054200000e-001) (0, 2.58153259754180910000e-001) (1, 4.24640655517578130000e-001) (2, 7.64196395874023440000e-001) (3, 2.58759528398513790000e-001) (4, 4.63512331247329710000e-001) (5, 9.97047722339630130000e-001) (6, 1.17588019371032710000e+000) (7, -1.73568576574325560000e-001) (8, 1.36262452602386470000e+000) (9, 9.81879115104675290000e-001) (10, -6.30514547228813170000e-002) (0, 6.00222885608673100000e-001) (1, 3.04703693389892580000e+001) (2, -3.31557542085647580000e-002) (3, 8.15363943576812740000e-001) (4, 1.51516580581665040000e+001) (5, 2.97615947723388670000e+001) (6, 2.95927200317382810000e+001) (7, 1.51059553027153020000e-001) (8, 5.68205738067626950000e+000) (9, 3.04923534393310550000e+001) (10, 2.87561267614364620000e-001) (0, -3.92578244209289550000e-002) (1, 1.60471558570861820000e+000) (2, 2.39966559410095210000e+000) (3, 5.79025983810424800000e-001) (4, 1.35726273059844970000e+000) (5, 1.85959255695343020000e+000) (6, 1.07962882518768310000e+000) (7, 7.58187025785446170000e-002) (8, 1.51430511474609370000e+000) (9, 8.36214780807495120000e-001) (10, 4.34325248003005980000e-001) (0, 4.64368760585784910000e-001) (1, 2.04071235656738280000e+000) (2, 1.58454132080078130000e+000) (3, 3.90213191509246830000e-001) (4, 1.42345666885375980000e+000) (5, 1.47629344463348390000e+000) (6, 2.00078105926513670000e+000) (7, -1.03385210037231450000e-001) (8, 2.58118915557861330000e+000) (9, 2.58232045173645020000e+000) (10, 2.42096737027168270000e-001) (0, 7.77200330048799510000e-003) (1, 9.96693515777587890000e+000) (2, 3.81822675466537480000e-001) (3, 7.50129342079162600000e-001) (4, 5.65866756439208980000e+000) (5, 1.08262453079223630000e+001) (6, 9.98163986206054690000e+000) (7, 3.09221208095550540000e-001) (8, 2.16263055801391600000e+000) (9, 1.02586803436279300000e+001) (10, 5.79423546791076660000e-001) (0, -3.38548243045806880000e-001) (1, 1.14399898052215580000e+000) (2, 6.53835833072662350000e-001) (3, 5.92045605182647710000e-001) (4, 5.36578953266143800000e-001) (5, 6.87176346778869630000e-001) (6, 7.35048651695251460000e-001) (7, -2.24743843078613280000e-001) (8, 1.50897610187530520000e+000) (9, 8.37290465831756590000e-001) (10, 7.89806321263313290000e-002) (0, -2.74527184665203090000e-002) (1, 2.69614815711975100000e-001) (2, 2.74095594882965090000e-001) (3, 7.26465880870819090000e-001) (4, 4.67998795211315160000e-002) (5, 1.45546868443489070000e-001) (6, 1.29748508334159850000e-001) (7, 2.56159871816635130000e-001) (8, 6.52163505554199220000e-001) (9, 3.03672403097152710000e-001) (10, 6.75965920090675350000e-002) (0, 3.08585435152053830000e-001) (1, 2.21098403930664060000e+001) (2, 2.27284450531005860000e+001) (3, 4.54836755990982060000e-001) (4, 1.12175025939941410000e+001) (5, 1.82596454620361330000e+001) (6, 1.22099981307983400000e+001) (7, 9.75841581821441650000e-002) (8, 3.02155876159667970000e+000) (9, 2.82687020301818850000e+000) (10, 1.67244928888976570000e-003) (0, -1.77761062979698180000e-001) (1, -3.10163140296936040000e-001) (2, -2.16116070747375490000e-001) (3, -4.40048635005950930000e-001) (4, -4.45252507925033570000e-001) (5, -3.06529961526393890000e-002) (6, -2.44824677705764770000e-001) (7, 3.31710308790206910000e-001) (8, -3.51560056209564210000e-001) (9, -4.15921211242675780000e-001) (10, 4.81971174478530880000e-001) (0, 1.19197025895118710000e-001) (1, -9.81988757848739620000e-003) (2, -2.37504914402961730000e-001) (3, -2.73240327835083010000e-001) (4, -5.40320098400115970000e-001) (5, -2.89492934942245480000e-001) (6, -7.52119243144989010000e-001) (7, 5.42997479438781740000e-001) (8, -2.15795099735260010000e-001) (9, -1.93415656685829160000e-002) (10, 7.22690718248486520000e-003) (0, -4.16808605194091800000e-001) (1, 1.13689458370208740000e+000) (2, 5.58514446020126340000e-002) (3, 1.08802197501063350000e-002) (4, 3.20926964282989500000e-001) (5, 7.70442187786102290000e-001) (6, 1.33894371986389160000e+000) (7, 3.35742354393005370000e-001) (8, 1.21193611621856690000e+000) (9, 5.07511615753173830000e-001) (10, -1.52638390660285950000e-001) (0, -2.02959757298231120000e-002) (1, -8.44223690032958980000e+000) (2, -1.03556685149669650000e-001) (3, -8.61740931868553160000e-002) (4, -3.99380183219909670000e+000) (5, -8.37501716613769530000e+000) (6, -8.77154254913330080000e+000) (7, 3.55069100856781010000e-001) (8, -8.67439508438110350000e-001) (9, -8.92323112487792970000e+000) (10, -3.11800330877304080000e-001) (0, -9.98751670122146610000e-002) (1, 9.00973677635192870000e-001) (2, -4.14411038160324100000e-001) (3, -6.59451037645339970000e-002) (4, -2.19638854265213010000e-001) (5, 4.22926485538482670000e-001) (6, 7.45964884757995610000e-001) (7, -1.52633726596832280000e-001) (8, 9.55293536186218260000e-001) (9, 8.79817977547645570000e-002) (10, 4.18620854616165160000e-002) (0, 3.13725233078002930000e-001) (1, -8.87895226478576660000e-001) (2, -1.36100733280181880000e+000) (3, -2.88474440574646000000e-001) (4, -8.61652970314025880000e-001) (5, -1.04895830154418950000e+000) (6, -9.19864952564239500000e-001) (7, -4.19349372386932370000e-001) (8, -1.76193118095397950000e-001) (9, -1.00147195160388950000e-001) (10, -4.58376184105873110000e-002) (0, -3.27584981918334960000e-001) (1, -5.15710949897766110000e-001) (2, 3.06131035089492800000e-001) (3, 2.83985227346420290000e-001) (4, -4.59272861480712890000e-001) (5, -5.89764058589935300000e-001) (6, -5.51384389400482180000e-001) (7, 3.14385414123535160000e-001) (8, -1.87615063041448590000e-002) (9, -4.07160639762878420000e-001) (10, 1.86801001429557800000e-001) (0, 2.06457063555717470000e-001) (1, -6.80284202098846440000e-001) (2, -8.93730640411376950000e-001) (3, -3.52200806140899660000e-001) (4, -4.25687938928604130000e-001) (5, -9.45959806442260740000e-001) (6, -8.22246596217155460000e-002) (7, -2.55525469779968260000e-001) (8, -5.82856178283691410000e-001) (9, -1.20222330093383790000e-001) (10, -2.12164685130119320000e-001) (0, -3.18620145320892330000e-001) (1, -9.80328738689422610000e-001) (2, -1.03459239006042480000e-001) (3, -4.27642673254013060000e-001) (4, -1.58577095717191700000e-002) (5, -9.48620140552520750000e-001) (6, -5.94032704830169680000e-001) (7, 3.71671654284000400000e-002) (8, -2.26447850465774540000e-001) (9, -7.22912073135375980000e-001) (10, 4.75002318620681760000e-001) (0, -2.23222494125366210000e-001) (1, 1.18752288818359370000e+000) (2, 4.78258132934570310000e-001) (3, -8.62135365605354310000e-002) (4, 2.95786589384078980000e-001) (5, 6.43802165985107420000e-001) (6, 9.58629071712493900000e-001) (7, 1.92031875252723690000e-001) (8, 1.65264797210693360000e+000) (9, 9.73389506340026860000e-001) (10, -1.87993019819259640000e-001) (0, -4.97259616851806640000e-001) (1, -2.56004929542541500000e+000) (2, 3.21669355034828190000e-002) (3, -8.71767044067382810000e-001) (4, -1.50939512252807620000e+000) (5, 4.49806243181228640000e-001) (6, 2.24129751324653630000e-001) (7, -5.36707758903503420000e-001) (8, 1.25518679618835450000e-001) (9, -1.48241892457008360000e-001) (10, 1.98597416281700130000e-001) (0, -3.59690815210342410000e-001) (1, -3.65303325653076170000e+000) (2, -2.15534240007400510000e-001) (3, 2.34041571617126460000e-001) (4, -1.65026986598968510000e+000) (5, -3.30086851119995120000e+000) (6, -3.47117066383361820000e+000) (7, 3.47316712141036990000e-001) (8, -9.51177895069122310000e-001) (9, -2.96367144584655760000e+000) (10, 1.48416176438331600000e-001) (0, 4.29136812686920170000e-001) (1, -2.41453852504491810000e-002) (2, 4.14697751402854920000e-002) (3, 3.89775723218917850000e-001) (4, -7.01086938381195070000e-001) (5, 3.11892420053482060000e-001) (6, -3.33938241004943850000e-001) (7, 4.84570145606994630000e-001) (8, -4.11057114601135250000e-001) (9, 2.01987832784652710000e-001) (10, -3.34636151790618900000e-001) (0, 1.04731962084770200000e-001) (1, 8.39861571788787840000e-001) (2, 4.33142691850662230000e-001) (3, 2.00563706457614900000e-002) (4, -3.99701073765754700000e-002) (5, -4.97122236993163820000e-004) (6, 3.46569627523422240000e-001) (7, 3.55230979621410370000e-002) (8, 6.09525620937347410000e-001) (9, 4.36316847801208500000e-001) (10, -4.13769274950027470000e-001) (0, -4.19816702604293820000e-001) (1, -4.35024738311767580000e+000) (2, 2.82694026827812190000e-002) (3, 2.90028452873229980000e-001) (4, -2.51536703109741210000e+000) (5, -4.33042621612548830000e+000) (6, -3.82129573822021480000e+000) (7, -5.85565902292728420000e-002) (8, -4.64689463376998900000e-001) (9, -3.99059152603149410000e+000) (10, 2.82245039939880370000e-001) (0, -1.96557208895683290000e-001) (1, 5.79087078571319580000e-001) (2, 3.30088675022125240000e-001) (3, 5.66268444061279300000e-001) (4, 5.59807837009429930000e-001) (5, 7.38726496696472170000e-001) (6, 8.23767006397247310000e-001) (7, 2.55269914865493770000e-001) (8, 1.42606222629547120000e+000) (9, 7.94525384902954100000e-001) (10, -4.74542140960693360000e-001) (0, -1.36606782674789430000e-001) (1, -6.52165710926055910000e-001) (2, 7.96562850475311280000e-001) (3, 8.34827244281768800000e-001) (4, -8.17623138427734380000e-001) (5, 3.59265208244323730000e-001) (6, 2.08734965324401860000e+000) (7, -4.64840173721313480000e-001) (8, 1.41630935668945310000e+000) (9, 1.16603755950927730000e+000) (10, -3.37215363979339600000e-001) (0, -3.54140609502792360000e-001) (1, 1.49353277683258060000e+000) (2, 1.65181100368499760000e+000) (3, 6.13648891448974610000e-001) (4, 1.10985279083251950000e+000) (5, 2.64898943901062010000e+000) (6, 1.76572346687316890000e+000) (7, -2.36435785889625550000e-001) (8, 1.44015812873840330000e+000) (9, 2.47010374069213870000e+000) (10, 4.55656379461288450000e-001) (0, 4.89417225122451780000e-001) (1, -6.63961052894592290000e-001) (2, 1.59631684422492980000e-001) (3, 5.23361563682556150000e-001) (4, -6.14058732986450200000e-001) (5, -1.67283535003662110000e-001) (6, 1.86638727784156800000e-001) (7, 3.02237093448638920000e-001) (8, -3.86304587125778200000e-001) (9, -2.29397103190422060000e-001) (10, -1.66589710861444470000e-002) (0, -2.33468249440193180000e-001) (1, 2.22696685791015620000e+000) (2, 2.09527499973773960000e-002) (3, -2.56834149360656740000e-001) (4, 1.31211650371551510000e+000) (5, 2.63764882087707520000e+000) (6, 1.58043217658996580000e+000) (7, 2.65665560960769650000e-001) (8, 1.33781862258911130000e+000) (9, 1.76088595390319820000e+000) (10, -5.71769624948501590000e-002) (0, -1.85585066676139830000e-001) (1, 8.97250890731811520000e-001) (2, 5.82442104816436770000e-001) (3, 6.61164164543151860000e-001) (4, 1.82699888944625850000e-001) (5, 5.21052956581115720000e-001) (6, 2.47396364808082580000e-001) (7, -1.16288825869560240000e-001) (8, 1.62848532199859620000e+000) (9, 1.88557669520378110000e-001) (10, 4.94347482919692990000e-001) (0, 2.97855198383331300000e-001) (1, 9.35359096527099610000e+000) (2, 9.47307014465332030000e+000) (3, 2.30189695954322810000e-001) (4, 4.88142919540405270000e+000) (5, 8.06191349029541020000e+000) (6, 5.43843078613281250000e+000) (7, 1.47260472178459170000e-001) (8, 2.36595869064331050000e+000) (9, 1.30205118656158450000e+000) (10, 4.17185723781585690000e-001) (0, -1.58680900931358340000e-001) (1, 6.48003160953521730000e-001) (2, 4.44898933172225950000e-001) (3, 8.77829566597938540000e-002) (4, 4.46117758750915530000e-001) (5, 5.60587704181671140000e-001) (6, 2.72661417722702030000e-001) (7, 1.80171236395835880000e-001) (8, 1.21292126178741460000e+000) (9, 3.66745769977569580000e-001) (10, 4.91285681724548340000e-001) (0, 3.44712495803833010000e-001) (1, -2.37483888864517210000e-001) (2, -3.67795340716838840000e-002) (3, -3.89667391777038570000e-001) (4, -3.03189694881439210000e-001) (5, -3.01934063434600830000e-001) (6, -8.50296914577484130000e-001) (7, -8.61564874649047850000e-002) (8, -2.73537300527095790000e-002) (9, -5.83540022373199460000e-001) (10, -2.70713031291961670000e-001) (0, 4.91254270076751710000e-001) (1, 8.14231157302856450000e-001) (2, 1.17617845535278320000e+000) (3, 6.01631760597229000000e-001) (4, -7.67657682299613950000e-002) (5, 1.24811744689941410000e+000) (6, 1.38701772689819340000e+000) (7, 2.28702515363693240000e-001) (8, 2.21439290046691890000e+000) (9, 1.08202731609344480000e+000) (10, -3.24989736080169680000e-001) (0, -4.54511016607284550000e-001) (1, -7.87688374519348140000e-001) (2, 3.94816324114799500000e-002) (3, 3.65007407963275910000e-002) (4, -9.02607589960098270000e-002) (5, -1.29504293203353880000e-001) (6, -6.41100466251373290000e-001) (7, 1.21743410825729370000e-001) (8, -3.05819869041442870000e-001) (9, -3.00665080547332760000e-001) (10, 2.47902736067771910000e-001) (0, 8.52878391742706300000e-002) (1, -2.56230354309082030000e+000) (2, -2.83642601966857910000e+000) (3, -5.00254869461059570000e-001) (4, -9.57201480865478520000e-001) (5, -2.16188120841979980000e+000) (6, -1.39821875095367430000e+000) (7, 1.48487925529479980000e-001) (8, -3.81009876728057860000e-001) (9, -2.10909634828567500000e-001) (10, -3.77636015415191650000e-001) (0, -3.71026098728179930000e-001) (1, 7.68653452396392820000e-001) (2, 3.62425625324249270000e-001) (3, 6.06170356273651120000e-001) (4, 1.38275220990180970000e-001) (5, 5.02439320087432860000e-001) (6, 3.04238170385360720000e-001) (7, 4.24687445163726810000e-001) (8, 1.07276010513305660000e+000) (9, 4.34543460607528690000e-001) (10, -3.43798637390136720000e-001) (0, 4.44285482168197630000e-001) (1, 1.13096654415130620000e+000) (2, 6.91389858722686770000e-001) (3, 2.99821704626083370000e-001) (4, 1.95349901914596560000e-001) (5, 9.13292944431304930000e-001) (6, 8.13925206661224370000e-001) (7, -5.82975111901760100000e-002) (8, 1.48043549060821530000e+000) (9, 5.54930031299591060000e-001) (10, 2.80192911624908450000e-001) (0, 3.51873427629470830000e-001) (1, 4.30665493011474610000e+000) (2, 4.13888692855834960000e+000) (3, 4.79562848806381230000e-001) (4, 2.15812492370605470000e+000) (5, 3.73671126365661620000e+000) (6, 3.06441807746887210000e+000) (7, -6.90135732293128970000e-002) (8, 1.12517356872558590000e+000) (9, 4.71621096134185790000e-001) (10, -3.36576133966445920000e-001) (0, 1.28514533862471580000e-002) (1, 7.83219337463378910000e+000) (2, -3.19797396659851070000e-001) (3, -3.06288804858922960000e-002) (4, 3.62994122505187990000e+000) (5, 7.95316410064697270000e+000) (6, 7.16663837432861330000e+000) (7, 1.86345562338829040000e-001) (8, 2.37900066375732420000e+000) (9, 7.20470333099365230000e+000) (10, 5.53699910640716550000e-001) (0, -1.14434964954853060000e-001) (1, -4.21901978552341460000e-002) (2, 5.14687672257423400000e-002) (3, -1.35732486844062810000e-001) (4, 1.58263400197029110000e-001) (5, 1.20268130302429200000e+000) (6, 6.70043379068374630000e-002) (7, -4.17929023504257200000e-001) (8, -1.55848097056150440000e-002) (9, -1.75958395004272460000e-001) (10, -5.81392012536525730000e-002) (0, 4.33914929628372190000e-001) (1, 1.67263889312744140000e+001) (2, 8.37149545550346370000e-002) (3, 8.39019536972045900000e-001) (4, 8.48533248901367190000e+000) (5, 1.67372150421142580000e+001) (6, 1.73467979431152340000e+001) (7, 1.44021853804588320000e-001) (8, 3.94513177871704100000e+000) (9, 1.71441993713378910000e+001) (10, 4.62699621915817260000e-001) (0, -9.91072654724121090000e-002) (1, -5.82855269312858580000e-002) (2, -2.84127835184335710000e-002) (3, 1.18320679664611820000e+000) (4, -1.26182699203491210000e+000) (5, 5.31018257141113280000e+000) (6, -1.70842278003692630000e+000) (7, 3.21576967835426330000e-002) (8, -6.65279865264892580000e+000) (9, -3.73883247375488280000e+000) (10, 2.32800245285034180000e-001) (0, -4.59432244300842290000e-001) (1, -4.13277006149291990000e+000) (2, -1.70443987846374510000e+000) (3, -5.26695013046264650000e-001) (4, -2.46161699295043950000e+000) (5, 5.03880691528320310000e+000) (6, -1.83390760421752930000e+000) (7, -5.13650238513946530000e-001) (8, -8.05117309093475340000e-001) (9, -8.14341783523559570000e-001) (10, -3.01036089658737180000e-001) (0, -2.88680016994476320000e-001) (1, -4.47905063629150390000e-001) (2, -3.85911107063293460000e-001) (3, 3.55689048767089840000e-001) (4, 1.72735512256622310000e-001) (5, 3.01081448793411250000e-001) (6, -2.93134182691574100000e-001) (7, 1.62861775606870650000e-002) (8, -3.82842007093131540000e-003) (9, -4.27593976259231570000e-001) (10, -1.41646146774291990000e-001) (0, -2.02570021152496340000e-001) (1, 1.45982003211975100000e+000) (2, 5.58719098567962650000e-001) (3, 6.98198556900024410000e-001) (4, 2.38680168986320500000e-001) (5, 1.20690190792083740000e+000) (6, 1.55378031730651860000e+000) (7, -1.00527867674827580000e-001) (8, 1.53720295429229740000e+000) (9, 1.21440172195434570000e+000) (10, -1.85655534267425540000e-001) (0, -1.45234942436218260000e-001) (1, -2.60409069061279300000e+000) (2, -3.45197415351867680000e+000) (3, -4.94238704442977910000e-001) (4, -1.54710125923156740000e+000) (5, -2.47740769386291500000e+000) (6, -1.98329520225524900000e+000) (7, -7.75944471359252930000e-001) (8, -1.38837143778800960000e-001) (9, -8.23543488979339600000e-001) (10, -4.38015103340148930000e-001) (0, 6.14020116627216340000e-002) (1, 1.51889193058013920000e+000) (2, -6.47627770900726320000e-001) (3, 7.52586662769317630000e-001) (4, 4.13735270500183110000e-001) (5, 6.46445930004119870000e-001) (6, 1.52777695655822750000e+000) (7, -1.95477947592735290000e-001) (8, 1.62142884731292720000e+000) (9, 1.34402132034301760000e+000) (10, 3.94401341676712040000e-001) (0, -2.81496435403823850000e-001) (1, -1.55372250080108640000e+000) (2, -8.62059235572814940000e-001) (3, 1.00558355450630190000e-001) (4, -9.31289434432983400000e-001) (5, 1.99741673469543460000e+000) (6, -1.16444015502929690000e+000) (7, -2.07015752792358400000e-001) (8, -8.67646753787994380000e-001) (9, -1.45137298107147220000e+000) (10, -2.36741915345191960000e-001) (0, 3.43538299202919010000e-002) (1, -6.07568323612213130000e-001) (2, 2.64869362115859990000e-001) (3, 4.26860935986042020000e-002) (4, -3.23758065700531010000e-001) (5, -4.15455877780914310000e-001) (6, -1.94031059741973880000e-001) (7, 4.29057478904724120000e-001) (8, -3.71731400489807130000e-001) (9, -5.35613954067230220000e-001) (10, -4.97855506837368010000e-002) (0, 4.09124940633773800000e-001) (1, 1.10430288314819340000e+000) (2, 8.62067759037017820000e-001) (3, 1.05303630232810970000e-001) (4, 6.06818675994873050000e-001) (5, 3.39061558246612550000e-001) (6, 1.07639849185943600000e+000) (7, -9.91849601268768310000e-002) (8, 1.19506406784057620000e+000) (9, 4.33544069528579710000e-001) (10, 6.06346800923347470000e-002) (0, -3.66002112627029420000e-001) (1, 4.27723169326782230000e+000) (2, 3.53470230102539060000e+000) (3, 2.94920325279235840000e-001) (4, 2.33210015296936040000e+000) (5, 3.53665971755981450000e+000) (6, 1.99481368064880370000e+000) (7, 6.79909467697143550000e-001) (8, 2.14359521865844730000e+000) (9, 2.12996393442153930000e-001) (10, -1.00916691124439240000e-001) (0, 3.08797091245651250000e-001) (1, 1.07078158855438230000e+000) (2, -3.12665855744853620000e-004) (3, -1.91037673503160480000e-002) (4, 1.10325574874877930000e-001) (5, 5.19007503986358640000e-001) (6, 5.53030967712402340000e-001) (7, -2.38098189234733580000e-001) (8, 1.37689101696014400000e+000) (9, 5.12475907802581790000e-001) (10, 2.11248263716697690000e-001) (0, -4.51988369226455690000e-001) (1, -4.34769058227539060000e+000) (2, -7.75107800960540770000e-001) (3, -1.98698091506958010000e+000) (4, -2.69226253032684330000e-001) (5, 3.19294691085815430000e+000) (6, -3.69178819656372070000e+000) (7, -1.08202900737524030000e-002) (8, -1.31709933280944820000e-001) (9, -1.65956401824951170000e+000) (10, 2.35178425908088680000e-001) (11, 3.03299635648727420000e-001) (12, -5.01834392547607420000e+000) (13, -2.89558672904968260000e+000) (14, -1.11289165914058690000e-001) (15, -6.46003007888793950000e+000) (16, -6.14159965515136720000e+000) (17, -6.08656597137451170000e+000) (18, -5.56959295272827150000e+000) (19, -6.27902173995971680000e+000) (20, -6.95970058441162110000e-001) (21, -3.84776496887207030000e+000) (22, -1.77438154816627500000e-001) (23, -6.41261005401611330000e+000) (24, -6.02792930603027340000e+000) (25, -6.47692871093750000000e+000) (26, -6.55709409713745120000e+000) (27, -6.27289009094238280000e+000) (28, -6.51354074478149410000e+000) (29, -5.98201942443847660000e+000) (30, -1.61916756629943850000e+000) (31, -6.08918237686157230000e+000) (32, 1.57010182738304140000e-001) (33, -5.07663905620574950000e-001) (34, -6.64070749282836910000e+000) (35, -5.41207909584045410000e-001) (36, -2.74558377265930180000e+000) (37, -3.22317779064178470000e-002) (38, -1.49320408701896670000e-001) (39, -1.36511296033859250000e-001) (40, -7.69643932580947880000e-002) (41, -6.11296272277832030000e+000) (42, -6.49279499053955080000e+000) (43, 1.19047455489635470000e-001) (44, 5.08472144603729250000e-001) (45, -1.69477438926696780000e+000) (46, -6.83851897716522220000e-001) (47, -5.69507408142089840000e+000) (48, -6.44831132888793950000e+000) (49, -5.98894929885864260000e+000) (50, 2.71113544702529910000e-001) (51, -6.13591241836547850000e+000) (52, -4.81706953048706050000e+000) (53, -6.06598615646362300000e+000) (54, -3.19535923004150390000e+000) (55, -1.68130651116371150000e-001) (56, -5.92319679260253910000e+000) (57, -2.22487553954124450000e-001) (58, -2.12544128298759460000e-001) (59, -3.86557435989379880000e+000) (60, -6.10101842880249020000e+000) (61, -6.06683206558227540000e+000) (62, -6.84095668792724610000e+000) (63, -6.43659472465515140000e-001) (64, -6.38706970214843750000e+000) (65, -2.47259998321533200000e+000) (66, -6.06730747222900390000e+000) (67, -8.26004520058631900000e-002) (68, -6.72668743133544920000e+000) (69, 2.21874147653579710000e-001) (70, -6.07046985626220700000e+000) (71, -4.18378925323486330000e+000) (72, -2.75048881769180300000e-001) (73, -5.15486240386962890000e+000) (74, -6.91546010971069340000e+000) (75, -4.22516107559204100000e+000) (76, -3.98059964179992680000e+000) (77, -6.45454168319702150000e+000) (11, -2.03575491905212400000e-001) (12, -5.16174221038818360000e+000) (13, -2.31137585639953610000e+000) (14, -2.92926996946334840000e-001) (15, -6.29121637344360350000e+000) (16, -6.51150989532470700000e+000) (17, -6.46579170227050780000e+000) (18, -5.58151054382324220000e+000) (19, -6.11334228515625000000e+000) (20, 2.06239148974418640000e-002) (21, -4.47516107559204100000e+000) (22, 3.63974362611770630000e-001) (23, -6.57230281829833980000e+000) (24, -6.16485261917114260000e+000) (25, -6.72123670578002930000e+000) (26, -6.30009174346923830000e+000) (27, -5.92391395568847660000e+000) (28, -5.61634540557861330000e+000) (29, -6.45111131668090820000e+000) (30, -7.55104005336761470000e-001) (31, -6.56202077865600590000e+000) (32, -3.93232107162475590000e-001) (33, 1.25570654869079590000e-001) (34, -5.42318677902221680000e+000) (35, -7.05001652240753170000e-001) (36, -2.38636970520019530000e+000) (37, 3.04413676261901860000e-001) (38, -2.15805605053901670000e-001) (39, 2.79951602220535280000e-001) (40, -4.03297841548919680000e-001) (41, -6.09930515289306640000e+000) (42, -5.56077480316162110000e+000) (43, -4.84308362007141110000e-001) (44, -4.18511360883712770000e-001) (45, -1.92563378810882570000e+000) (46, -1.06279671192169190000e+000) (47, -6.01790380477905270000e+000) (48, -6.49997758865356450000e+000) (49, -6.43269634246826170000e+000) (50, 4.10306230187416080000e-002) (51, -6.32675361633300780000e+000) (52, -4.96090984344482420000e+000) (53, -7.01272821426391600000e+000) (54, -3.12670493125915530000e+000) (55, 1.13989435136318210000e-001) (56, -5.73704910278320310000e+000) (57, 3.79801571369171140000e-001) (58, -9.04971659183502200000e-001) (59, -3.98198485374450680000e+000) (60, -6.31203508377075200000e+000) (61, -5.54794502258300780000e+000) (62, -6.64168930053710940000e+000) (63, -4.56128329038620000000e-001) (64, -6.38278484344482420000e+000) (65, -2.46316051483154300000e+000) (66, -6.70756053924560550000e+000) (67, -1.91916644573211670000e-001) (68, -6.58760070800781250000e+000) (69, 3.89647364616394040000e-001) (70, -6.39064598083496090000e+000) (71, -4.01415061950683590000e+000) (72, 4.02484953403472900000e-001) (73, -5.45920801162719730000e+000) (74, -6.43406724929809570000e+000) (75, -4.32913446426391600000e+000) (76, -3.73346400260925290000e+000) (77, -6.52683401107788090000e+000) (11, -1.03324629366397860000e-001) (12, -5.70770263671875000000e+000) (13, -2.30460619926452640000e+000) (14, -5.13330519199371340000e-001) (15, -6.80203771591186520000e+000) (16, -6.44741249084472660000e+000) (17, -6.76351404190063480000e+000) (18, -5.49163389205932620000e+000) (19, -6.89022016525268550000e+000) (20, -1.75400540232658390000e-001) (21, -4.31767511367797850000e+000) (22, -2.34378412365913390000e-001) (23, -6.42140388488769530000e+000) (24, -6.64741659164428710000e+000) (25, -5.88151741027832030000e+000) (26, -6.90558576583862300000e+000) (27, -6.34363079071044920000e+000) (28, -5.95943689346313480000e+000) (29, -6.27055644989013670000e+000) (30, -8.89448225498199460000e-001) (31, -6.52990245819091800000e+000) (32, 3.04033339023590090000e-001) (33, 1.34326905012130740000e-001) (34, -5.82701969146728520000e+000) (35, -6.62418901920318600000e-001) (36, -2.28769707679748540000e+000) (37, -2.26743236184120180000e-001) (38, 2.32168421149253850000e-001) (39, -3.76434206962585450000e-001) (40, -7.40850329399108890000e-001) (41, -6.80554771423339840000e+000) (42, -5.88802766799926760000e+000) (43, 2.16330364346504210000e-001) (44, -1.95932850241661070000e-001) (45, -2.31441473960876460000e+000) (46, -6.48177683353424070000e-001) (47, -5.74514245986938480000e+000) (48, -6.24585676193237300000e+000) (49, -6.04318094253540040000e+000) (50, 1.92872568964958190000e-001) (51, -5.88366460800170900000e+000) (52, -4.52982711791992190000e+000) (53, -6.06423091888427730000e+000) (54, -2.90830755233764650000e+000) (55, 3.80883947946131230000e-003) (56, -5.77894783020019530000e+000) (57, 1.72666177153587340000e-001) (58, -6.42145037651062010000e-001) (59, -3.93342828750610350000e+000) (60, -6.23511934280395510000e+000) (61, -5.54518175125122070000e+000) (62, -6.38886213302612300000e+000) (63, -6.72087788581848140000e-001) (64, -6.32930612564086910000e+000) (65, -2.85991215705871580000e+000) (66, -6.09121561050415040000e+000) (67, 2.46689021587371830000e-001) (68, -6.10833930969238280000e+000) (69, 5.84086962044239040000e-002) (70, -6.43915843963623050000e+000) (71, -3.81156492233276370000e+000) (72, -2.83828526735305790000e-001) (73, -5.29316329956054690000e+000) (74, -6.87368106842041020000e+000) (75, -4.11664485931396480000e+000) (76, -4.10405445098876950000e+000) (77, -6.58484315872192380000e+000) (11, -4.09150570631027220000e-001) (12, -5.32467317581176760000e+000) (13, -2.93072605133056640000e+000) (14, 2.47098088264465330000e-001) (15, -6.21297883987426760000e+000) (16, -6.14731311798095700000e+000) (17, -6.59681940078735350000e+000) (18, -5.75663089752197270000e+000) (19, -6.51553535461425780000e+000) (20, -7.27746963500976560000e-001) (21, -4.73781538009643550000e+000) (22, -1.65626868605613710000e-001) (23, -6.07518053054809570000e+000) (24, -6.29236030578613280000e+000) (25, -6.53261089324951170000e+000) (26, -6.57943582534790040000e+000) (27, -6.27843570709228520000e+000) (28, -6.35715103149414060000e+000) (29, -6.45288991928100590000e+000) (30, -1.45416760444641110000e+000) (31, -5.96448564529418950000e+000) (32, -4.50180023908615110000e-001) (33, 7.50368461012840270000e-002) (34, -6.19251489639282230000e+000) (35, -5.32012879848480220000e-001) (36, -2.25979733467102050000e+000) (37, -4.30238991975784300000e-001) (38, 4.29488867521286010000e-001) (39, 3.06596159934997560000e-001) (40, -4.53889697790145870000e-001) (41, -6.44811582565307620000e+000) (42, -6.18257427215576170000e+000) (43, -1.88685521483421330000e-001) (44, -6.44525766372680660000e-001) (45, -2.39547038078308110000e+000) (46, 2.16158032417297360000e-001) (47, -5.52174186706542970000e+000) (48, -5.84463644027709960000e+000) (49, -6.53442287445068360000e+000) (50, -9.21753644943237300000e-002) (51, -5.80878734588623050000e+000) (52, -4.37406778335571290000e+000) (53, -6.47295856475830080000e+000) (54, -2.99878549575805660000e+000) (55, -2.76691496372222900000e-001) (56, -5.92114877700805660000e+000) (57, 3.41052025556564330000e-001) (58, 1.91743955016136170000e-001) (59, -3.87420630455017090000e+000) (60, -6.64925622940063480000e+000) (61, -6.43928003311157230000e+000) (62, -6.01916027069091800000e+000) (63, -2.49980270862579350000e-001) (64, -6.39318561553955080000e+000) (65, -1.35581183433532710000e+000) (66, -5.51915979385375980000e+000) (67, -5.01067817211151120000e-001) (68, -6.26925706863403320000e+000) (69, -2.94896006584167480000e-001) (70, -5.93503427505493160000e+000) (71, -3.99953222274780270000e+000) (72, -5.24046182632446290000e-001) (73, -5.70091342926025390000e+000) (74, -6.15319108963012700000e+000) (75, -4.74010658264160160000e+000) (76, -3.66624212265014650000e+000) (77, -6.76202678680419920000e+000) (11, -4.83902186155319210000e-001) (12, -5.88046598434448240000e+000) (13, -2.64525604248046870000e+000) (14, 2.46075749397277830000e-001) (15, -7.16104316711425780000e+000) (16, -6.84039163589477540000e+000) (17, -6.41836833953857420000e+000) (18, -4.79371786117553710000e+000) (19, -7.18856334686279300000e+000) (20, -4.61002349853515630000e-001) (21, -3.81803822517395020000e+000) (22, 1.01361460983753200000e-001) (23, -6.76751422882080080000e+000) (24, -6.56435966491699220000e+000) (25, -6.18179321289062500000e+000) (26, -6.52191019058227540000e+000) (27, -6.89442157745361330000e+000) (28, -5.33228063583374020000e+000) (29, -6.93235015869140620000e+000) (30, -1.16293287277221680000e+000) (31, -6.55306243896484370000e+000) (32, 1.72347337007522580000e-001) (33, -4.96383428573608400000e-001) (34, -4.83349466323852540000e+000) (35, -1.99306273460388180000e+000) (36, -2.86995148658752440000e+000) (37, 2.65576839447021480000e-001) (38, -5.41397511959075930000e-001) (39, -1.34346187114715580000e-001) (40, -1.97816216945648190000e+000) (41, -6.83037233352661130000e+000) (42, -5.10204172134399410000e+000) (43, -8.39854240417480470000e-001) (44, -3.89061331748962400000e-001) (45, -1.86934924125671390000e+000) (46, -1.84782373905181880000e+000) (47, -5.05742168426513670000e+000) (48, -6.85166168212890620000e+000) (49, -6.35219526290893550000e+000) (50, 2.08458915352821350000e-001) (51, -6.49456453323364260000e+000) (52, -4.18957519531250000000e+000) (53, -6.82454156875610350000e+000) (54, -3.49771189689636230000e+000) (55, -4.72671478986740110000e-001) (56, -4.94211435317993160000e+000) (57, -2.62782543897628780000e-001) (58, -1.63378632068634030000e+000) (59, -3.75642538070678710000e+000) (60, -6.36516141891479490000e+000) (61, -4.59467792510986330000e+000) (62, -6.93863487243652340000e+000) (63, -5.75270354747772220000e-001) (64, -6.55649185180664060000e+000) (65, -2.97777724266052250000e+000) (66, -6.58638429641723630000e+000) (67, 2.00034737586975100000e-001) (68, -7.03585863113403320000e+000) (69, -4.65492546558380130000e-001) (70, -6.29231691360473630000e+000) (71, -4.13990163803100590000e+000) (72, 3.36481183767318730000e-001) (73, -4.25684261322021480000e+000) (74, -6.24898672103881840000e+000) (75, -4.14459085464477540000e+000) (76, -4.38831567764282230000e+000) (77, -6.57845687866210940000e+000) (11, 2.51503109931945800000e-001) (12, -6.16017770767211910000e+000) (13, -2.88184309005737300000e+000) (14, -5.39785623550415040000e-001) (15, -6.88213777542114260000e+000) (16, -7.16900300979614260000e+000) (17, -6.38458204269409180000e+000) (18, -4.81699180603027340000e+000) (19, -7.25758314132690430000e+000) (20, -7.04267546534538270000e-002) (21, -4.02807760238647460000e+000) (22, -1.26634687185287480000e-001) (23, -7.05746316909790040000e+000) (24, -6.44074058532714840000e+000) (25, -6.43464994430541990000e+000) (26, -6.90969848632812500000e+000) (27, -6.92150354385375980000e+000) (28, -5.69085741043090820000e+000) (29, -7.08746433258056640000e+000) (30, -8.47061872482299800000e-001) (31, -6.71236038208007810000e+000) (32, 1.51650905609130860000e-001) (33, -5.13762701302766800000e-004) (34, -4.72674465179443360000e+000) (35, -1.68210160732269290000e+000) (36, -2.35749101638793950000e+000) (37, -1.45796267315745350000e-003) (38, -8.48380625247955320000e-002) (39, -3.29568624496459960000e-001) (40, -1.90802264213562010000e+000) (41, -6.79616737365722660000e+000) (42, -4.74346303939819340000e+000) (43, -9.28547382354736330000e-001) (44, -1.75533667206764220000e-001) (45, -2.23231768608093260000e+000) (46, -1.64959299564361570000e+000) (47, -4.04036712646484370000e+000) (48, -6.29386281967163090000e+000) (49, -6.54496669769287110000e+000) (50, -3.91423225402832030000e-001) (51, -6.66871547698974610000e+000) (52, -4.22500514984130860000e+000) (53, -6.72706079483032230000e+000) (54, -3.14621996879577640000e+000) (55, -3.87928903102874760000e-001) (56, -4.57198143005371090000e+000) (57, -2.18958169221878050000e-001) (58, -2.20547914505004880000e+000) (59, -3.34555625915527340000e+000) (60, -6.84213161468505860000e+000) (61, -4.20586395263671870000e+000) (62, -6.57411956787109370000e+000) (63, 1.25456959009170530000e-001) (64, -6.29024887084960940000e+000) (65, -3.12319302558898930000e+000) (66, -7.04490900039672850000e+000) (67, 1.75516270101070400000e-002) (68, -7.07098913192749020000e+000) (69, -1.46251946687698360000e-001) (70, -6.78874540328979490000e+000) (71, -3.19965720176696780000e+000) (72, 2.72060066461563110000e-001) (73, -4.74371671676635740000e+000) (74, -6.54102087020874020000e+000) (75, -4.28655099868774410000e+000) (76, -5.27473163604736330000e+000) (77, -6.72509050369262700000e+000) (11, -5.54775297641754150000e-001) (12, -5.35746622085571290000e+000) (13, -2.58308410644531250000e+000) (14, -4.94707375764846800000e-001) (15, -6.53618955612182620000e+000) (16, -6.30267953872680660000e+000) (17, -6.64122343063354490000e+000) (18, -5.60981988906860350000e+000) (19, -6.41133832931518550000e+000) (20, 1.03583700954914090000e-001) (21, -4.63398408889770510000e+000) (22, 8.13054963946342470000e-002) (23, -5.91878795623779300000e+000) (24, -6.47255468368530270000e+000) (25, -5.71081399917602540000e+000) (26, -6.02722072601318360000e+000) (27, -6.73763561248779300000e+000) (28, -6.10077524185180660000e+000) (29, -6.58530378341674800000e+000) (30, -1.31069111824035640000e+000) (31, -6.45245122909545900000e+000) (32, 3.99809986352920530000e-001) (33, 1.78064838051795960000e-001) (34, -6.22049379348754880000e+000) (35, -9.48025166988372800000e-001) (36, -2.67782211303710940000e+000) (37, 1.26059278845787050000e-001) (38, 4.65485751628875730000e-001) (39, -2.18363683670759200000e-002) (40, -6.52046144008636470000e-001) (41, -6.06991577148437500000e+000) (42, -6.08758544921875000000e+000) (43, -9.79314967989921570000e-002) (44, -5.76327204704284670000e-001) (45, -1.46798920631408690000e+000) (46, -1.08769880607724190000e-002) (47, -5.97942543029785160000e+000) (48, -6.40023231506347660000e+000) (49, -6.47243213653564450000e+000) (50, -4.34164851903915410000e-001) (51, -6.52154445648193360000e+000) (52, -4.60075855255126950000e+000) (53, -6.65861320495605470000e+000) (54, -3.24324941635131840000e+000) (55, -2.42778006941080090000e-003) (56, -6.09456110000610350000e+000) (57, 4.12166744470596310000e-001) (58, -3.19787412881851200000e-001) (59, -3.81348872184753420000e+000) (60, -6.37450313568115230000e+000) (61, -6.14862537384033200000e+000) (62, -6.46663475036621090000e+000) (63, 4.73257862031459810000e-002) (64, -6.24974966049194340000e+000) (65, -1.95722889900207520000e+000) (66, -6.21228933334350590000e+000) (67, 3.57421971857547760000e-002) (68, -6.42911338806152340000e+000) (69, 1.10205896198749540000e-001) (70, -5.80963468551635740000e+000) (71, -4.16574478149414060000e+000) (72, -1.68098166584968570000e-001) (73, -4.94089221954345700000e+000) (74, -6.16199588775634770000e+000) (75, -4.76820421218872070000e+000) (76, -3.71190738677978520000e+000) (77, -5.98531532287597660000e+000) (11, -2.34009966254234310000e-001) (12, -4.62860774993896480000e+000) (13, -2.96932673454284670000e+000) (14, -3.61163556575775150000e-001) (15, -5.92441511154174800000e+000) (16, -6.05198526382446290000e+000) (17, -6.59302091598510740000e+000) (18, -5.98431539535522460000e+000) (19, -6.22833204269409180000e+000) (20, -3.82450461387634280000e-001) (21, -4.64090585708618160000e+000) (22, 1.22658051550388340000e-001) (23, -6.00140285491943360000e+000) (24, -6.80183553695678710000e+000) (25, -5.60257244110107420000e+000) (26, -6.74021959304809570000e+000) (27, -6.45988845825195310000e+000) (28, -6.46302318572998050000e+000) (29, -6.20624065399169920000e+000) (30, -1.21966922283172610000e+000) (31, -6.44361162185668950000e+000) (32, -3.29418480396270750000e-001) (33, -4.53720182180404660000e-001) (34, -6.42015647888183590000e+000) (35, -3.30835044384002690000e-001) (36, -2.80517101287841800000e+000) (37, 2.66747415065765380000e-001) (38, 3.41828942298889160000e-001) (39, -5.85381329059600830000e-001) (40, -2.10510134696960450000e-001) (41, -6.78324317932128910000e+000) (42, -5.33626508712768550000e+000) (43, -1.89863160252571110000e-001) (44, -4.37289565801620480000e-001) (45, -2.12878322601318360000e+000) (46, -3.87947291135787960000e-001) (47, -6.13654184341430660000e+000) (48, -6.41504430770874020000e+000) (49, -6.71972274780273440000e+000) (50, -6.74875855445861820000e-001) (51, -6.46359252929687500000e+000) (52, -4.10389137268066410000e+000) (53, -6.36402034759521480000e+000) (54, -2.99797391891479490000e+000) (55, 4.18008565902709960000e-002) (56, -6.17904233932495120000e+000) (57, -1.51824697852134700000e-001) (58, 5.57444170117378230000e-002) (59, -3.87545943260192870000e+000) (60, -6.10740232467651370000e+000) (61, -6.40276050567626950000e+000) (62, -6.06112241744995120000e+000) (63, 1.42984822392463680000e-001) (64, -5.62944173812866210000e+000) (65, -1.86783027648925780000e+000) (66, -5.98612022399902340000e+000) (67, -2.80539661645889280000e-001) (68, -5.64984893798828120000e+000) (69, 7.44123309850692750000e-002) (70, -6.42674064636230470000e+000) (71, -3.61172747611999510000e+000) (72, 3.74232530593872070000e-001) (73, -5.82368946075439450000e+000) (74, -6.59316062927246090000e+000) (75, -4.73738622665405270000e+000) (76, -3.75891780853271480000e+000) (77, -6.56248378753662110000e+000) (11, -1.11523628234863280000e-001) (12, -5.34225702285766600000e+000) (13, -2.59637427330017090000e+000) (14, 4.44422751665115360000e-001) (15, -6.13784074783325200000e+000) (16, -6.85903358459472660000e+000) (17, -6.48245573043823240000e+000) (18, -5.48920965194702150000e+000) (19, -6.27065324783325200000e+000) (20, -5.24766862392425540000e-001) (21, -4.70315933227539060000e+000) (22, 2.95089274644851680000e-001) (23, -6.31156587600708010000e+000) (24, -6.76692247390747070000e+000) (25, -6.62501859664916990000e+000) (26, -6.68044614791870120000e+000) (27, -6.43569850921630860000e+000) (28, -5.73089981079101560000e+000) (29, -6.32438421249389650000e+000) (30, -9.39750313758850100000e-001) (31, -5.97071218490600590000e+000) (32, -2.79525011777877810000e-001) (33, 2.82532572746276860000e-001) (34, -5.27262926101684570000e+000) (35, -7.95370340347290040000e-001) (36, -2.55264782905578610000e+000) (37, -3.04588321596384050000e-002) (38, 6.70781880617141720000e-002) (39, -9.44473296403884890000e-002) (40, -1.30077672004699710000e+000) (41, -6.60926818847656250000e+000) (42, -5.72990703582763670000e+000) (43, -2.51511782407760620000e-001) (44, -5.78186102211475370000e-002) (45, -1.97140634059906010000e+000) (46, -1.09635388851165770000e+000) (47, -5.78923845291137700000e+000) (48, -6.13553428649902340000e+000) (49, -6.02038812637329100000e+000) (50, -1.85457214713096620000e-001) (51, -6.25126886367797850000e+000) (52, -4.21739912033081050000e+000) (53, -6.61658811569213870000e+000) (54, -3.60234808921813960000e+000) (55, 4.97460365295410160000e-001) (56, -5.89666652679443360000e+000) (57, -1.93031549453735350000e-001) (58, -5.23744463920593260000e-001) (59, -3.98309850692749020000e+000) (60, -6.01885843276977540000e+000) (61, -5.82457542419433590000e+000) (62, -6.72484922409057620000e+000) (63, 8.21002721786499020000e-002) (64, -6.42036247253417970000e+000) (65, -2.08271384239196780000e+000) (66, -6.02879571914672850000e+000) (67, -1.05330916121602060000e-002) (68, -6.79047727584838870000e+000) (69, -1.77118688821792600000e-001) (70, -6.33903884887695310000e+000) (71, -3.53154706954956050000e+000) (72, 3.26863914728164670000e-001) (73, -5.45780038833618160000e+000) (74, -6.35910749435424800000e+000) (75, -4.57261896133422850000e+000) (76, -4.35583353042602540000e+000) (77, -6.43119478225708010000e+000) (11, -1.60985395312309270000e-001) (12, -5.42468547821044920000e+000) (13, -2.27017283439636230000e+000) (14, -3.68944644927978520000e-001) (15, -6.35924911499023440000e+000) (16, -6.26330423355102540000e+000) (17, -6.71697950363159180000e+000) (18, -5.34663581848144530000e+000) (19, -6.70970439910888670000e+000) (20, -7.38241255283355710000e-001) (21, -3.85556054115295410000e+000) (22, -3.69017243385314940000e-001) (23, -6.16197872161865230000e+000) (24, -6.53071308135986330000e+000) (25, -5.93722963333129880000e+000) (26, -6.59054660797119140000e+000) (27, -6.94837236404418950000e+000) (28, -6.62703657150268550000e+000) (29, -6.12242221832275390000e+000) (30, -1.19170916080474850000e+000) (31, -6.77243900299072270000e+000) (32, 1.65193021297454830000e-001) (33, -1.20867624878883360000e-001) (34, -6.20514583587646480000e+000) (35, -8.78607094287872310000e-001) (36, -2.23852801322937010000e+000) (37, -1.17935523390769960000e-001) (38, 4.38818573951721190000e-001) (39, -5.89638233184814450000e-001) (40, -4.06791567802429200000e-001) (41, -6.89680767059326170000e+000) (42, -6.28850030899047850000e+000) (43, 1.34182915091514590000e-001) (44, -7.65011906623840330000e-001) (45, -2.23534798622131350000e+000) (46, -8.23808670043945310000e-001) (47, -5.88176727294921880000e+000) (48, -6.78712892532348630000e+000) (49, -6.86544322967529300000e+000) (50, 1.69616684317588810000e-001) (51, -6.66696596145629880000e+000) (52, -4.11299037933349610000e+000) (53, -6.18462085723876950000e+000) (54, -3.80818963050842290000e+000) (55, -5.25299943983554840000e-002) (56, -6.06352663040161130000e+000) (57, -1.93683698307722810000e-003) (58, -1.02982318401336670000e+000) (59, -3.31874108314514160000e+000) (60, -6.41751384735107420000e+000) (61, -5.50595808029174800000e+000) (62, -6.14869785308837890000e+000) (63, -4.12338554859161380000e-001) (64, -5.80307197570800780000e+000) (65, -1.99725770950317380000e+000) (66, -6.26975870132446290000e+000) (67, -3.81154745817184450000e-001) (68, -6.00071382522583010000e+000) (69, -3.12167853116989140000e-001) (70, -5.85403060913085940000e+000) (71, -4.01012945175170900000e+000) (72, -5.18231093883514400000e-001) (73, -5.13325738906860350000e+000) (74, -6.52067518234252930000e+000) (75, -3.98894238471984860000e+000) (76, -3.81067514419555660000e+000) (77, -6.10206365585327150000e+000) (11, -2.87815690040588380000e-001) (12, -4.81121444702148440000e+000) (13, -3.26808190345764160000e+000) (14, -3.58819842338562010000e-001) (15, -6.30015039443969730000e+000) (16, -6.24825811386108400000e+000) (17, -6.90585231781005860000e+000) (18, -5.31064558029174800000e+000) (19, -6.26748275756835940000e+000) (20, 8.15234407782554630000e-002) (21, -4.39833927154541020000e+000) (22, -3.12991201877593990000e-001) (23, -6.54863309860229490000e+000) (24, -6.05509185791015620000e+000) (25, -6.23878622055053710000e+000) (26, -6.15523815155029300000e+000) (27, -6.18872022628784180000e+000) (28, -6.15697717666625980000e+000) (29, -6.33582019805908200000e+000) (30, -1.12364125251770020000e+000) (31, -6.49645042419433590000e+000) (32, -1.87662184238433840000e-001) (33, -1.13481096923351290000e-001) (34, -6.09320592880249020000e+000) (35, -6.62693023681640630000e-001) (36, -2.56888651847839360000e+000) (37, 7.16807767748832700000e-002) (38, 3.51939618587493900000e-001) (39, -4.23617720603942870000e-001) (40, -5.38552701473236080000e-001) (41, -6.04885292053222660000e+000) (42, -5.68552875518798830000e+000) (43, -3.16790014505386350000e-001) (44, -2.72278696298599240000e-001) (45, -1.80885469913482670000e+000) (46, -1.05614709854125980000e+000) (47, -5.92387628555297850000e+000) (48, -6.67025327682495120000e+000) (49, -6.19477367401123050000e+000) (50, 3.68445456027984620000e-001) (51, -6.28718471527099610000e+000) (52, -4.65659189224243160000e+000) (53, -6.85446357727050780000e+000) (54, -3.42538642883300780000e+000) (55, -3.10482025146484380000e-001) (56, -6.20418500900268550000e+000) (57, 4.45899277925491330000e-001) (58, -6.46210908889770510000e-001) (59, -3.36463499069213870000e+000) (60, -6.16653585433959960000e+000) (61, -6.07561349868774410000e+000) (62, -6.69118833541870120000e+000) (63, -6.31265103816986080000e-001) (64, -5.93418788909912110000e+000) (65, -1.90457820892333980000e+000) (66, -6.39830970764160160000e+000) (67, -4.65689808130264280000e-001) (68, -6.78745126724243160000e+000) (69, 1.96777552366256710000e-001) (70, -6.26042890548706050000e+000) (71, -4.39649391174316410000e+000) (72, -1.81543128564953800000e-003) (73, -5.09606456756591800000e+000) (74, -5.97656059265136720000e+000) (75, -4.13408517837524410000e+000) (76, -3.80081343650817870000e+000) (77, -6.85509061813354490000e+000) (11, 3.32379400730133060000e-001) (12, -5.15247154235839840000e+000) (13, -3.20824790000915530000e+000) (14, 3.56767773628234860000e-002) (15, -6.72351980209350590000e+000) (16, -5.89464616775512700000e+000) (17, -6.28680658340454100000e+000) (18, -5.86758708953857420000e+000) (19, -6.78396177291870120000e+000) (20, -3.88188660144805910000e-001) (21, -4.40983629226684570000e+000) (22, -3.22113558650016780000e-002) (23, -6.30503988265991210000e+000) (24, -6.23933506011962890000e+000) (25, -6.26653432846069340000e+000) (26, -6.37634229660034180000e+000) (27, -6.13753128051757810000e+000) (28, -5.49203157424926760000e+000) (29, -6.66356277465820310000e+000) (30, -1.25429069995880130000e+000) (31, -5.99413728713989260000e+000) (32, -4.48149830102920530000e-001) (33, 1.82935334742069240000e-002) (34, -6.16091966629028320000e+000) (35, -3.85314561426639560000e-002) (36, -2.76469993591308590000e+000) (37, 1.73787161707878110000e-001) (38, 2.26713031530380250000e-001) (39, 3.39721083641052250000e-001) (40, -8.72560203075408940000e-001) (41, -6.57812404632568360000e+000) (42, -5.68476486206054690000e+000) (43, 2.42712944746017460000e-001) (44, -3.25670421123504640000e-001) (45, -2.01983952522277830000e+000) (46, -6.33280336856842040000e-001) (47, -6.31594085693359370000e+000) (48, -6.87403059005737300000e+000) (49, -6.14052248001098630000e+000) (50, -6.55834600329399110000e-002) (51, -5.89978647232055660000e+000) (52, -5.13779735565185550000e+000) (53, -6.37932348251342770000e+000) (54, -3.24711513519287110000e+000) (55, -3.75465571880340580000e-001) (56, -5.40811204910278320000e+000) (57, 2.20408260822296140000e-001) (58, -9.76387321949005130000e-001) (59, -3.38435602188110350000e+000) (60, -6.22282648086547850000e+000) (61, -5.31918144226074220000e+000) (62, -6.41819763183593750000e+000) (63, 5.23117110133171080000e-002) (64, -5.88758325576782230000e+000) (65, -1.68454635143280030000e+000) (66, -6.49479198455810550000e+000) (67, 2.24404305219650270000e-001) (68, -6.78856706619262700000e+000) (69, -2.33054682612419130000e-001) (70, -6.53962421417236330000e+000) (71, -4.28609895706176760000e+000) (72, 1.91808298230171200000e-001) (73, -5.80527734756469730000e+000) (74, -6.59115552902221680000e+000) (75, -4.48227596282958980000e+000) (76, -3.30671119689941410000e+000) (77, -5.94990205764770510000e+000) (11, -2.35587850213050840000e-001) (12, -5.32058238983154300000e+000) (13, -2.96496152877807620000e+000) (14, -5.07291197776794430000e-001) (15, -5.89298439025878910000e+000) (16, -6.16172695159912110000e+000) (17, -6.29855155944824220000e+000) (18, -5.40817737579345700000e+000) (19, -6.78852796554565430000e+000) (20, -4.76068019866943360000e-001) (21, -4.65243673324584960000e+000) (22, 3.78874987363815310000e-001) (23, -6.83344650268554690000e+000) (24, -5.93546533584594730000e+000) (25, -6.43183040618896480000e+000) (26, -6.66680002212524410000e+000) (27, -6.58491277694702150000e+000) (28, -5.97698259353637700000e+000) (29, -6.53504419326782230000e+000) (30, -5.95854461193084720000e-001) (31, -6.17049837112426760000e+000) (32, -8.73567163944244380000e-002) (33, -3.45841735601425170000e-001) (34, -5.62373781204223630000e+000) (35, -6.17988765239715580000e-001) (36, -2.80837082862854000000e+000) (37, 1.29750445485115050000e-001) (38, 1.04837231338024140000e-001) (39, 4.34297710657119750000e-001) (40, -8.62529456615448000000e-001) (41, -6.58171701431274410000e+000) (42, -5.69383382797241210000e+000) (43, -4.46175426244735720000e-001) (44, 1.22579053044319150000e-001) (45, -2.01121997833251950000e+000) (46, -7.54849731922149660000e-001) (47, -6.13021421432495120000e+000) (48, -6.47137832641601560000e+000) (49, -6.27785634994506840000e+000) (50, -4.15338099002838130000e-001) (51, -6.12901782989501950000e+000) (52, -4.13244390487670900000e+000) (53, -6.46617984771728520000e+000) (54, -3.18113899230957030000e+000) (55, -3.97265106439590450000e-002) (56, -5.79834556579589840000e+000) (57, -1.67549941688776020000e-002) (58, -7.77046501636505130000e-001) (59, -3.89051270484924320000e+000) (60, -6.61740398406982420000e+000) (61, -5.54091739654541020000e+000) (62, -5.88525533676147460000e+000) (63, -7.36658036708831790000e-001) (64, -6.59272623062133790000e+000) (65, -2.13073706626892090000e+000) (66, -6.47431993484497070000e+000) (67, -2.73682296276092530000e-001) (68, -6.19091510772705080000e+000) (69, -4.40194278955459590000e-001) (70, -6.15007638931274410000e+000) (71, -4.20537996292114260000e+000) (72, -3.50967228412628170000e-001) (73, -5.14316415786743160000e+000) (74, -6.78797578811645510000e+000) (75, -4.52594423294067380000e+000) (76, -4.26729726791381840000e+000) (77, -6.22617387771606450000e+000) (11, -1.18122264742851260000e-001) (12, -5.25588560104370120000e+000) (13, -3.18465328216552730000e+000) (14, 1.34044185280799870000e-001) (15, -6.76572036743164060000e+000) (16, -6.26415872573852540000e+000) (17, -6.75632095336914060000e+000) (18, -5.10366678237915040000e+000) (19, -6.79972743988037110000e+000) (20, -1.18586815893650050000e-001) (21, -4.72364950180053710000e+000) (22, -1.76384270191192630000e-001) (23, -6.25482892990112300000e+000) (24, -6.68674707412719730000e+000) (25, -6.46564340591430660000e+000) (26, -6.14014577865600590000e+000) (27, -6.02765274047851560000e+000) (28, -5.95458316802978520000e+000) (29, -6.01557207107543950000e+000) (30, -1.12270581722259520000e+000) (31, -6.18732881546020510000e+000) (32, 1.25709965825080870000e-001) (33, 2.75098711252212520000e-001) (34, -6.37220811843872070000e+000) (35, -7.10689902305603030000e-001) (36, -2.08081078529357910000e+000) (37, -4.07017827033996580000e-001) (38, -4.84985299408435820000e-002) (39, -3.51513139903545380000e-002) (40, -6.25974893569946290000e-001) (41, -5.89094972610473630000e+000) (42, -5.43700265884399410000e+000) (43, -3.79659652709960940000e-001) (44, 4.55197431147098540000e-002) (45, -2.12465000152587890000e+000) (46, -7.46226847171783450000e-001) (47, -6.23652172088623050000e+000) (48, -5.98959589004516600000e+000) (49, -6.46967554092407230000e+000) (50, -4.54893633723258970000e-002) (51, -6.48200082778930660000e+000) (52, -4.89219570159912110000e+000) (53, -6.42705202102661130000e+000) (54, -3.68137693405151370000e+000) (55, -4.02873665094375610000e-001) (56, -5.78747367858886720000e+000) (57, 2.37829625606536870000e-001) (58, -4.63824540376663210000e-001) (59, -3.89137125015258790000e+000) (60, -6.74527931213378910000e+000) (61, -5.44257164001464840000e+000) (62, -5.85376358032226560000e+000) (63, -1.12813912332057950000e-001) (64, -6.09590625762939450000e+000) (65, -2.37149763107299800000e+000) (66, -6.08267593383789060000e+000) (67, 1.19855381548404690000e-001) (68, -6.66430473327636720000e+000) (69, -2.53485709428787230000e-001) (70, -5.86441135406494140000e+000) (71, -4.28885602951049800000e+000) (72, -6.63812980055809020000e-002) (73, -5.62806558609008790000e+000) (74, -6.13735437393188480000e+000) (75, -4.58277702331542970000e+000) (76, -3.84734559059143070000e+000) (77, -6.36355781555175780000e+000) (11, -2.29052856564521790000e-001) (12, -4.54020357131958010000e+000) (13, -2.24824094772338870000e+000) (14, 3.74872714281082150000e-001) (15, -6.55738306045532230000e+000) (16, -6.81167364120483400000e+000) (17, -6.45121765136718750000e+000) (18, -5.83703422546386720000e+000) (19, -6.05890321731567380000e+000) (20, 5.57951405644416810000e-002) (21, -4.42732715606689450000e+000) (22, -3.09463113546371460000e-001) (23, -6.47626304626464840000e+000) (24, -6.41045236587524410000e+000) (25, -6.45046281814575200000e+000) (26, -6.25743103027343750000e+000) (27, -6.39814805984497070000e+000) (28, -6.08566570281982420000e+000) (29, -6.64057826995849610000e+000) (30, -7.71860063076019290000e-001) (31, -6.47109270095825200000e+000) (32, 4.37768399715423580000e-001) (33, 4.55163449048995970000e-001) (34, -6.13867521286010740000e+000) (35, 3.76588292419910430000e-002) (36, -2.69117283821105960000e+000) (37, -1.46922528743743900000e-001) (38, -4.32693570852279660000e-001) (39, -6.17061793804168700000e-001) (40, -6.28374576568603520000e-001) (41, -6.10066127777099610000e+000) (42, -6.01232481002807620000e+000) (43, 1.23465262353420260000e-001) (44, -1.46641612052917480000e-001) (45, -2.18616795539855960000e+000) (46, -1.74350157380104060000e-001) (47, -5.55882167816162110000e+000) (48, -6.65608406066894530000e+000) (49, -6.61720371246337890000e+000) (50, -3.87948691844940190000e-001) (51, -6.59311580657958980000e+000) (52, -4.62832403182983400000e+000) (53, -6.14454698562622070000e+000) (54, -2.97335791587829590000e+000) (55, -2.52655714750289920000e-001) (56, -5.81888008117675780000e+000) (57, 2.11559444665908810000e-001) (58, -6.56205892562866210000e-001) (59, -4.07451438903808590000e+000) (60, -5.96165752410888670000e+000) (61, -5.63993549346923830000e+000) (62, -6.02585601806640620000e+000) (63, -4.34565514326095580000e-001) (64, -5.73994445800781250000e+000) (65, -1.57148098945617680000e+000) (66, -5.82785272598266600000e+000) (67, 3.31229478120803830000e-001) (68, -6.62227773666381840000e+000) (69, -8.79195332527160640000e-002) (70, -6.50169515609741210000e+000) (71, -4.21280431747436520000e+000) (72, 1.34435459971427920000e-001) (73, -5.90935468673706050000e+000) (74, -6.69844532012939450000e+000) (75, -4.86267089843750000000e+000) (76, -3.63411021232604980000e+000) (77, -6.21448183059692380000e+000) (11, -1.29247203469276430000e-001) (12, -6.69121170043945310000e+000) (13, -2.86504912376403810000e+000) (14, -3.03577721118927000000e-001) (15, -6.70614290237426760000e+000) (16, -6.84964036941528320000e+000) (17, -6.88053369522094730000e+000) (18, -4.53135776519775390000e+000) (19, -6.93382215499877930000e+000) (20, 2.36775670200586320000e-002) (21, -4.25168514251708980000e+000) (22, 3.62820327281951900000e-001) (23, -6.37792873382568360000e+000) (24, -6.50195789337158200000e+000) (25, -6.24977922439575200000e+000) (26, -7.06836509704589840000e+000) (27, -6.79461240768432620000e+000) (28, -5.68083810806274410000e+000) (29, -6.37326288223266600000e+000) (30, -1.41440820693969730000e+000) (31, -6.10873508453369140000e+000) (32, 3.83626252412796020000e-001) (33, -5.00792503356933590000e-001) (34, -4.82876205444335940000e+000) (35, -2.08007860183715820000e+000) (36, -2.74320650100708010000e+000) (37, 5.43184518814086910000e-001) (38, 1.28943461459130050000e-003) (39, 1.95653498172760010000e-001) (40, -1.85799145698547360000e+000) (41, -6.75990915298461910000e+000) (42, -4.37452459335327150000e+000) (43, -3.68808835744857790000e-001) (44, -1.04870103299617770000e-001) (45, -1.96807718276977540000e+000) (46, -1.44680094718933110000e+000) (47, -4.60955762863159180000e+000) (48, -6.29191875457763670000e+000) (49, -6.65053606033325200000e+000) (50, 2.58545204997062680000e-002) (51, -6.11921024322509770000e+000) (52, -4.21625185012817380000e+000) (53, -6.61263275146484370000e+000) (54, -2.92197084426879880000e+000) (55, 4.60556298494338990000e-001) (56, -5.02119779586791990000e+000) (57, 1.36483237147331240000e-001) (58, -2.08439230918884280000e+000) (59, -3.19293832778930660000e+000) (60, -6.97929954528808590000e+000) (61, -5.09260177612304690000e+000) (62, -6.57449722290039060000e+000) (63, -1.09681934118270870000e-001) (64, -6.69565629959106450000e+000) (65, -3.70190644264221190000e+000) (66, -6.71987581253051760000e+000) (67, -3.88862192630767820000e-001) (68, -7.01511383056640630000e+000) (69, 4.79905515909194950000e-001) (70, -6.80186986923217770000e+000) (71, -3.86079144477844240000e+000) (72, -2.30312705039978030000e-001) (73, -4.15654420852661130000e+000) (74, -6.62442588806152340000e+000) (75, -4.55115747451782230000e+000) (76, -4.69164514541625980000e+000) (77, -7.03042173385620120000e+000) (11, -5.78522443771362300000e-001) (12, -5.39437627792358400000e+000) (13, -2.62503385543823240000e+000) (14, -3.55162799358367920000e-001) (15, -6.04477071762084960000e+000) (16, -6.36576795578002930000e+000) (17, -6.60280275344848630000e+000) (18, -5.02397871017456050000e+000) (19, -6.88032627105712890000e+000) (20, 1.02930828928947450000e-001) (21, -4.18951988220214840000e+000) (22, 2.47969627380371090000e-001) (23, -6.30908393859863280000e+000) (24, -6.64433050155639650000e+000) (25, -6.57408285140991210000e+000) (26, -6.36828279495239260000e+000) (27, -6.53005838394165040000e+000) (28, -6.16261339187622070000e+000) (29, -6.20287513732910160000e+000) (30, -1.12322509288787840000e+000) (31, -6.48435020446777340000e+000) (32, -1.79618492722511290000e-001) (33, -1.84537038207054140000e-001) (34, -5.64374923706054690000e+000) (35, -1.49037584662437440000e-001) (36, -2.13066148757934570000e+000) (37, 2.71655451506376270000e-002) (38, 1.29763856530189510000e-001) (39, -5.80467522144317630000e-001) (40, 1.72236248850822450000e-001) (41, -6.26789760589599610000e+000) (42, -6.10695362091064450000e+000) (43, 8.02684649825096130000e-002) (44, -1.71067640185356140000e-001) (45, -1.44935190677642820000e+000) (46, -6.83596968650817870000e-001) (47, -5.65532588958740230000e+000) (48, -6.05061388015747070000e+000) (49, -6.74202728271484370000e+000) (50, -3.42198342084884640000e-001) (51, -6.08830928802490230000e+000) (52, -4.74536323547363280000e+000) (53, -6.71954584121704100000e+000) (54, -3.21741628646850590000e+000) (55, -8.26324045658111570000e-001) (56, -6.34458589553833010000e+000) (57, -3.98561924695968630000e-001) (58, -4.11073893308639530000e-001) (59, -3.78327679634094240000e+000) (60, -6.71705341339111330000e+000) (61, -6.11689805984497070000e+000) (62, -6.36463594436645510000e+000) (63, 2.23019756376743320000e-002) (64, -6.11131238937377930000e+000) (65, -2.62941741943359380000e+000) (66, -6.52784347534179690000e+000) (67, 2.97090590000152590000e-001) (68, -5.80755996704101560000e+000) (69, -5.81695556640625000000e-001) (70, -5.93759155273437500000e+000) (71, -4.58318424224853520000e+000) (72, 4.96968068182468410000e-002) (73, -5.46859312057495120000e+000) (74, -6.06739187240600590000e+000) (75, -4.30373191833496090000e+000) (76, -3.79155588150024410000e+000) (77, -6.58160018920898440000e+000) (11, 3.05435918271541600000e-002) (12, -5.19329118728637700000e+000) (13, -2.96432566642761230000e+000) (14, 6.10628053545951840000e-002) (15, -6.39451551437377930000e+000) (16, -6.69914817810058590000e+000) (17, -6.69194364547729490000e+000) (18, -5.91109609603881840000e+000) (19, -6.13624238967895510000e+000) (20, -5.45215427875518800000e-001) (21, -3.84053063392639160000e+000) (22, 2.62926518917083740000e-001) (23, -6.44902706146240230000e+000) (24, -6.52084016799926760000e+000) (25, -6.03849363327026370000e+000) (26, -6.74567174911499020000e+000) (27, -6.74142313003540040000e+000) (28, -6.18057203292846680000e+000) (29, -6.08125019073486330000e+000) (30, -1.20104062557220460000e+000) (31, -6.20801830291748050000e+000) (32, -4.33258056640625000000e-001) (33, -2.44703710079193120000e-001) (34, -5.66485595703125000000e+000) (35, -6.48585736751556400000e-001) (36, -2.47755455970764160000e+000) (37, -4.82996851205825810000e-002) (38, 4.11392509937286380000e-001) (39, 9.03617143630981450000e-002) (40, 2.23463445901870730000e-001) (41, -6.59732484817504880000e+000) (42, -5.66603851318359370000e+000) (43, 5.54988868534564970000e-002) (44, -7.63231217861175540000e-001) (45, -1.58476257324218750000e+000) (46, -4.87173527479171750000e-001) (47, -6.16515445709228520000e+000) (48, -5.93652343750000000000e+000) (49, -6.43854904174804690000e+000) (50, 9.28844884037971500000e-002) (51, -6.26864004135131840000e+000) (52, -4.05443191528320310000e+000) (53, -6.41939067840576170000e+000) (54, -3.79791617393493650000e+000) (55, -1.90994784235954280000e-001) (56, -6.10898351669311520000e+000) (57, 2.67893612384796140000e-001) (58, -2.55163805559277530000e-003) (59, -3.48151135444641110000e+000) (60, -6.08897733688354490000e+000) (61, -6.33413934707641600000e+000) (62, -6.20667934417724610000e+000) (63, -1.20770245790481570000e-001) (64, -6.18417167663574220000e+000) (65, -1.96541440486907960000e+000) (66, -6.10989379882812500000e+000) (67, 3.60393434762954710000e-001) (68, -6.37698745727539060000e+000) (69, 2.91891634464263920000e-001) (70, -6.27011203765869140000e+000) (71, -3.95253300666809080000e+000) (72, -2.32325315475463870000e-001) (73, -5.76734018325805660000e+000) (74, -6.30533218383789060000e+000) (75, -4.30254793167114260000e+000) (76, -3.45520019531250000000e+000) (77, -6.70615863800048830000e+000) (11, -9.13830548524856570000e-002) (12, -4.95831823348999020000e+000) (13, -2.77033305168151860000e+000) (14, -4.86644625663757320000e-001) (15, -6.45645856857299800000e+000) (16, -6.64597415924072270000e+000) (17, -6.45700645446777340000e+000) (18, -5.59565591812133790000e+000) (19, -6.60915040969848630000e+000) (20, -6.84290826320648190000e-001) (21, -4.76832723617553710000e+000) (22, -3.45647752285003660000e-001) (23, -5.84311866760253910000e+000) (24, -6.65071582794189450000e+000) (25, -6.44953632354736330000e+000) (26, -6.01673746109008790000e+000) (27, -6.22415542602539060000e+000) (28, -6.17562150955200200000e+000) (29, -5.92025375366210940000e+000) (30, -9.85839366912841800000e-001) (31, -6.51631164550781250000e+000) (32, -6.17502927780151370000e-002) (33, 2.72230148315429690000e-001) (34, -6.21278047561645510000e+000) (35, -2.40607216954231260000e-001) (36, -2.34004402160644530000e+000) (37, 1.94532632827758790000e-001) (38, 2.59026080369949340000e-001) (39, -1.11260041594505310000e-002) (40, 1.21006794273853300000e-001) (41, -6.58644390106201170000e+000) (42, -5.48538732528686520000e+000) (43, 3.99980545043945310000e-001) (44, -3.41245144605636600000e-001) (45, -1.83787953853607180000e+000) (46, -7.19953775405883790000e-001) (47, -6.09713554382324220000e+000) (48, -5.87134122848510740000e+000) (49, -6.57813405990600590000e+000) (50, -7.85058885812759400000e-002) (51, -6.69671392440795900000e+000) (52, -4.74635648727416990000e+000) (53, -5.98490381240844730000e+000) (54, -3.71814036369323730000e+000) (55, 2.89185941219329830000e-001) (56, -5.94315242767333980000e+000) (57, -3.65882933139801030000e-001) (58, -8.06030407547950740000e-002) (59, -3.44462060928344730000e+000) (60, -6.11727142333984370000e+000) (61, -5.71658945083618160000e+000) (62, -6.72991800308227540000e+000) (63, -6.93979620933532710000e-001) (64, -6.53300714492797850000e+000) (65, -1.99765181541442870000e+000) (66, -6.41519498825073240000e+000) (67, 1.45073279738426210000e-001) (68, -6.60498905181884770000e+000) (69, -4.99454401433467860000e-002) (70, -5.72546911239624020000e+000) (71, -3.85599708557128910000e+000) (72, 3.99234414100646970000e-001) (73, -5.72591304779052730000e+000) (74, -6.40472793579101560000e+000) (75, -4.12903022766113280000e+000) (76, -4.01414299011230470000e+000) (77, -6.29257631301879880000e+000) (11, 3.47891867160797120000e-001) (12, -4.88658523559570310000e+000) (13, -2.25284624099731450000e+000) (14, 2.67261266708374020000e-001) (15, -6.26631450653076170000e+000) (16, -6.24759721755981450000e+000) (17, -6.28710031509399410000e+000) (18, -5.38376188278198240000e+000) (19, -6.24578094482421870000e+000) (20, 4.14250865578651430000e-002) (21, -4.65251111984252930000e+000) (22, 2.92962461709976200000e-001) (23, -6.62154388427734370000e+000) (24, -6.45096206665039060000e+000) (25, -6.82710886001586910000e+000) (26, -6.37336349487304690000e+000) (27, -6.02866792678833010000e+000) (28, -5.90975666046142580000e+000) (29, -6.85472536087036130000e+000) (30, -1.18324279785156250000e+000) (31, -6.04790067672729490000e+000) (32, 1.59864693880081180000e-001) (33, 1.01157099008560180000e-001) (34, -6.06981277465820310000e+000) (35, 2.02571883797645570000e-001) (36, -2.94921922683715820000e+000) (37, 9.85536165535449980000e-003) (38, -4.96107876300811770000e-001) (39, 2.89008796215057370000e-001) (40, -3.92332822084426880000e-001) (41, -6.55542325973510740000e+000) (42, -6.11498165130615230000e+000) (43, 1.01662099361419680000e-001) (44, 2.21370324492454530000e-001) (45, -2.04330158233642580000e+000) (46, -7.70692974328994750000e-002) (47, -5.57473421096801760000e+000) (48, -6.35773754119873050000e+000) (49, -6.07947158813476560000e+000) (50, 6.83832287788391110000e-001) (51, -6.19409751892089840000e+000) (52, -4.70928239822387700000e+000) (53, -5.92540168762207030000e+000) (54, -3.11957311630249020000e+000) (55, 2.42782786488533020000e-001) (56, -6.09470033645629880000e+000) (57, 3.19679938256740570000e-002) (58, -6.55656278133392330000e-001) (59, -3.32055187225341800000e+000) (60, -5.95289516448974610000e+000) (61, -6.07044172286987300000e+000) (62, -6.44482564926147460000e+000) (63, -5.98318040370941160000e-001) (64, -6.96763563156127930000e+000) (65, -2.76197528839111330000e+000) (66, -6.17091083526611330000e+000) (67, -4.96472626924514770000e-001) (68, -6.80673885345458980000e+000) (69, -1.53191164135932920000e-001) (70, -5.81402349472045900000e+000) (71, -4.77932929992675780000e+000) (72, 1.68275833129882810000e-001) (73, -4.89348840713500980000e+000) (74, -6.45650243759155270000e+000) (75, -4.40021038055419920000e+000) (76, -3.88795042037963870000e+000) (77, -6.88411998748779300000e+000) (11, -3.08722674846649170000e-001) (12, -4.47444915771484370000e+000) (13, -2.97273111343383790000e+000) (14, 4.21218365430831910000e-001) (15, -6.50732851028442380000e+000) (16, -5.80240345001220700000e+000) (17, -5.77194023132324220000e+000) (18, -5.54654741287231450000e+000) (19, -6.44384622573852540000e+000) (20, -1.58987075090408330000e-001) (21, -4.52392673492431640000e+000) (22, 4.65953648090362550000e-001) (23, -6.08670234680175780000e+000) (24, -6.74030113220214840000e+000) (25, -6.22136211395263670000e+000) (26, -6.52109575271606450000e+000) (27, -6.13842535018920900000e+000) (28, -6.60842132568359370000e+000) (29, -5.90252828598022460000e+000) (30, -7.56981909275054930000e-001) (31, -6.66095685958862300000e+000) (32, 6.23145215213298800000e-002) (33, 1.99734032154083250000e-001) (34, -5.84277009963989260000e+000) (35, -7.68224179744720460000e-001) (36, -2.33481526374816890000e+000) (37, 1.01287312805652620000e-001) (38, -4.62953180074691770000e-001) (39, -6.48472368717193600000e-001) (40, -5.77317237854003910000e-001) (41, -6.49761438369750980000e+000) (42, -5.72925043106079100000e+000) (43, -2.17923894524574280000e-002) (44, 5.25535754859447480000e-002) (45, -1.91658747196197510000e+000) (46, -2.16371133923530580000e-001) (47, -5.80215358734130860000e+000) (48, -6.24001455307006840000e+000) (49, -6.36141157150268550000e+000) (50, -3.32299709320068360000e-001) (51, -6.31311511993408200000e+000) (52, -4.97037315368652340000e+000) (53, -6.30735492706298830000e+000) (54, -3.52237820625305180000e+000) (55, -5.20653091371059420000e-003) (56, -6.44483089447021480000e+000) (57, -4.20342117547988890000e-001) (58, -8.98322239518165590000e-002) (59, -3.37215375900268550000e+000) (60, -5.76836776733398440000e+000) (61, -6.10407781600952150000e+000) (62, -6.30492830276489260000e+000) (63, -2.48944848775863650000e-001) (64, -6.50165367126464840000e+000) (65, -1.76194596290588380000e+000) (66, -6.01802539825439450000e+000) (67, -2.28610321879386900000e-001) (68, -6.44583892822265620000e+000) (69, 6.34283991530537610000e-003) (70, -6.34959554672241210000e+000) (71, -4.50454950332641600000e+000) (72, 2.13964730501174930000e-001) (73, -5.95109415054321290000e+000) (74, -6.47704076766967770000e+000) (75, -4.86829423904418950000e+000) (76, -3.93511104583740230000e+000) (77, -6.51359415054321290000e+000) (11, 2.23712593317031860000e-001) (12, -5.61447238922119140000e+000) (13, -2.36221003532409670000e+000) (14, 3.87295156717300420000e-001) (15, -6.38253831863403320000e+000) (16, -6.09801769256591800000e+000) (17, -6.07781410217285160000e+000) (18, -5.83153247833251950000e+000) (19, -6.28207159042358400000e+000) (20, -8.54665189981460570000e-002) (21, -4.70419168472290040000e+000) (22, -4.55213040113449100000e-001) (23, -6.13327836990356450000e+000) (24, -6.19086170196533200000e+000) (25, -5.89315223693847660000e+000) (26, -6.85952806472778320000e+000) (27, -6.43378734588623050000e+000) (28, -6.24701547622680660000e+000) (29, -6.17229843139648440000e+000) (30, -6.39525055885314940000e-001) (31, -6.86405372619628910000e+000) (32, -2.22918063402175900000e-001) (33, -3.83581846952438350000e-001) (34, -6.10234928131103520000e+000) (35, -2.57204145193099980000e-001) (36, -2.22174739837646480000e+000) (37, 4.44605713710188870000e-003) (38, -1.39287009835243230000e-001) (39, -2.10817530751228330000e-001) (40, -3.20202320814132690000e-001) (41, -6.21120071411132810000e+000) (42, -5.20669841766357420000e+000) (43, -5.51127791404724120000e-001) (44, 1.57910943031311040000e-001) (45, -2.06864523887634280000e+000) (46, -2.81628102064132690000e-001) (47, -6.20884561538696290000e+000) (48, -6.98376512527465820000e+000) (49, -6.34832477569580080000e+000) (50, -5.41998110711574550000e-002) (51, -6.36891937255859380000e+000) (52, -4.17104530334472660000e+000) (53, -6.10774326324462890000e+000) (54, -3.59412574768066410000e+000) (55, 2.03384190797805790000e-001) (56, -5.69036531448364260000e+000) (57, 1.26235216856002810000e-001) (58, -6.66235566139221190000e-001) (59, -4.22426080703735350000e+000) (60, -6.54950618743896480000e+000) (61, -6.17808485031127930000e+000) (62, -6.04487323760986330000e+000) (63, -5.25464594364166260000e-001) (64, -5.83162403106689450000e+000) (65, -2.06838130950927730000e+000) (66, -5.84366273880004880000e+000) (67, -2.65870213508605960000e-001) (68, -6.57456111907958980000e+000) (69, 3.92559498548507690000e-001) (70, -6.77205324172973630000e+000) (71, -3.80565977096557620000e+000) (72, -1.33034199476242070000e-001) (73, -5.26283884048461910000e+000) (74, -6.27005910873413090000e+000) (75, -4.52022886276245120000e+000) (76, -3.59482288360595700000e+000) (77, -6.92760229110717770000e+000) (11, 6.17559552192687990000e-001) (12, -3.39705920219421390000e+000) (13, -2.42074513435363770000e+000) (14, -8.08266773819923400000e-002) (15, -6.42500972747802730000e+000) (16, -6.93428993225097660000e+000) (17, -6.69913864135742190000e+000) (18, -3.38441109657287600000e+000) (19, -7.34567451477050780000e+000) (20, -6.84672296047210690000e-001) (21, -3.13425230979919430000e+000) (22, -1.65763884782791140000e-001) (23, -7.14635658264160160000e+000) (24, -6.77746009826660160000e+000) (25, -7.35613012313842770000e+000) (26, -7.11214303970336910000e+000) (27, -6.99725914001464840000e+000) (28, -6.40691328048706050000e+000) (29, -6.92820358276367190000e+000) (30, -6.33064210414886470000e-001) (31, -6.47431373596191410000e+000) (32, 1.74026101827621460000e-001) (33, -1.86253756284713750000e-001) (34, -6.67342233657836910000e+000) (35, 3.60233455896377560000e-001) (36, -2.87279534339904790000e+000) (37, 5.22395849227905270000e-001) (38, 3.70164543390274050000e-001) (39, -5.47777190804481510000e-002) (40, -2.99727410078048710000e-001) (41, -6.96347570419311520000e+000) (42, -6.54289627075195310000e+000) (43, -1.55337005853652950000e-001) (44, -7.29038044810295100000e-002) (45, -1.91344463825225830000e+000) (46, 1.98778942227363590000e-001) (47, -3.99954056739807130000e+000) (48, -7.51133584976196290000e+000) (49, -7.19702148437500000000e+000) (50, 3.44338476657867430000e-001) (51, -6.74786758422851560000e+000) (52, -3.24132275581359860000e+000) (53, -6.26346874237060550000e+000) (54, -3.50983166694641110000e+000) (55, 7.22814500331878660000e-001) (56, -7.00526618957519530000e+000) (57, -2.01541110873222350000e-001) (58, -1.09690397977828980000e-001) (59, -3.58325362205505370000e+000) (60, -6.40604400634765620000e+000) (61, -6.98931360244750980000e+000) (62, -6.55786085128784180000e+000) (63, -5.82253575325012210000e-001) (64, -7.11559391021728520000e+000) (65, -1.31153464317321780000e+000) (66, -7.22758960723876950000e+000) (67, -5.73223769664764400000e-001) (68, -6.77794599533081050000e+000) (69, 2.23986148834228520000e-001) (70, -3.65550875663757320000e+000) (71, -3.17349934577941890000e+000) (72, -4.41400669515132900000e-002) (73, -4.00243806838989260000e+000) (74, -6.54458475112915040000e+000) (75, -3.94600701332092290000e+000) (76, -4.79638004302978520000e+000) (77, -6.44398021697998050000e+000) (11, -4.06593948602676390000e-001) (12, -5.13907814025878910000e+000) (13, -3.26882672309875490000e+000) (14, -3.37626785039901730000e-001) (15, -6.61387681961059570000e+000) (16, -6.12823772430419920000e+000) (17, -6.91772079467773440000e+000) (18, -5.85955286026000980000e+000) (19, -6.41173934936523440000e+000) (20, -4.00393679738044740000e-002) (21, -4.07472276687622070000e+000) (22, 3.21046680212020870000e-001) (23, -6.06684160232543950000e+000) (24, -6.89127922058105470000e+000) (25, -5.79619073867797850000e+000) (26, -6.11379384994506840000e+000) (27, -6.60897350311279300000e+000) (28, -5.89635324478149410000e+000) (29, -6.09109354019165040000e+000) (30, -1.01086533069610600000e+000) (31, -6.41218042373657230000e+000) (32, 1.53683289885520940000e-001) (33, 6.91574811935424800000e-002) (34, -6.16850185394287110000e+000) (35, -8.41604113578796390000e-001) (36, -2.22831606864929200000e+000) (37, 5.46100616455078130000e-001) (38, -1.79207101464271550000e-001) (39, -4.31547820568084720000e-001) (40, -7.07340836524963380000e-001) (41, -6.75715923309326170000e+000) (42, -5.44294357299804690000e+000) (43, 1.46134570240974430000e-001) (44, -4.72170412540435790000e-001) (45, -1.92670714855194090000e+000) (46, -5.17196595668792720000e-001) (47, -6.00673675537109380000e+000) (48, -6.39567089080810550000e+000) (49, -5.89152956008911130000e+000) (50, 4.02844041585922240000e-001) (51, -6.63168001174926760000e+000) (52, -4.92349910736083980000e+000) (53, -6.27269411087036130000e+000) (54, -2.99680495262146000000e+000) (55, -3.54857772588729860000e-001) (56, -5.30714607238769530000e+000) (57, 1.78790643811225890000e-001) (58, -1.24622559547424320000e+000) (59, -3.79899954795837400000e+000) (60, -6.61974716186523440000e+000) (61, -5.61156845092773440000e+000) (62, -6.54805707931518550000e+000) (63, 6.59245252609252930000e-002) (64, -5.96271896362304690000e+000) (65, -2.44065260887146000000e+000) (66, -6.11972141265869140000e+000) (67, 1.54142370447516440000e-002) (68, -6.70760536193847660000e+000) (69, -3.12067657709121700000e-001) (70, -6.49078559875488280000e+000) (71, -3.67660975456237790000e+000) (72, 4.33417707681655880000e-001) (73, -5.47295045852661130000e+000) (74, -6.61137819290161130000e+000) (75, -4.59753751754760740000e+000) (76, -3.94959616661071780000e+000) (77, -6.44626951217651370000e+000) (11, -1.89910188317298890000e-001) (12, -5.64066505432128910000e+000) (13, -3.09530949592590330000e+000) (14, 2.80452091246843340000e-002) (15, -6.25457096099853520000e+000) (16, -6.17194366455078120000e+000) (17, -6.21751308441162110000e+000) (18, -5.26591634750366210000e+000) (19, -6.99862051010131840000e+000) (20, -1.50714442133903500000e-001) (21, -3.81281018257141110000e+000) (22, -1.13424248993396760000e-001) (23, -6.55030536651611330000e+000) (24, -6.13089084625244140000e+000) (25, -5.86266040802001950000e+000) (26, -6.91361856460571290000e+000) (27, -6.50779771804809570000e+000) (28, -6.35744094848632810000e+000) (29, -6.72639179229736330000e+000) (30, -1.14837002754211430000e+000) (31, -6.20371103286743160000e+000) (32, -2.46457401663064960000e-002) (33, -2.44546473026275630000e-001) (34, -5.53595161437988280000e+000) (35, -7.04862892627716060000e-001) (36, -2.18672180175781250000e+000) (37, 1.75550237298011780000e-001) (38, -3.11767399311065670000e-001) (39, -2.74854332208633420000e-001) (40, -1.05300736427307130000e+000) (41, -7.10532999038696290000e+000) (42, -5.04077005386352540000e+000) (43, 1.66512221097946170000e-001) (44, 2.03879356384277340000e-001) (45, -1.77375936508178710000e+000) (46, -6.75753712654113770000e-001) (47, -5.10147619247436520000e+000) (48, -5.96802663803100590000e+000) (49, -6.42141294479370120000e+000) (50, -4.04245942831039430000e-001) (51, -6.46743965148925780000e+000) (52, -4.34532499313354490000e+000) (53, -6.13158369064331050000e+000) (54, -3.83685612678527830000e+000) (55, -2.71063029766082760000e-001) (56, -5.46700382232666020000e+000) (57, -3.98528128862380980000e-001) (58, -1.18122923374176030000e+000) (59, -3.54550147056579590000e+000) (60, -6.89058828353881840000e+000) (61, -5.64743566513061520000e+000) (62, -6.85957050323486330000e+000) (63, -6.44368112087249760000e-001) (64, -6.58297204971313480000e+000) (65, -2.48041796684265140000e+000) (66, -6.74869203567504880000e+000) (67, 2.01717570424079900000e-001) (68, -6.13541507720947270000e+000) (69, -5.67071557044982910000e-001) (70, -6.16250467300415040000e+000) (71, -4.06928443908691410000e+000) (72, -4.08820748329162600000e-001) (73, -4.90006923675537110000e+000) (74, -7.01578760147094730000e+000) (75, -4.06993675231933590000e+000) (76, -4.59760284423828120000e+000) (77, -6.87568378448486330000e+000) (11, -5.15103675425052640000e-002) (12, -5.32600498199462890000e+000) (13, -2.69620418548583980000e+000) (14, -2.38993585109710690000e-001) (15, -6.14238071441650390000e+000) (16, -6.64783763885498050000e+000) (17, -6.19556474685668950000e+000) (18, -5.55717611312866210000e+000) (19, -6.58615303039550780000e+000) (20, -3.68090450763702390000e-001) (21, -4.26810264587402340000e+000) (22, -1.57809201627969740000e-002) (23, -6.92502593994140620000e+000) (24, -6.30312633514404300000e+000) (25, -6.40191364288330080000e+000) (26, -6.35670089721679690000e+000) (27, -6.53553771972656250000e+000) (28, -5.77047920227050780000e+000) (29, -6.30845260620117190000e+000) (30, -1.36843252182006840000e+000) (31, -6.12965726852416990000e+000) (32, -3.83629798889160160000e-002) (33, 6.68672695755958560000e-002) (34, -5.82936811447143550000e+000) (35, -8.89892876148223880000e-001) (36, -2.63670635223388670000e+000) (37, -1.60383045673370360000e-001) (38, 8.87084454298019410000e-002) (39, 5.73581270873546600000e-002) (40, -1.54298508167266850000e+000) (41, -6.72978878021240230000e+000) (42, -5.46722936630249020000e+000) (43, 1.75525695085525510000e-001) (44, 2.75521695613861080000e-001) (45, -1.80813932418823240000e+000) (46, -1.05294477939605710000e+000) (47, -5.28217744827270510000e+000) (48, -6.91615438461303710000e+000) (49, -6.63474273681640620000e+000) (50, -6.57146096229553220000e-001) (51, -6.58409404754638670000e+000) (52, -4.07553672790527340000e+000) (53, -6.47965812683105470000e+000) (54, -3.05452775955200200000e+000) (55, -1.98544245213270190000e-002) (56, -5.55396270751953120000e+000) (57, 2.62062162160873410000e-001) (58, -1.65879821777343750000e+000) (59, -3.31802201271057130000e+000) (60, -6.45888614654541020000e+000) (61, -5.44584321975708010000e+000) (62, -6.54537630081176760000e+000) (63, -3.81242394447326660000e-001) (64, -6.00436258316040040000e+000) (65, -2.56712031364440920000e+000) (66, -6.38328123092651370000e+000) (67, -2.82758660614490510000e-002) (68, -6.76959371566772460000e+000) (69, 2.18779027462005620000e-001) (70, -6.52321577072143550000e+000) (71, -4.06030368804931640000e+000) (72, 3.63664031028747560000e-001) (73, -5.13690662384033200000e+000) (74, -6.68423414230346680000e+000) (75, -4.41510343551635740000e+000) (76, -4.75796651840209960000e+000) (77, -6.45335435867309570000e+000) (11, 2.06402301788330080000e-001) (12, -4.64925718307495120000e+000) (13, -2.31176781654357910000e+000) (14, -4.19100731611251830000e-001) (15, -6.52540779113769530000e+000) (16, -6.06645107269287110000e+000) (17, -6.03894853591918950000e+000) (18, -6.04121112823486330000e+000) (19, -6.09071540832519530000e+000) (20, -4.11998450756073000000e-001) (21, -4.71868276596069340000e+000) (22, -1.43822222948074340000e-001) (23, -6.95610332489013670000e+000) (24, -6.83674764633178710000e+000) (25, -6.28178071975708010000e+000) (26, -6.51404142379760740000e+000) (27, -6.13756179809570310000e+000) (28, -6.15348625183105470000e+000) (29, -6.57843446731567380000e+000) (30, -1.07143461704254150000e+000) (31, -6.52502870559692380000e+000) (32, -7.97610804438591000000e-002) (33, 2.40977674722671510000e-001) (34, -5.72451019287109370000e+000) (35, -8.28535202890634540000e-003) (36, -2.37467360496521000000e+000) (37, -1.80739656090736390000e-001) (38, -4.60183531045913700000e-001) (39, 2.31809765100479130000e-001) (40, -7.26568400859832760000e-001) (41, -6.63480472564697270000e+000) (42, -5.63901758193969730000e+000) (43, -2.17503577470779420000e-001) (44, 3.16733419895172120000e-001) (45, -1.69765388965606690000e+000) (46, -6.96357429027557370000e-001) (47, -5.58677768707275390000e+000) (48, -6.51196193695068360000e+000) (49, -6.61392164230346680000e+000) (50, -4.20336395502090450000e-001) (51, -6.08915042877197270000e+000) (52, -4.72052192687988280000e+000) (53, -6.10939836502075200000e+000) (54, -3.14945340156555180000e+000) (55, 4.66513223946094510000e-002) (56, -6.44574451446533200000e+000) (57, 2.85587847232818600000e-001) (58, -7.53599405288696290000e-001) (59, -3.66003751754760740000e+000) (60, -5.99545669555664060000e+000) (61, -5.58513212203979490000e+000) (62, -6.10273027420043950000e+000) (63, -9.86919701099395750000e-002) (64, -6.15304899215698240000e+000) (65, -1.75176751613616940000e+000) (66, -6.61744880676269530000e+000) (67, -5.50133109092712400000e-001) (68, -6.28189182281494140000e+000) (69, 4.91358757019042970000e-001) (70, -6.32487916946411130000e+000) (71, -3.68923544883728030000e+000) (72, 4.06920880079269410000e-001) (73, -5.42354869842529300000e+000) (74, -6.69130659103393550000e+000) (75, -4.97911310195922850000e+000) (76, -3.77253150939941410000e+000) (77, -6.70422267913818360000e+000) (11, 2.44542106986045840000e-001) (12, -5.94891166687011720000e+000) (13, -3.03456616401672360000e+000) (14, -4.68866139650344850000e-001) (15, -6.18826866149902340000e+000) (16, -6.82930755615234370000e+000) (17, -6.29567050933837890000e+000) (18, -5.12044143676757810000e+000) (19, -6.84132194519042970000e+000) (20, -3.02510738372802730000e-001) (21, -4.50038909912109380000e+000) (22, 1.01905487477779390000e-001) (23, -5.99362039566040040000e+000) (24, -6.47299337387084960000e+000) (25, -6.39728069305419920000e+000) (26, -6.21433496475219730000e+000) (27, -6.35422182083129880000e+000) (28, -6.16326713562011720000e+000) (29, -6.82493257522583010000e+000) (30, -1.23307454586029050000e+000) (31, -6.15969944000244140000e+000) (32, -3.00198346376419070000e-001) (33, 2.84732636064291000000e-002) (34, -4.92164468765258790000e+000) (35, -5.56159317493438720000e-001) (36, -2.60062360763549800000e+000) (37, 4.24802571535110470000e-001) (38, -4.96132194995880130000e-001) (39, 2.64907032251358030000e-001) (40, -7.52628266811370850000e-001) (41, -6.75874233245849610000e+000) (42, -5.19763851165771480000e+000) (43, 1.90996140241622920000e-001) (44, -3.69314461946487430000e-001) (45, -1.91741943359375000000e+000) (46, -9.65694606304168700000e-001) (47, -5.52332830429077150000e+000) (48, -6.61248636245727540000e+000) (49, -6.47186136245727540000e+000) (50, 1.83414779603481290000e-002) (51, -6.25314807891845700000e+000) (52, -5.04242563247680660000e+000) (53, -6.02907037734985350000e+000) (54, -3.31850719451904300000e+000) (55, 4.84585285186767580000e-001) (56, -5.45556688308715820000e+000) (57, 3.04151684045791630000e-001) (58, -1.40752136707305910000e+000) (59, -3.68293809890747070000e+000) (60, -6.04290723800659180000e+000) (61, -5.53518199920654300000e+000) (62, -6.76710796356201170000e+000) (63, -7.50956833362579350000e-001) (64, -6.27063989639282230000e+000) (65, -2.87519979476928710000e+000) (66, -6.12949514389038090000e+000) (67, 1.50632724165916440000e-001) (68, -6.75729656219482420000e+000) (69, -2.02880844473838810000e-001) (70, -6.66718196868896480000e+000) (71, -4.10449266433715820000e+000) (72, 4.20873850584030150000e-001) (73, -5.00784540176391600000e+000) (74, -6.36380243301391600000e+000) (75, -4.29979658126831050000e+000) (76, -3.74701213836669920000e+000) (77, -6.78499698638916020000e+000) (11, -4.59379732608795170000e-001) (12, -5.29642105102539060000e+000) (13, -2.90765953063964840000e+000) (14, -3.78082171082496640000e-002) (15, -6.03801202774047850000e+000) (16, -6.61568784713745120000e+000) (17, -6.02965497970581050000e+000) (18, -5.83199262619018550000e+000) (19, -6.41260433197021480000e+000) (20, -1.76926672458648680000e-001) (21, -4.11220455169677730000e+000) (22, 1.32641971111297610000e-001) (23, -6.78529787063598630000e+000) (24, -6.30850172042846680000e+000) (25, -6.51252031326293950000e+000) (26, -6.30055809020996090000e+000) (27, -6.00250673294067380000e+000) (28, -5.95693016052246090000e+000) (29, -6.06456279754638670000e+000) (30, -1.33300161361694340000e+000) (31, -6.52480554580688480000e+000) (32, -1.17606468498706820000e-001) (33, 3.05543363094329830000e-001) (34, -6.38257312774658200000e+000) (35, -3.30831825733184810000e-001) (36, -2.84336924552917480000e+000) (37, -2.18933701515197750000e-001) (38, -3.37770462036132810000e-001) (39, 3.35540412925183770000e-003) (40, -3.73894363641738890000e-001) (41, -6.15770959854125980000e+000) (42, -6.01354789733886720000e+000) (43, 1.22243985533714290000e-001) (44, -5.23761928081512450000e-001) (45, -2.29650735855102540000e+000) (46, 1.14889144897460940000e-001) (47, -5.49588251113891600000e+000) (48, -6.35743713378906250000e+000) (49, -6.31587266921997070000e+000) (50, 1.32398411631584170000e-001) (51, -6.11082744598388670000e+000) (52, -4.57763814926147460000e+000) (53, -6.61388301849365230000e+000) (54, -3.11966562271118160000e+000) (55, -5.94151377677917480000e-001) (56, -6.50420141220092770000e+000) (57, 1.13943397998809810000e-001) (58, -5.04934728145599370000e-001) (59, -3.77513909339904790000e+000) (60, -5.90918207168579100000e+000) (61, -5.52247428894042970000e+000) (62, -6.54579639434814450000e+000) (63, -3.09859901666641240000e-001) (64, -6.01713752746582030000e+000) (65, -2.00848793983459470000e+000) (66, -6.28936195373535160000e+000) (67, 1.81180089712142940000e-001) (68, -6.51620054244995120000e+000) (69, -1.83531522750854490000e-001) (70, -5.80124950408935550000e+000) (71, -4.28699636459350590000e+000) (72, 2.90278881788253780000e-001) (73, -5.48797702789306640000e+000) (74, -6.70582103729248050000e+000) (75, -4.34579610824584960000e+000) (76, -3.90440416336059570000e+000) (77, -6.50326299667358400000e+000) (11, 1.12250529229640960000e-001) (12, -4.53026056289672850000e+000) (13, -2.16754460334777830000e+000) (14, 1.78651317954063420000e-001) (15, -6.02705097198486330000e+000) (16, -5.97386598587036130000e+000) (17, -6.10921001434326170000e+000) (18, -5.80731916427612300000e+000) (19, -6.46020364761352540000e+000) (20, -1.60856813192367550000e-001) (21, -4.43538141250610350000e+000) (22, -1.38941675424575810000e-001) (23, -6.65531969070434570000e+000) (24, -5.91497468948364260000e+000) (25, -6.97149944305419920000e+000) (26, -5.93030643463134770000e+000) (27, -6.43054151535034180000e+000) (28, -6.01171588897705080000e+000) (29, -6.55892419815063480000e+000) (30, -1.17193806171417240000e+000) (31, -5.72661113739013670000e+000) (32, 1.20273396372795100000e-001) (33, -1.69664189219474790000e-001) (34, -6.11215066909790040000e+000) (35, 5.59233903884887700000e-001) (36, -2.84891390800476070000e+000) (37, 5.47782301902771000000e-001) (38, 4.67386394739151000000e-001) (39, 8.98246169090271000000e-002) (40, 7.21202567219734190000e-002) (41, -6.67540121078491210000e+000) (42, -6.61089801788330080000e+000) (43, 4.01323258876800540000e-001) (44, -2.07649350166320800000e-001) (45, -1.95436728000640870000e+000) (46, -7.00477600097656250000e-001) (47, -5.72745466232299800000e+000) (48, -6.23741865158081050000e+000) (49, -6.75595045089721680000e+000) (50, -2.51557111740112300000e-001) (51, -6.07176113128662110000e+000) (52, -4.40778350830078120000e+000) (53, -5.68582344055175780000e+000) (54, -3.70576524734497070000e+000) (55, 2.51682996749877930000e-001) (56, -5.72757911682128910000e+000) (57, -1.24581329524517060000e-001) (58, -5.19752323627471920000e-001) (59, -3.88842177391052250000e+000) (60, -6.84306716918945310000e+000) (61, -6.03644561767578120000e+000) (62, -6.84762287139892580000e+000) (63, 1.39159023761749270000e-001) (64, -6.78575325012207030000e+000) (65, -2.06782817840576170000e+000) (66, 