FANN_FLO_2.1
num_layers=4
learning_rate=0.700000
connection_rate=1.000000
network_type=0
learning_momentum=0.000000
training_algorithm=2
train_error_function=1
train_stop_function=0
cascade_output_change_fraction=0.010000
quickprop_decay=-0.000100
quickprop_mu=1.750000
rprop_increase_factor=1.200000
rprop_decrease_factor=0.500000
rprop_delta_min=0.000000
rprop_delta_max=50.000000
rprop_delta_zero=0.100000
cascade_output_stagnation_epochs=12
cascade_candidate_change_fraction=0.010000
cascade_candidate_stagnation_epochs=12
cascade_max_out_epochs=150
cascade_max_cand_epochs=150
cascade_num_candidate_groups=2
bit_fail_limit=3.49999994039535520000e-001
cascade_candidate_limit=1.00000000000000000000e+003
cascade_weight_multiplier=4.00000005960464480000e-001
cascade_activation_functions_count=10
cascade_activation_functions=3 5 7 8 10 11 14 15 16 17 
cascade_activation_steepnesses_count=4
cascade_activation_steepnesses=2.50000000000000000000e-001 5.00000000000000000000e-001 7.50000000000000000000e-001 1.00000000000000000000e+000 
layer_sizes=11 21 19 3 
scale_included=0
neurons (num_inputs, activation_function, activation_steepness)=(0, 0, 0.00000000000000000000e+000) (0, 0, 0.00000000000000000000e+000) (0, 0, 0.00000000000000000000e+000) (0, 0, 0.00000000000000000000e+000) (0, 0, 0.00000000000000000000e+000) (0, 0, 0.00000000000000000000e+000) (0, 0, 0.00000000000000000000e+000) (0, 0, 0.00000000000000000000e+000) (0, 0, 0.00000000000000000000e+000) (0, 0, 0.00000000000000000000e+000) (0, 0, 0.00000000000000000000e+000) (11, 10, 5.00000000000000000000e-001) (11, 10, 5.00000000000000000000e-001) (11, 10, 5.00000000000000000000e-001) (11, 10, 5.00000000000000000000e-001) (11, 10, 5.00000000000000000000e-001) (11, 10, 5.00000000000000000000e-001) (11, 10, 5.00000000000000000000e-001) (11, 10, 5.00000000000000000000e-001) (11, 10, 5.00000000000000000000e-001) (11, 10, 5.00000000000000000000e-001) (11, 10, 5.00000000000000000000e-001) (11, 10, 5.00000000000000000000e-001) (11, 10, 5.00000000000000000000e-001) (11, 10, 5.00000000000000000000e-001) (11, 10, 5.00000000000000000000e-001) (11, 10, 5.00000000000000000000e-001) (11, 10, 5.00000000000000000000e-001) (11, 10, 5.00000000000000000000e-001) (11, 10, 5.00000000000000000000e-001) (11, 10, 5.00000000000000000000e-001) (0, 10, 5.00000000000000000000e-001) (21, 10, 5.00000000000000000000e-001) (21, 10, 5.00000000000000000000e-001) (21, 10, 5.00000000000000000000e-001) (21, 10, 5.00000000000000000000e-001) (21, 10, 5.00000000000000000000e-001) (21, 10, 5.00000000000000000000e-001) (21, 10, 5.00000000000000000000e-001) (21, 10, 5.00000000000000000000e-001) (21, 10, 5.00000000000000000000e-001) (21, 10, 5.00000000000000000000e-001) (21, 10, 5.00000000000000000000e-001) (21, 10, 5.00000000000000000000e-001) (21, 10, 5.00000000000000000000e-001) (21, 10, 5.00000000000000000000e-001) (21, 10, 5.00000000000000000000e-001) (21, 10, 5.00000000000000000000e-001) (21, 10, 5.00000000000000000000e-001) (21, 10, 5.00000000000000000000e-001) (0, 10, 5.00000000000000000000e-001) (19, 0, 5.00000000000000000000e-001) (19, 0, 5.00000000000000000000e-001) (0, 0, 5.00000000000000000000e-001) 
connections (connected_to_neuron, weight)=(0, 2.81653255224227910000e-001) (1, -2.79847383499145510000e+000) (2, -2.15172863006591800000e+000) (3, -4.24488544464111330000e-001) (4, -1.68189775943756100000e+000) (5, -2.56691956520080570000e+000) (6, -9.47461128234863280000e-001) (7, 1.55250966548919680000e-001) (8, -2.56535708904266360000e-001) (9, -6.37415945529937740000e-001) (10, -3.61836820840835570000e-001) (0, -1.83777570724487300000e-001) (1, -1.87326736450195310000e+001) (2, -1.59087684005498890000e-002) (3, 1.50242879986763000000e-001) (4, -8.97898292541503910000e+000) (5, -1.92112674713134770000e+001) (6, -1.88089885711669920000e+001) (7, 4.29691165685653690000e-001) (8, -2.61874651908874510000e+000) (9, -1.90296535491943360000e+001) (10, -1.07233440503478050000e-002) (0, 2.29181274771690370000e-001) (1, 5.70120429992675780000e+000) (2, 4.67400217056274410000e+000) (3, 7.82624840736389160000e-001) (4, 2.95107007026672360000e+000) (5, 4.08848619461059570000e+000) (6, 3.72675943374633790000e+000) (7, 4.53294903039932250000e-001) (8, 4.99398851394653320000e+000) (9, 1.43382930755615230000e+000) (10, 4.99999940395355220000e-001) (0, 5.74370659887790680000e-002) (1, -3.99289458990097050000e-001) (2, -3.19756846874952320000e-003) (3, 5.64296543598175050000e-001) (4, -1.10943280160427090000e-001) (5, 1.99051058292388920000e+000) (6, -1.39950191974639890000e+000) (7, -2.62936890125274660000e-001) (8, 2.44534277915954590000e+000) (9, 6.00407063961029050000e-001) (10, 8.47742035984992980000e-002) (0, 3.52902621030807500000e-001) (1, 1.41346955299377440000e+000) (2, 6.62790596485137940000e-001) (3, 9.12340521812438960000e-001) (4, 2.96780198812484740000e-001) (5, 1.00065732002258300000e+000) (6, 1.49899840354919430000e+000) (7, -1.01704057306051250000e-002) (8, 3.59620928764343260000e+000) (9, 8.68448138236999510000e-001) (10, 1.26016214489936830000e-001) (0, -2.82419800758361820000e-001) (1, 1.38551175594329830000e+000) (2, -6.57884031534194950000e-002) (3, 9.16089296340942380000e-001) (4, 5.95154047012329100000e-001) (5, 1.03090715408325200000e+000) (6, 1.23624265193939210000e+000) (7, -2.48690634965896610000e-001) (8, 3.31376075744628910000e+000) (9, 1.36300849914550780000e+000) (10, 7.38559812307357790000e-002) (0, 4.90563273429870610000e-001) (1, 5.76027584075927730000e+000) (2, 8.04780960083007810000e-001) (3, 4.28504884243011470000e-001) (4, 3.18007230758666990000e+000) (5, 5.48948144912719730000e+000) (6, 5.01353549957275390000e+000) (7, 1.73794209957122800000e-001) (8, 4.74611854553222660000e+000) (9, 5.02604103088378910000e+000) (10, -1.75128489732742310000e-001) (0, 2.72397935390472410000e-001) (1, 6.43216729164123540000e-001) (2, 3.62861305475234990000e-001) (3, 6.30997419357299800000e-001) (4, 3.52346360683441160000e-001) (5, 9.65072885155677800000e-002) (6, 5.70212721824646000000e-001) (7, -1.02574788033962250000e-001) (8, 6.92336022853851320000e-001) (9, 3.50156843662261960000e-001) (10, -2.96431090682744980000e-002) (0, -2.73204028606414790000e-001) (1, 2.47601342201232910000e+000) (2, 1.29626452922821040000e+000) (3, 1.06185805797576900000e+000) (4, 6.89773201942443850000e-001) (5, 1.72148799896240230000e+000) (6, 1.73023664951324460000e+000) (7, 1.90064296126365660000e-001) (8, 4.20401287078857420000e+000) (9, 1.53916859626770020000e+000) (10, 3.33395749330520630000e-001) (0, -1.98998957872390750000e-001) (1, 1.20333361625671390000e+000) (2, 4.31482106447219850000e-001) (3, 4.58566814661026000000e-001) (4, 5.94860792160034180000e-001) (5, 8.94181251525878910000e-001) (6, 1.10847854614257810000e+000) (7, 5.08555352687835690000e-001) (8, 2.69391250610351560000e+000) (9, 6.81074500083923340000e-001) (10, -2.65807837247848510000e-001) (0, -1.81116998195648190000e-001) (1, 4.75420665740966800000e+000) (2, 7.70223855972290040000e-001) (3, 1.39632427692413330000e+000) (4, 3.18232369422912600000e+000) (5, 6.27286958694458010000e+000) (6, 5.19140672683715820000e+000) (7, 1.40117123723030090000e-001) (8, 7.13729524612426760000e+000) (9, 1.79555284976959230000e+000) (10, -2.08458587527275090000e-001) (0, -3.17667841911315920000e-001) (1, 6.63539111614227290000e-001) (2, 1.03212945163249970000e-001) (3, 1.77672877907752990000e-001) (4, 3.16546633839607240000e-002) (5, 4.61913019418716430000e-001) (6, 4.19803053140640260000e-001) (7, -1.42410591244697570000e-001) (8, 8.22343111038208010000e-001) (9, 2.58594900369644170000e-001) (10, -1.92979395389556880000e-001) (0, 2.20049291849136350000e-001) (1, 2.03682422637939450000e+000) (2, 4.07010197639465330000e-001) (3, 5.62542676925659180000e-001) (4, 7.75415062904357910000e-001) (5, 1.44912004470825200000e+000) (6, 1.68951177597045900000e+000) (7, 2.51610018312931060000e-002) (8, 4.52841424942016600000e+000) (9, 1.38896346092224120000e+000) (10, -2.49704688787460330000e-001) (0, 5.01143872737884520000e-001) (1, 2.11301207542419430000e+000) (2, 9.53148603439331050000e-001) (3, 4.69208568334579470000e-001) (4, 4.29807662963867190000e-001) (5, 1.18355870246887210000e+000) (6, 1.59936273097991940000e+000) (7, 3.57982397079467770000e-001) (8, 4.67830181121826170000e+000) (9, 1.53315556049346920000e+000) (10, 1.75303414463996890000e-001) (0, -3.98096665740013120000e-002) (1, 2.02079415321350100000e+000) (2, 9.07305717468261720000e-001) (3, 5.38517713546752930000e-001) (4, 4.84164535999298100000e-001) (5, 8.03289711475372310000e-001) (6, 1.83350515365600590000e+000) (7, 4.09841030836105350000e-001) (8, 3.91688251495361330000e+000) (9, 1.08565425872802730000e+000) (10, 2.76669770479202270000e-001) (0, 9.04383659362792970000e-002) (1, 1.81746387481689450000e+000) (2, 1.07080352306365970000e+000) (3, 7.22041845321655270000e-001) (4, 6.69832944869995120000e-001) (5, 1.51450824737548830000e+000) (6, 1.82195913791656490000e+000) (7, 4.47022169828414920000e-001) (8, 4.38471889495849610000e+000) (9, 1.33270680904388430000e+000) (10, -3.64830881357192990000e-001) (0, 3.08306246995925900000e-001) (1, -2.71395730972290040000e+000) (2, -1.60788977146148680000e+000) (3, -1.11378934234380720000e-002) (4, -1.27676558494567870000e+000) (5, 1.73523175716400150000e+000) (6, -2.63044261932373050000e+000) (7, 3.69888842105865480000e-001) (8, -5.44437319040298460000e-002) (9, 1.72337830066680910000e-001) (10, -9.75946709513664250000e-002) (0, 1.41764804720878600000e-001) (1, 1.80197834968566890000e+000) (2, 6.07824385166168210000e-001) (3, 9.92145419120788570000e-001) (4, 9.46840882301330570000e-001) (5, 1.59006142616271970000e+000) (6, 1.87893450260162350000e+000) (7, -1.93290829658508300000e-001) (8, 4.33909559249877930000e+000) (9, 1.32291817665100100000e+000) (10, -1.33166030049324040000e-001) (0, -1.56050130724906920000e-001) (1, 2.04079484939575200000e+000) (2, 8.69655668735504150000e-001) (3, 9.59994673728942870000e-001) (4, 9.67480421066284180000e-001) (5, 9.34615671634674070000e-001) (6, 1.74609875679016110000e+000) (7, -1.54609501361846920000e-001) (8, 4.45659732818603520000e+000) (9, 1.67054331302642820000e+000) (10, 2.20918640494346620000e-001) (0, 7.30495750904083250000e-002) (1, -6.91034913063049320000e-001) (2, -2.53471553325653080000e-001) (3, -2.90916591882705690000e-001) (4, 6.37864470481872560000e-002) (5, -5.39334118366241460000e-001) (6, -4.64039623737335210000e-001) (7, 6.45040115341544150000e-003) (8, -5.21821320056915280000e-001) (9, -1.39061994850635530000e-002) (10, -2.38061159849166870000e-001) (11, -7.88331106305122380000e-002) (12, -8.25140833854675290000e-001) (13, -1.93604869842529300000e+001) (14, -2.77847123146057130000e+000) (15, -1.55021152496337890000e+001) (16, -1.47463598251342770000e+001) (17, -1.89880313873291020000e+001) (18, -4.10060453414916990000e+000) (19, -1.91835918426513670000e+001) (20, -1.27817230224609370000e+001) (21, -1.93200359344482420000e+001) (22, -4.11624097824096680000e+000) (23, -1.95333709716796880000e+001) (24, -1.92780933380126950000e+001) (25, -1.78008232116699220000e+001) (26, -1.91336784362792970000e+001) (27, -1.81051242351531980000e+000) (28, -1.92466602325439450000e+001) (29, -1.96544284820556640000e+001) (30, 3.57160091400146480000e-001) (31, -1.93106632232666020000e+001) (11, -3.93397897481918330000e-001) (12, -1.41267287731170650000e+000) (13, -1.94569606781005860000e+001) (14, -3.24988341331481930000e+000) (15, -1.57734184265136720000e+001) (16, -1.49743843078613280000e+001) (17, -1.75595321655273440000e+001) (18, -4.78539705276489260000e+000) (19, -1.98059062957763670000e+001) (20, -1.22246150970458980000e+001) (21, -1.91648178100585940000e+001) (22, -4.27273559570312500000e+000) (23, -1.92827529907226560000e+001) (24, -1.96394004821777340000e+001) (25, -1.70734863281250000000e+001) (26, -1.99243907928466800000e+001) (27, -2.07273864746093750000e+000) (28, -1.95984687805175780000e+001) (29, -1.94909706115722660000e+001) (30, 2.96858310699462890000e-001) (31, -1.94978828430175780000e+001) (11, -3.59346300363540650000e-001) (12, -1.34451478719711300000e-001) (13, -1.93597698211669920000e+001) (14, -1.79352617263793950000e+000) (15, -1.54251174926757810000e+001) (16, -1.55763902664184570000e+001) (17, -1.87449073791503910000e+001) (18, -4.13394546508789060000e+000) (19, -1.94298439025878910000e+001) (20, -1.24812660217285160000e+001) (21, -1.84987735748291020000e+001) (22, -3.71916007995605470000e+000) (23, -1.93998374938964840000e+001) (24, -1.97888088226318360000e+001) (25, -1.84931030273437500000e+001) (26, -1.92768478393554690000e+001) (27, -1.47837245464324950000e+000) (28, -1.90627174377441410000e+001) (29, -1.95998020172119140000e+001) (30, 1.56275182962417600000e-001) (31, -1.99215946197509770000e+001) (11, 1.91941589117050170000e-001) (12, -7.58907198905944820000e-001) (13, -1.93443374633789060000e+001) (14, -3.00021409988403320000e+000) (15, -1.57111091613769530000e+001) (16, -1.52452878952026370000e+001) (17, -1.83336601257324220000e+001) (18, -4.86149835586547850000e+000) (19, -1.97418575286865230000e+001) (20, -1.25781221389770510000e+001) (21, -1.88097133636474610000e+001) (22, -3.83943390846252440000e+000) (23, -1.89620113372802730000e+001) (24, -1.88731174468994140000e+001) (25, -1.78529872894287110000e+001) (26, -1.92094039916992190000e+001) (27, -1.83462321758270260000e+000) (28, -1.90752334594726560000e+001) (29, -1.91755561828613280000e+001) (30, 3.72150212526321410000e-001) (31, -1.91754627227783200000e+001) (11, 1.55852034687995910000e-001) (12, 1.71856909990310670000e-001) (13, -1.89888267517089840000e+001) (14, -3.50203657150268550000e+000) (15, -1.53972272872924800000e+001) (16, -1.49065771102905270000e+001) (17, -1.98166675567626950000e+001) (18, -4.55557489395141600000e+000) (19, -1.99186325073242190000e+001) (20, -1.22705535888671880000e+001) (21, -1.99101886749267580000e+001) (22, -3.98805356025695800000e+000) (23, -1.92565612792968750000e+001) (24, -1.94145298004150390000e+001) (25, -1.67604179382324220000e+001) (26, -1.97767868041992190000e+001) (27, -2.53767102956771850000e-001) (28, -2.00655841827392580000e+001) (29, -1.92504177093505860000e+001) (30, -2.03705027699470520000e-001) (31, -2.01060161590576170000e+001) (11, 7.10473805665969850000e-002) (12, -9.54117596149444580000e-001) (13, -1.95008125305175780000e+001) (14, -2.56777524948120120000e+000) (15, -1.61411952972412110000e+001) (16, -1.52744197845458980000e+001) (17, -1.87687206268310550000e+001) (18, -4.69385862350463870000e+000) (19, -1.96086921691894530000e+001) (20, -1.27714195251464840000e+001) (21, -1.91388759613037110000e+001) (22, -4.35750198364257810000e+000) (23, -1.94774074554443360000e+001) (24, -1.93818550109863280000e+001) (25, -1.84721794128417970000e+001) (26, -1.97462806701660160000e+001) (27, -1.81801044940948490000e+000) (28, -1.90621356964111330000e+001) (29, -1.97619514465332030000e+001) (30, 5.45133091509342190000e-002) (31, -1.92471580505371090000e+001) (11, -3.98729145526885990000e-001) (12, -4.34067130088806150000e-001) (13, -1.93126773834228520000e+001) (14, -2.04972696304321290000e+000) (15, -1.61233081817626950000e+001) (16, -1.55758457183837890000e+001) (17, -1.86644058227539060000e+001) (18, -4.40811300277709960000e+000) (19, -1.95481090545654300000e+001) (20, -1.28739604949951170000e+001) (21, -1.82793445587158200000e+001) (22, -4.45246505737304690000e+000) (23, -1.89305458068847660000e+001) (24, -1.95260028839111330000e+001) (25, -1.79350223541259770000e+001) (26, -1.93429088592529300000e+001) (27, -1.19566881656646730000e+000) (28, -1.90668010711669920000e+001) (29, -1.98038444519042970000e+001) (30, 1.73310860991477970000e-001) (31, -1.94953632354736330000e+001) (11, -9.22567024827003480000e-002) (12, -2.31996819376945500000e-001) (13, -1.98669052124023440000e+001) (14, -1.78612244129180910000e+000) (15, -1.54304790496826170000e+001) (16, -1.45985870361328120000e+001) (17, -1.93551731109619140000e+001) (18, -4.49544477462768550000e+000) (19, -2.00930786132812500000e+001) (20, -1.20508985519409180000e+001) (21, -1.96369857788085940000e+001) (22, -4.22165393829345700000e+000) (23, -1.94370307922363280000e+001) (24, -2.00445899963378910000e+001) (25, -1.84073772430419920000e+001) (26, -1.90684738159179690000e+001) (27, -1.42739450931549070000e+000) (28, -1.94688434600830080000e+001) (29, -1.98100223541259770000e+001) (30, 1.15763291716575620000e-001) (31, -2.00631637573242190000e+001) (11, -3.95408928394317630000e-001) (12, -6.04629158973693850000e-001) (13, -1.98990917205810550000e+001) (14, -2.03612709045410160000e+000) (15, -1.55209665298461910000e+001) (16, -1.47418403625488280000e+001) (17, -1.88298225402832030000e+001) (18, -4.27289628982543950000e+000) (19, -1.98035087585449220000e+001) (20, -1.20631103515625000000e+001) (21, -1.92174186706542970000e+001) (22, -4.07652997970581050000e+000) (23, -1.93855838775634770000e+001) (24, -2.00451469421386720000e+001) (25, -1.86786651611328130000e+001) (26, -1.93306102752685550000e+001) (27, -1.75594508647918700000e+000) (28, -2.00115795135498050000e+001) (29, -2.00389823913574220000e+001) (30, 3.42122912406921390000e-001) (31, -1.99522171020507810000e+001) (11, 8.95403176546096800000e-002) (12, -9.07665073871612550000e-001) (13, -1.95740032196044920000e+001) (14, -2.52491950988769530000e+000) (15, -1.58794832229614260000e+001) (16, -1.49676542282104490000e+001) (17, -1.85639476776123050000e+001) (18, -4.53735399246215820000e+000) (19, -1.95873374938964840000e+001) (20, -1.29387416839599610000e+001) (21, -1.81974430084228520000e+001) (22, -4.36048221588134770000e+000) (23, -1.94167175292968750000e+001) (24, -1.86506233215332030000e+001) (25, -1.79414520263671870000e+001) (26, -1.86848964691162110000e+001) (27, -1.01667559146881100000e+000) (28, -1.96099395751953130000e+001) (29, -1.94195003509521480000e+001) (30, 6.21738955378532410000e-002) (31, -1.96225929260253910000e+001) (11, -1.45953027531504630000e-002) (12, -9.69853162765502930000e-001) (13, -1.99385948181152340000e+001) (14, -2.26778411865234370000e+000) (15, -1.60753860473632810000e+001) (16, -1.54142007827758790000e+001) (17, -1.90612201690673830000e+001) (18, -5.01991748809814450000e+000) (19, -1.91261844635009770000e+001) (20, -1.23371858596801760000e+001) (21, -1.92101383209228520000e+001) (22, -4.27378129959106450000e+000) (23, -1.91930732727050780000e+001) (24, -1.90915298461914060000e+001) (25, -1.82877597808837890000e+001) (26, -1.95669994354248050000e+001) (27, -1.41205108165740970000e+000) (28, -1.95865440368652340000e+001) (29, -1.94949092864990230000e+001) (30, -5.51404178142547610000e-001) (31, -1.95144138336181640000e+001) (11, 1.40794634819030760000e-001) (12, -2.50247091054916380000e-001) (13, -1.88760147094726560000e+001) (14, -2.06847047805786130000e+000) (15, -1.59294643402099610000e+001) (16, -1.53524475097656250000e+001) (17, -1.90270462036132810000e+001) (18, -4.78299713134765620000e+000) (19, -1.96439495086669920000e+001) (20, -1.29361505508422850000e+001) (21, -1.85514984130859370000e+001) (22, -4.33933496475219730000e+000) (23, -1.87941875457763670000e+001) (24, -1.93558330535888670000e+001) (25, -1.82722892761230470000e+001) (26, -1.91065387725830080000e+001) (27, -1.60020267963409420000e+000) (28, -1.92902565002441410000e+001) (29, -1.96703929901123050000e+001) (30, 2.14857347309589390000e-002) (31, -1.98972663879394530000e+001) (11, -4.28890705108642580000e-001) (12, -2.02938890457153320000e+000) (13, -1.96025142669677730000e+001) (14, -3.71404409408569340000e+000) (15, -1.57524986267089840000e+001) (16, -1.53037643432617190000e+001) (17, -1.75989189147949220000e+001) (18, -4.42196464538574220000e+000) (19, -2.04571800231933590000e+001) (20, -1.26270418167114260000e+001) (21, -1.96379680633544920000e+001) (22, -3.59698677062988280000e+000) (23, -1.97375125885009770000e+001) (24, -2.03007507324218750000e+001) (25, -1.65093765258789060000e+001) (26, -1.96711521148681640000e+001) (27, -3.40078973770141600000e+000) (28, -1.97430477142333980000e+001) (29, -2.02671489715576170000e+001) (30, 1.05798467993736270000e-001) (31, -1.98394508361816410000e+001) (11, 4.98530745506286620000e-001) (12, -9.99999225139617920000e-001) (13, -1.92147178649902340000e+001) (14, -1.89682114124298100000e+000) (15, -1.63193168640136720000e+001) (16, -1.55398101806640630000e+001) (17, -1.83533210754394530000e+001) (18, -4.17197513580322270000e+000) (19, -1.97077445983886720000e+001) (20, -1.23542137145996090000e+001) (21, -1.87023410797119140000e+001) (22, -4.23468780517578120000e+000) (23, -1.89717655181884770000e+001) (24, -1.91356716156005860000e+001) (25, -1.84940223693847660000e+001) (26, -1.91933841705322270000e+001) (27, -1.62684881687164310000e+000) (28, -1.92280235290527340000e+001) (29, -1.89887523651123050000e+001) (30, -4.23633992671966550000e-001) (31, -1.89176349639892580000e+001) (11, 2.09548100829124450000e-001) (12, -7.91794359683990480000e-001) (13, -1.91324863433837890000e+001) (14, -2.67181348800659180000e+000) (15, -1.58950204849243160000e+001) (16, -1.47356891632080080000e+001) (17, -1.85842628479003910000e+001) (18, -4.36787128448486330000e+000) (19, -1.94678363800048830000e+001) (20, -1.20781421661376950000e+001) (21, -1.96168041229248050000e+001) (22, -4.16718292236328120000e+000) (23, -1.91057338714599610000e+001) (24, -1.99570064544677730000e+001) (25, -1.81228466033935550000e+001) (26, -1.96227397918701170000e+001) (27, -1.73087358474731450000e+000) (28, -1.96454792022705080000e+001) (29, -1.98298645019531250000e+001) (30, 9.89338457584381100000e-002) (31, -1.96163368225097660000e+001) (11, -3.92241299152374270000e-001) (12, -2.18855452537536620000e+000) (13, -2.03427276611328130000e+001) (14, -4.07371473312377930000e+000) (15, -1.53786258697509770000e+001) (16, -1.48397521972656250000e+001) (17, -1.67407665252685550000e+001) (18, -4.08320426940917970000e+000) (19, -2.02178554534912110000e+001) (20, -1.25128993988037110000e+001) (21, -1.99040126800537110000e+001) (22, -4.31161165237426760000e+000) (23, -1.97245407104492190000e+001) (24, -1.95507831573486330000e+001) (25, -1.59819002151489260000e+001) (26, -1.99464378356933590000e+001) (27, -3.29904079437255860000e+000) (28, -2.00594005584716800000e+001) (29, -1.94870414733886720000e+001) (30, -5.22495917975902560000e-002) (31, -1.99884338378906250000e+001) (11, 3.47133815288543700000e-001) (12, -5.48377586528658870000e-003) (13, -1.90197887420654300000e+001) (14, -3.30850219726562500000e+000) (15, -1.57513809204101560000e+001) (16, -1.50513954162597660000e+001) (17, -1.91444873809814450000e+001) (18, -4.06047391891479490000e+000) (19, -1.93006114959716800000e+001) (20, -1.23089952468872070000e+001) (21, -1.92368125915527340000e+001) (22, -3.79243683815002440000e+000) (23, -1.91163444519042970000e+001) (24, -1.95975914001464840000e+001) (25, -1.78044738769531250000e+001) (26, -1.95308380126953130000e+001) (27, -7.86679565906524660000e-001) (28, -1.93487224578857420000e+001) (29, -1.94075508117675780000e+001) (30, 1.48469939827919010000e-001) (31, -1.98490581512451170000e+001) (11, -7.80605301260948180000e-002) (12, -1.75595009326934810000e+000) (13, -1.92557659149169920000e+001) (14, -2.83932423591613770000e+000) (15, -1.53710565567016600000e+001) (16, -1.54855937957763670000e+001) (17, -1.74540157318115230000e+001) (18, -4.38288593292236330000e+000) (19, -2.00951633453369140000e+001) (20, -1.25292224884033200000e+001) (21, -1.98182754516601560000e+001) (22, -4.37752056121826170000e+000) (23, -1.94053134918212890000e+001) (24, -1.94855995178222660000e+001) (25, -1.76267776489257810000e+001) (26, -1.91581211090087890000e+001) (27, -2.16762447357177730000e+000) (28, -1.97275352478027340000e+001) (29, -1.99143695831298830000e+001) (30, -4.17045801877975460000e-001) (31, -2.00878505706787110000e+001) (32, 7.50401556491851810000e-001) (33, 6.28778457641601560000e-001) (34, 5.31952679157257080000e-001) (35, 6.96268975734710690000e-001) (36, 7.70212531089782710000e-001) (37, 5.35845935344696040000e-001) (38, 5.64307332038879390000e-001) (39, 4.30974185466766360000e-001) (40, 4.88752603530883790000e-001) (41, 5.45713305473327640000e-001) (42, 3.44177007675170900000e-001) (43, 5.11368870735168460000e-001) (44, 7.30513989925384520000e-001) (45, 5.09941339492797850000e-001) (46, 6.01727068424224850000e-001) (47, 9.06575441360473630000e-001) (48, 7.64380455017089840000e-001) (49, 5.61013400554656980000e-001) (50, 1.97295141220092770000e+000) (32, -2.71446198225021360000e-001) (33, 1.95174381136894230000e-001) (34, 3.53072911500930790000e-001) (35, 4.47987705469131470000e-001) (36, -3.51086854934692380000e-001) (37, -3.05880546569824220000e-001) (38, -1.14440135657787320000e-001) (39, -4.00773167610168460000e-001) (40, -3.76799821853637700000e-001) (41, -2.09773004055023190000e-001) (42, 2.32887357473373410000e-001) (43, 1.84338629245758060000e-001) (44, 4.76262599229812620000e-001) (45, -1.40878051519393920000e-001) (46, 6.22376799583435060000e-002) (47, -3.79613399505615230000e-001) (48, -2.99155682325363160000e-001) (49, 9.75797027349472050000e-002) (50, 2.96734995208680630000e-003) 
