FANN_FLO_2.1
num_layers=4
learning_rate=0.700000
connection_rate=1.000000
network_type=0
learning_momentum=0.000000
training_algorithm=2
train_error_function=1
train_stop_function=0
cascade_output_change_fraction=0.010000
quickprop_decay=-0.000100
quickprop_mu=1.750000
rprop_increase_factor=1.200000
rprop_decrease_factor=0.500000
rprop_delta_min=0.000000
rprop_delta_max=50.000000
rprop_delta_zero=0.100000
cascade_output_stagnation_epochs=12
cascade_candidate_change_fraction=0.010000
cascade_candidate_stagnation_epochs=12
cascade_max_out_epochs=150
cascade_max_cand_epochs=150
cascade_num_candidate_groups=2
bit_fail_limit=3.49999994039535520000e-001
cascade_candidate_limit=1.00000000000000000000e+003
cascade_weight_multiplier=4.00000005960464480000e-001
cascade_activation_functions_count=10
cascade_activation_functions=3 5 7 8 10 11 14 15 16 17 
cascade_activation_steepnesses_count=4
cascade_activation_steepnesses=2.50000000000000000000e-001 5.00000000000000000000e-001 7.50000000000000000000e-001 1.00000000000000000000e+000 
layer_sizes=11 67 45 3 
scale_included=0
neurons (num_inputs, activation_function, activation_steepness)=(0, 0, 0.00000000000000000000e+000) (0, 0, 0.00000000000000000000e+000) (0, 0, 0.00000000000000000000e+000) (0, 0, 0.00000000000000000000e+000) (0, 0, 0.00000000000000000000e+000) (0, 0, 0.00000000000000000000e+000) (0, 0, 0.00000000000000000000e+000) (0, 0, 0.00000000000000000000e+000) (0, 0, 0.00000000000000000000e+000) (0, 0, 0.00000000000000000000e+000) (0, 0, 0.00000000000000000000e+000) (11, 10, 5.00000000000000000000e-001) (11, 10, 5.00000000000000000000e-001) (11, 10, 5.00000000000000000000e-001) (11, 10, 5.00000000000000000000e-001) (11, 10, 5.00000000000000000000e-001) (11, 10, 5.00000000000000000000e-001) (11, 10, 5.00000000000000000000e-001) (11, 10, 5.00000000000000000000e-001) (11, 10, 5.00000000000000000000e-001) (11, 10, 5.00000000000000000000e-001) (11, 10, 5.00000000000000000000e-001) (11, 10, 5.00000000000000000000e-001) (11, 10, 5.00000000000000000000e-001) (11, 10, 5.00000000000000000000e-001) (11, 10, 5.00000000000000000000e-001) (11, 10, 5.00000000000000000000e-001) (11, 10, 5.00000000000000000000e-001) (11, 10, 5.00000000000000000000e-001) (11, 10, 5.00000000000000000000e-001) (11, 10, 5.00000000000000000000e-001) (11, 10, 5.00000000000000000000e-001) (11, 10, 5.00000000000000000000e-001) (11, 10, 5.00000000000000000000e-001) (11, 10, 5.00000000000000000000e-001) (11, 10, 5.00000000000000000000e-001) (11, 10, 5.00000000000000000000e-001) (11, 10, 5.00000000000000000000e-001) (11, 10, 5.00000000000000000000e-001) (11, 10, 5.00000000000000000000e-001) (11, 10, 5.00000000000000000000e-001) (11, 10, 5.00000000000000000000e-001) (11, 10, 5.00000000000000000000e-001) (11, 10, 5.00000000000000000000e-001) (11, 10, 5.00000000000000000000e-001) (11, 10, 5.00000000000000000000e-001) (11, 10, 5.00000000000000000000e-001) (11, 10, 5.00000000000000000000e-001) (11, 10, 5.00000000000000000000e-001) (11, 10, 5.00000000000000000000e-001) (11, 10, 5.00000000000000000000e-001) (11, 10, 5.00000000000000000000e-001) (11, 10, 5.00000000000000000000e-001) (11, 10, 5.00000000000000000000e-001) (11, 10, 5.00000000000000000000e-001) (11, 10, 5.00000000000000000000e-001) (11, 10, 5.00000000000000000000e-001) (11, 10, 5.00000000000000000000e-001) (11, 10, 5.00000000000000000000e-001) (11, 10, 5.00000000000000000000e-001) (11, 10, 5.00000000000000000000e-001) (11, 10, 5.00000000000000000000e-001) (11, 10, 5.00000000000000000000e-001) (11, 10, 5.00000000000000000000e-001) (11, 10, 5.00000000000000000000e-001) (11, 10, 5.00000000000000000000e-001) (11, 10, 5.00000000000000000000e-001) (11, 10, 5.00000000000000000000e-001) (11, 10, 5.00000000000000000000e-001) (11, 10, 5.00000000000000000000e-001) (11, 10, 5.00000000000000000000e-001) (11, 10, 5.00000000000000000000e-001) (11, 10, 5.00000000000000000000e-001) (11, 10, 5.00000000000000000000e-001) (11, 10, 5.00000000000000000000e-001) (11, 10, 5.00000000000000000000e-001) (11, 10, 5.00000000000000000000e-001) (0, 10, 5.00000000000000000000e-001) (67, 10, 5.00000000000000000000e-001) (67, 10, 5.00000000000000000000e-001) (67, 10, 5.00000000000000000000e-001) (67, 10, 5.00000000000000000000e-001) (67, 10, 5.00000000000000000000e-001) (67, 10, 5.00000000000000000000e-001) (67, 10, 5.00000000000000000000e-001) (67, 10, 5.00000000000000000000e-001) (67, 10, 5.00000000000000000000e-001) (67, 10, 5.00000000000000000000e-001) (67, 10, 5.00000000000000000000e-001) (67, 10, 5.00000000000000000000e-001) (67, 10, 5.00000000000000000000e-001) (67, 10, 5.00000000000000000000e-001) (67, 10, 5.00000000000000000000e-001) (67, 10, 5.00000000000000000000e-001) (67, 10, 5.00000000000000000000e-001) (67, 10, 5.00000000000000000000e-001) (67, 10, 5.00000000000000000000e-001) (67, 10, 5.00000000000000000000e-001) (67, 10, 5.00000000000000000000e-001) (67, 10, 5.00000000000000000000e-001) (67, 10, 5.00000000000000000000e-001) (67, 10, 5.00000000000000000000e-001) (67, 10, 5.00000000000000000000e-001) (67, 10, 5.00000000000000000000e-001) (67, 10, 5.00000000000000000000e-001) (67, 10, 5.00000000000000000000e-001) (67, 10, 5.00000000000000000000e-001) (67, 10, 5.00000000000000000000e-001) (67, 10, 5.00000000000000000000e-001) (67, 10, 5.00000000000000000000e-001) (67, 10, 5.00000000000000000000e-001) (67, 10, 5.00000000000000000000e-001) (67, 10, 5.00000000000000000000e-001) (67, 10, 5.00000000000000000000e-001) (67, 10, 5.00000000000000000000e-001) (67, 10, 5.00000000000000000000e-001) (67, 10, 5.00000000000000000000e-001) (67, 10, 5.00000000000000000000e-001) (67, 10, 5.00000000000000000000e-001) (67, 10, 5.00000000000000000000e-001) (67, 10, 5.00000000000000000000e-001) (67, 10, 5.00000000000000000000e-001) (0, 10, 5.00000000000000000000e-001) (45, 0, 5.00000000000000000000e-001) (45, 0, 5.00000000000000000000e-001) (0, 0, 5.00000000000000000000e-001) 
connections (connected_to_neuron, weight)=(0, 3.17698836326599120000e-001) (1, 1.03398764133453370000e+000) (2, -3.36010634899139400000e-001) (3, 1.12699940800666810000e-001) (4, 7.40182876586914060000e-001) (5, 1.38382256031036380000e+000) (6, 1.90149652957916260000e+000) (7, -8.75504091382026670000e-002) (8, 1.89148020744323730000e+000) (9, 1.77449798583984370000e+000) (10, 4.88904923200607300000e-001) (0, -2.13635101914405820000e-001) (1, 7.87928462028503420000e-001) (2, -1.01858749985694890000e-001) (3, 3.62803846597671510000e-001) (4, 2.34946861863136290000e-001) (5, 6.14934384822845460000e-001) (6, 5.07182776927948000000e-001) (7, 4.04523342847824100000e-001) (8, 1.60642373561859130000e+000) (9, 8.77634644508361820000e-001) (10, 8.76880139112472530000e-002) (0, 2.71789431571960450000e-001) (1, 1.59842813014984130000e+000) (2, 4.97119873762130740000e-001) (3, 5.23980557918548580000e-001) (4, 1.74110811203718190000e-002) (5, 1.60277485847473140000e+000) (6, 7.65090703964233400000e-001) (7, 5.90366721153259280000e-001) (8, 2.17361402511596680000e+000) (9, 1.15853786468505860000e+000) (10, 1.79942175745964050000e-001) (0, -1.58386468887329100000e-001) (1, -1.55381786823272710000e+000) (2, 2.11214616894721980000e-001) (3, 4.57678854465484620000e-001) (4, -9.41675066947937010000e-001) (5, -1.56651175022125240000e+000) (6, -2.11020255088806150000e+000) (7, 1.86321690678596500000e-001) (8, -1.76367774605751040000e-001) (9, -2.34675621986389160000e+000) (10, -1.97740674018859860000e-001) (0, 4.31615829467773440000e-001) (1, 1.51547086238861080000e+000) (2, 6.64187669754028320000e-001) (3, 3.80242913961410520000e-001) (4, 2.00157865881919860000e-001) (5, 6.84458613395690920000e-001) (6, 1.03874838352203370000e+000) (7, -2.43229076266288760000e-001) (8, 2.39592313766479490000e+000) (9, 8.13814103603363040000e-001) (10, -3.39375764131546020000e-001) (0, -2.83677130937576290000e-001) (1, -4.22086328268051150000e-001) (2, -5.11230826377868650000e-001) (3, 2.59178131818771360000e-001) (4, -3.46849113702774050000e-001) (5, -4.57947373390197750000e-001) (6, -3.93734484910964970000e-001) (7, -4.54592198133468630000e-001) (8, -2.53913819789886470000e-001) (9, -3.07190030813217160000e-001) (10, -3.27162235975265500000e-001) (0, 8.35490152239799500000e-002) (1, 1.03305733203887940000e+000) (2, 5.17541766166687010000e-001) (3, 4.49837207794189450000e-001) (4, 5.96893548965454100000e-001) (5, 1.07511043548583980000e+000) (6, 1.39639091491699220000e+000) (7, 2.31211148202419280000e-002) (8, 2.36385321617126460000e+000) (9, 6.78139269351959230000e-001) (10, -2.34603464603424070000e-001) (0, -2.91398197412490840000e-001) (1, 1.24653422832489010000e+000) (2, 5.86166143417358400000e-001) (3, 2.48683840036392210000e-001) (4, 7.28552103042602540000e-001) (5, 9.85751688480377200000e-001) (6, 1.07034718990325930000e+000) (7, 3.95765274763107300000e-001) (8, 2.22687482833862300000e+000) (9, 9.57515537738800050000e-001) (10, -1.22080650180578230000e-002) (0, -8.37164893746376040000e-002) (1, 3.00805497169494630000e+000) (2, 3.19496703147888180000e+000) (3, 5.65564185380935670000e-002) (4, 1.53852605819702150000e+000) (5, 3.21104621887207030000e+000) (6, 2.24081063270568850000e+000) (7, 4.32928139343857770000e-003) (8, 2.32586526870727540000e+000) (9, 8.46581518650054930000e-001) (10, 1.31115123629570010000e-001) (0, -2.79931336641311650000e-001) (1, 1.08140075206756590000e+000) (2, 5.08758544921875000000e-001) (3, 1.47168235853314400000e-002) (4, 4.71732378005981450000e-001) (5, 5.24763822555541990000e-001) (6, 1.34105837345123290000e+000) (7, -2.48048737645149230000e-001) (8, 2.01213431358337400000e+000) (9, 7.84970462322235110000e-001) (10, 1.63504540920257570000e-001) (0, 9.42232981324195860000e-002) (1, 1.43539428710937500000e+000) (2, 3.36641937494277950000e-001) (3, 4.05590891838073730000e-001) (4, 6.09087467193603520000e-001) (5, 1.01375067234039310000e+000) (6, 1.20437836647033690000e+000) (7, 2.99315840005874630000e-001) (8, 2.20316934585571290000e+000) (9, 6.62108361721038820000e-001) (10, 2.47274972498416900000e-002) (0, -9.54735949635505680000e-002) (1, -6.48946046829223630000e-001) (2, -1.36085510253906250000e+000) (3, 2.53724469803273680000e-003) (4, -1.74033537507057190000e-001) (5, -1.47842073440551760000e+000) (6, -1.13749921321868900000e+000) (7, -4.77174848318099980000e-001) (8, -1.13124519586563110000e-001) (9, -1.26534914970397950000e+000) (10, -1.21053181588649750000e-001) (0, -6.67097792029380800000e-002) (1, 9.63820159435272220000e-001) (2, 1.42447263002395630000e-001) (3, 3.51445615291595460000e-001) (4, 9.28118675947189330000e-002) (5, 8.76394867897033690000e-001) (6, 8.40661585330963130000e-001) (7, 3.51888537406921390000e-001) (8, 2.51276755332946780000e+000) (9, 2.55381643772125240000e-001) (10, -7.65218958258628850000e-002) (0, 2.39683568477630620000e-001) (1, 1.40212523937225340000e+000) (2, 5.16026139259338380000e-001) (3, 8.80508124828338620000e-001) (4, -1.16335775237530470000e-003) (5, 8.12078893184661870000e-001) (6, 1.04051232337951660000e+000) (7, 1.77060775458812710000e-002) (8, 2.44197273254394530000e+000) (9, 6.66471779346466060000e-001) (10, -3.99067938327789310000e-001) (0, -2.53124862909317020000e-001) (1, 8.26194882392883300000e-001) (2, -1.79948255419731140000e-001) (3, 2.52454906702041630000e-001) (4, 6.70303821563720700000e-001) (5, 1.48266941308975220000e-001) (6, 8.43850135803222660000e-001) (7, 2.13298976421356200000e-001) (8, 1.29988288879394530000e+000) (9, 6.26397132873535160000e-001) (10, 4.07551467418670650000e-001) (0, -4.05481934547424320000e-001) (1, -7.78691530227661130000e-001) (2, -3.20356696844100950000e-001) (3, -4.47958558797836300000e-001) (4, -1.25794842839241030000e-001) (5, 4.16523665189743040000e-002) (6, -5.34229397773742680000e-001) (7, -2.06673536449670790000e-002) (8, -4.65297192335128780000e-001) (9, -3.24547559022903440000e-001) (10, 6.99740648269653320000e-002) (0, 3.76516282558441160000e-001) (1, 7.52013996243476870000e-002) (2, 1.19322323799133300000e+000) (3, 7.07651913166046140000e-001) (4, 1.41806125640869140000e+000) (5, 3.85376238822937010000e+000) (6, -1.11177587509155270000e+000) (7, -4.51035976409912110000e-001) (8, 1.04289793968200680000e+000) (9, 1.95602071285247800000e+000) (10, 1.69795881956815720000e-002) (0, -1.36566951870918270000e-001) (1, 1.41216313838958740000e+000) (2, 4.03680354356765750000e-001) (3, 2.02246069908142090000e-001) (4, 6.47044301033020020000e-001) (5, 7.33974277973175050000e-001) (6, 1.41202902793884280000e+000) (7, 1.78776934742927550000e-001) (8, 2.21516489982604980000e+000) (9, 7.56347239017486570000e-001) (10, 8.01901072263717650000e-002) (0, -4.64459955692291260000e-001) (1, 1.24074649810791020000e+000) (2, 8.24744760990142820000e-001) (3, 6.41343235969543460000e-001) (4, 5.03926873207092290000e-001) (5, 5.23428201675415040000e-001) (6, 9.05744731426239010000e-001) (7, 8.35878625512123110000e-002) (8, 2.60093617439270020000e+000) (9, 9.29793834686279300000e-001) (10, -3.70867013931274410000e-001) (0, 1.69132485985755920000e-001) (1, 1.74793636798858640000e+000) (2, 1.09445810317993160000e+000) (3, 1.94786787033081050000e-002) (4, 2.15323135256767270000e-001) (5, 8.48186194896698000000e-001) (6, 7.75425970554351810000e-001) (7, 2.39212229847908020000e-001) (8, 2.38987231254577640000e+000) (9, 3.93515467643737790000e-001) (10, -1.39516487717628480000e-001) (0, -3.36216166615486150000e-002) (1, 1.57270920276641850000e+000) (2, 8.08492302894592290000e-001) (3, 2.01257705688476560000e-001) (4, 3.30623030662536620000e-001) (5, 8.45738649368286130000e-001) (6, 7.47922420501708980000e-001) (7, -6.00120015442371370000e-002) (8, 2.29346680641174320000e+000) (9, 7.63328373432159420000e-001) (10, -3.41690719127655030000e-001) (0, 1.34866833686828610000e-001) (1, 2.86022877693176270000e+000) (2, 2.77150177955627440000e+000) (3, 1.14187300205230710000e-001) (4, 1.38280081748962400000e+000) (5, 1.92488908767700200000e+000) (6, 1.27429878711700440000e+000) (7, 9.09396111965179440000e-002) (8, 1.67561399936676030000e+000) (9, 8.01728904247283940000e-001) (10, 4.69836920499801640000e-001) (0, 4.57836210727691650000e-001) (1, 1.32572185993194580000e+000) (2, 2.36980617046356200000e-001) (3, 7.32534825801849370000e-001) (4, 2.88280963897705080000e-001) (5, 9.33839619159698490000e-001) (6, 1.40809488296508790000e+000) (7, 1.12446412444114690000e-001) (8, 2.16415739059448240000e+000) (9, 6.55461966991424560000e-001) (10, -1.08394846320152280000e-001) (0, -3.42321619391441350000e-002) (1, -9.35311913490295410000e-001) (2, -1.11030030250549320000e+000) (3, 1.53410255908966060000e-001) (4, -9.59366500377655030000e-001) (5, -1.44448935985565190000e-001) (6, -8.47641408443450930000e-001) (7, -2.14237779378890990000e-001) (8, -7.68479704856872560000e-003) (9, 1.86707317829132080000e-001) (10, -3.19740980863571170000e-001) (0, 1.93754408974200490000e-003) (1, 1.03348898887634280000e+000) (2, -1.56930461525917050000e-001) (3, 5.32753646373748780000e-001) (4, -1.82580992579460140000e-001) (5, -1.02191314101219180000e-001) (6, 8.17564308643341060000e-001) (7, 5.77248446643352510000e-002) (8, 9.09679174423217770000e-001) (9, 6.42330586910247800000e-001) (10, -3.46747428178787230000e-001) (0, 2.90321201086044310000e-001) (1, 1.33428931236267090000e+000) (2, 6.96081042289733890000e-001) (3, 6.94607138633728030000e-001) (4, 1.33015722036361690000e-001) (5, 9.99394416809082030000e-001) (6, 1.02684926986694340000e+000) (7, -3.06580185890197750000e-001) (8, 2.60524010658264160000e+000) (9, 6.88794434070587160000e-001) (10, -2.61037766933441160000e-001) (0, -1.62471637129783630000e-001) (1, 1.07795941829681400000e+000) (2, 7.54967033863067630000e-001) (3, 7.64943122863769530000e-001) (4, 5.46039700508117680000e-001) (5, 6.08669724897481500000e-005) (6, 1.16541874408721920000e+000) (7, 1.97553649544715880000e-001) (8, 2.19572186470031740000e+000) (9, 1.02307331562042240000e+000) (10, -6.12911432981491090000e-002) (0, 4.96532827615737920000e-001) (1, -6.17897093296051030000e-001) (2, -3.82862985134124760000e-001) (3, -7.37733244895935060000e-002) (4, 1.78695827722549440000e-001) (5, 6.84136599302291870000e-002) (6, -5.89683532714843750000e-001) (7, -7.21420422196388240000e-002) (8, -1.70047298073768620000e-001) (9, 1.75170472357422110000e-003) (10, -2.26393938064575200000e-001) (0, -3.55151951313018800000e-001) (1, -7.46873140335083010000e-001) (2, -1.03213417530059810000e+000) (3, 1.57167851924896240000e-001) (4, -4.93160411715507510000e-002) (5, -4.20392066240310670000e-001) (6, -7.74507701396942140000e-001) (7, 4.32682514190673830000e-001) (8, 2.23407242447137830000e-002) (9, 1.51435956358909610000e-001) (10, 1.43461480736732480000e-001) (0, 2.64621526002883910000e-001) (1, 1.70545482635498050000e+000) (2, 8.81707966327667240000e-001) (3, 1.14029981195926670000e-001) (4, 6.38545826077461240000e-002) (5, 8.11309337615966800000e-001) (6, 8.35994899272918700000e-001) (7, -4.78588556870818140000e-003) (8, 2.18609690666198730000e+000) (9, 1.20769274234771730000e+000) (10, 2.31606006622314450000e-001) (0, -2.54303306341171260000e-001) (1, 1.23959457874298100000e+000) (2, 8.08922052383422850000e-001) (3, 3.57130974531173710000e-001) (4, 8.32221627235412600000e-001) (5, 8.84368658065795900000e-001) (6, 9.22991573810577390000e-001) (7, -1.41832962632179260000e-001) (8, 2.18894362449646000000e+000) (9, 1.07843148708343510000e+000) (10, 4.63528698310256000000e-003) (0, -6.57034367322921750000e-002) (1, 1.55915355682373050000e+000) (2, -9.96196419000625610000e-002) (3, 1.66419655084609990000e-001) (4, 9.60318505764007570000e-001) (5, 6.67259454727172850000e-001) (6, 1.20602405071258540000e+000) (7, 3.61483208835124970000e-002) (8, 2.06336307525634770000e+000) (9, 1.39096081256866460000e+000) (10, 5.12800663709640500000e-002) (0, -4.05033469200134280000e-001) (1, 1.80027639865875240000e+000) (2, 6.29568576812744140000e-001) (3, 3.50183457136154170000e-001) (4, 2.39065170288085940000e-001) (5, 7.83993303775787350000e-001) (6, 1.09608221054077150000e+000) (7, 4.42039728164672850000e-001) (8, 2.28359889984130860000e+000) (9, 6.60509526729583740000e-001) (10, 3.42122435569763180000e-001) (0, 5.68272583186626430000e-002) (1, 1.36670982837677000000e+000) (2, 1.11714923381805420000e+000) (3, 8.23224559426307680000e-002) (4, 6.31177842617034910000e-001) (5, 9.78662788867950440000e-001) (6, 1.15830779075622560000e+000) (7, 3.14356178045272830000e-001) (8, 2.37607908248901370000e+000) (9, 8.21555376052856450000e-001) (10, 1.76489964127540590000e-001) (0, -3.73360030353069310000e-002) (1, 1.98561263084411620000e+000) (2, 5.63239812850952150000e-001) (3, -3.23408573865890500000e-001) (4, 1.24675619602203370000e+000) (5, 1.21146261692047120000e+000) (6, 1.69682800769805910000e+000) (7, -1.64840185642242430000e+000) (8, 2.63714456558227540000e+000) (9, 1.23546874523162840000e+000) (10, 3.45883041620254520000e-001) (0, -3.18834115751087670000e-003) (1, 1.21648895740509030000e+000) (2, 4.10672456026077270000e-001) (3, 4.74078536033630370000e-001) (4, 5.81961452960968020000e-001) (5, -1.19314976036548610000e-001) (6, 1.43728506565093990000e+000) (7, -3.32107573747634890000e-001) (8, 1.93089914321899410000e+000) (9, 1.57077062129974370000e+000) (10, -1.68430149555206300000e-001) (0, 1.96224190294742580000e-002) (1, 1.43826794624328610000e+000) (2, -6.58930018544197080000e-002) (3, 5.51276564598083500000e-001) (4, 1.85793384909629820000e-001) (5, 6.92977964878082280000e-001) (6, 1.34052407741546630000e+000) (7, -4.16234165430068970000e-001) (8, 1.89826834201812740000e+000) (9, 5.91051995754241940000e-001) (10, -2.00677290558815000000e-001) (0, -1.71898797154426570000e-001) (1, 9.04630541801452640000e-001) (2, 2.99878060817718510000e-001) (3, 6.36525154113769530000e-001) (4, 5.34978687763214110000e-001) (5, 4.45650726556777950000e-001) (6, 1.63450920581817630000e+000) (7, 2.50795751810073850000e-001) (8, 2.05765748023986820000e+000) (9, 4.55326586961746220000e-001) (10, 1.07711352407932280000e-001) (0, -2.97710329294204710000e-001) (1, 9.89840209484100340000e-001) (2, 7.59969472885131840000e-001) (3, 3.47552925348281860000e-001) (4, 3.57857823371887210000e-001) (5, 3.36074322462081910000e-001) (6, 5.35660505294799800000e-001) (7, 5.23978769779205320000e-001) (8, 2.23726010322570800000e+000) (9, 3.44218790531158450000e-001) (10, 2.21346706151962280000e-001) (0, 1.53724029660224910000e-001) (1, 1.63478434085845950000e+000) (2, 4.90698933601379390000e-001) (3, 7.27513954043388370000e-002) (4, 8.13227891921997070000e-001) (5, 8.30195844173431400000e-001) (6, 1.22924816608428960000e+000) (7, -2.72633433341979980000e-001) (8, 2.34843802452087400000e+000) (9, 5.40273785591125490000e-001) (10, -4.79293107986450200000e-001) (0, 4.91825461387634280000e-001) (1, 1.31127214431762700000e+000) (2, 1.98751896619796750000e-001) (3, 4.73378688097000120000e-001) (4, 9.57363069057464600000e-001) (5, 7.01366186141967770000e-001) (6, 9.39920783042907710000e-001) (7, 4.47501689195632930000e-002) (8, 1.95752763748168950000e+000) (9, 7.18957602977752690000e-001) (10, 9.39269512891769410000e-002) (0, -2.60271042585372920000e-001) (1, 1.07860255241394040000e+000) (2, 7.67603695392608640000e-001) (3, 2.94108182191848750000e-001) (4, 6.36228919029235840000e-002) (5, 8.70345950126647950000e-001) (6, 1.06666779518127440000e+000) (7, -1.77600592374801640000e-001) (8, 2.10221910476684570000e+000) (9, 7.78246164321899410000e-001) (10, -3.18355679512023930000e-001) (0, 1.81083709001541140000e-001) (1, 1.64415323734283450000e+000) (2, 1.49545297026634220000e-001) (3, 3.02061349153518680000e-001) (4, 1.27413481473922730000e-001) (5, 8.54104012250900270000e-002) (6, 1.21305298805236820000e+000) (7, 4.26450759172439580000e-001) (8, 2.17215204238891600000e+000) (9, 7.59022295475006100000e-001) (10, 3.09863209724426270000e-001) (0, 1.60953685641288760000e-001) (1, 2.53596162796020510000e+000) (2, -8.12092646956443790000e-002) (3, 1.54816359281539920000e-001) (4, 1.20677888393402100000e+000) (5, 2.23733615875244140000e+000) (6, 1.86828196048736570000e+000) (7, -2.91427165269851680000e-001) (8, 2.52394628524780270000e+000) (9, 2.00006437301635740000e+000) (10, 2.22973898053169250000e-001) (0, -4.34721447527408600000e-002) (1, 1.43145930767059330000e+000) (2, 8.20693194866180420000e-001) (3, 6.41349434852600100000e-001) (4, 3.25168758630752560000e-001) (5, 8.37056457996368410000e-001) (6, 9.18142139911651610000e-001) (7, 2.98367053270339970000e-001) (8, 2.24308729171752930000e+000) (9, 7.25226283073425290000e-001) (10, 1.65283545851707460000e-001) (0, -7.69283901900053020000e-003) (1, -3.62278318405151370000e+000) (2, -3.38566327095031740000e+000) (3, -1.15317724645137790000e-001) (4, -1.49728953838348390000e+000) (5, -2.98236846923828130000e+000) (6, -2.29197144508361820000e+000) (7, -4.83192771673202510000e-001) (8, 7.99912437796592710000e-002) (9, -7.57441282272338870000e-001) (10, 7.52360448241233830000e-002) (0, -5.15166707336902620000e-002) (1, 1.55605554580688480000e+000) (2, 2.64414101839065550000e-001) (3, 4.51903969049453740000e-001) (4, 3.09662997722625730000e-001) (5, 5.52001476287841800000e-001) (6, 1.00786447525024410000e+000) (7, -7.24602043628692630000e-002) (8, 2.25395512580871580000e+000) (9, 6.41745865345001220000e-001) (10, 1.35359764099121090000e-001) (0, -3.77242714166641240000e-001) (1, 1.23920416831970210000e+000) (2, 5.37361979484558110000e-001) (3, 5.40139973163604740000e-001) (4, 5.47367990016937260000e-001) (5, 9.29834663867950440000e-001) (6, 1.04119336605072020000e+000) (7, 4.43125128746032710000e-001) (8, 2.32203650474548340000e+000) (9, 9.44826424121856690000e-001) (10, -2.14044943451881410000e-001) (0, 3.11661899089813230000e-001) (1, 1.09400629997253420000e+000) (2, 9.28857564926147460000e-001) (3, -6.60108104348182680000e-002) (4, 3.44476580619812010000e-001) (5, 8.60828459262847900000e-001) (6, 9.36792254447937010000e-001) (7, 2.83635467290878300000e-001) (8, 1.98793983459472660000e+000) (9, 1.16990029811859130000e+000) (10, 8.35477560758590700000e-002) (0, 7.86153301596641540000e-002) (1, 1.08280420303344730000e+000) (2, 8.03657591342926030000e-001) (3, -6.86417445540428160000e-002) (4, 3.49214822053909300000e-001) (5, 4.81064200401306150000e-001) (6, 9.56558704376220700000e-001) (7, 1.28581330180168150000e-001) (8, 2.11547517776489260000e+000) (9, 1.26511037349700930000e+000) (10, 7.08086118102073670000e-002) (0, 3.78987759351730350000e-001) (1, 1.88347280025482180000e+000) (2, 1.79993832111358640000e+000) (3, 2.40775167942047120000e-001) (4, 8.32594335079193120000e-001) (5, 1.82051181793212890000e+000) (6, 8.14448654651641850000e-001) (7, 3.26904535293579100000e-001) (8, 1.85354864597320560000e+000) (9, 8.57943177223205570000e-001) (10, -3.74098420143127440000e-001) (0, 1.94680213928222660000e-001) (1, 1.19428515434265140000e+000) (2, 6.97747468948364260000e-001) (3, 5.94837665557861330000e-001) (4, 8.80601286888122560000e-001) (5, 6.21267855167388920000e-001) (6, 1.21169614791870120000e+000) (7, 1.24930910766124730000e-001) (8, 2.34501719474792480000e+000) (9, 6.52060687541961670000e-001) (10, 4.27998393774032590000e-001) (0, -2.70535796880722050000e-001) (1, 1.09063601493835450000e+000) (2, 8.05543899536132810000e-001) (3, 7.19483375549316410000e-001) (4, 1.18565605953335760000e-002) (5, 1.01448249816894530000e+000) (6, 1.32340955734252930000e+000) (7, 4.84445333480834960000e-001) (8, 2.48687481880187990000e+000) (9, 6.57123565673828130000e-001) (10, -1.56144991517066960000e-001) (0, -4.04770463705062870000e-001) (1, 8.52934896945953370000e-001) (2, 1.95695698261260990000e-001) (3, 6.05176389217376710000e-001) (4, 1.87647163867950440000e-001) (5, 9.93370115756988530000e-001) (6, 6.61159634590148930000e-001) (7, -2.23902210593223570000e-001) (8, 2.30871391296386720000e+000) (9, 7.02922701835632320000e-001) (10, 1.15714920684695240000e-002) (0, 1.62335380911827090000e-001) (1, 1.23859727382659910000e+000) (2, 4.84845131635665890000e-001) (3, -3.13414745032787320000e-002) (4, 2.58169680833816530000e-001) (5, 9.79884028434753420000e-001) (6, 1.38899195194244380000e+000) (7, -3.68210166692733760000e-001) (8, 2.29627394676208500000e+000) (9, 8.42752695083618160000e-001) (10, 4.68565881252288820000e-001) (0, 4.87592399120330810000e-001) (1, -3.08378756046295170000e-001) (2, -3.92922818660736080000e-001) (3, 3.13294410705566410000e-001) (4, 4.73850918933749200000e-003) (5, -8.65980759263038640000e-002) (6, -3.45381647348403930000e-001) (7, 3.91688495874404910000e-001) (8, -3.15269261598587040000e-001) (9, 1.06622152030467990000e-001) (10, 1.87349524348974230000e-002) (0, 2.87845611572265630000e-001) (1, -2.37054252624511720000e+000) (2, 4.84093189239501950000e-001) (3, 3.99882674217224120000e-001) (4, -1.56775140762329100000e+000) (5, -2.19849514961242680000e+000) (6, -2.02776885032653810000e+000) (7, 7.33577981591224670000e-002) (8, 1.07628211379051210000e-001) (9, -2.73875999450683590000e+000) (10, -3.23761790990829470000e-001) (0, -2.31365993618965150000e-001) (1, 9.93868350982666020000e-001) (2, 7.94538915157318120000e-001) (3, 5.58940291404724120000e-001) (4, 3.68241935968399050000e-001) (5, 7.21437931060791020000e-001) (6, 1.12458074092864990000e+000) (7, 2.31329768896102910000e-001) (8, 2.55087709426879880000e+000) (9, 1.12800550460815430000e+000) (10, 3.23212668299674990000e-002) (0, -6.00525215268135070000e-002) (1, 1.87542843818664550000e+000) (2, 1.05655598640441890000e+000) (3, 2.20243141055107120000e-001) (4, 1.32252335548400880000e+000) (5, -2.35189214348793030000e-001) (6, 2.69000744819641110000e+000) (7, -1.89002990722656250000e-001) (8, 1.81598424911499020000e+000) (9, 1.29164314270019530000e+000) (10, 2.05658674240112300000e-001) (0, -4.66119378805160520000e-001) (1, 1.44628620147705080000e+000) (2, 5.09414374828338620000e-001) (3, 1.23406924307346340000e-001) (4, 6.47006511688232420000e-001) (5, 8.64156663417816160000e-001) (6, 8.06444764137268070000e-001) (7, 1.87570974230766300000e-001) (8, 2.27631473541259770000e+000) (9, 1.15641200542449950000e+000) (10, 4.81095880270004270000e-001) (0, 1.52904495596885680000e-001) (1, 1.31771910190582280000e+000) (2, 4.10865634679794310000e-001) (3, 7.88995504379272460000e-001) (4, 4.14238065481185910000e-001) (5, 8.86286497116088870000e-001) (6, 8.26758265495300290000e-001) (7, 4.77183789014816280000e-001) (8, 2.35498118400573730000e+000) (9, 1.06090152263641360000e+000) (10, -2.14042171835899350000e-001) (0, -3.22806760668754580000e-002) (1, 1.02440619468688960000e+000) (2, 8.70503187179565430000e-001) (3, 6.44974231719970700000e-001) (4, 7.55162656307220460000e-001) (5, 7.44922697544097900000e-001) (6, 8.45350563526153560000e-001) (7, 2.50680804252624510000e-001) (8, 2.61818361282348630000e+000) (9, 1.06267189979553220000e+000) (10, 1.08798705041408540000e-001) (0, 3.26894789934158330000e-001) (1, 1.29803812503814700000e+000) (2, 5.66862642765045170000e-001) (3, 5.05647361278533940000e-001) (4, 3.35261493921279910000e-001) (5, 8.14181983470916750000e-001) (6, 8.78259122371673580000e-001) (7, 3.08665722608566280000e-001) (8, 2.42857909202575680000e+000) (9, 1.03196096420288090000e+000) (10, -2.26109132170677190000e-001) (0, 9.08997058868408200000e-002) (1, 9.71287310123443600000e-001) (2, 6.17394328117370610000e-001) (3, 1.00375026464462280000e-001) (4, 8.35091650485992430000e-001) (5, 1.18928933143615720000e+000) (6, 1.16165208816528320000e+000) (7, -3.82268339395523070000e-001) (8, 2.50818896293640140000e+000) (9, 9.76316690444946290000e-001) (10, 2.54108428955078130000e-001) (0, 3.86982768774032590000e-001) (1, 1.17621743679046630000e+000) (2, 7.31844067573547360000e-001) (3, 3.23122084140777590000e-001) (4, 1.83899059891700740000e-001) (5, 8.32118332386016850000e-001) (6, 1.26869881153106690000e+000) (7, 2.51267850399017330000e-001) (8, 2.40112257003784180000e+000) (9, 8.46405148506164550000e-001) (10, 3.02451282739639280000e-001) (0, 3.41410040855407710000e-001) (1, 1.55564296245574950000e+000) (2, 3.47578227519989010000e-001) (3, 2.44521811604499820000e-001) (4, 5.60315907001495360000e-001) (5, 8.09292852878570560000e-001) (6, 7.71107435226440430000e-001) (7, -2.07859486341476440000e-001) (8, 2.41889357566833500000e+000) (9, 1.09461653232574460000e+000) (10, -3.66136759519577030000e-001) (11, -7.64348936080932620000e+000) (12, -5.00976896286010740000e+000) (13, -7.16592454910278320000e+000) (14, -2.34701707959175110000e-001) (15, -7.79629516601562500000e+000) (16, 4.52259957790374760000e-001) (17, -8.15598297119140620000e+000) (18, -7.89212799072265630000e+000) (19, -8.17412376403808590000e+000) (20, -7.33904647827148440000e+000) (21, -8.22845363616943360000e+000) (22, 2.32313543558120730000e-001) (23, -5.67691326141357420000e+000) (24, -8.07493686676025390000e+000) (25, -4.21546936035156250000e+000) (26, 4.48635190725326540000e-001) (27, -4.23283672332763670000e+000) (28, -7.59036970138549800000e+000) (29, -7.89591503143310550000e+000) (30, -8.14330482482910160000e+000) (31, -8.00985908508300780000e+000) (32, -7.54150724411010740000e+000) (33, -7.45109128952026370000e+000) (34, 3.27947549521923070000e-002) (35, -3.13825488090515140000e+000) (36, -7.83360576629638670000e+000) (37, -7.05977869033813480000e+000) (38, -5.31248867511749270000e-001) (39, -2.52621531486511230000e-001) (40, -7.99966287612915040000e+000) (41, -7.70464515686035160000e+000) (42, -8.25697803497314450000e+000) (43, -7.51291847229003910000e+000) (44, -7.79155063629150390000e+000) (45, -7.41397428512573240000e+000) (46, -7.39664411544799800000e+000) (47, -7.49650716781616210000e+000) (48, -7.64175796508789060000e+000) (49, -5.41369199752807620000e+000) (50, -8.14355182647705080000e+000) (51, -7.21643543243408200000e+000) (52, -7.69436931610107420000e+000) (53, -7.04523372650146480000e+000) (54, -7.40642642974853520000e+000) (55, -8.27867412567138670000e+000) (56, 3.83900672197341920000e-001) (57, -7.55836153030395510000e+000) (58, -8.14328861236572270000e+000) (59, -7.18859291076660160000e+000) (60, -7.40361309051513670000e+000) (61, -7.49531936645507810000e+000) (62, -8.00200557708740230000e+000) (63, -7.57965183258056640000e+000) (64, -6.51390457153320310000e+000) (65, -8.08638954162597660000e+000) (66, -3.65701019763946530000e-002) (67, 4.50455486774444580000e-001) (68, -7.68429994583129880000e+000) (69, -8.29268741607666020000e+000) (70, -7.99341535568237300000e+000) (71, -8.20493125915527340000e+000) (72, -8.22898006439208980000e+000) (73, -7.75080823898315430000e+000) (74, -7.55996799468994140000e+000) (75, -7.82284688949584960000e+000) (76, -8.07527828216552730000e+000) (77, -8.24342632293701170000e+000) (11, -8.55576229095458980000e+000) (12, -5.19240283966064450000e+000) (13, -8.12115001678466800000e+000) (14, -4.86018061637878420000e-001) (15, -7.82980585098266600000e+000) (16, -4.87148649990558620000e-002) (17, -7.87712001800537110000e+000) (18, -8.21214199066162110000e+000) (19, -6.58698463439941410000e+000) (20, -6.05339431762695310000e+000) (21, -8.06876468658447270000e+000) (22, -9.07300859689712520000e-002) (23, -5.83155918121337890000e+000) (24, -8.03504085540771480000e+000) (25, -5.03156280517578120000e+000) (26, 2.10746284574270250000e-002) (27, -3.68407797813415530000e+000) (28, -7.98262977600097660000e+000) (29, -8.04563236236572270000e+000) (30, -8.39839744567871090000e+000) (31, -8.20271015167236330000e+000) (32, -8.43806743621826170000e+000) (33, -7.86674356460571290000e+000) (34, -3.69263887405395510000e-001) (35, -3.45917749404907230000e+000) (36, -8.36227130889892580000e+000) (37, -6.80206441879272460000e+000) (38, -2.80493587255477910000e-001) (39, 2.24247440695762630000e-001) (40, -8.23196411132812500000e+000) (41, -8.64145183563232420000e+000) (42, -8.16753959655761720000e+000) (43, -8.27551651000976560000e+000) (44, -8.63486289978027340000e+000) (45, -7.44707870483398440000e+000) (46, -6.56114482879638670000e+000) (47, -6.40844917297363280000e+000) (48, -6.96253585815429690000e+000) (49, -5.81679916381835940000e+000) (50, -8.11133384704589840000e+000) (51, -6.49541187286376950000e+000) (52, -7.00956726074218750000e+000) (53, -6.22130775451660160000e+000) (54, -7.92800283432006840000e+000) (55, -8.12122154235839840000e+000) (56, -4.51674520969390870000e-001) (57, -6.78303480148315430000e+000) (58, -8.16737651824951170000e+000) (59, -6.86882543563842770000e+000) (60, -6.24570035934448240000e+000) (61, -7.81594896316528320000e+000) (62, -7.99875497817993160000e+000) (63, -8.06052780151367190000e+000) (64, -6.31769180297851560000e+000) (65, -8.42710399627685550000e+000) (66, 1.08762241899967190000e-001) (67, -5.30677139759063720000e-001) (68, -8.59780979156494140000e+000) (69, -8.16756534576416020000e+000) (70, -7.82487106323242190000e+000) (71, -7.96159791946411130000e+000) (72, -8.25642108917236330000e+000) (73, -8.39080238342285160000e+000) (74, -8.33004951477050780000e+000) (75, -8.40900421142578130000e+000) (76, -7.87345933914184570000e+000) (77, -8.54429912567138670000e+000) (11, -7.51274776458740230000e+000) (12, -5.34048175811767580000e+000) (13, -6.59792518615722660000e+000) (14, 4.62891310453414920000e-001) (15, -8.14843177795410160000e+000) (16, -5.17280161380767820000e-001) (17, -8.19714927673339840000e+000) (18, -8.27792644500732420000e+000) (19, -7.81290578842163090000e+000) (20, -7.75970554351806640000e+000) (21, -8.00090694427490230000e+000) (22, 2.97252655029296880000e-001) (23, -5.68386983871459960000e+000) (24, -7.95142030715942380000e+000) (25, -4.15087223052978520000e+000) (26, -5.07008671760559080000e-001) (27, -3.90012025833129880000e+000) (28, -7.41745901107788090000e+000) (29, -7.80111360549926760000e+000) (30, -7.95403337478637700000e+000) (31, -8.09685993194580080000e+000) (32, -7.31710243225097660000e+000) (33, -8.27349948883056640000e+000) (34, -4.06114399433135990000e-001) (35, -3.39921140670776370000e+000) (36, -8.09631156921386720000e+000) (37, -7.50405216217041020000e+000) (38, -1.14266358315944670000e-001) (39, 4.55357462167739870000e-001) (40, -8.16805458068847660000e+000) (41, -7.94141721725463870000e+000) (42, -7.95907545089721680000e+000) (43, -7.94131278991699220000e+000) (44, -7.40624952316284180000e+000) (45, -7.57196760177612300000e+000) (46, -7.49383115768432620000e+000) (47, -7.61449575424194340000e+000) (48, -7.06375694274902340000e+000) (49, -5.68740606307983400000e+000) (50, -8.21325683593750000000e+000) (51, -7.40275001525878910000e+000) (52, -7.92822933197021480000e+000) (53, -7.53383398056030270000e+000) (54, -8.09826183319091800000e+000) (55, -7.50288438796997070000e+000) (56, 1.32257953286170960000e-001) (57, -8.00218296051025390000e+000) (58, -8.00241088867187500000e+000) (59, -7.31759834289550780000e+000) (60, -7.64185762405395510000e+000) (61, -7.79605436325073240000e+000) (62, -7.99167633056640630000e+000) (63, -8.26151371002197270000e+000) (64, -6.35826015472412110000e+000) (65, -7.53390645980834960000e+000) (66, -5.05945347249507900000e-002) (67, -4.37366738915443420000e-002) (68, -7.69140815734863280000e+000) (69, -7.71577405929565430000e+000) (70, -8.09666156768798830000e+000) (71, -7.96799278259277340000e+000) (72, -7.61287450790405270000e+000) (73, -7.31002569198608400000e+000) (74, -7.87555170059204100000e+000) (75, -8.00233459472656250000e+000) (76, -8.22614192962646480000e+000) (77, -7.64515161514282230000e+000) (11, -7.84318542480468750000e+000) (12, -5.12429714202880860000e+000) (13, -7.03172016143798830000e+000) (14, -1.52414053678512570000e-001) (15, -7.93506240844726560000e+000) (16, 3.80897015333175660000e-001) (17, -7.42974138259887700000e+000) (18, -7.89288663864135740000e+000) (19, -7.97421836853027340000e+000) (20, -7.24458599090576170000e+000) (21, -8.05996417999267580000e+000) (22, 4.44419443607330320000e-001) (23, -6.17328643798828130000e+000) (24, -7.80388069152832030000e+000) (25, -4.35675287246704100000e+000) (26, -3.74929368495941160000e-001) (27, -4.09244251251220700000e+000) (28, -8.34938621520996090000e+000) (29, -7.48410463333129880000e+000) (30, -7.47103977203369140000e+000) (31, -7.32276153564453120000e+000) (32, -8.26590728759765620000e+000) (33, -7.69778776168823240000e+000) (34, -9.23002064228057860000e-002) (35, -3.17638015747070310000e+000) (36, -8.04651069641113280000e+000) (37, -7.10016393661499020000e+000) (38, 2.71096229553222660000e-001) (39, 1.41884773969650270000e-001) (40, -8.04624080657958980000e+000) (41, -8.25291728973388670000e+000) (42, -7.95422983169555660000e+000) (43, -8.34877300262451170000e+000) (44, -7.63393115997314450000e+000) (45, -7.42886114120483400000e+000) (46, -7.67153978347778320000e+000) (47, -7.63934612274169920000e+000) (48, -7.54988288879394530000e+000) (49, -5.34305143356323240000e+000) (50, -7.94210386276245120000e+000) (51, -7.40231847763061520000e+000) (52, -7.45692729949951170000e+000) (53, -6.91453838348388670000e+000) (54, -8.08388614654541020000e+000) (55, -7.34922313690185550000e+000) (56, -3.31640750169754030000e-001) (57, -8.14177036285400390000e+000) (58, -8.23655033111572270000e+000) (59, -7.43283557891845700000e+000) (60, -7.26971340179443360000e+000) (61, -7.77113008499145510000e+000) (62, -7.68756151199340820000e+000) (63, -7.88967990875244140000e+000) (64, -6.83039569854736330000e+000) (65, -7.36845445632934570000e+000) (66, -3.47595959901809690000e-001) (67, -1.21343776583671570000e-001) (68, -8.34972858428955080000e+000) (69, -8.05479907989501950000e+000) (70, -8.04646492004394530000e+000) (71, -8.28173923492431640000e+000) (72, -7.49959468841552730000e+000) (73, -8.34951591491699220000e+000) (74, -7.87603759765625000000e+000) (75, -7.62835454940795900000e+000) (76, -8.25133514404296870000e+000) (77, -7.52448749542236330000e+000) (11, -8.18893909454345700000e+000) (12, -5.03527927398681640000e+000) (13, -7.38186693191528320000e+000) (14, -3.45495134592056270000e-001) (15, -8.13357067108154300000e+000) (16, -2.33372792601585390000e-001) (17, -7.41833639144897460000e+000) (18, -7.86118173599243160000e+000) (19, -7.20479726791381840000e+000) (20, -7.30632638931274410000e+000) (21, -8.35752868652343750000e+000) (22, 2.69447248429059980000e-002) (23, -6.55733346939086910000e+000) (24, -7.64806461334228520000e+000) (25, -3.94070649147033690000e+000) (26, 3.15081067383289340000e-002) (27, -3.86467885971069340000e+000) (28, -8.29333114624023440000e+000) (29, -8.00993537902832030000e+000) (30, -8.14313411712646480000e+000) (31, -7.61295223236083980000e+000) (32, -7.40653133392333980000e+000) (33, -7.65556812286376950000e+000) (34, 1.83766394853591920000e-001) (35, -3.62925410270690920000e+000) (36, -8.07634639739990230000e+000) (37, -6.47815799713134770000e+000) (38, 2.43068426847457890000e-001) (39, 4.03889268636703490000e-001) (40, -7.69801282882690430000e+000) (41, -8.35589599609375000000e+000) (42, -8.21899414062500000000e+000) (43, -8.26122856140136720000e+000) (44, -7.98509597778320310000e+000) (45, -7.18169260025024410000e+000) (46, -7.51882791519165040000e+000) (47, -7.35858392715454100000e+000) (48, -7.11701536178588870000e+000) (49, -5.87603855133056640000e+000) (50, -8.26349353790283200000e+000) (51, -7.53913211822509770000e+000) (52, -7.21583366394042970000e+000) (53, -7.56092596054077150000e+000) (54, -7.96920824050903320000e+000) (55, -8.06859874725341800000e+000) (56, -4.24839168787002560000e-001) (57, -6.87328147888183590000e+000) (58, -8.30044174194335940000e+000) (59, -7.62755346298217770000e+000) (60, -7.15137767791748050000e+000) (61, -7.61866378784179690000e+000) (62, -8.12716102600097660000e+000) (63, -8.01027870178222660000e+000) (64, -6.81981801986694340000e+000) (65, -7.52493476867675780000e+000) (66, 1.72744169831275940000e-001) (67, 4.12380605936050420000e-001) (68, -7.47629451751708980000e+000) (69, -8.01055335998535160000e+000) (70, -7.78809738159179690000e+000) (71, -7.51304435729980470000e+000) (72, -8.07306098937988280000e+000) (73, -7.83081102371215820000e+000) (74, -8.00993824005126950000e+000) (75, -8.01573944091796870000e+000) (76, -8.30850982666015620000e+000) (77, -8.16404533386230470000e+000) (11, -8.00529670715332030000e+000) (12, -5.34232759475708010000e+000) (13, -7.32735538482666020000e+000) (14, -2.17733114957809450000e-001) (15, -7.41963672637939450000e+000) (16, -2.18800306320190430000e-001) (17, -7.80143737792968750000e+000) (18, -7.68733882904052730000e+000) (19, -7.84891128540039060000e+000) (20, -7.34419155120849610000e+000) (21, -8.23502445220947270000e+000) (22, -1.11540548503398900000e-001) (23, -5.63915586471557620000e+000) (24, -8.24130916595458980000e+000) (25, -4.68468093872070310000e+000) (26, -4.14947301149368290000e-001) (27, -3.70969295501708980000e+000) (28, -7.38666009902954100000e+000) (29, -7.84549808502197270000e+000) (30, -7.31989574432373050000e+000) (31, -7.40953826904296870000e+000) (32, -8.38607501983642580000e+000) (33, -8.20699691772460940000e+000) (34, -1.52216181159019470000e-001) (35, -3.37952232360839840000e+000) (36, -8.38185405731201170000e+000) (37, -7.22283267974853520000e+000) (38, 2.32427433133125310000e-001) (39, 3.68970155715942380000e-001) (40, -7.90927982330322270000e+000) (41, -8.29452323913574220000e+000) (42, -7.78712606430053710000e+000) (43, -7.89162731170654300000e+000) (44, -7.75226402282714840000e+000) (45, -7.25159168243408200000e+000) (46, -7.34190177917480470000e+000) (47, -7.20514631271362300000e+000) (48, -6.77189159393310550000e+000) (49, -5.04654693603515630000e+000) (50, -8.28676033020019530000e+000) (51, -7.90994787216186520000e+000) (52, -7.44719696044921870000e+000) (53, -6.89874839782714840000e+000) (54, -8.29514503479003910000e+000) (55, -7.86235666275024410000e+000) (56, 4.23607379198074340000e-001) (57, -7.74787664413452150000e+000) (58, -8.36337566375732420000e+000) (59, -7.77666616439819340000e+000) (60, -7.56920433044433590000e+000) (61, -8.08431625366210940000e+000) (62, -7.50906658172607420000e+000) (63, -8.13882541656494140000e+000) (64, -6.55911922454833980000e+000) (65, -8.22650909423828120000e+000) (66, -4.17752176523208620000e-001) (67, 2.41021171212196350000e-001) (68, -8.22208023071289060000e+000) (69, -7.73730754852294920000e+000) (70, -8.22298908233642580000e+000) (71, -7.37975597381591800000e+000) (72, -7.95073461532592770000e+000) (73, -7.84132528305053710000e+000) (74, -8.22671890258789060000e+000) (75, -8.04084873199462890000e+000) (76, -7.60707998275756840000e+000) (77, -7.83756494522094730000e+000) (11, -8.28987503051757810000e+000) (12, -5.00451993942260740000e+000) (13, -6.89849281311035160000e+000) (14, -1.61649122834205630000e-001) (15, -8.16015243530273440000e+000) (16, -4.62697774171829220000e-001) (17, -8.06661033630371090000e+000) (18, -7.46763324737548830000e+000) (19, -8.13966846466064450000e+000) (20, -7.36921739578247070000e+000) (21, -8.08020019531250000000e+000) (22, -2.99349516630172730000e-001) (23, -5.96665048599243160000e+000) (24, -8.31040573120117190000e+000) (25, -4.31081724166870120000e+000) (26, -2.13225364685058590000e-001) (27, -4.20070886611938480000e+000) (28, -8.08673191070556640000e+000) (29, -7.50045490264892580000e+000) (30, -7.27716922760009770000e+000) (31, -7.70229196548461910000e+000) (32, -7.93091440200805660000e+000) (33, -7.41982269287109380000e+000) (34, -5.19406020641326900000e-001) (35, -3.71916699409484860000e+000) (36, -8.32754039764404300000e+000) (37, -6.89231061935424800000e+000) (38, -3.26684385538101200000e-001) (39, 6.20799101889133450000e-002) (40, -7.67891407012939450000e+000) (41, -7.78202438354492190000e+000) (42, -7.46582555770874020000e+000) (43, -7.80859756469726560000e+000) (44, -7.16060066223144530000e+000) (45, -7.73664140701293950000e+000) (46, -6.86058521270751950000e+000) (47, -7.56611347198486330000e+000) (48, -7.51841211318969730000e+000) (49, -5.56198358535766600000e+000) (50, -8.10234928131103520000e+000) (51, -7.28784370422363280000e+000) (52, -7.83244991302490230000e+000) (53, -7.29719543457031250000e+000) (54, -8.01006031036376950000e+000) (55, -7.69573497772216800000e+000) (56, 1.36972814798355100000e-001) (57, -8.03263950347900390000e+000) (58, -7.67257881164550780000e+000) (59, -7.64349794387817380000e+000) (60, -7.57226037979125980000e+000) (61, -8.31795978546142580000e+000) (62, -7.90058803558349610000e+000) (63, -8.26723575592041020000e+000) (64, -6.15524625778198240000e+000) (65, -8.31733512878417970000e+000) (66, -3.14570397138595580000e-001) (67, 1.02560549974441530000e-001) (68, -8.01962375640869140000e+000) (69, -8.25501632690429690000e+000) (70, -8.32808113098144530000e+000) (71, -8.31721496582031250000e+000) (72, -7.82492065429687500000e+000) (73, -7.45171689987182620000e+000) (74, -7.50356578826904300000e+000) (75, -7.86744165420532230000e+000) (76, -7.88115549087524410000e+000) (77, -7.99712610244750980000e+000) (11, -7.80529403686523440000e+000) (12, -5.24809455871582030000e+000) (13, -7.24233436584472660000e+000) (14, -4.42728608846664430000e-001) (15, -8.53761482238769530000e+000) (16, 3.02879810333251950000e-001) (17, -7.94485950469970700000e+000) (18, -7.76676416397094730000e+000) (19, -7.98761940002441410000e+000) (20, -7.01694631576538090000e+000) (21, -7.58000421524047850000e+000) (22, -3.40551704168319700000e-001) (23, -5.67764186859130860000e+000) (24, -8.31956958770751950000e+000) (25, -4.12522029876708980000e+000) (26, -2.26029545068740840000e-001) (27, -3.44276881217956540000e+000) (28, -7.85013341903686520000e+000) (29, -8.28973865509033200000e+000) (30, -7.32580709457397460000e+000) (31, -7.22111701965332030000e+000) (32, -8.15450668334960940000e+000) (33, -8.00303363800048830000e+000) (34, -8.02055776119232180000e-001) (35, -3.60825920104980470000e+000) (36, -8.21759319305419920000e+000) (37, -6.85396146774291990000e+000) (38, -2.67033487558364870000e-001) (39, -5.39778649806976320000e-001) (40, -7.82566022872924800000e+000) (41, -7.85298013687133790000e+000) (42, -7.80730676651000980000e+000) (43, -8.00541400909423830000e+000) (44, -7.84566545486450200000e+000) (45, -7.30606174468994140000e+000) (46, -7.67766427993774410000e+000) (47, -7.42484760284423830000e+000) (48, -6.75456857681274410000e+000) (49, -5.76140594482421870000e+000) (50, -8.22086620330810550000e+000) (51, -7.04372930526733400000e+000) (52, -7.25391244888305660000e+000) (53, -6.82004451751708980000e+000) (54, -7.92490911483764650000e+000) (55, -8.22968482971191410000e+000) (56, -1.59897580742836000000e-001) (57, -8.15581607818603520000e+000) (58, -8.32499027252197270000e+000) (59, -7.88340473175048830000e+000) (60, -7.33329820632934570000e+000) (61, -7.60992431640625000000e+000) (62, -7.68257045745849610000e+000) (63, -7.97081041336059570000e+000) (64, -6.54748821258544920000e+000) (65, -7.75465822219848630000e+000) (66, -5.29945909976959230000e-001) (67, 5.40935024619102480000e-002) (68, -7.69295072555541990000e+000) (69, -8.43312931060791020000e+000) (70, -8.48192214965820310000e+000) (71, -8.57978153228759770000e+000) (72, -8.49947929382324220000e+000) (73, -7.75928544998168950000e+000) (74, -7.69442415237426760000e+000) (75, -7.59858894348144530000e+000) (76, -8.57797050476074220000e+000) (77, -7.88461112976074220000e+000) (11, -7.93234825134277340000e+000) (12, -4.86893320083618160000e+000) (13, -8.39941406250000000000e+000) (14, 4.55157309770584110000e-001) (15, -8.13575267791748050000e+000) (16, 1.98600754141807560000e-001) (17, -7.92788219451904300000e+000) (18, -8.16769123077392580000e+000) (19, -7.13039970397949220000e+000) (20, -6.94924068450927730000e+000) (21, -8.41270160675048830000e+000) (22, -5.00683665275573730000e-001) (23, -6.39180183410644530000e+000) (24, -8.37265300750732420000e+000) (25, -4.65923738479614260000e+000) (26, -4.31703448295593260000e-001) (27, -4.21295690536499020000e+000) (28, -8.11620712280273440000e+000) (29, -7.75958395004272460000e+000) (30, -7.74745464324951170000e+000) (31, -8.41613006591796870000e+000) (32, -7.80699825286865230000e+000) (33, -7.93389272689819340000e+000) (34, 1.39568209648132320000e-001) (35, -3.05789613723754880000e+000) (36, -7.63922691345214840000e+000) (37, -6.24623203277587890000e+000) (38, 2.35700830817222600000e-001) (39, -5.07139682769775390000e-001) (40, -8.28469657897949220000e+000) (41, -8.11637115478515620000e+000) (42, -7.66998434066772460000e+000) (43, -7.63251876831054690000e+000) (44, -8.11537933349609370000e+000) (45, -7.70478820800781250000e+000) (46, -6.76517009735107420000e+000) (47, -6.03939199447631840000e+000) (48, -6.93000841140747070000e+000) (49, -5.18673133850097660000e+000) (50, -8.05840015411376950000e+000) (51, -6.96952152252197270000e+000) (52, -6.82693290710449220000e+000) (53, -6.62377405166625980000e+000) (54, -8.11194705963134770000e+000) (55, -8.46661186218261720000e+000) (56, 1.38062790036201480000e-001) (57, -6.55216360092163090000e+000) (58, -8.37203407287597660000e+000) (59, -6.79627418518066410000e+000) (60, -6.74964523315429690000e+000) (61, -8.41876888275146480000e+000) (62, -7.67296934127807620000e+000) (63, -8.62766075134277340000e+000) (64, -6.35503816604614260000e+000) (65, -8.00789928436279300000e+000) (66, -5.76228983700275420000e-002) (67, 2.69656598567962650000e-001) (68, -8.45449066162109370000e+000) (69, -7.72990942001342770000e+000) (70, -8.42376327514648440000e+000) (71, -8.39686679840087890000e+000) (72, -7.80835628509521480000e+000) (73, -7.97082328796386720000e+000) (74, -8.28473281860351560000e+000) (75, -8.55631160736083980000e+000) (76, -8.50801086425781250000e+000) (77, -8.35826015472412110000e+000) (11, -8.00106143951416020000e+000) (12, -5.67425537109375000000e+000) (13, -6.78089570999145510000e+000) (14, -2.31675311923027040000e-001) (15, -8.14452648162841800000e+000) (16, 1.79578378796577450000e-001) (17, -7.97088193893432620000e+000) (18, -7.51619386672973630000e+000) (19, -7.66756057739257810000e+000) (20, -7.26629495620727540000e+000) (21, -7.66312694549560550000e+000) (22, -4.50854241847991940000e-001) (23, -5.87046194076538090000e+000) (24, -8.25555038452148440000e+000) (25, -4.02037477493286130000e+000) (26, 7.32310041785240170000e-002) (27, -3.54377484321594240000e+000) (28, -7.99893999099731450000e+000) (29, -7.82667112350463870000e+000) (30, -8.16833114624023440000e+000) (31, -7.70347309112548830000e+000) (32, -8.18620395660400390000e+000) (33, -8.00313282012939450000e+000) (34, 2.99949437379837040000e-001) (35, -3.83586645126342770000e+000) (36, -8.00306892395019530000e+000) (37, -7.16982698440551760000e+000) (38, 3.09263020753860470000e-001) (39, 5.92150874435901640000e-002) (40, -7.89419078826904300000e+000) (41, -8.24075412750244140000e+000) (42, -7.81162500381469730000e+000) (43, -7.82660770416259770000e+000) (44, -8.07477474212646480000e+000) (45, -7.08465862274169920000e+000) (46, -6.98464059829711910000e+000) (47, -7.52050352096557620000e+000) (48, -7.49309301376342770000e+000) (49, -5.87067222595214840000e+000) (50, -7.94345521926879880000e+000) (51, -7.48543167114257810000e+000) (52, -7.70544338226318360000e+000) (53, -6.86431598663330080000e+000) (54, -8.15872478485107420000e+000) (55, -7.46343374252319340000e+000) (56, 7.32888206839561460000e-002) (57, -7.57720947265625000000e+000) (58, -8.30440235137939450000e+000) (59, -8.09777069091796870000e+000) (60, -7.52953052520751950000e+000) (61, -8.05506229400634770000e+000) (62, -8.30421543121337890000e+000) (63, -7.68962526321411130000e+000) (64, -7.00955724716186520000e+000) (65, -8.10323810577392580000e+000) (66, -7.75098577141761780000e-002) (67, -5.12249886989593510000e-001) (68, -7.48043298721313480000e+000) (69, -7.63466739654541020000e+000) (70, -8.06072139739990230000e+000) (71, -7.46367168426513670000e+000) (72, -7.78320693969726560000e+000) (73, -8.00341033935546870000e+000) (74, -7.75952148437500000000e+000) (75, -7.37753009796142580000e+000) (76, -7.99410438537597660000e+000) (77, -7.51984167098999020000e+000) (11, -7.35295629501342770000e+000) (12, -5.43103313446044920000e+000) (13, -6.69736862182617190000e+000) (14, 1.32696360349655150000e-001) (15, -7.97926902770996090000e+000) (16, 3.86980950832366940000e-001) (17, -7.75532674789428710000e+000) (18, -7.61920452117919920000e+000) (19, -7.42870426177978520000e+000) (20, -7.61114931106567380000e+000) (21, -7.41441202163696290000e+000) (22, 3.07876139879226680000e-001) (23, -6.43276119232177730000e+000) (24, -8.12240409851074220000e+000) (25, -4.86426877975463870000e+000) (26, 4.03914988040924070000e-001) (27, -4.18167686462402340000e+000) (28, -8.13646507263183590000e+000) (29, -7.77803993225097660000e+000) (30, -8.14250183105468750000e+000) (31, -7.99824523925781250000e+000) (32, -8.12341213226318360000e+000) (33, -7.47486114501953130000e+000) (34, -2.68527895212173460000e-001) (35, -3.28567314147949220000e+000) (36, -8.24269676208496090000e+000) (37, -6.75249481201171870000e+000) (38, 3.39412719011306760000e-001) (39, -1.15685671567916870000e-001) (40, -7.94576835632324220000e+000) (41, -8.21996212005615230000e+000) (42, -8.25216484069824220000e+000) (43, -7.79371833801269530000e+000) (44, -7.42717695236206050000e+000) (45, -7.72935533523559570000e+000) (46, -7.62542724609375000000e+000) (47, -7.06626749038696290000e+000) (48, -7.24859476089477540000e+000) (49, -5.04434061050415040000e+000) (50, -7.43190431594848630000e+000) (51, -7.49316596984863280000e+000) (52, -8.06494522094726560000e+000) (53, -7.16021633148193360000e+000) (54, -7.88325023651123050000e+000) (55, -7.30290412902832030000e+000) (56, 1.43258899450302120000e-001) (57, -7.93989944458007810000e+000) (58, -7.81107330322265620000e+000) (59, -7.90134334564208980000e+000) (60, -6.98127794265747070000e+000) (61, -7.86330842971801760000e+000) (62, -7.84414863586425780000e+000) (63, -8.25224590301513670000e+000) (64, -7.00488710403442380000e+000) (65, -7.85343360900878910000e+000) (66, -1.61067008972167970000e-001) (67, -1.71442791819572450000e-001) (68, -8.21941089630126950000e+000) (69, -7.87290954589843750000e+000) (70, -7.97825622558593750000e+000) (71, -8.13805770874023440000e+000) (72, -7.55562257766723630000e+000) (73, -8.21965885162353520000e+000) (74, -7.25246763229370120000e+000) (75, -7.99405670166015630000e+000) (76, -8.02638053894042970000e+000) (77, -8.16537284851074220000e+000) (11, -8.13541126251220700000e+000) (12, -5.42494440078735350000e+000) (13, -6.92931461334228520000e+000) (14, -1.86145305633544920000e-001) (15, -8.46207332611083980000e+000) (16, -1.28350466489791870000e-001) (17, -8.43049526214599610000e+000) (18, -8.05011081695556640000e+000) (19, -7.76974344253540040000e+000) (20, -7.08431863784790040000e+000) (21, -8.04399967193603520000e+000) (22, -1.36006347020156680000e-004) (23, -6.02977514266967770000e+000) (24, -7.69844245910644530000e+000) (25, -4.67174625396728520000e+000) (26, 6.47893473505973820000e-002) (27, -3.41674780845642090000e+000) (28, -7.72648620605468750000e+000) (29, -7.70457983016967770000e+000) (30, -7.97040939331054690000e+000) (31, -8.24823284149169920000e+000) (32, -8.00101280212402340000e+000) (33, -7.65733814239501950000e+000) (34, -1.78677514195442200000e-001) (35, -3.97411942481994630000e+000) (36, -7.77746534347534180000e+000) (37, -6.71700477600097660000e+000) (38, -4.90869656205177310000e-002) (39, -1.23704634606838230000e-001) (40, -7.95490598678588870000e+000) (41, -7.99637746810913090000e+000) (42, -7.72366857528686520000e+000) (43, -8.44031620025634770000e+000) (44, -7.98808336257934570000e+000) (45, -7.26311445236206050000e+000) (46, -7.12807512283325200000e+000) (47, -6.87284708023071290000e+000) (48, -6.96561336517333980000e+000) (49, -5.18209552764892580000e+000) (50, -8.19438648223876950000e+000) (51, -6.95045042037963870000e+000) (52, -7.59886455535888670000e+000) (53, -7.45554780960083010000e+000) (54, -7.80142307281494140000e+000) (55, -7.93395280838012700000e+000) (56, 3.48492532968521120000e-001) (57, -7.35676765441894530000e+000) (58, -7.69240427017211910000e+000) (59, -7.18354940414428710000e+000) (60, -6.73222064971923830000e+000) (61, -8.09690189361572270000e+000) (62, -8.46194458007812500000e+000) (63, -8.24830913543701170000e+000) (64, -6.04951667785644530000e+000) (65, -7.78997993469238280000e+000) (66, -1.56157463788986210000e-001) (67, -1.96785330772399900000e-001) (68, -7.71870517730712890000e+000) (69, -7.74580001831054690000e+000) (70, -8.44940757751464840000e+000) (71, -7.77421760559082030000e+000) (72, -7.94145488739013670000e+000) (73, -8.35241031646728520000e+000) (74, -7.72458171844482420000e+000) (75, -8.07820510864257810000e+000) (76, -8.53456211090087890000e+000) (77, -8.57537364959716800000e+000) (11, -8.39405250549316410000e+000) (12, -4.13685894012451170000e+000) (13, -9.10621356964111330000e+000) (14, 2.77168810367584230000e-001) (15, -9.15409851074218750000e+000) (16, -6.44251853227615360000e-002) (17, -9.51714611053466800000e+000) (18, -9.33805274963378910000e+000) (19, -5.16446208953857420000e+000) (20, -4.69075918197631840000e+000) (21, -9.04186916351318360000e+000) (22, -1.67902484536170960000e-002) (23, -3.87335252761840820000e+000) (24, -9.10918235778808590000e+000) (25, -3.64379215240478520000e+000) (26, 2.27156057953834530000e-001) (27, -3.11528205871582030000e+000) (28, -9.17410564422607420000e+000) (29, -9.04625988006591800000e+000) (30, -8.97273159027099610000e+000) (31, -8.82209300994873050000e+000) (32, -9.09145164489746090000e+000) (33, -9.00304603576660160000e+000) (34, -3.20170938968658450000e-001) (35, -2.86942172050476070000e+000) (36, -9.43462753295898440000e+000) (37, -3.92399716377258300000e+000) (38, -3.73988091945648190000e-001) (39, -1.06923244893550870000e-001) (40, -9.71968841552734370000e+000) (41, -8.94828414916992190000e+000) (42, -9.66888809204101560000e+000) (43, -9.38067436218261720000e+000) (44, -8.85709953308105470000e+000) (45, -8.85757255554199220000e+000) (46, -4.49590587615966800000e+000) (47, -4.13063955307006840000e+000) (48, -4.46859121322631840000e+000) (49, -4.45734930038452150000e+000) (50, -9.61933517456054690000e+000) (51, -4.85595703125000000000e+000) (52, -4.76728725433349610000e+000) (53, -4.57990169525146480000e+000) (54, -9.10605525970458980000e+000) (55, -9.58727836608886720000e+000) (56, -2.85158812999725340000e-001) (57, -4.61137151718139650000e+000) (58, -9.76462459564208980000e+000) (59, -4.39914703369140620000e+000) (60, -4.69528293609619140000e+000) (61, -9.13072490692138670000e+000) (62, -9.08634471893310550000e+000) (63, -9.75800228118896480000e+000) (64, -4.40282392501831050000e+000) (65, -9.49838733673095700000e+000) (66, -3.20301830768585210000e-001) (67, -4.23699736595153810000e-001) (68, -9.02788162231445310000e+000) (69, -8.88172626495361330000e+000) (70, -8.99684047698974610000e+000) (71, -8.88659954071044920000e+000) (72, -9.38095188140869140000e+000) (73, -9.54355144500732420000e+000) (74, -9.51238155364990230000e+000) (75, -9.14727592468261720000e+000) (76, -8.94554138183593750000e+000) (77, -9.30410194396972660000e+000) (11, -7.45266437530517580000e+000) (12, -5.37520217895507810000e+000) (13, -6.87443304061889650000e+000) (14, -2.78718054294586180000e-001) (15, -8.37460041046142580000e+000) (16, 3.26271981000900270000e-001) (17, -7.71736192703247070000e+000) (18, -7.95725011825561520000e+000) (19, -7.67919778823852540000e+000) (20, -7.50342559814453120000e+000) (21, -8.23996925354003910000e+000) (22, -4.55368071794509890000e-001) (23, -6.38079977035522460000e+000) (24, -7.45435857772827150000e+000) (25, -4.35088872909545900000e+000) (26, -3.22546869516372680000e-001) (27, -4.38562250137329100000e+000) (28, -7.79259729385375980000e+000) (29, -7.72642946243286130000e+000) (30, -8.29620170593261720000e+000) (31, -7.57672214508056640000e+000) (32, -7.54426860809326170000e+000) (33, -8.26515769958496090000e+000) (34, -5.77993094921112060000e-002) (35, -3.50305891036987300000e+000) (36, -8.38579559326171870000e+000) (37, -6.85094451904296870000e+000) (38, -3.66412639617919920000e-001) (39, -4.22093309462070470000e-002) (40, -7.73642301559448240000e+000) (41, -8.36458301544189450000e+000) (42, -7.41763830184936520000e+000) (43, -8.11663341522216800000e+000) (44, -8.11174297332763670000e+000) (45, -7.13170099258422850000e+000) (46, -6.97247219085693360000e+000) (47, -6.99916219711303710000e+000) (48, -7.30326461791992190000e+000) (49, -6.00212860107421880000e+000) (50, -8.25234603881835940000e+000) (51, -7.16301631927490230000e+000) (52, -7.63191986083984370000e+000) (53, -7.21863079071044920000e+000) (54, -8.25404357910156250000e+000) (55, -8.28279113769531250000e+000) (56, -2.23585575819015500000e-001) (57, -7.47139787673950200000e+000) (58, -7.61956357955932620000e+000) (59, -7.09103012084960940000e+000) (60, -7.71988344192504880000e+000) (61, -7.41181850433349610000e+000) (62, -8.26484107971191410000e+000) (63, -8.11471748352050780000e+000) (64, -6.91943597793579100000e+000) (65, -7.53690862655639650000e+000) (66, -1.85490012168884280000e-001) (67, -2.91059851646423340000e-001) (68, -8.21807765960693360000e+000) (69, -8.33008480072021480000e+000) (70, -8.26516437530517580000e+000) (71, -7.88014411926269530000e+000) (72, -8.20458126068115230000e+000) (73, -7.68639659881591800000e+000) (74, -7.48067808151245120000e+000) (75, -7.88089132308959960000e+000) (76, -7.50329923629760740000e+000) (77, -8.17845821380615230000e+000) (11, -8.44775295257568360000e+000) (12, -5.13782548904418950000e+000) (13, -6.69194984436035160000e+000) (14, 1.43858045339584350000e-001) (15, -7.93131256103515620000e+000) (16, -5.08821427822113040000e-001) (17, -7.77404308319091800000e+000) (18, -8.32256984710693360000e+000) (19, -7.76642560958862300000e+000) (20, -7.41708660125732420000e+000) (21, -8.47647762298583980000e+000) (22, 3.52317541837692260000e-001) (23, -5.58002758026123050000e+000) (24, -8.26263809204101560000e+000) (25, -4.51655864715576170000e+000) (26, 1.89449861645698550000e-001) (27, -3.69745111465454100000e+000) (28, -7.77087736129760740000e+000) (29, -7.90797567367553710000e+000) (30, -7.64343786239624020000e+000) (31, -6.98194122314453130000e+000) (32, -7.93892955780029300000e+000) (33, -7.87373924255371090000e+000) (34, -1.08426487445831300000e+000) (35, -3.39905190467834470000e+000) (36, -7.93648862838745120000e+000) (37, -6.77121925354003910000e+000) (38, 3.78885000944137570000e-001) (39, -3.18324714899063110000e-001) (40, -8.38073539733886720000e+000) (41, -8.38071155548095700000e+000) (42, -8.06303501129150390000e+000) (43, -8.17460918426513670000e+000) (44, -6.91153097152709960000e+000) (45, -7.35039567947387700000e+000) (46, -7.57441520690917970000e+000) (47, -7.97187900543212890000e+000) (48, -6.90536260604858400000e+000) (49, -5.24317741394042970000e+000) (50, -8.25589084625244140000e+000) (51, -7.65755081176757810000e+000) (52, -7.37496900558471680000e+000) (53, -6.81948804855346680000e+000) (54, -8.44282436370849610000e+000) (55, -8.02048015594482420000e+000) (56, 2.39352598786354060000e-001) (57, -8.44521141052246090000e+000) (58, -7.93042707443237300000e+000) (59, -6.82959842681884770000e+000) (60, -7.08012819290161130000e+000) (61, -8.00434494018554690000e+000) (62, -8.33431339263916020000e+000) (63, -7.78437900543212890000e+000) (64, -6.01124715805053710000e+000) (65, -7.88042449951171870000e+000) (66, 3.01526457071304320000e-001) (67, -2.79788017272949220000e-001) (68, -8.48646545410156250000e+000) (69, -8.46439743041992190000e+000) (70, -7.76649856567382810000e+000) (71, -8.04264163970947270000e+000) (72, -8.32737541198730470000e+000) (73, -8.25916194915771480000e+000) (74, -8.28552246093750000000e+000) (75, -7.59921741485595700000e+000) (76, -7.60191631317138670000e+000) (77, -7.97486066818237300000e+000) (11, -8.14023303985595700000e+000) (12, -4.83003664016723630000e+000) (13, -7.65397691726684570000e+000) (14, -9.04179811477661130000e-002) (15, -7.78052377700805660000e+000) (16, -3.04597824811935420000e-001) (17, -8.37324905395507810000e+000) (18, -7.99067783355712890000e+000) (19, -7.48225116729736330000e+000) (20, -6.82365703582763670000e+000) (21, -8.06036186218261720000e+000) (22, -8.09366405010223390000e-002) (23, -5.90731859207153320000e+000) (24, -8.04874610900878910000e+000) (25, -4.05923509597778320000e+000) (26, -3.10821712017059330000e-001) (27, -4.52996969223022460000e+000) (28, -7.51868009567260740000e+000) (29, -7.80863809585571290000e+000) (30, -8.21908855438232420000e+000) (31, -8.13815402984619140000e+000) (32, -8.07552146911621090000e+000) (33, -7.84923553466796870000e+000) (34, -2.19925582408905030000e-001) (35, -2.96991086006164550000e+000) (36, -7.47774648666381840000e+000) (37, -7.02368497848510740000e+000) (38, -4.03619170188903810000e-001) (39, 1.15314573049545290000e-001) (40, -8.06550979614257810000e+000) (41, -7.91611671447753910000e+000) (42, -7.90740156173706050000e+000) (43, -7.91461896896362300000e+000) (44, -7.53202247619628910000e+000) (45, -7.02534532546997070000e+000) (46, -6.93467378616333010000e+000) (47, -7.16286802291870120000e+000) (48, -6.87483072280883790000e+000) (49, -5.95568323135375980000e+000) (50, -8.04681491851806640000e+000) (51, -7.65559482574462890000e+000) (52, -7.01467561721801760000e+000) (53, -7.19223165512084960000e+000) (54, -7.65719127655029300000e+000) (55, -7.46613883972167970000e+000) (56, -8.35315510630607600000e-002) (57, -6.93572139739990230000e+000) (58, -7.90388202667236330000e+000) (59, -7.74828147888183590000e+000) (60, -7.27224683761596680000e+000) (61, -8.25180339813232420000e+000) (62, -8.21915340423583980000e+000) (63, -7.65230894088745120000e+000) (64, -6.76012182235717770000e+000) (65, -8.06519508361816410000e+000) (66, -5.18324732780456540000e-001) (67, 1.86836525797843930000e-001) (68, -8.12299156188964840000e+000) (69, -7.94597005844116210000e+000) (70, -8.04892349243164060000e+000) (71, -8.11183166503906250000e+000) (72, -8.22993850708007810000e+000) (73, -7.65420150756835940000e+000) (74, -7.64146757125854490000e+000) (75, -7.70066785812377930000e+000) (76, -8.22931003570556640000e+000) (77, -8.23888301849365230000e+000) (11, -7.89623928070068360000e+000) (12, -5.31981945037841800000e+000) (13, -8.38031959533691410000e+000) (14, -3.87355118989944460000e-001) (15, -8.23804664611816410000e+000) (16, 3.34718793630599980000e-001) (17, -8.65819931030273440000e+000) (18, -8.35304927825927730000e+000) (19, -6.68569231033325200000e+000) (20, -6.89637041091918950000e+000) (21, -8.46583366394042970000e+000) (22, -2.40628551691770550000e-002) (23, -5.68770551681518550000e+000) (24, -7.84531450271606450000e+000) (25, -4.44931030273437500000e+000) (26, 2.87692070007324220000e-001) (27, -4.10535001754760740000e+000) (28, -8.49989223480224610000e+000) (29, -8.12471771240234370000e+000) (30, -8.63287258148193360000e+000) (31, -8.37417984008789060000e+000) (32, -7.88056993484497070000e+000) (33, -7.68320178985595700000e+000) (34, -3.42091023921966550000e-001) (35, -3.08247995376586910000e+000) (36, -8.33580780029296870000e+000) (37, -6.58349847793579100000e+000) (38, -4.23367545008659360000e-002) (39, -7.93014317750930790000e-002) (40, -8.35431957244873050000e+000) (41, -7.83509349822998050000e+000) (42, -7.95538759231567380000e+000) (43, -7.86839914321899410000e+000) (44, -8.69062805175781250000e+000) (45, -7.86860179901123050000e+000) (46, -6.99571990966796870000e+000) (47, -6.25542545318603520000e+000) (48, -6.51971340179443360000e+000) (49, -5.12505006790161130000e+000) (50, -8.21607303619384770000e+000) (51, -6.39909410476684570000e+000) (52, -6.25517225265502930000e+000) (53, -6.70914268493652340000e+000) (54, -8.20010185241699220000e+000) (55, -8.06397724151611330000e+000) (56, -2.23275139927864070000e-001) (57, -6.82023048400878910000e+000) (58, -8.32750701904296870000e+000) (59, -6.23006200790405270000e+000) (60, -6.75241327285766600000e+000) (61, -8.14302539825439450000e+000) (62, -8.59987449645996090000e+000) (63, -8.15360164642333980000e+000) (64, -6.29265546798706050000e+000) (65, -8.50839710235595700000e+000) (66, 7.27699324488639830000e-002) (67, 3.10446739196777340000e-001) (68, -8.53972339630126950000e+000) (69, -7.83763074874877930000e+000) (70, -7.70955753326416020000e+000) (71, -8.54488849639892580000e+000) (72, -8.53084754943847660000e+000) (73, -7.82175064086914060000e+000) (74, -7.80308437347412110000e+000) (75, -7.71611642837524410000e+000) (76, -7.83916234970092770000e+000) (77, -7.78047084808349610000e+000) (11, -7.80077505111694340000e+000) (12, -4.82853174209594730000e+000) (13, -7.20319557189941410000e+000) (14, -2.87345945835113530000e-001) (15, -8.27562046051025390000e+000) (16, -2.77704924345016480000e-001) (17, -8.20830440521240230000e+000) (18, -7.49298286437988280000e+000) (19, -7.36642599105834960000e+000) (20, -7.63590812683105470000e+000) (21, -8.11474037170410160000e+000) (22, -3.36773604154586790000e-001) (23, -6.44299364089965820000e+000) (24, -7.42084789276123050000e+000) (25, -4.50788116455078120000e+000) (26, -1.80502325296401980000e-001) (27, -4.34918975830078120000e+000) (28, -7.96087884902954100000e+000) (29, -8.10008525848388670000e+000) (30, -7.69263076782226560000e+000) (31, -7.69095659255981450000e+000) (32, -8.17154979705810550000e+000) (33, -7.84602546691894530000e+000) (34, 1.54305309057235720000e-001) (35, -2.94930744171142580000e+000) (36, -8.00838661193847660000e+000) (37, -7.20579338073730470000e+000) (38, 2.05328747630119320000e-001) (39, -4.78669703006744380000e-001) (40, -7.59068441390991210000e+000) (41, -7.38788986206054690000e+000) (42, -8.04129219055175780000e+000) (43, -7.81418085098266600000e+000) (44, -7.32404661178588870000e+000) (45, -7.29388141632080080000e+000) (46, -6.98787117004394530000e+000) (47, -7.05899095535278320000e+000) (48, -7.31102848052978520000e+000) (49, -5.55814504623413090000e+000) (50, -8.20850181579589840000e+000) (51, -7.84633636474609380000e+000) (52, -7.28016567230224610000e+000) (53, -7.00776195526123050000e+000) (54, -8.11409950256347660000e+000) (55, -7.63342142105102540000e+000) (56, -1.91271960735321040000e-001) (57, -7.91595315933227540000e+000) (58, -8.35438060760498050000e+000) (59, -7.38123607635498050000e+000) (60, -7.69195795059204100000e+000) (61, -7.84091329574584960000e+000) (62, -7.57506704330444340000e+000) (63, -8.29416275024414060000e+000) (64, -6.79044580459594730000e+000) (65, -7.96651220321655270000e+000) (66, -1.72151282429695130000e-001) (67, 3.30479294061660770000e-001) (68, -7.99638462066650390000e+000) (69, -7.96971607208251950000e+000) (70, -7.54346036911010740000e+000) (71, -8.27095794677734370000e+000) (72, -7.56212329864501950000e+000) (73, -8.15902709960937500000e+000) (74, -7.91224050521850590000e+000) (75, -7.64852094650268550000e+000) (76, -7.95159816741943360000e+000) (77, -8.13526248931884770000e+000) (11, -8.36007499694824220000e+000) (12, -4.12699222564697270000e+000) (13, -8.58661651611328120000e+000) (14, -1.13449610769748690000e-001) (15, -9.06357669830322270000e+000) (16, -2.44798004627227780000e-001) (17, -9.02441596984863280000e+000) (18, -9.13132095336914060000e+000) (19, -5.07415103912353520000e+000) (20, -4.70302534103393550000e+000) (21, -9.01281261444091800000e+000) (22, -2.54175245761871340000e-001) (23, -5.12074565887451170000e+000) (24, -9.05695724487304690000e+000) (25, -4.16280555725097660000e+000) (26, -4.84210476279258730000e-002) (27, -3.10906791687011720000e+000) (28, -8.49760532379150390000e+000) (29, -9.24577617645263670000e+000) (30, -9.29266071319580080000e+000) (31, -9.16111278533935550000e+000) (32, -8.58666229248046870000e+000) (33, -8.77608776092529300000e+000) (34, -5.14432825148105620000e-002) (35, -3.13655447959899900000e+000) (36, -9.01317119598388670000e+000) (37, -5.02897977828979490000e+000) (38, -6.30578622221946720000e-002) (39, 5.08835539221763610000e-002) (40, -9.28465366363525390000e+000) (41, -8.59203910827636720000e+000) (42, -9.33605003356933590000e+000) (43, -9.27690696716308590000e+000) (44, -9.45933055877685550000e+000) (45, -8.70508384704589840000e+000) (46, -4.77077579498291020000e+000) (47, -5.13061475753784180000e+000) (48, -5.23384237289428710000e+000) (49, -4.68401622772216800000e+000) (50, -8.67787742614746090000e+000) (51, -4.96322679519653320000e+000) (52, -4.70297193527221680000e+000) (53, -4.61002922058105470000e+000) (54, -9.60395431518554690000e+000) (55, -8.72998142242431640000e+000) (56, -1.08089303970336910000e+000) (57, -5.07781076431274410000e+000) (58, -8.87368392944335940000e+000) (59, -5.33406352996826170000e+000) (60, -5.19595527648925780000e+000) (61, -8.67791366577148440000e+000) (62, -9.50787639617919920000e+000) (63, -8.64684963226318360000e+000) (64, -4.84432125091552730000e+000) (65, -8.93545150756835940000e+000) (66, 3.45705509185791020000e-001) (67, 1.87353473156690600000e-002) (68, -8.67796802520751950000e+000) (69, -9.52856445312500000000e+000) (70, -9.48950958251953120000e+000) (71, -8.65188217163085940000e+000) (72, -8.86563110351562500000e+000) (73, -8.62752723693847660000e+000) (74, -8.46913909912109370000e+000) (75, -9.10756683349609370000e+000) (76, -8.98665332794189450000e+000) (77, -8.68153095245361330000e+000) (11, -8.50187969207763670000e+000) (12, -4.93282699584960940000e+000) (13, -8.10045146942138670000e+000) (14, 1.32376477122306820000e-001) (15, -8.56391048431396480000e+000) (16, 2.13564202189445500000e-001) (17, -7.95553398132324220000e+000) (18, -7.90519332885742190000e+000) (19, -7.10090637207031250000e+000) (20, -7.30689191818237300000e+000) (21, -8.38695240020751950000e+000) (22, 1.21144548058509830000e-001) (23, -5.68676662445068360000e+000) (24, -7.87098264694213870000e+000) (25, -4.85722064971923830000e+000) (26, -2.49285504221916200000e-001) (27, -4.08244419097900390000e+000) (28, -8.41365432739257810000e+000) (29, -8.01219749450683590000e+000) (30, -8.25850009918212890000e+000) (31, -7.88458776473999020000e+000) (32, -7.58769798278808590000e+000) (33, -7.67425918579101560000e+000) (34, 1.59526392817497250000e-001) (35, -3.61216902732849120000e+000) (36, -8.12728118896484370000e+000) (37, -6.90643405914306640000e+000) (38, 3.54428648948669430000e-001) (39, 1.84944376349449160000e-001) (40, -7.81583833694458010000e+000) (41, -8.44332408905029300000e+000) (42, -7.76315069198608400000e+000) (43, -8.25535488128662110000e+000) (44, -8.40050315856933590000e+000) (45, -7.59192228317260740000e+000) (46, -6.47538661956787110000e+000) (47, -6.48539257049560550000e+000) (48, -7.16918849945068360000e+000) (49, -5.18312931060791020000e+000) (50, -8.41501998901367190000e+000) (51, -6.74830818176269530000e+000) (52, -7.36170053482055660000e+000) (53, -6.81786680221557620000e+000) (54, -8.12427711486816410000e+000) (55, -8.03038978576660160000e+000) (56, -4.23745304346084590000e-001) (57, -6.87334537506103520000e+000) (58, -8.20984268188476560000e+000) (59, -6.88490390777587890000e+000) (60, -6.46196699142456050000e+000) (61, -8.21693706512451170000e+000) (62, -8.09999847412109370000e+000) (63, -7.80227708816528320000e+000) (64, -5.90782451629638670000e+000) (65, -8.23729133605957030000e+000) (66, 3.88572931289672850000e-001) (67, -1.00565642118453980000e-001) (68, -8.36003398895263670000e+000) (69, -8.56535434722900390000e+000) (70, -7.70048522949218750000e+000) (71, -7.78633785247802730000e+000) (72, -8.37973117828369140000e+000) (73, -8.21759700775146480000e+000) (74, -7.92133951187133790000e+000) (75, -8.03043174743652340000e+000) (76, -7.92396211624145510000e+000) (77, -7.96101951599121090000e+000) (11, -7.33876657485961910000e+000) (12, -5.41413164138793950000e+000) (13, -7.47217655181884770000e+000) (14, -3.44568192958831790000e-001) (15, -7.88842201232910160000e+000) (16, -2.92539715766906740000e-001) (17, -8.00741863250732420000e+000) (18, -8.34358692169189450000e+000) (19, -7.59738397598266600000e+000) (20, -7.16577959060668950000e+000) (21, -7.83943128585815430000e+000) (22, 2.23307743668556210000e-001) (23, -5.63438272476196290000e+000) (24, -7.73369646072387700000e+000) (25, -4.61696910858154300000e+000) (26, 2.05248907208442690000e-001) (27, -3.74848318099975590000e+000) (28, -8.30265140533447270000e+000) (29, -8.30344581604003910000e+000) (30, -7.39509010314941410000e+000) (31, -7.85655879974365230000e+000) (32, -8.22073554992675780000e+000) (33, -8.00299072265625000000e+000) (34, 3.56210291385650630000e-001) (35, -3.43310999870300290000e+000) (36, -8.29535770416259770000e+000) (37, -7.22297477722167970000e+000) (38, 3.39968860149383540000e-001) (39, 2.76474356651306150000e-001) (40, -7.55161046981811520000e+000) (41, -7.75020837783813480000e+000) (42, -7.75997972488403320000e+000) (43, -7.72770404815673830000e+000) (44, -7.92402267456054690000e+000) (45, -7.67739105224609380000e+000) (46, -7.52224445343017580000e+000) (47, -7.34883117675781250000e+000) (48, -7.17741870880126950000e+000) (49, -5.63208103179931640000e+000) (50, -8.23772335052490230000e+000) (51, -7.66198730468750000000e+000) (52, -7.92161846160888670000e+000) (53, -6.89817667007446290000e+000) (54, -7.68829345703125000000e+000) (55, -7.56582117080688480000e+000) (56, 4.15723085403442380000e-001) (57, -7.58130264282226560000e+000) (58, -8.03659439086914060000e+000) (59, -7.74210119247436520000e+000) (60, -7.30142784118652340000e+000) (61, -7.88443565368652340000e+000) (62, -7.98688077926635740000e+000) (63, -7.97417593002319340000e+000) (64, -6.19152307510375980000e+000) (65, -7.54626846313476560000e+000) (66, 1.53800040483474730000e-001) (67, -1.23199842870235440000e-001) (68, -8.24624919891357420000e+000) (69, -8.23165225982666020000e+000) (70, -8.13507843017578130000e+000) (71, -7.71844387054443360000e+000) (72, -8.12626457214355470000e+000) (73, -8.26498889923095700000e+000) (74, -8.01009178161621090000e+000) (75, -8.17700767517089840000e+000) (76, -7.65193843841552730000e+000) (77, -7.43402147293090820000e+000) (11, -8.27435207366943360000e+000) (12, -5.57208633422851560000e+000) (13, -8.06721401214599610000e+000) (14, -5.33918499946594240000e-001) (15, -7.57908105850219730000e+000) (16, 2.83222913742065430000e-001) (17, -8.27362442016601560000e+000) (18, -8.21121311187744140000e+000) (19, -7.11431360244750980000e+000) (20, -6.86502790451049800000e+000) (21, -7.92717647552490230000e+000) (22, 3.21011543273925780000e-001) (23, -6.43296337127685550000e+000) (24, -8.05475807189941410000e+000) (25, -4.11600017547607420000e+000) (26, 3.55383008718490600000e-001) (27, -4.04918861389160160000e+000) (28, -8.01190567016601560000e+000) (29, -8.20503330230712890000e+000) (30, -7.53943395614624020000e+000) (31, -7.63373470306396480000e+000) (32, -7.52382993698120120000e+000) (33, -8.10752296447753910000e+000) (34, 2.47643645852804180000e-002) (35, -3.77820944786071780000e+000) (36, -8.22924804687500000000e+000) (37, -6.74829006195068360000e+000) (38, 1.19942359626293180000e-001) (39, 2.16510698199272160000e-001) (40, -8.05607891082763670000e+000) (41, -8.45501232147216800000e+000) (42, -7.83996009826660160000e+000) (43, -8.12423992156982420000e+000) (44, -8.23686790466308590000e+000) (45, -7.37023258209228520000e+000) (46, -7.44750213623046870000e+000) (47, -7.34950256347656250000e+000) (48, -6.74569845199584960000e+000) (49, -5.27039098739624020000e+000) (50, -7.90844774246215820000e+000) (51, -6.91428709030151370000e+000) (52, -7.44381666183471680000e+000) (53, -6.68269920349121090000e+000) (54, -8.56704425811767580000e+000) (55, -7.72686195373535160000e+000) (56, -7.67333135008811950000e-002) (57, -7.14459705352783200000e+000) (58, -7.58594608306884770000e+000) (59, -6.54726076126098630000e+000) (60, -6.89667415618896480000e+000) (61, -8.00369358062744140000e+000) (62, -8.21011829376220700000e+000) (63, -8.27750587463378910000e+000) (64, -6.23917675018310550000e+000) (65, -8.27065372467041020000e+000) (66, -3.17411363124847410000e-001) (67, -3.08339059352874760000e-001) (68, -7.59884691238403320000e+000) (69, -7.90953731536865230000e+000) (70, -7.54286336898803710000e+000) (71, -8.11983299255371090000e+000) (72, -7.95724153518676760000e+000) (73, -8.05241584777832030000e+000) (74, -8.48684692382812500000e+000) (75, -7.64395284652709960000e+000) (76, -7.85171794891357420000e+000) (77, -8.31874275207519530000e+000) (11, -8.00821685791015620000e+000) (12, -4.92635345458984370000e+000) (13, -7.16781806945800780000e+000) (14, -1.31183996796607970000e-001) (15, -8.46805381774902340000e+000) (16, 4.00263577699661250000e-001) (17, -7.76891851425170900000e+000) (18, -7.68325328826904300000e+000) (19, -7.34100484848022460000e+000) (20, -7.10052919387817380000e+000) (21, -8.03518199920654300000e+000) (22, -3.79626274108886720000e-001) (23, -5.82235288619995120000e+000) (24, -7.72169494628906250000e+000) (25, -4.66991233825683590000e+000) (26, -1.47605657577514650000e-001) (27, -3.87686109542846680000e+000) (28, -8.36260509490966800000e+000) (29, -7.65067100524902340000e+000) (30, -7.71718597412109380000e+000) (31, -8.12928962707519530000e+000) (32, -8.12508106231689450000e+000) (33, -7.98082017898559570000e+000) (34, -2.42601573467254640000e-001) (35, -3.22951960563659670000e+000) (36, -8.51019477844238280000e+000) (37, -7.43227434158325200000e+000) (38, -1.30420014262199400000e-001) (39, -7.25260600447654720000e-002) (40, -8.01786231994628910000e+000) (41, -7.65914726257324220000e+000) (42, -8.23639678955078130000e+000) (43, -7.89109277725219730000e+000) (44, -8.00021457672119140000e+000) (45, -7.94522428512573240000e+000) (46, -7.24424362182617190000e+000) (47, -7.11163806915283200000e+000) (48, -6.64888620376586910000e+000) (49, -5.64293289184570310000e+000) (50, -7.68863630294799800000e+000) (51, -7.09930229187011720000e+000) (52, -6.88596200942993160000e+000) (53, -7.07612037658691410000e+000) (54, -8.02933597564697270000e+000) (55, -7.68124485015869140000e+000) (56, 3.67298662662506100000e-001) (57, -7.51233625411987300000e+000) (58, -7.90415763854980470000e+000) (59, -7.57198429107666020000e+000) (60, -7.10809373855590820000e+000) (61, -7.55276727676391600000e+000) (62, -8.14351654052734370000e+000) (63, -8.20633029937744140000e+000) (64, -6.65059709548950200000e+000) (65, -8.29766559600830080000e+000) (66, 1.87654525041580200000e-001) (67, -4.42450881004333500000e-001) (68, -8.46541023254394530000e+000) (69, -7.70079278945922850000e+000) (70, -8.25395107269287110000e+000) (71, -8.29761600494384770000e+000) (72, -8.25483036041259770000e+000) (73, -8.00040626525878910000e+000) (74, -8.03506278991699220000e+000) (75, -7.70253181457519530000e+000) (76, -8.21572113037109370000e+000) (77, -7.96303749084472660000e+000) (11, -8.17180633544921870000e+000) (12, -5.51241350173950200000e+000) (13, -6.75384712219238280000e+000) (14, 4.22834366559982300000e-001) (15, -7.68933153152465820000e+000) (16, 3.13961267471313480000e-001) (17, -8.46346664428710940000e+000) (18, -8.21434116363525390000e+000) (19, -7.17808675765991210000e+000) (20, -7.56113433837890620000e+000) (21, -8.17999744415283200000e+000) (22, -2.80445098876953130000e-001) (23, -6.42262363433837890000e+000) (24, -8.10952758789062500000e+000) (25, -4.02756452560424800000e+000) (26, 2.27879151701927190000e-001) (27, -4.22264957427978520000e+000) (28, -8.32792186737060550000e+000) (29, -7.68582630157470700000e+000) (30, -7.64064168930053710000e+000) (31, -8.23918819427490230000e+000) (32, -7.54878044128417970000e+000) (33, -7.91739797592163090000e+000) (34, -2.06041634082794190000e-001) (35, -3.74093246459960940000e+000) (36, -8.46361732482910160000e+000) (37, -7.48870229721069340000e+000) (38, -4.81195271015167240000e-001) (39, 5.59692047536373140000e-002) (40, -7.87637090682983400000e+000) (41, -8.11005306243896480000e+000) (42, -7.98584365844726560000e+000) (43, -7.76242351531982420000e+000) (44, -7.57892084121704100000e+000) (45, -7.87446022033691410000e+000) (46, -7.66674232482910160000e+000) (47, -6.89367771148681640000e+000) (48, -6.95961999893188480000e+000) (49, -5.23208189010620120000e+000) (50, -7.67867755889892580000e+000) (51, -7.56606769561767580000e+000) (52, -7.57795524597167970000e+000) (53, -6.97823810577392580000e+000) (54, -8.29365825653076170000e+000) (55, -7.77834606170654300000e+000) (56, -4.33835089206695560000e-001) (57, -7.63011932373046870000e+000) (58, -7.87960481643676760000e+000) (59, -7.63733863830566410000e+000) (60, -7.09544134140014650000e+000) (61, -7.76841783523559570000e+000) (62, -7.80760765075683590000e+000) (63, -8.10776138305664060000e+000) (64, -6.47081613540649410000e+000) (65, -7.55925226211547850000e+000) (66, -5.12274727225303650000e-002) (67, -2.76685744524002080000e-001) (68, -8.23821067810058590000e+000) (69, -7.71321296691894530000e+000) (70, -7.69302082061767580000e+000) (71, -7.53399515151977540000e+000) (72, -7.98814439773559570000e+000) (73, -7.86402225494384770000e+000) (74, -7.52543973922729490000e+000) (75, -7.91406583786010740000e+000) (76, -8.09868526458740230000e+000) (77, -7.69428396224975590000e+000) (11, -7.63206195831298830000e+000) (12, -4.80154085159301760000e+000) (13, -7.23269367218017580000e+000) (14, -1.34227961301803590000e-001) (15, -7.92118453979492190000e+000) (16, -2.83842623233795170000e-001) (17, -8.36818885803222660000e+000) (18, -8.45242118835449220000e+000) (19, -7.66445302963256840000e+000) (20, -7.01333856582641600000e+000) (21, -7.69246816635131840000e+000) (22, -3.80480140447616580000e-001) (23, -6.45845651626586910000e+000) (24, -7.78243446350097660000e+000) (25, -4.15839052200317380000e+000) (26, 2.77349293231964110000e-001) (27, -3.60830664634704590000e+000) (28, -8.51072502136230470000e+000) (29, -8.28656387329101560000e+000) (30, -8.24842929840087890000e+000) (31, -8.17477798461914060000e+000) (32, -8.47450447082519530000e+000) (33, -7.50670433044433590000e+000) (34, -2.58194744586944580000e-001) (35, -3.03765487670898440000e+000) (36, -7.59804058074951170000e+000) (37, -7.19221067428588870000e+000) (38, 3.26053887605667110000e-001) (39, -5.63854455947875980000e-001) (40, -8.14329910278320310000e+000) (41, -7.71304416656494140000e+000) (42, -7.90102720260620120000e+000) (43, -8.21155738830566410000e+000) (44, -7.59907293319702150000e+000) (45, -7.65195703506469730000e+000) (46, -7.17092132568359380000e+000) (47, -7.39686965942382810000e+000) (48, -6.97850656509399410000e+000) (49, -5.74347972869873050000e+000) (50, -7.83098459243774410000e+000) (51, -7.22981452941894530000e+000) (52, -7.10104274749755860000e+000) (53, -7.09922122955322270000e+000) (54, -8.03433322906494140000e+000) (55, -7.96968173980712890000e+000) (56, 6.94785714149475100000e-002) (57, -7.21449470520019530000e+000) (58, -8.39377212524414060000e+000) (59, -7.27303981781005860000e+000) (60, -7.43621587753295900000e+000) (61, -7.65314149856567380000e+000) (62, -7.54786682128906250000e+000) (63, -8.38357067108154300000e+000) (64, -6.93817377090454100000e+000) (65, -7.49168157577514650000e+000) (66, -5.49685120582580570000e-001) (67, 9.07974317669868470000e-002) (68, -8.28689670562744140000e+000) (69, -8.20146751403808590000e+000) (70, -7.94572353363037110000e+000) (71, -7.49116516113281250000e+000) (72, -7.97754335403442380000e+000) (73, -8.38289642333984370000e+000) (74, -7.84753322601318360000e+000) (75, -7.95342588424682620000e+000) (76, -7.86501169204711910000e+000) (77, -8.29728507995605470000e+000) (11, -7.49605369567871090000e+000) (12, -4.83754682540893550000e+000) (13, -7.11774682998657230000e+000) (14, 1.74710348248481750000e-001) (15, -8.04921054840087890000e+000) (16, 2.30169948190450670000e-002) (17, -8.17465496063232420000e+000) (18, -8.09141826629638670000e+000) (19, -7.55907297134399410000e+000) (20, -7.38441991806030270000e+000) (21, -7.71622371673583980000e+000) (22, -2.48031243681907650000e-001) (23, -6.00594234466552730000e+000) (24, -8.38321018218994140000e+000) (25, -4.23644304275512700000e+000) (26, 3.32883298397064210000e-001) (27, -4.21454668045043950000e+000) (28, -8.08706283569335940000e+000) (29, -7.71155834197998050000e+000) (30, -7.13559293746948240000e+000) (31, -7.09192037582397460000e+000) (32, -8.24921894073486330000e+000) (33, -8.31522464752197270000e+000) (34, -7.82224714756011960000e-001) (35, -3.60263180732727050000e+000) (36, -7.76392745971679690000e+000) (37, -7.45210599899291990000e+000) (38, -9.70912203192710880000e-002) (39, -1.95767860859632490000e-002) (40, -7.91645717620849610000e+000) (41, -7.41794538497924800000e+000) (42, -8.24342250823974610000e+000) (43, -7.44936466217041020000e+000) (44, -7.43582439422607420000e+000) (45, -7.51189994812011720000e+000) (46, -7.54518604278564450000e+000) (47, -7.99280309677124020000e+000) (48, -7.37296152114868160000e+000) (49, -5.44002771377563480000e+000) (50, -7.90773820877075200000e+000) (51, -7.30155849456787110000e+000) (52, -7.54754972457885740000e+000) (53, -7.28548669815063480000e+000) (54, -7.84389305114746090000e+000) (55, -8.38107776641845700000e+000) (56, 3.18112164735794070000e-001) (57, -7.48685598373413090000e+000) (58, -8.10243988037109370000e+000) (59, -7.03915309906005860000e+000) (60, -7.67654180526733400000e+000) (61, -7.50659370422363280000e+000) (62, -8.29882431030273440000e+000) (63, -7.84786939620971680000e+000) (64, -6.76993227005004880000e+000) (65, -7.76148128509521480000e+000) (66, 1.81467160582542420000e-001) (67, 1.88995391130447390000e-001) (68, -8.38249015808105470000e+000) (69, -7.52108812332153320000e+000) (70, -8.08677387237548830000e+000) (71, -7.65508365631103520000e+000) (72, -7.45880413055419920000e+000) (73, -7.79800081253051760000e+000) (74, -7.82267045974731450000e+000) (75, -8.22780704498291020000e+000) (76, -8.31385707855224610000e+000) (77, -7.81096553802490230000e+000) (11, -7.51443195343017580000e+000) (12, -5.23679018020629880000e+000) (13, -6.85439491271972660000e+000) (14, 1.36507153511047360000e-001) (15, -8.46741580963134770000e+000) (16, 3.10619026422500610000e-001) (17, -7.65580463409423830000e+000) (18, -7.57417917251586910000e+000) (19, -7.25294017791748050000e+000) (20, -7.15914773941040040000e+000) (21, -7.91786050796508790000e+000) (22, -2.50399798154830930000e-001) (23, -6.46448993682861330000e+000) (24, -7.87342023849487300000e+000) (25, -4.74817752838134770000e+000) (26, 2.94598471373319630000e-003) (27, -3.41883301734924320000e+000) (28, -7.82865190505981450000e+000) (29, -7.60575532913208010000e+000) (30, -7.69540262222290040000e+000) (31, -8.16478443145751950000e+000) (32, -7.72047662734985350000e+000) (33, -7.80873107910156250000e+000) (34, -1.23875588178634640000e-001) (35, -3.12651681900024410000e+000) (36, -7.73380947113037110000e+000) (37, -6.93444538116455080000e+000) (38, -2.37658414989709850000e-002) (39, 3.62279534339904790000e-001) (40, -8.01244258880615230000e+000) (41, -7.97963905334472660000e+000) (42, -7.90859079360961910000e+000) (43, -8.38932991027832030000e+000) (44, -8.10943317413330080000e+000) (45, -7.27913236618041990000e+000) (46, -7.63945245742797850000e+000) (47, -6.95082426071166990000e+000) (48, -7.38992786407470700000e+000) (49, -5.33529901504516600000e+000) (50, -8.04792499542236330000e+000) (51, -6.96431159973144530000e+000) (52, -7.85026025772094730000e+000) (53, -7.32865905761718750000e+000) (54, -7.93355131149291990000e+000) (55, -8.00010204315185550000e+000) (56, -1.07890360057353970000e-001) (57, -8.01734924316406250000e+000) (58, -8.21558666229248050000e+000) (59, -7.39224481582641600000e+000) (60, -7.74174642562866210000e+000) (61, -7.59433603286743160000e+000) (62, -7.70166254043579100000e+000) (63, -7.60737895965576170000e+000) (64, -6.38750839233398440000e+000) (65, -7.93575906753540040000e+000) (66, 1.98971018195152280000e-001) (67, -3.18102777004241940000e-001) (68, -8.42384338378906250000e+000) (69, -8.23885345458984370000e+000) (70, -8.39031791687011720000e+000) (71, -8.07116508483886720000e+000) (72, -8.14883232116699220000e+000) (73, -7.90587091445922850000e+000) (74, -7.79910421371459960000e+000) (75, -8.05297279357910160000e+000) (76, -8.01733589172363280000e+000) (77, -8.52165508270263670000e+000) (11, -8.44567489624023440000e+000) (12, -5.22043657302856450000e+000) (13, -6.93492317199707030000e+000) (14, -4.48669463396072390000e-001) (15, -7.69026803970336910000e+000) (16, 3.33277046680450440000e-001) (17, -7.66667652130126950000e+000) (18, -8.07679080963134770000e+000) (19, -7.64300203323364260000e+000) (20, -7.00841760635375980000e+000) (21, -7.87861680984497070000e+000) (22, -3.23464632034301760000e-001) (23, -6.08162450790405270000e+000) (24, -8.45850372314453130000e+000) (25, -4.69828319549560550000e+000) (26, 3.59458774328231810000e-001) (27, -4.09220314025878910000e+000) (28, -7.51829528808593750000e+000) (29, -8.16164779663085940000e+000) (30, -7.24531173706054690000e+000) (31, -7.64145421981811520000e+000) (32, -7.64399623870849610000e+000) (33, -8.16519451141357420000e+000) (34, -4.20128613710403440000e-001) (35, -2.99402427673339840000e+000) (36, -8.05188846588134770000e+000) (37, -6.82101011276245120000e+000) (38, 3.93873751163482670000e-002) (39, -2.64804005622863770000e-001) (40, -8.33797454833984380000e+000) (41, -7.81862783432006840000e+000) (42, -8.07663249969482420000e+000) (43, -7.75363683700561520000e+000) (44, -7.29451560974121090000e+000) (45, -7.35378074645996090000e+000) (46, -7.41237449645996090000e+000) (47, -7.57510042190551760000e+000) (48, -7.34877538681030270000e+000) (49, -5.42672348022460940000e+000) (50, -7.90071105957031250000e+000) (51, -7.86950254440307620000e+000) (52, -7.57158565521240230000e+000) (53, -7.17531728744506840000e+000) (54, -7.83830070495605470000e+000) (55, -7.93944454193115230000e+000) (56, 4.40267473459243770000e-001) (57, -8.20990848541259770000e+000) (58, -7.87605428695678710000e+000) (59, -7.29868555068969730000e+000) (60, -7.93318843841552730000e+000) (61, -7.98826217651367190000e+000) (62, -7.71928882598876950000e+000) (63, -8.47173213958740230000e+000) (64, -6.31099605560302730000e+000) (65, -8.44698524475097660000e+000) (66, -3.30553174018859860000e-001) (67, 3.31663548946380620000e-001) (68, -7.89804410934448240000e+000) (69, -8.26271152496337890000e+000) (70, -8.16624450683593750000e+000) (71, -7.94783449172973630000e+000) (72, -8.11297798156738280000e+000) (73, -7.61618614196777340000e+000) (74, -8.30393695831298830000e+000) (75, -7.82563591003417970000e+000) (76, -7.65247678756713870000e+000) (77, -8.06691074371337890000e+000) (11, -7.68867683410644530000e+000) (12, -4.76857423782348630000e+000) (13, -6.86490249633789060000e+000) (14, 2.67557263374328610000e-001) (15, -7.69636869430541990000e+000) (16, -4.15613472461700440000e-001) (17, -8.03987598419189450000e+000) (18, -7.57856273651123050000e+000) (19, -7.76549911499023440000e+000) (20, -7.60890674591064450000e+000) (21, -7.70867156982421880000e+000) (22, -3.24742227792739870000e-001) (23, -6.23476076126098630000e+000) (24, -7.57076072692871090000e+000) (25, -4.63781070709228520000e+000) (26, 4.55008387565612790000e-001) (27, -3.51157331466674800000e+000) (28, -7.59943628311157230000e+000) (29, -8.37584686279296870000e+000) (30, -7.24643039703369140000e+000) (31, -7.64714384078979490000e+000) (32, -8.28967761993408200000e+000) (33, -7.96481657028198240000e+000) (34, -1.15043118596076970000e-001) (35, -3.25678396224975590000e+000) (36, -8.35125446319580080000e+000) (37, -6.93788909912109370000e+000) (38, -2.34066605567932130000e-001) (39, 4.17698711156845090000e-001) (40, -7.76421737670898440000e+000) (41, -7.78041601181030270000e+000) (42, -8.20821952819824220000e+000) (43, -8.07206344604492190000e+000) (44, -7.59890460968017580000e+000) (45, -7.10170412063598630000e+000) (46, -7.34112834930419920000e+000) (47, -7.12403440475463870000e+000) (48, -7.02718448638916020000e+000) (49, -5.89656019210815430000e+000) (50, -8.22515296936035160000e+000) (51, -7.68495225906372070000e+000) (52, -7.88718414306640620000e+000) (53, -7.33882522583007810000e+000) (54, -7.93595027923583980000e+000) (55, -7.75488758087158200000e+000) (56, -4.44038072600960730000e-003) (57, -8.02723598480224610000e+000) (58, -7.93902111053466800000e+000) (59, -7.92805480957031250000e+000) (60, -7.18405485153198240000e+000) (61, -8.21778869628906250000e+000) (62, -7.91827249526977540000e+000) (63, -8.29582118988037110000e+000) (64, -6.78041362762451170000e+000) (65, -8.25279712677001950000e+000) (66, 3.44366580247879030000e-001) (67, 7.37710595130920410000e-002) (68, -7.63764905929565430000e+000) (69, -8.07415771484375000000e+000) (70, -7.99792528152465820000e+000) (71, -8.33847332000732420000e+000) (72, -8.33834552764892580000e+000) (73, -7.98846244812011720000e+000) (74, -7.50673437118530270000e+000) (75, -8.36204624176025390000e+000) (76, -7.47436714172363280000e+000) (77, -7.67080068588256840000e+000) (11, -7.72786664962768550000e+000) (12, -5.02993297576904300000e+000) (13, -6.83783149719238280000e+000) (14, 2.78445780277252200000e-001) (15, -7.53033733367919920000e+000) (16, -9.32843834161758420000e-002) (17, -8.45003795623779300000e+000) (18, -8.05480384826660160000e+000) (19, -7.63902425765991210000e+000) (20, -6.69188117980957030000e+000) (21, -8.45023822784423830000e+000) (22, 4.76473689079284670000e-001) (23, -6.36492490768432620000e+000) (24, -8.24058532714843750000e+000) (25, -4.12985563278198240000e+000) (26, -4.53841648995876310000e-002) (27, -3.71071815490722660000e+000) (28, -7.91290235519409180000e+000) (29, -7.79344558715820310000e+000) (30, -7.56032800674438480000e+000) (31, -7.43768548965454100000e+000) (32, -7.69351530075073240000e+000) (33, -8.45028305053710940000e+000) (34, -1.75520390272140500000e-001) (35, -3.52206635475158690000e+000) (36, -7.56163024902343750000e+000) (37, -7.22335386276245120000e+000) (38, -4.57237988710403440000e-001) (39, 2.98186182975769040000e-001) (40, -8.48194885253906250000e+000) (41, -8.29196166992187500000e+000) (42, -8.00181674957275390000e+000) (43, -7.64604520797729490000e+000) (44, -7.60219144821166990000e+000) (45, -7.09092521667480470000e+000) (46, -7.27519321441650390000e+000) (47, -6.88038969039916990000e+000) (48, -7.48604440689086910000e+000) (49, -5.78156661987304690000e+000) (50, -8.18478488922119140000e+000) (51, -7.31950473785400390000e+000) (52, -7.54983472824096680000e+000) (53, -7.62710809707641600000e+000) (54, -8.46820163726806640000e+000) (55, -7.99191141128540040000e+000) (56, 1.67866647243499760000e-001) (57, -7.33792972564697270000e+000) (58, -7.90038347244262700000e+000) (59, -7.82969570159912110000e+000) (60, -7.04819202423095700000e+000) (61, -7.72802209854125980000e+000) (62, -8.19521808624267580000e+000) (63, -8.29122066497802730000e+000) (64, -6.41223144531250000000e+000) (65, -7.51685380935668950000e+000) (66, 