FANN_FLO_2.1
num_layers=4
learning_rate=0.700000
connection_rate=1.000000
network_type=0
learning_momentum=0.000000
training_algorithm=2
train_error_function=1
train_stop_function=0
cascade_output_change_fraction=0.010000
quickprop_decay=-0.000100
quickprop_mu=1.750000
rprop_increase_factor=1.200000
rprop_decrease_factor=0.500000
rprop_delta_min=0.000000
rprop_delta_max=50.000000
rprop_delta_zero=0.100000
cascade_output_stagnation_epochs=12
cascade_candidate_change_fraction=0.010000
cascade_candidate_stagnation_epochs=12
cascade_max_out_epochs=150
cascade_max_cand_epochs=150
cascade_num_candidate_groups=2
bit_fail_limit=3.49999994039535520000e-001
cascade_candidate_limit=1.00000000000000000000e+003
cascade_weight_multiplier=4.00000005960464480000e-001
cascade_activation_functions_count=10
cascade_activation_functions=3 5 7 8 10 11 14 15 16 17 
cascade_activation_steepnesses_count=4
cascade_activation_steepnesses=2.50000000000000000000e-001 5.00000000000000000000e-001 7.50000000000000000000e-001 1.00000000000000000000e+000 
layer_sizes=11 21 19 3 
scale_included=0
neurons (num_inputs, activation_function, activation_steepness)=(0, 0, 0.00000000000000000000e+000) (0, 0, 0.00000000000000000000e+000) (0, 0, 0.00000000000000000000e+000) (0, 0, 0.00000000000000000000e+000) (0, 0, 0.00000000000000000000e+000) (0, 0, 0.00000000000000000000e+000) (0, 0, 0.00000000000000000000e+000) (0, 0, 0.00000000000000000000e+000) (0, 0, 0.00000000000000000000e+000) (0, 0, 0.00000000000000000000e+000) (0, 0, 0.00000000000000000000e+000) (11, 10, 5.00000000000000000000e-001) (11, 10, 5.00000000000000000000e-001) (11, 10, 5.00000000000000000000e-001) (11, 10, 5.00000000000000000000e-001) (11, 10, 5.00000000000000000000e-001) (11, 10, 5.00000000000000000000e-001) (11, 10, 5.00000000000000000000e-001) (11, 10, 5.00000000000000000000e-001) (11, 10, 5.00000000000000000000e-001) (11, 10, 5.00000000000000000000e-001) (11, 10, 5.00000000000000000000e-001) (11, 10, 5.00000000000000000000e-001) (11, 10, 5.00000000000000000000e-001) (11, 10, 5.00000000000000000000e-001) (11, 10, 5.00000000000000000000e-001) (11, 10, 5.00000000000000000000e-001) (11, 10, 5.00000000000000000000e-001) (11, 10, 5.00000000000000000000e-001) (11, 10, 5.00000000000000000000e-001) (11, 10, 5.00000000000000000000e-001) (0, 10, 5.00000000000000000000e-001) (21, 10, 5.00000000000000000000e-001) (21, 10, 5.00000000000000000000e-001) (21, 10, 5.00000000000000000000e-001) (21, 10, 5.00000000000000000000e-001) (21, 10, 5.00000000000000000000e-001) (21, 10, 5.00000000000000000000e-001) (21, 10, 5.00000000000000000000e-001) (21, 10, 5.00000000000000000000e-001) (21, 10, 5.00000000000000000000e-001) (21, 10, 5.00000000000000000000e-001) (21, 10, 5.00000000000000000000e-001) (21, 10, 5.00000000000000000000e-001) (21, 10, 5.00000000000000000000e-001) (21, 10, 5.00000000000000000000e-001) (21, 10, 5.00000000000000000000e-001) (21, 10, 5.00000000000000000000e-001) (21, 10, 5.00000000000000000000e-001) (21, 10, 5.00000000000000000000e-001) (0, 10, 5.00000000000000000000e-001) (19, 0, 5.00000000000000000000e-001) (19, 0, 5.00000000000000000000e-001) (0, 0, 5.00000000000000000000e-001) 
connections (connected_to_neuron, weight)=(0, 2.81653255224227910000e-001) (1, -2.79847359657287600000e+000) (2, -2.15172863006591800000e+000) (3, -4.24492508172988890000e-001) (4, -1.68189764022827150000e+000) (5, -2.56691956520080570000e+000) (6, -9.47453558444976810000e-001) (7, 1.55238419771194460000e-001) (8, -2.59318768978118900000e-001) (9, -6.37411594390869140000e-001) (10, -3.61836820840835570000e-001) (0, -1.83777570724487300000e-001) (1, -1.87326736450195310000e+001) (2, -1.98059845715761180000e-002) (3, 1.47971004247665410000e-001) (4, -8.97898292541503910000e+000) (5, -1.92112674713134770000e+001) (6, -1.88089885711669920000e+001) (7, 4.29472386837005620000e-001) (8, -2.66546130180358890000e+000) (9, -1.90296535491943360000e+001) (10, -1.07292411848902700000e-002) (0, 2.28802099823951720000e-001) (1, 5.63407421112060550000e+000) (2, 4.58569765090942380000e+000) (3, 6.58149242401123050000e-001) (4, 2.84783101081848140000e+000) (5, 4.01163721084594730000e+000) (6, 3.49817299842834470000e+000) (7, 4.47327315807342530000e-001) (8, 3.99408626556396480000e+000) (9, 1.24810135364532470000e+000) (10, 5.00000178813934330000e-001) (0, 5.19711077213287350000e-002) (1, -1.81794583797454830000e+000) (2, -5.89924395084381100000e-001) (3, 1.07478365302085880000e-001) (4, -8.15937101840972900000e-001) (5, 7.81070709228515630000e-001) (6, -2.52361464500427250000e+000) (7, -5.13770222663879390000e-001) (8, 1.58391758799552920000e-001) (9, -1.38084948062896730000e-001) (10, 7.01732337474823000000e-002) (0, 3.52316349744796750000e-001) (1, 1.20580220222473140000e+000) (2, 5.86371600627899170000e-001) (3, 8.10952603816986080000e-001) (4, 2.09250822663307190000e-001) (5, 7.99820005893707280000e-001) (6, 1.30124938488006590000e+000) (7, -1.16630829870700840000e-002) (8, 2.80161905288696290000e+000) (9, 7.08006143569946290000e-001) (10, 1.25360339879989620000e-001) (0, -2.83039212226867680000e-001) (1, 1.21679246425628660000e+000) (2, -1.42168462276458740000e-001) (3, 8.12562823295593260000e-001) (4, 5.11507332324981690000e-001) (5, 8.34282338619232180000e-001) (6, 1.07663559913635250000e+000) (7, -2.49940082430839540000e-001) (8, 2.55231833457946780000e+000) (9, 1.22296142578125000000e+000) (10, 6.93510547280311580000e-002) (0, 4.82844620943069460000e-001) (1, 5.67968702316284180000e+000) (2, 7.23907351493835450000e-001) (3, 3.09962332248687740000e-001) (4, 3.08204817771911620000e+000) (5, 5.39943408966064450000e+000) (6, 4.93033933639526370000e+000) (7, 1.68436124920845030000e-001) (8, 3.79669308662414550000e+000) (9, 4.95189809799194340000e+000) (10, -1.75762057304382320000e-001) (0, 2.71202832460403440000e-001) (1, 4.03526484966278080000e-001) (2, 2.66437113285064700000e-001) (3, 5.38608372211456300000e-001) (4, 2.66587764024734500000e-001) (5, -1.38046070933341980000e-001) (6, 3.64789873361587520000e-001) (7, -1.07267826795578000000e-001) (8, 3.79503965377807620000e-001) (9, 1.89177602529525760000e-001) (10, -3.21951545774936680000e-002) (0, -2.83989071846008300000e-001) (1, 2.24502301216125490000e+000) (2, 1.20974719524383540000e+000) (3, 9.33167576789855960000e-001) (4, 5.88208496570587160000e-001) (5, 1.50290310382843020000e+000) (6, 1.50708723068237300000e+000) (7, 1.85800135135650630000e-001) (8, 3.19323849678039550000e+000) (9, 1.33683264255523680000e+000) (10, 3.10792118310928340000e-001) (0, -2.00308546423912050000e-001) (1, 1.02213668823242190000e+000) (2, 3.58169764280319210000e-001) (3, 3.65042269229888920000e-001) (4, 5.20210683345794680000e-001) (5, 7.06824243068695070000e-001) (6, 9.47347342967987060000e-001) (7, 5.06893277168273930000e-001) (8, 2.07262516021728520000e+000) (9, 5.36892831325531010000e-001) (10, -2.67020940780639650000e-001) (0, -1.81518852710723880000e-001) (1, 4.70050621032714840000e+000) (2, 6.86701118946075440000e-001) (3, 1.28523981571197510000e+000) (4, 3.08263802528381350000e+000) (5, 6.20157289505004880000e+000) (6, 5.13246774673461910000e+000) (7, 1.34970575571060180000e-001) (8, 6.15563011169433590000e+000) (9, 1.60765755176544190000e+000) (10, -2.08753690123558040000e-001) (0, -3.18907678127288820000e-001) (1, 4.45540457963943480000e-001) (2, 1.71522737946361300000e-003) (3, 7.64670297503471370000e-002) (4, -3.87721657752990720000e-002) (5, 2.05938890576362610000e-001) (6, 2.17112243175506590000e-001) (7, -1.42926588654518130000e-001) (8, 5.41491270065307620000e-001) (9, 9.36770886182785030000e-002) (10, -1.95301622152328490000e-001) (0, 2.19584509730339050000e-001) (1, 1.81578874588012700000e+000) (2, 3.21329504251480100000e-001) (3, 4.38528388738632200000e-001) (4, 6.74516499042510990000e-001) (5, 1.23602592945098880000e+000) (6, 1.48095631599426270000e+000) (7, 2.13335528969764710000e-002) (8, 3.53876447677612300000e+000) (9, 1.20187711715698240000e+000) (10, -2.67785072326660160000e-001) (0, 5.00624477863311770000e-001) (1, 1.88536071777343750000e+000) (2, 8.65897297859191890000e-001) (3, 3.44638139009475710000e-001) (4, 3.25582265853881840000e-001) (5, 9.73549187183380130000e-001) (6, 1.38945794105529790000e+000) (7, 3.53811949491500850000e-001) (8, 3.67691040039062500000e+000) (9, 1.34524965286254880000e+000) (10, 1.74942255020141600000e-001) (0, -4.14958484470844270000e-002) (1, 1.82004296779632570000e+000) (2, 8.26272010803222660000e-001) (3, 4.25013929605484010000e-001) (4, 3.86706650257110600000e-001) (5, 6.02900803089141850000e-001) (6, 1.64208984375000000000e+000) (7, 4.06055569648742680000e-001) (8, 3.00951910018920900000e+000) (9, 9.12518441677093510000e-001) (10, 2.72693961858749390000e-001) (0, 8.99014025926589970000e-002) (1, 1.60601747035980220000e+000) (2, 9.84745085239410400000e-001) (3, 5.98776519298553470000e-001) (4, 5.68769931793212890000e-001) (5, 1.30215692520141600000e+000) (6, 1.61631512641906740000e+000) (7, 4.43361937999725340000e-001) (8, 3.39061498641967770000e+000) (9, 1.14752423763275150000e+000) (10, -3.85078102350234990000e-001) (0, 3.08290868997573850000e-001) (1, -2.72868037223815920000e+000) (2, -1.62320888042449950000e+000) (3, -2.75458637624979020000e-002) (4, -1.28822898864746090000e+000) (5, 1.70466423034667970000e+000) (6, -2.64229917526245120000e+000) (7, 3.68715256452560420000e-001) (8, -1.64112553000450130000e-001) (9, 1.46488294005393980000e-001) (10, -9.78032350540161130000e-002) (0, 1.41365066170692440000e-001) (1, 1.59227037429809570000e+000) (2, 5.22435486316680910000e-001) (3, 8.64544808864593510000e-001) (4, 8.46968114376068120000e-001) (5, 1.37685286998748780000e+000) (6, 1.67356026172637940000e+000) (7, -1.96297675371170040000e-001) (8, 3.34024763107299800000e+000) (9, 1.13803052902221680000e+000) (10, -1.33417531847953800000e-001) (0, -1.56547650694847110000e-001) (1, 1.81636726856231690000e+000) (2, 7.82026410102844240000e-001) (3, 8.30003678798675540000e-001) (4, 8.63470137119293210000e-001) (5, 7.14487791061401370000e-001) (6, 1.52884316444396970000e+000) (7, -1.58851131796836850000e-001) (8, 3.45190978050231930000e+000) (9, 1.47592008113861080000e+000) (10, 2.20461085438728330000e-001) (0, 7.30495899915695190000e-002) (1, -6.90168976783752440000e-001) (2, -2.52791911363601680000e-001) (3, -2.89997458457946780000e-001) (4, 6.40149116516113280000e-002) (5, -5.35217106342315670000e-001) (6, -4.62788939476013180000e-001) (7, 6.25225994735956190000e-003) (8, -5.18612861633300780000e-001) (9, -1.27555197104811670000e-002) (10, -2.38070920109748840000e-001) (11, -7.48330578207969670000e-002) (12, -8.23679327964782710000e-001) (13, -1.70124111175537110000e+001) (14, -2.05143475532531740000e+000) (15, -1.29891080856323240000e+001) (16, -1.22329339981079100000e+001) (17, -1.66399574279785160000e+001) (18, -1.57022476196289060000e+000) (19, -1.68355789184570310000e+001) (20, -1.02668371200561520000e+001) (21, -1.69719791412353520000e+001) (22, -1.58762025833129880000e+000) (23, -1.71850128173828130000e+001) (24, -1.69298820495605470000e+001) (25, -1.54376869201660160000e+001) (26, -1.67853317260742190000e+001) (27, -1.79260218143463130000e+000) (28, -1.68981838226318360000e+001) (29, -1.73063220977783200000e+001) (30, 3.63974004983901980000e-001) (31, -1.69733295440673830000e+001) (11, -3.77510994672775270000e-001) (12, -1.40933859348297120000e+000) (13, -1.72031421661376950000e+001) (14, -2.56243681907653810000e+000) (15, -1.32583045959472660000e+001) (16, -1.24595851898193360000e+001) (17, -1.51827049255371090000e+001) (18, -2.27429389953613280000e+000) (19, -1.75521430969238280000e+001) (20, -9.71088123321533200000e+000) (21, -1.69109725952148440000e+001) (22, -1.75875437259674070000e+000) (23, -1.70290470123291020000e+001) (24, -1.73856945037841800000e+001) (25, -1.45702075958251950000e+001) (26, -1.76706886291503910000e+001) (27, -2.07242274284362790000e+000) (28, -1.73447761535644530000e+001) (29, -1.72372379302978520000e+001) (30, 3.08589696884155270000e-001) (31, -1.72336120605468750000e+001) (11, -3.56334090232849120000e-001) (12, -1.30585059523582460000e-001) (13, -1.69096755981445310000e+001) (14, -1.07690739631652830000e+000) (15, -1.28525876998901370000e+001) (16, -1.30038137435913090000e+001) (17, -1.62948112487792970000e+001) (18, -1.62094700336456300000e+000) (19, -1.69796962738037110000e+001) (20, -9.90862655639648440000e+000) (21, -1.60486564636230470000e+001) (22, -1.20320761203765870000e+000) (23, -1.69505977630615230000e+001) (24, -1.73395767211914060000e+001) (25, -1.60449333190917970000e+001) (26, -1.68272933959960940000e+001) (27, -1.46921920776367190000e+000) (28, -1.66132736206054690000e+001) (29, -1.71500205993652340000e+001) (30, 1.64266809821128850000e-001) (31, -1.74438476562500000000e+001) (11, 1.93293631076812740000e-001) (12, -7.56817579269409180000e-001) (13, -1.72035942077636720000e+001) (14, -2.28109765052795410000e+000) (15, -1.32087059020996090000e+001) (16, -1.27429122924804690000e+001) (17, -1.61929187774658200000e+001) (18, -2.29734134674072270000e+000) (19, -1.76015224456787110000e+001) (20, -1.00767240524291990000e+001) (21, -1.66689834594726560000e+001) (22, -1.28624510765075680000e+000) (23, -1.68223628997802730000e+001) (24, -1.67338600158691410000e+001) (25, -1.55596055984497070000e+001) (26, -1.70694904327392580000e+001) (27, -1.83199644088745120000e+000) (28, -1.69352111816406250000e+001) (29, -1.70357341766357420000e+001) (30, 3.80171239376068120000e-001) (31, -1.70095539093017580000e+001) (11, 1.59296780824661250000e-001) (12, 1.75056576728820800000e-001) (13, -1.63873939514160160000e+001) (14, -2.80409455299377440000e+000) (15, -1.29512538909912110000e+001) (16, -1.24609956741333010000e+001) (17, -1.72152214050292970000e+001) (18, -2.09676909446716310000e+000) (19, -1.73172855377197270000e+001) (20, -9.82673454284667970000e+000) (21, -1.73087234497070310000e+001) (22, -1.52327835559844970000e+000) (23, -1.66552810668945310000e+001) (24, -1.68132133483886720000e+001) (25, -1.43167200088500980000e+001) (26, -1.71755123138427730000e+001) (27, -2.47747823596000670000e-001) (28, -1.74643707275390630000e+001) (29, -1.66491279602050780000e+001) (30, -1.96020528674125670000e-001) (31, -1.75014553070068360000e+001) (11, 7.55306929349899290000e-002) (12, -9.51819241046905520000e-001) (13, -1.69157352447509770000e+001) (14, -1.90085411071777340000e+000) (15, -1.36179752349853520000e+001) (16, -1.27610025405883790000e+001) (17, -1.61836528778076170000e+001) (18, -2.25634527206420900000e+000) (19, -1.70236396789550780000e+001) (20, -1.02591161727905270000e+001) (21, -1.65538158416748050000e+001) (22, -1.91617369651794430000e+000) (23, -1.68925437927246090000e+001) (24, -1.67969970703125000000e+001) (25, -1.59153213500976560000e+001) (26, -1.71614112854003910000e+001) (27, -1.81578660011291500000e+000) (28, -1.64772624969482420000e+001) (29, -1.71770210266113280000e+001) (30, 6.26472979784011840000e-002) (31, -1.66464672088623050000e+001) (11, -3.96559327840805050000e-001) (12, -4.32377547025680540000e-001) (13, -1.69531269073486330000e+001) (14, -1.33223414421081540000e+000) (15, -1.35191068649291990000e+001) (16, -1.29731998443603520000e+001) (17, -1.63048572540283200000e+001) (18, -1.89394187927246090000e+000) (19, -1.71885128021240230000e+001) (20, -1.02717208862304690000e+001) (21, -1.58677968978881840000e+001) (22, -1.93817710876464840000e+000) (23, -1.65711441040039060000e+001) (24, -1.71665344238281250000e+001) (25, -1.54274282455444340000e+001) (26, -1.69833106994628910000e+001) (27, -1.18917715549468990000e+000) (28, -1.67072505950927730000e+001) (29, -1.74443759918212890000e+001) (30, 1.83176040649414060000e-001) (31, -1.71234378814697270000e+001) (11, -8.98975357413291930000e-002) (12, -2.19704806804656980000e-001) (13, -1.72023658752441410000e+001) (14, -1.12339067459106450000e+000) (15, -1.30821962356567380000e+001) (16, -1.22504358291625980000e+001) (17, -1.66906356811523440000e+001) (18, -2.02580523490905760000e+000) (19, -1.74285583496093750000e+001) (20, -9.70411682128906250000e+000) (21, -1.69724483489990230000e+001) (22, -1.75056350231170650000e+000) (23, -1.67725753784179690000e+001) (24, -1.73801212310791020000e+001) (25, -1.56432075500488280000e+001) (26, -1.64039878845214840000e+001) (27, -1.42488694190979000000e+000) (28, -1.68043861389160160000e+001) (29, -1.71455574035644530000e+001) (30, 1.23542807996273040000e-001) (31, -1.73907165527343750000e+001) (11, -3.95067155361175540000e-001) (12, -6.03738129138946530000e-001) (13, -1.71570873260498050000e+001) (14, -1.36613750457763670000e+000) (15, -1.31161994934082030000e+001) (16, -1.23370695114135740000e+001) (17, -1.60878143310546880000e+001) (18, -1.79134082794189450000e+000) (19, -1.70618934631347660000e+001) (20, -9.65848350524902340000e+000) (21, -1.64754257202148440000e+001) (22, -1.59641003608703610000e+000) (23, -1.66448345184326170000e+001) (24, -1.73041667938232420000e+001) (25, -1.59252214431762700000e+001) (26, -1.65896606445312500000e+001) (27, -1.75298070907592770000e+000) (28, -1.72706069946289060000e+001) (29, -1.72977352142333980000e+001) (30, 3.49975258111953740000e-001) (31, -1.71551494598388670000e+001) (11, 9.42327752709388730000e-002) (12, -9.05323088169097900000e-001) (13, -1.73484306335449220000e+001) (14, -1.82933259010314940000e+000) (15, -1.33396110534667970000e+001) (16, -1.24276628494262700000e+001) (17, -1.63383731842041020000e+001) (18, -2.00392246246337890000e+000) (19, -1.73618183135986330000e+001) (20, -1.03995065689086910000e+001) (21, -1.59442806243896480000e+001) (22, -1.82768130302429200000e+000) (23, -1.71918601989746090000e+001) (24, -1.64256935119628910000e+001) (25, -1.55932111740112300000e+001) (26, -1.64597778320312500000e+001) (27, -1.01380801200866700000e+000) (28, -1.73848724365234380000e+001) (29, -1.71943435668945310000e+001) (30, 7.06730708479881290000e-002) (31, -1.73602390289306640000e+001) (11, -1.04198111221194270000e-002) (12, -9.68954384326934810000e-001) (13, -1.74135265350341800000e+001) (14, -1.62764561176300050000e+000) (15, -1.36113576889038090000e+001) (16, -1.29493618011474610000e+001) (17, -1.65361499786376950000e+001) (18, -2.56606054306030270000e+000) (19, -1.66011199951171880000e+001) (20, -9.87292289733886720000e+000) (21, -1.66850681304931640000e+001) (22, -1.80962026119232180000e+000) (23, -1.66684608459472660000e+001) (24, -1.65673751831054690000e+001) (25, -1.57918443679809570000e+001) (26, -1.70422763824462890000e+001) (27, -1.41170513629913330000e+000) (28, -1.70616569519042970000e+001) (29, -1.69701843261718750000e+001) (30, -5.42762577533721920000e-001) (31, -1.69882221221923830000e+001) (11, 1.41954094171524050000e-001) (12, -2.49999970197677610000e-001) (13, -1.63881607055664060000e+001) (14, -1.37788486480712890000e+000) (15, -1.33610343933105470000e+001) (16, -1.27842674255371090000e+001) (17, -1.65391941070556640000e+001) (18, -2.25467944145202640000e+000) (19, -1.71563205718994140000e+001) (20, -1.03687219619750980000e+001) (21, -1.60636653900146480000e+001) (22, -1.81158161163330080000e+000) (23, -1.63073425292968750000e+001) (24, -1.68695640563964840000e+001) (25, -1.56885824203491210000e+001) (26, -1.66193809509277340000e+001) (27, -1.59661448001861570000e+000) (28, -1.68031101226806640000e+001) (29, -1.71831130981445310000e+001) (30, 2.97632869333028790000e-002) (31, -1.73818206787109370000e+001) (11, -4.28052097558975220000e-001) (12, -2.02938890457153320000e+000) (13, -1.70522518157958980000e+001) (14, -3.04124355316162110000e+000) (15, -1.32942743301391600000e+001) (16, -1.28457832336425780000e+001) (17, -1.52824583053588870000e+001) (18, -1.99837136268615720000e+000) (19, -1.79067630767822270000e+001) (20, -1.01717538833618160000e+001) (21, -1.70876979827880860000e+001) (22, -1.17111122608184810000e+000) (23, -1.71871051788330080000e+001) (24, -1.77503795623779300000e+001) (25, -1.40432691574096680000e+001) (26, -1.71207313537597660000e+001) (27, -3.39999675750732420000e+000) (28, -1.71926345825195310000e+001) (29, -1.77167510986328120000e+001) (30, 1.13516442477703090000e-001) (31, -1.72856235504150390000e+001) (11, 4.99499738216400150000e-001) (12, -9.99999523162841800000e-001) (13, -1.68898868560791020000e+001) (14, -1.17858016490936280000e+000) (15, -1.36967420578002930000e+001) (16, -1.29177131652832030000e+001) (17, -1.60284767150878910000e+001) (18, -1.60019814968109130000e+000) (19, -1.73825874328613280000e+001) (20, -9.73215484619140620000e+000) (21, -1.63774299621582030000e+001) (22, -1.66444039344787600000e+000) (23, -1.66464881896972660000e+001) (24, -1.68104572296142580000e+001) (25, -1.61688385009765620000e+001) (26, -1.68681583404541020000e+001) (27, -1.62265443801879880000e+000) (28, -1.69027538299560550000e+001) (29, -1.66635684967041020000e+001) (30, -4.15724307298660280000e-001) (31, -1.66370944976806640000e+001) (11, 2.10755452513694760000e-001) (12, -7.90343642234802250000e-001) (13, -1.66457958221435550000e+001) (14, -1.98160243034362790000e+000) (15, -1.35516777038574220000e+001) (16, -1.23924884796142580000e+001) (17, -1.60975723266601560000e+001) (18, -1.90477812290191650000e+000) (19, -1.69808998107910160000e+001) (20, -9.73437881469726560000e+000) (21, -1.71301116943359380000e+001) (22, -1.70306456089019780000e+000) (23, -1.66183147430419920000e+001) (24, -1.74696292877197270000e+001) (25, -1.57230319976806640000e+001) (26, -1.71353511810302730000e+001) (27, -1.72806477546691890000e+000) (28, -1.71581001281738280000e+001) (29, -1.73426189422607420000e+001) (30, 1.07408992946147920000e-001) (31, -1.71418819427490230000e+001) (11, -3.81910741329193120000e-001) (12, -2.18755674362182620000e+000) (13, -1.79747066497802730000e+001) (14, -3.35920262336730960000e+000) (15, -1.28715238571166990000e+001) (16, -1.23329963684082030000e+001) (17, -1.42456531524658200000e+001) (18, -1.59029185771942140000e+000) (19, -1.78497905731201170000e+001) (20, -1.00062036514282230000e+001) (21, -1.75359973907470700000e+001) (22, -1.81930840015411380000e+000) (23, -1.73563079833984370000e+001) (24, -1.71826457977294920000e+001) (25, -1.34741573333740230000e+001) (26, -1.75782928466796870000e+001) (27, -3.29622793197631840000e+000) (28, -1.76913032531738280000e+001) (29, -1.71189384460449220000e+001) (30, -4.45706434547901150000e-002) (31, -1.76041240692138670000e+001) (11, 3.48131537437438960000e-001) (12, -1.25950283836573360000e-003) (13, -1.66783466339111330000e+001) (14, -2.59768486022949220000e+000) (15, -1.31239166259765630000e+001) (16, -1.24241275787353520000e+001) (17, -1.68030471801757810000e+001) (18, -1.53536748886108400000e+000) (19, -1.69594440460205080000e+001) (20, -9.68364334106445310000e+000) (21, -1.68953857421875000000e+001) (22, -1.26520025730133060000e+000) (23, -1.67756423950195310000e+001) (24, -1.72569160461425780000e+001) (25, -1.52783956527709960000e+001) (26, -1.71901817321777340000e+001) (27, -7.85588026046752930000e-001) (28, -1.70079898834228520000e+001) (29, -1.70666046142578120000e+001) (30, 1.58002153038978580000e-001) (31, -1.74931735992431640000e+001) (11, -7.51099735498428340000e-002) (12, -1.75209128856658940000e+000) (13, -1.68565216064453130000e+001) (14, -2.16912746429443360000e+000) (15, -1.28668317794799800000e+001) (16, -1.29812393188476560000e+001) (17, -1.50865192413330080000e+001) (18, -1.91621518135070800000e+000) (19, -1.76960353851318360000e+001) (20, -1.00251111984252930000e+001) (21, -1.74190387725830080000e+001) (22, -1.90968799591064450000e+000) (23, -1.70065898895263670000e+001) (24, -1.70867919921875000000e+001) (25, -1.52835931777954100000e+001) (26, -1.67593135833740230000e+001) (27, -2.16745424270629880000e+000) (28, -1.73287429809570310000e+001) (29, -1.75154857635498050000e+001) (30, -4.05681014060974120000e-001) (31, -1.76669845581054690000e+001) (32, 3.00095468759536740000e-001) (33, 6.55839741230010990000e-002) (34, 2.31297925114631650000e-001) (35, 1.88351795077323910000e-001) (36, 1.99487417936325070000e-001) (37, 9.35072973370552060000e-002) (38, 2.19228595495224000000e-001) (39, 1.17938369512557980000e-001) (40, 1.38588845729827880000e-001) (41, 1.03569835424423220000e-001) (42, -7.53825902938842770000e-002) (43, 1.54104664921760560000e-001) (44, 1.12382888793945310000e-001) (45, 1.82418912649154660000e-001) (46, 1.49017021059989930000e-001) (47, 2.44851648807525630000e-001) (48, 2.18970060348510740000e-001) (49, 7.04683884978294370000e-002) (50, 1.98797130584716800000e+000) (32, -2.71587222814559940000e-001) (33, 1.95123761892318730000e-001) (34, 3.52934777736663820000e-001) (35, 4.47846651077270510000e-001) (36, -3.51229459047317500000e-001) (37, -3.06020408868789670000e-001) (38, -1.14470280706882480000e-001) (39, -4.00910139083862300000e-001) (40, -3.76937687397003170000e-001) (41, -2.09821537137031560000e-001) (42, 2.32841566205024720000e-001) (43, 1.84292465448379520000e-001) (44, 4.76119399070739750000e-001) (45, -1.40925362706184390000e-001) (46, 6.21992759406566620000e-002) (47, -3.79757821559906010000e-001) (48, -2.99298256635665890000e-001) (49, 9.75467339158058170000e-002) (50, 3.57401184737682340000e-003) 
