FANN_FLO_2.1
num_layers=4
learning_rate=0.700000
connection_rate=1.000000
network_type=0
learning_momentum=0.000000
training_algorithm=2
train_error_function=1
train_stop_function=0
cascade_output_change_fraction=0.010000
quickprop_decay=-0.000100
quickprop_mu=1.750000
rprop_increase_factor=1.200000
rprop_decrease_factor=0.500000
rprop_delta_min=0.000000
rprop_delta_max=50.000000
rprop_delta_zero=0.100000
cascade_output_stagnation_epochs=12
cascade_candidate_change_fraction=0.010000
cascade_candidate_stagnation_epochs=12
cascade_max_out_epochs=150
cascade_max_cand_epochs=150
cascade_num_candidate_groups=2
bit_fail_limit=3.49999994039535520000e-001
cascade_candidate_limit=1.00000000000000000000e+003
cascade_weight_multiplier=4.00000005960464480000e-001
cascade_activation_functions_count=10
cascade_activation_functions=3 5 7 8 10 11 14 15 16 17 
cascade_activation_steepnesses_count=4
cascade_activation_steepnesses=2.50000000000000000000e-001 5.00000000000000000000e-001 7.50000000000000000000e-001 1.00000000000000000000e+000 
layer_sizes=11 34 23 3 
scale_included=0
neurons (num_inputs, activation_function, activation_steepness)=(0, 0, 0.00000000000000000000e+000) (0, 0, 0.00000000000000000000e+000) (0, 0, 0.00000000000000000000e+000) (0, 0, 0.00000000000000000000e+000) (0, 0, 0.00000000000000000000e+000) (0, 0, 0.00000000000000000000e+000) (0, 0, 0.00000000000000000000e+000) (0, 0, 0.00000000000000000000e+000) (0, 0, 0.00000000000000000000e+000) (0, 0, 0.00000000000000000000e+000) (0, 0, 0.00000000000000000000e+000) (11, 10, 5.00000000000000000000e-001) (11, 10, 5.00000000000000000000e-001) (11, 10, 5.00000000000000000000e-001) (11, 10, 5.00000000000000000000e-001) (11, 10, 5.00000000000000000000e-001) (11, 10, 5.00000000000000000000e-001) (11, 10, 5.00000000000000000000e-001) (11, 10, 5.00000000000000000000e-001) (11, 10, 5.00000000000000000000e-001) (11, 10, 5.00000000000000000000e-001) (11, 10, 5.00000000000000000000e-001) (11, 10, 5.00000000000000000000e-001) (11, 10, 5.00000000000000000000e-001) (11, 10, 5.00000000000000000000e-001) (11, 10, 5.00000000000000000000e-001) (11, 10, 5.00000000000000000000e-001) (11, 10, 5.00000000000000000000e-001) (11, 10, 5.00000000000000000000e-001) (11, 10, 5.00000000000000000000e-001) (11, 10, 5.00000000000000000000e-001) (11, 10, 5.00000000000000000000e-001) (11, 10, 5.00000000000000000000e-001) (11, 10, 5.00000000000000000000e-001) (11, 10, 5.00000000000000000000e-001) (11, 10, 5.00000000000000000000e-001) (11, 10, 5.00000000000000000000e-001) (11, 10, 5.00000000000000000000e-001) (11, 10, 5.00000000000000000000e-001) (11, 10, 5.00000000000000000000e-001) (11, 10, 5.00000000000000000000e-001) (11, 10, 5.00000000000000000000e-001) (11, 10, 5.00000000000000000000e-001) (11, 10, 5.00000000000000000000e-001) (0, 10, 5.00000000000000000000e-001) (34, 10, 5.00000000000000000000e-001) (34, 10, 5.00000000000000000000e-001) (34, 10, 5.00000000000000000000e-001) (34, 10, 5.00000000000000000000e-001) (34, 10, 5.00000000000000000000e-001) (34, 10, 5.00000000000000000000e-001) (34, 10, 5.00000000000000000000e-001) (34, 10, 5.00000000000000000000e-001) (34, 10, 5.00000000000000000000e-001) (34, 10, 5.00000000000000000000e-001) (34, 10, 5.00000000000000000000e-001) (34, 10, 5.00000000000000000000e-001) (34, 10, 5.00000000000000000000e-001) (34, 10, 5.00000000000000000000e-001) (34, 10, 5.00000000000000000000e-001) (34, 10, 5.00000000000000000000e-001) (34, 10, 5.00000000000000000000e-001) (34, 10, 5.00000000000000000000e-001) (34, 10, 5.00000000000000000000e-001) (34, 10, 5.00000000000000000000e-001) (34, 10, 5.00000000000000000000e-001) (34, 10, 5.00000000000000000000e-001) (0, 10, 5.00000000000000000000e-001) (23, 0, 5.00000000000000000000e-001) (23, 0, 5.00000000000000000000e-001) (0, 0, 5.00000000000000000000e-001) 
connections (connected_to_neuron, weight)=(0, 3.85201811790466310000e-001) (1, 7.72898197174072270000e-002) (2, -2.94365644454956050000e-001) (3, -5.25660589337348940000e-002) (4, -5.73927879333496090000e-001) (5, 2.48888432979583740000e-001) (6, -5.44857084751129150000e-001) (7, -2.22866952419281010000e-001) (8, -1.06757871806621550000e-001) (9, -4.61507499217987060000e-001) (10, 4.07056361436843870000e-001) (0, 3.04209198802709580000e-002) (1, 1.33857464790344240000e+000) (2, 9.54631984233856200000e-001) (3, 2.67680644989013670000e-001) (4, 5.11782288551330570000e-001) (5, 7.08567142486572270000e-001) (6, 1.41654729843139650000e+000) (7, -1.18043668568134310000e-001) (8, 2.61265611648559570000e+000) (9, 1.26682603359222410000e+000) (10, 4.86031532287597660000e-001) (0, 3.16845059394836430000e-001) (1, 2.29840230941772460000e+000) (2, 9.30762171745300290000e-001) (3, 5.91341435909271240000e-001) (4, 5.22754371166229250000e-001) (5, 1.45613923668861390000e-001) (6, 1.56175577640533450000e+000) (7, -1.13281849771738050000e-002) (8, 2.67719388008117680000e+000) (9, 9.14238214492797850000e-001) (10, -4.43322181701660160000e-001) (0, 3.99115383625030520000e-002) (1, 1.89088523387908940000e+000) (2, -1.88393160700798030000e-001) (3, 3.29907536506652830000e-001) (4, 6.64842605590820310000e-001) (5, 9.16445791721343990000e-001) (6, 1.82088458538055420000e+000) (7, -9.28807407617568970000e-002) (8, 2.42888545989990230000e+000) (9, 1.02873361110687260000e+000) (10, -3.79460394382476810000e-001) (0, -3.10916989110410210000e-003) (1, 1.18435728549957280000e+000) (2, 3.36475729942321780000e-001) (3, 8.75890552997589110000e-001) (4, -3.27725782990455630000e-002) (5, 1.66093349456787110000e-001) (6, 4.91055637598037720000e-001) (7, -1.37159109115600590000e-001) (8, 2.36186313629150390000e+000) (9, 1.04848277568817140000e+000) (10, -2.70471394062042240000e-001) (0, -3.39623361825942990000e-001) (1, 7.97813594341278080000e-001) (2, 5.79463124275207520000e-001) (3, 1.49168148636817930000e-002) (4, 4.09048378467559810000e-001) (5, -1.14267528057098390000e-001) (6, 3.26252788305282590000e-001) (7, 3.37499618530273440000e-001) (8, 6.91098570823669430000e-001) (9, 5.19559741020202640000e-001) (10, 1.71517580747604370000e-001) (0, 1.82141363620758060000e-001) (1, 1.74205958843231200000e+000) (2, 6.70131444931030270000e-001) (3, 4.25279796123504640000e-001) (4, 8.45716595649719240000e-001) (5, 7.95959591865539550000e-001) (6, 8.18436861038208010000e-001) (7, 4.42006647586822510000e-001) (8, 2.63016438484191890000e+000) (9, 1.29516351222991940000e+000) (10, -1.46577358245849610000e-002) (0, -3.92087325453758240000e-002) (1, 1.09981834888458250000e+000) (2, 6.34701609611511230000e-001) (3, 4.12147462368011470000e-001) (4, 4.75557029247283940000e-001) (5, 3.38051527738571170000e-001) (6, 3.98982912302017210000e-001) (7, -3.70443195104599000000e-001) (8, 2.52325153350830080000e+000) (9, 7.58342683315277100000e-001) (10, 2.53157019615173340000e-001) (0, 1.23722285032272340000e-001) (1, 9.98380601406097410000e-001) (2, 2.82222896814346310000e-001) (3, 4.99826937913894650000e-001) (4, 2.75110155344009400000e-001) (5, 2.89488106966018680000e-001) (6, 5.36936640739440920000e-001) (7, -2.48515293002128600000e-001) (8, 2.28871893882751460000e+000) (9, 9.51197803020477290000e-001) (10, -1.87834203243255620000e-001) (0, -1.96172043681144710000e-001) (1, -1.88106250762939450000e+001) (2, -1.86328678131103520000e+001) (3, -6.25846087932586670000e-002) (4, -9.88422107696533200000e+000) (5, -1.49631290435791020000e+001) (6, -9.70737075805664060000e+000) (7, -1.85791835188865660000e-001) (8, -1.99026417732238770000e+000) (9, -2.47786784172058110000e+000) (10, -1.09468117356300350000e-001) (0, 1.52075722813606260000e-001) (1, 2.99598693847656250000e+001) (2, 2.87508716583251950000e+001) (3, 8.68429124355316160000e-001) (4, 1.49567470550537110000e+001) (5, 2.29786033630371090000e+001) (6, 1.59137496948242190000e+001) (7, 7.66133248805999760000e-001) (8, 5.36999511718750000000e+000) (9, 4.28048992156982420000e+000) (10, -1.22533537447452550000e-001) (0, -2.43509560823440550000e-001) (1, 1.35164666175842290000e+000) (2, 5.18189728260040280000e-001) (3, 7.89284288883209230000e-001) (4, 4.71746385097503660000e-001) (5, 6.50844812393188480000e-001) (6, 1.16545701026916500000e+000) (7, -6.07211105525493620000e-002) (8, 2.95586085319519040000e+000) (9, 1.13330709934234620000e+000) (10, -4.27086740732192990000e-001) (0, 2.93278574943542480000e-001) (1, 1.41626679897308350000e+000) (2, 3.08848232030868530000e-001) (3, 2.79537826776504520000e-001) (4, -5.05836606025695800000e-002) (5, 2.31798738241195680000e-001) (6, 7.10968852043151860000e-001) (7, -3.62160593271255490000e-001) (8, 2.45214438438415530000e+000) (9, 1.17280268669128420000e+000) (10, 4.67865198850631710000e-001) (0, -4.72023099660873410000e-001) (1, 1.16679263114929200000e+000) (2, 4.94293093681335450000e-001) (3, 7.52057731151580810000e-001) (4, 2.54744112491607670000e-001) (5, 4.25530910491943360000e-001) (6, 5.01884818077087400000e-001) (7, 1.20763048529624940000e-001) (8, 1.31041610240936280000e+000) (9, 1.93879708647727970000e-001) (10, 4.59218084812164310000e-001) (0, 8.11179913580417630000e-003) (1, 1.14079332351684570000e+000) (2, 6.27956986427307130000e-001) (3, 6.58178687095642090000e-001) (4, 2.41074591875076290000e-001) (5, -3.03630959242582320000e-002) (6, 1.45974004268646240000e+000) (7, 1.65702983736991880000e-001) (8, 2.29106903076171870000e+000) (9, 8.16092967987060550000e-001) (10, 4.39815521240234380000e-001) (0, -4.94595587253570560000e-001) (1, 5.65182268619537350000e-001) (2, 1.43053710460662840000e-001) (3, 8.15117716789245610000e-001) (4, 4.55621063709259030000e-001) (5, -3.07212825864553450000e-002) (6, 2.94479876756668090000e-001) (7, -3.37584376335144040000e-001) (8, 6.42791867256164550000e-001) (9, 3.57461839914321900000e-001) (10, 4.91470754146575930000e-001) (0, 1.83876141905784610000e-001) (1, 1.34585630893707280000e+000) (2, 5.19708275794982910000e-001) (3, 6.32977783679962160000e-001) (4, 9.85400736331939700000e-001) (5, 1.18802404403686520000e+000) (6, 1.60981035232543950000e+000) (7, 4.12781924009323120000e-001) (8, 2.42748665809631350000e+000) (9, 1.02013099193573000000e+000) (10, 4.22535479068756100000e-001) (0, 3.66798997856676580000e-003) (1, -4.81606781482696530000e-001) (2, -1.54730707406997680000e-001) (3, -3.51276159286499020000e-001) (4, -6.03548347949981690000e-001) (5, -1.75536125898361210000e-001) (6, -4.94214355945587160000e-001) (7, -3.95505160093307500000e-001) (8, -5.46859204769134520000e-001) (9, -5.16271173954010010000e-001) (10, 1.97755411267280580000e-001) (0, -4.66061383485794070000e-001) (1, 1.57645893096923830000e+000) (2, 9.45445299148559570000e-001) (3, 3.22169661521911620000e-001) (4, 5.99167287349700930000e-001) (5, 7.71963477134704590000e-001) (6, 1.34123575687408450000e+000) (7, 4.96744401752948760000e-002) (8, 2.55849099159240720000e+000) (9, 9.47566986083984380000e-001) (10, -8.40938240289688110000e-002) (0, -1.58201351761817930000e-001) (1, 2.91913390159606930000e+000) (2, 1.85960268974304200000e+000) (3, 9.15121376514434810000e-001) (4, 4.38265174627304080000e-001) (5, -2.43415379524230960000e+000) (6, 2.92577409744262700000e+000) (7, 2.44578599929809570000e-001) (8, 2.80493783950805660000e+000) (9, 1.09191656112670900000e+000) (10, -8.11882317066192630000e-002) (0, 1.52123078703880310000e-001) (1, 1.03563332557678220000e+000) (2, -9.15645584464073180000e-002) (3, 7.86541521549224850000e-001) (4, 8.28444436192512510000e-002) (5, 3.50965678691864010000e-001) (6, 7.74115920066833500000e-001) (7, -2.00506627559661870000e-001) (8, 3.02489709854125980000e+000) (9, 7.01130449771881100000e-001) (10, -3.92993539571762080000e-001) (0, 3.74712586402893070000e-001) (1, 7.04518616199493410000e-001) (2, 1.61109894514083860000e-001) (3, 4.59229528903961180000e-001) (4, 3.22322964668273930000e-001) (5, 3.27336907386779790000e-001) (6, 1.11115336418151860000e+000) (7, 1.58496722579002380000e-001) (8, 1.19717884063720700000e+000) (9, 4.43971574306488040000e-001) (10, -1.04155883193016050000e-001) (0, 1.04882501065731050000e-001) (1, 1.59640240669250490000e+000) (2, 7.64173030853271480000e-001) (3, 3.55387479066848750000e-001) (4, 3.11589568853378300000e-001) (5, 7.04878032207489010000e-001) (6, 1.33053958415985110000e+000) (7, -3.52530151605606080000e-001) (8, 2.62924480438232420000e+000) (9, 1.27821767330169680000e+000) (10, -3.07025641202926640000e-001) (0, -6.69443607330322270000e-002) (1, 1.51056516170501710000e+000) (2, 8.15421521663665770000e-001) (3, 3.11190158128738400000e-001) (4, 9.46966826915740970000e-001) (5, 7.50633239746093750000e-001) (6, 1.36632013320922850000e+000) (7, -3.95278245210647580000e-001) (8, 2.97546315193176270000e+000) (9, 4.65791732072830200000e-001) (10, -3.96966904401779170000e-001) (0, -2.91963160037994380000e-001) (1, 1.43367016315460210000e+000) (2, 8.61483991146087650000e-001) (3, 4.94654327630996700000e-001) (4, 4.46565330028533940000e-001) (5, 8.54526042938232420000e-001) (6, 1.38932693004608150000e+000) (7, 3.45792740583419800000e-001) (8, 3.03451776504516600000e+000) (9, 4.90723580121994020000e-001) (10, 3.53283941745758060000e-001) (0, 3.04413586854934690000e-001) (1, 1.40350961685180660000e+000) (2, 1.23131006956100460000e-001) (3, 8.98956120014190670000e-001) (4, 9.16127979755401610000e-001) (5, 8.29398572444915770000e-001) (6, 1.41538572311401370000e+000) (7, 2.94681638479232790000e-001) (8, 3.04316306114196780000e+000) (9, 6.64913833141326900000e-001) (10, 4.76399987936019900000e-001) (0, -2.88415908813476560000e-001) (1, 4.79640865325927730000e+000) (2, 4.72539615631103520000e+000) (3, 1.00025385618209840000e-002) (4, 2.20600867271423340000e+000) (5, 3.81602787971496580000e+000) (6, 3.06111717224121090000e+000) (7, 8.11568498611450200000e-002) (8, 2.07957911491394040000e+000) (9, 1.46430373191833500000e+000) (10, -1.19948334991931920000e-001) (0, -3.80106410011649130000e-003) (1, 1.05387043952941890000e+000) (2, 3.19551289081573490000e-001) (3, 7.77242183685302730000e-001) (4, 1.63435980677604680000e-001) (5, 3.40263754129409790000e-001) (6, 6.31041765213012700000e-001) (7, -2.86283582448959350000e-001) (8, 2.79948091506958010000e+000) (9, 4.15440857410430910000e-001) (10, 2.31658294796943660000e-001) (0, 1.28579229116439820000e-001) (1, 1.62866735458374020000e+000) (2, 1.12114918231964110000e+000) (3, 1.36114820837974550000e-001) (4, 9.79305505752563480000e-001) (5, 5.77332854270935060000e-001) (6, 8.62386167049407960000e-001) (7, 3.33029121160507200000e-001) (8, 2.50595808029174800000e+000) (9, 1.20325219631195070000e+000) (10, 1.43929451704025270000e-001) (0, 3.39886069297790530000e-001) (1, 9.55360114574432370000e-001) (2, 4.88807167857885360000e-003) (3, 1.13365042209625240000e+000) (4, 1.55896663665771480000e-001) (5, 4.93462055921554570000e-001) (6, 7.24895417690277100000e-001) (7, 6.97795823216438290000e-002) (8, 1.86274099349975590000e+000) (9, 8.87927174568176270000e-001) (10, -2.09131240844726560000e-001) (0, -3.14072184264659880000e-002) (1, -3.90636467933654790000e+000) (2, -4.43328619003295900000e+000) (3, 2.21790581941604610000e-001) (4, -2.19908595085144040000e+000) (5, -2.87273359298706050000e+000) (6, -2.03051853179931640000e+000) (7, -2.91008688509464260000e-002) (8, -9.31643992662429810000e-002) (9, 1.39591880142688750000e-002) (10, 3.42482626438140870000e-001) (0, 4.94944125413894650000e-001) (1, 9.42921221256256100000e-001) (2, 4.20824617147445680000e-001) (3, 3.96226137876510620000e-001) (4, -7.08308592438697810000e-002) (5, 3.99664014577865600000e-001) (6, 8.07545959949493410000e-001) (7, 4.66126531362533570000e-001) (8, 2.40804648399353030000e+000) (9, 4.58896845579147340000e-001) (10, 2.38652497529983520000e-001) (0, -5.86638711392879490000e-002) (1, -1.42355048656463620000e+000) (2, -8.67875158786773680000e-001) (3, 2.12189629673957820000e-001) (4, -9.44824516773223880000e-001) (5, -6.96881115436553960000e-001) (6, -7.16116011142730710000e-001) (7, 1.64600729942321780000e-001) (8, 3.41098606586456300000e-001) (9, -3.21404069662094120000e-001) (10, -3.29434484243392940000e-001) (11, -4.78231936693191530000e-001) (12, -1.25977802276611330000e+001) (13, -1.28053169250488280000e+001) (14, -1.25575761795043950000e+001) (15, -8.88400077819824220000e+000) (16, -3.64637565612792970000e+000) (17, -1.24713439941406250000e+001) (18, -8.43742370605468750000e+000) (19, -8.77611160278320310000e+000) (20, -6.53672665357589720000e-002) (21, -1.24501457214355470000e+001) (22, -1.24312696456909180000e+001) (23, -1.01514196395874020000e+001) (24, -7.00279903411865230000e+000) (25, -1.03488779067993160000e+001) (26, -3.45611906051635740000e+000) (27, -1.23175868988037110000e+001) (28, 1.69574052095413210000e-001) (29, -1.24415655136108400000e+001) (30, -1.20447092056274410000e+001) (31, -8.16363716125488280000e+000) (32, -6.67519044876098630000e+000) (33, -1.23745021820068360000e+001) (34, -1.28531036376953120000e+001) (35, -1.21155805587768550000e+001) (36, -1.20882186889648440000e+001) (37, -1.28874921798706050000e+001) (38, -7.76324462890625000000e+000) (39, -1.18153657913208010000e+001) (40, -9.10919284820556640000e+000) (41, -4.69216138124465940000e-001) (42, -7.95984506607055660000e+000) (43, 3.86429637670516970000e-001) (44, -1.29671154022216800000e+001) (11, -2.21724256873130800000e-001) (12, -1.25821008682250980000e+001) (13, -1.28525867462158200000e+001) (14, -1.25528182983398440000e+001) (15, -9.14548492431640620000e+000) (16, -3.34043788909912110000e+000) (17, -1.24016733169555660000e+001) (18, -8.33681106567382810000e+000) (19, -8.09863471984863280000e+000) (20, 4.64210212230682370000e-002) (21, -1.22023715972900390000e+001) (22, -1.26803808212280270000e+001) (23, -9.73433399200439450000e+000) (24, -7.45201063156127930000e+000) (25, -1.04506206512451170000e+001) (26, -4.01214504241943360000e+000) (27, -1.25018491744995120000e+001) (28, -2.00232312083244320000e-001) (29, -1.20645065307617190000e+001) (30, -1.16478033065795900000e+001) (31, -7.95054864883422850000e+000) (32, -6.71710491180419920000e+000) (33, -1.26873950958251950000e+001) (34, -1.21254329681396480000e+001) (35, -1.21622858047485350000e+001) (36, -1.28497972488403320000e+001) (37, -1.22859191894531250000e+001) (38, -7.38876581192016600000e+000) (39, -1.24070825576782230000e+001) (40, -8.48860549926757810000e+000) (41, -3.51925492286682130000e-001) (42, -8.11678981781005860000e+000) (43, 3.20237189531326290000e-001) (44, -1.27654151916503910000e+001) (11, 2.24735140800476070000e-001) (12, -1.27875900268554690000e+001) (13, -1.27725086212158200000e+001) (14, -1.27856712341308590000e+001) (15, -8.42596054077148440000e+000) (16, -3.89246082305908200000e+000) (17, -1.26466150283813480000e+001) (18, -8.74449729919433590000e+000) (19, -8.08659076690673830000e+000) (20, -4.95278447866439820000e-001) (21, -1.24137020111083980000e+001) (22, -1.23150835037231450000e+001) (23, -9.75930881500244140000e+000) (24, -6.68697977066040040000e+000) (25, -1.04291734695434570000e+001) (26, -3.67493963241577150000e+000) (27, -1.21683206558227540000e+001) (28, 3.85497659444808960000e-001) (29, -1.24336042404174800000e+001) (30, -1.13938913345336910000e+001) (31, -8.09943580627441410000e+000) (32, -6.95252847671508790000e+000) (33, -1.25135326385498050000e+001) (34, -1.27944784164428710000e+001) (35, -1.20741987228393550000e+001) (36, -1.21194944381713870000e+001) (37, -1.21642093658447270000e+001) (38, -7.12701654434204100000e+000) (39, -1.22658348083496090000e+001) (40, -8.86003494262695310000e+000) (41, -6.80863797664642330000e-001) (42, -8.05953884124755860000e+000) (43, 1.98698177933692930000e-001) (44, -1.26832189559936520000e+001) (11, 1.86571136116981510000e-001) (12, -1.22179927825927730000e+001) (13, -1.24157886505126950000e+001) (14, -1.27835865020751950000e+001) (15, -8.89033794403076170000e+000) (16, -3.74885225296020510000e+000) (17, -1.26542129516601560000e+001) (18, -8.53051948547363280000e+000) (19, -8.78198432922363280000e+000) (20, 1.82362750172615050000e-001) (21, -1.21140108108520510000e+001) (22, -1.21833009719848630000e+001) (23, -9.35359764099121090000e+000) (24, -6.84304809570312500000e+000) (25, -1.05745201110839840000e+001) (26, -3.14809060096740720000e+000) (27, -1.29811706542968750000e+001) (28, 3.78332465887069700000e-001) (29, -1.24194126129150390000e+001) (30, -1.09801397323608400000e+001) (31, -7.90031242370605470000e+000) (32, -6.68440151214599610000e+000) (33, -1.26732997894287110000e+001) (34, -1.24188194274902340000e+001) (35, -1.21139945983886720000e+001) (36, -1.25265388488769530000e+001) (37, -1.25675096511840820000e+001) (38, -7.85009574890136720000e+000) (39, -1.17208166122436520000e+001) (40, -8.77777004241943360000e+000) (41, -9.08303022384643550000e-001) (42, -8.80110931396484370000e+000) (43, -1.49847462773323060000e-001) (44, -1.30647239685058590000e+001) (11, 3.12609523534774780000e-001) (12, -1.24408655166625980000e+001) (13, -1.30123491287231450000e+001) (14, -1.29249563217163090000e+001) (15, -9.20681285858154300000e+000) (16, -3.39870285987854000000e+000) (17, -1.24774484634399410000e+001) (18, -9.32255649566650390000e+000) (19, -8.00514221191406250000e+000) (20, -5.79409241676330570000e-001) (21, -1.29303216934204100000e+001) (22, -1.23447637557983400000e+001) (23, -1.02719717025756840000e+001) (24, -6.70065879821777340000e+000) (25, -1.11130466461181640000e+001) (26, -3.29733228683471680000e+000) (27, -1.27364311218261720000e+001) (28, -1.71744793653488160000e-001) (29, -1.30296669006347660000e+001) (30, -1.17497701644897460000e+001) (31, -7.52205228805541990000e+000) (32, -6.99041748046875000000e+000) (33, -1.25700492858886720000e+001) (34, -1.23014698028564450000e+001) (35, -1.25860891342163090000e+001) (36, -1.24834537506103520000e+001) (37, -1.23232555389404300000e+001) (38, -7.60429048538208010000e+000) (39, -1.25605869293212890000e+001) (40, -8.31329822540283200000e+000) (41, -6.71087503433227540000e-001) (42, -7.92840528488159180000e+000) (43, -1.01432964205741880000e-001) (44, -1.29361314773559570000e+001) (11, -1.05134556069970130000e-002) (12, -1.29977264404296870000e+001) (13, -1.31704111099243160000e+001) (14, -1.24928321838378910000e+001) (15, -7.67185878753662110000e+000) (16, -3.71102261543273930000e+000) (17, -1.26761016845703120000e+001) (18, -8.22989749908447270000e+000) (19, -7.78023052215576170000e+000) (20, -1.89996123313903810000e+000) (21, -1.10789175033569340000e+001) (22, -1.24719715118408200000e+001) (23, -8.40490055084228520000e+000) (24, -6.72113037109375000000e+000) (25, -8.08879375457763670000e+000) (26, -3.64749813079833980000e+000) (27, -1.27474937438964840000e+001) (28, -4.02110040187835690000e-001) (29, -1.26648883819580080000e+001) (30, -1.23674974441528320000e+001) (31, -1.07430925369262700000e+001) (32, -6.59089946746826170000e+000) (33, -1.27791452407836910000e+001) (34, -1.32532176971435550000e+001) (35, -1.29077110290527340000e+001) (36, -1.31836385726928710000e+001) (37, -9.64612674713134770000e+000) (38, -1.07748212814331050000e+001) (39, -1.25065279006958010000e+001) (40, -7.51634836196899410000e+000) (41, -3.17551183700561520000e+000) (42, -7.68335485458374020000e+000) (43, -1.91379562020301820000e-001) (44, -1.31081924438476560000e+001) (11, -5.10808765888214110000e-001) (12, -1.28306331634521480000e+001) (13, -1.19669847488403320000e+001) (14, -1.23967437744140630000e+001) (15, -8.42051506042480470000e+000) (16, -4.07418346405029300000e+000) (17, -1.22695760726928710000e+001) (18, -8.70584678649902340000e+000) (19, -8.49635028839111330000e+000) (20, -4.58392351865768430000e-002) (21, -1.24287662506103520000e+001) (22, -1.22618627548217770000e+001) (23, -9.79039764404296870000e+000) (24, -7.22823715209960940000e+000) (25, -1.05122394561767580000e+001) (26, -3.36198759078979490000e+000) (27, -1.21082897186279300000e+001) (28, 3.59244574792683120000e-003) (29, -1.23164730072021480000e+001) (30, -1.21114292144775390000e+001) (31, -8.18729877471923830000e+000) (32, -6.31287288665771480000e+000) (33, -1.28365850448608400000e+001) (34, -1.25164012908935550000e+001) (35, -1.21316461563110350000e+001) (36, -1.22065525054931640000e+001) (37, -1.18334484100341800000e+001) (38, -7.95479202270507810000e+000) (39, -1.24556598663330080000e+001) (40, -9.09110546112060550000e+000) (41, -1.07131445407867430000e+000) (42, -7.77056121826171870000e+000) (43, 1.69404447078704830000e-001) (44, -1.30156688690185550000e+001) (11, 2.38715559244155880000e-001) (12, -1.22624616622924800000e+001) (13, -1.22258729934692380000e+001) (14, -1.19419078826904300000e+001) (15, -9.08447360992431640000e+000) (16, -4.07422780990600590000e+000) (17, -1.23069715499877930000e+001) (18, -8.57670211791992190000e+000) (19, -8.38906574249267580000e+000) (20, -3.53243410587310790000e-001) (21, -1.24215040206909180000e+001) (22, -1.26994113922119140000e+001) (23, -9.79088592529296870000e+000) (24, -6.57248020172119140000e+000) (25, -1.02949447631835940000e+001) (26, -3.92580890655517580000e+000) (27, -1.28994655609130860000e+001) (28, -9.75377932190895080000e-002) (29, -1.25464553833007810000e+001) (30, -1.19703674316406250000e+001) (31, -8.34607028961181640000e+000) (32, -6.36427021026611330000e+000) (33, -1.25369634628295900000e+001) (34, -1.21906147003173830000e+001) (35, -1.23662824630737300000e+001) (36, -1.24671888351440430000e+001) (37, -1.26580753326416020000e+001) (38, -7.73668575286865230000e+000) (39, -1.17015628814697270000e+001) (40, -8.24333763122558590000e+000) (41, -9.40131247043609620000e-001) (42, -8.16103267669677730000e+000) (43, -3.07760983705520630000e-001) (44, -1.22323646545410160000e+001) (11, 3.04501652717590330000e-001) (12, -1.23444690704345700000e+001) (13, -1.27981481552124020000e+001) (14, -1.21340694427490230000e+001) (15, -9.00072288513183590000e+000) (16, -3.29111671447753910000e+000) (17, -1.26942987442016600000e+001) (18, -8.22595310211181640000e+000) (19, -8.07259082794189450000e+000) (20, -1.23482263088226320000e+000) (21, -1.15262098312377930000e+001) (22, -1.21551313400268550000e+001) (23, -9.17537689208984380000e+000) (24, -6.97416448593139650000e+000) (25, -9.72464179992675780000e+000) (26, -3.24668526649475100000e+000) (27, -1.27462282180786130000e+001) (28, 1.02647997438907620000e-001) (29, -1.24851007461547850000e+001) (30, -1.22491664886474610000e+001) (31, -9.50524520874023440000e+000) (32, -6.70937299728393550000e+000) (33, -1.25347261428833010000e+001) (34, -1.22088613510131840000e+001) (35, -1.29462614059448240000e+001) (36, -1.26286840438842770000e+001) (37, -9.86063194274902340000e+000) (38, -9.46278285980224610000e+000) (39, -1.19894990921020510000e+001) (40, -8.59567832946777340000e+000) (41, -1.85852861404418950000e+000) (42, -7.13918876647949220000e+000) (43, -5.44023573398590090000e-001) (44, -1.29634437561035160000e+001) (11, -5.06890892982482910000e-001) (12, -1.25737085342407230000e+001) (13, -1.19783954620361330000e+001) (14, -1.25208072662353520000e+001) (15, -9.22519779205322270000e+000) (16, -4.09700775146484370000e+000) (17, -1.22160634994506840000e+001) (18, -8.81999778747558590000e+000) (19, -8.25684642791748050000e+000) (20, -3.59805852174758910000e-001) (21, -1.20370740890502930000e+001) (22, -1.25864381790161130000e+001) (23, -9.50973415374755860000e+000) (24, -6.67793273925781250000e+000) (25, -1.00992908477783200000e+001) (26, -3.57837295532226560000e+000) (27, -1.24040107727050780000e+001) (28, -3.14052879810333250000e-001) (29, -1.21108245849609380000e+001) (30, -1.17223100662231450000e+001) (31, -8.28176212310791020000e+000) (32, -6.72094154357910160000e+000) (33, -1.25179195404052730000e+001) (34, -1.19675846099853520000e+001) (35, -1.28934755325317380000e+001) (36, -1.26428537368774410000e+001) (37, -1.23389205932617190000e+001) (38, -7.70534229278564450000e+000) (39, -1.17722568511962890000e+001) (40, -8.50341701507568360000e+000) (41, -1.33674812316894530000e+000) (42, -8.28489494323730470000e+000) (43, -5.57658195495605470000e-001) (44, -1.25493431091308590000e+001) (11, -4.63561326265335080000e-001) (12, -1.25147771835327150000e+001) (13, -1.27540702819824220000e+001) (14, -1.22882509231567380000e+001) (15, -8.70671653747558590000e+000) (16, -3.99345850944519040000e+000) (17, -1.26344137191772460000e+001) (18, -8.73197078704833980000e+000) (19, -8.54750251770019530000e+000) (20, -6.13023877143859860000e-001) (21, -1.20344667434692380000e+001) (22, -1.19236888885498050000e+001) (23, -9.21666431427001950000e+000) (24, -7.21243810653686520000e+000) (25, -9.72339248657226560000e+000) (26, -3.32199144363403320000e+000) (27, -1.22858133316040040000e+001) (28, -7.65435397624969480000e-002) (29, -1.18694858551025390000e+001) (30, -1.21199064254760740000e+001) (31, -9.09552764892578120000e+000) (32, -6.56662940979003910000e+000) (33, -1.19983949661254880000e+001) (34, -1.22812881469726560000e+001) (35, -1.23876628875732420000e+001) (36, -1.22669668197631840000e+001) (37, -1.09666452407836910000e+001) (38, -8.98529052734375000000e+000) (39, -1.25791521072387700000e+001) (40, -8.11262226104736330000e+000) (41, -1.23740923404693600000e+000) (42, -7.99017667770385740000e+000) (43, -4.52463716268539430000e-001) (44, -1.25852527618408200000e+001) (11, -5.36682188510894780000e-001) (12, -1.31659421920776370000e+001) (13, -1.33387804031372070000e+001) (14, -1.33032226562500000000e+001) (15, -7.91985273361206050000e+000) (16, -3.78577733039855960000e+000) (17, -1.24169874191284180000e+001) (18, -8.29198551177978520000e+000) (19, -7.84193801879882810000e+000) (20, -1.21653532981872560000e+000) (21, -1.19211225509643550000e+001) (22, -1.24914960861206050000e+001) (23, -8.44335937500000000000e+000) (24, -6.77196264266967770000e+000) (25, -8.89382362365722660000e+000) (26, -3.89461064338684080000e+000) (27, -1.26915712356567380000e+001) (28, 3.90789881348609920000e-002) (29, -1.26185331344604490000e+001) (30, -1.24857883453369140000e+001) (31, -1.05559892654418950000e+001) (32, -6.75089740753173830000e+000) (33, -1.25360937118530270000e+001) (34, -1.24585628509521480000e+001) (35, -1.24608411788940430000e+001) (36, -1.25543937683105470000e+001) (37, -9.80101108551025390000e+000) (38, -1.06920394897460940000e+001) (39, -1.23022775650024410000e+001) (40, -7.75394392013549800000e+000) (41, -2.69714570045471190000e+000) (42, -7.12819814682006840000e+000) (43, -3.58893692493438720000e-001) (44, -1.25440788269042970000e+001) (11, -3.83459143340587620000e-002) (12, -1.25307121276855470000e+001) (13, -1.24998121261596680000e+001) (14, -1.24822816848754880000e+001) (15, -8.84318161010742190000e+000) (16, -3.57063651084899900000e+000) (17, -1.29488945007324220000e+001) (18, -8.32027912139892580000e+000) (19, -8.45858192443847660000e+000) (20, -1.07695174217224120000e+000) (21, -1.18290128707885740000e+001) (22, -1.23294486999511720000e+001) (23, -1.00128955841064450000e+001) (24, -6.91964006423950200000e+000) (25, -1.00506525039672850000e+001) (26, -3.38587045669555660000e+000) (27, -1.28249311447143550000e+001) (28, 2.39253744482994080000e-001) (29, -1.24409456253051760000e+001) (30, -1.17643098831176760000e+001) (31, -8.58044147491455080000e+000) (32, -6.83755970001220700000e+000) (33, -1.24613084793090820000e+001) (34, -1.27275037765502930000e+001) (35, -1.26541624069213870000e+001) (36, -1.22704267501831050000e+001) (37, -1.11652688980102540000e+001) (38, -8.57269763946533200000e+000) (39, -1.25605592727661130000e+001) (40, -8.37627315521240230000e+000) (41, -1.67088460922241210000e+000) (42, -7.80754232406616210000e+000) (43, -2.07406386733055110000e-001) (44, -1.21896238327026370000e+001) (11, 2.65649825334548950000e-001) (12, -1.24506940841674800000e+001) (13, -1.24973201751708980000e+001) (14, -1.29871320724487300000e+001) (15, -8.90543746948242190000e+000) (16, -3.77542662620544430000e+000) (17, -1.23739385604858400000e+001) (18, -8.46509075164794920000e+000) (19, -8.08671569824218750000e+000) (20, -2.89603829383850100000e-001) (21, -1.20664377212524410000e+001) (22, -1.25438394546508790000e+001) (23, -1.01312427520751950000e+001) (24, -6.95795106887817380000e+000) (25, -1.02460041046142580000e+001) (26, -3.17951250076293950000e+000) (27, -1.25481271743774410000e+001) (28, 1.88718825578689580000e-001) (29, -1.29453039169311520000e+001) (30, -1.13298406600952150000e+001) (31, -7.85485506057739260000e+000) (32, -7.11694669723510740000e+000) (33, -1.30441751480102540000e+001) (34, -1.22061319351196290000e+001) (35, -1.21525506973266600000e+001) (36, -1.29081268310546870000e+001) (37, -1.26133098602294920000e+001) (38, -7.66915416717529300000e+000) (39, -1.15651721954345700000e+001) (40, -8.68054199218750000000e+000) (41, -8.65572214126586910000e-001) (42, -7.78365039825439450000e+000) (43, 4.04762029647827150000e-001) (44, -1.22047243118286130000e+001) (11, 2.30914980173110960000e-001) (12, -1.20059785842895510000e+001) (13, -1.28018007278442380000e+001) (14, -1.29098663330078120000e+001) (15, -8.66512584686279300000e+000) (16, -4.07258796691894530000e+000) (17, -1.22801694869995120000e+001) (18, -8.64645957946777340000e+000) (19, -8.02469539642333980000e+000) (20, -9.73076373338699340000e-002) (21, -1.22162065505981450000e+001) (22, -1.21298389434814450000e+001) (23, -9.43669700622558590000e+000) (24, -6.93979883193969730000e+000) (25, -1.08581047058105470000e+001) (26, -3.45756316184997560000e+000) (27, -1.27980327606201170000e+001) (28, -2.75344420224428180000e-002) (29, -1.25866508483886720000e+001) (30, -1.14389743804931640000e+001) (31, -8.60582256317138670000e+000) (32, -6.93746662139892580000e+000) (33, -1.20039873123168950000e+001) (34, -1.22869195938110350000e+001) (35, -1.29296264648437500000e+001) (36, -1.21760330200195310000e+001) (37, -1.25390548706054690000e+001) (38, -7.78277540206909180000e+000) (39, -1.15618362426757810000e+001) (40, -8.69191360473632810000e+000) (41, -6.67486727237701420000e-001) (42, -7.93687438964843750000e+000) (43, 6.25783503055572510000e-002) (44, -1.29520454406738280000e+001) (11, 2.62730807065963750000e-001) (12, -1.21141519546508790000e+001) (13, -1.29162082672119140000e+001) (14, -1.21925554275512700000e+001) (15, -8.81996154785156250000e+000) (16, -3.94127368927001950000e+000) (17, -1.23198337554931640000e+001) (18, -8.83560466766357420000e+000) (19, -8.02262878417968750000e+000) (20, -1.22218549251556400000e+000) (21, -1.22780647277832030000e+001) (22, -1.25796880722045900000e+001) (23, -9.12372875213623050000e+000) (24, -7.29461622238159180000e+000) (25, -1.05824232101440430000e+001) (26, -3.64374709129333500000e+000) (27, -1.25058307647705080000e+001) (28, 3.59429925680160520000e-001) (29, -1.26029357910156250000e+001) (30, -1.21759901046752930000e+001) (31, -8.80876445770263670000e+000) (32, -6.17121505737304690000e+000) (33, -1.25097923278808590000e+001) (34, -1.26594543457031250000e+001) (35, -1.26305980682373050000e+001) (36, -1.25941858291625980000e+001) (37, -1.10050249099731450000e+001) (38, -9.02659702301025390000e+000) (39, -1.19033641815185550000e+001) (40, -8.40368556976318360000e+000) (41, -1.41514694690704350000e+000) (42, -7.41367673873901370000e+000) (43, -6.11301064491271970000e-001) (44, -1.21621484756469730000e+001) (11, -4.06531840562820430000e-001) (12, -1.26639661788940430000e+001) (13, -1.23147974014282230000e+001) (14, -1.25862236022949220000e+001) (15, -8.85688591003417970000e+000) (16, -3.73781299591064450000e+000) (17, -1.22997341156005860000e+001) (18, -8.95002269744873050000e+000) (19, -8.53550720214843750000e+000) (20, -6.01990759372711180000e-001) (21, -1.19474601745605470000e+001) (22, -1.27742490768432620000e+001) (23, -9.53622245788574220000e+000) (24, -6.97630643844604490000e+000) (25, -1.07302360534667970000e+001) (26, -3.27771878242492680000e+000) (27, -1.24409542083740230000e+001) (28, 1.21257089078426360000e-001) (29, -1.19400739669799800000e+001) (30, -1.19898376464843750000e+001) (31, -8.74670600891113280000e+000) (32, -6.21833038330078120000e+000) (33, -1.26268768310546880000e+001) (34, -1.25307683944702150000e+001) (35, -1.19722080230712890000e+001) (36, -1.26253156661987300000e+001) (37, -1.11895933151245120000e+001) (38, -8.77627563476562500000e+000) (39, -1.20328979492187500000e+001) (40, -8.95385932922363280000e+000) (41, -1.00376152992248540000e+000) (42, -8.07777214050292970000e+000) (43, 2.79856324195861820000e-001) (44, -1.20520267486572270000e+001) (11, -5.47223985195159910000e-001) (12, -1.21082162857055660000e+001) (13, -1.20133962631225590000e+001) (14, -1.20397958755493160000e+001) (15, -8.13723945617675780000e+000) (16, -3.61683535575866700000e+000) (17, -1.27927246093750000000e+001) (18, -8.76215362548828120000e+000) (19, -8.53822803497314450000e+000) (20, -1.22754919528961180000e+000) (21, -1.13594064712524410000e+001) (22, -1.27422657012939450000e+001) (23, -9.39551258087158200000e+000) (24, -6.92149019241333010000e+000) (25, -9.91312503814697270000e+000) (26, -3.72211027145385740000e+000) (27, -1.22591724395751950000e+001) (28, 3.35022866725921630000e-001) (29, -1.28884401321411130000e+001) (30, -1.24579114913940430000e+001) (31, -9.51153278350830080000e+000) (32, -6.85125875473022460000e+000) (33, -1.22378721237182620000e+001) (34, -1.24759435653686520000e+001) (35, -1.21532430648803710000e+001) (36, -1.28983621597290040000e+001) (37, -1.00608739852905270000e+001) (38, -9.86563777923583980000e+000) (39, -1.18165245056152340000e+001) (40, -8.13289356231689450000e+000) (41, -1.95634639263153080000e+000) (42, -7.93578386306762700000e+000) (43, -6.52140378952026370000e-001) (44, -1.26401262283325200000e+001) (11, 1.30338519811630250000e-001) (12, -1.25543394088745120000e+001) (13, -1.22133722305297850000e+001) (14, -1.23345327377319340000e+001) (15, -9.16335678100585940000e+000) (16, -3.85343050956726070000e+000) (17, -1.27114009857177730000e+001) (18, -8.59171676635742190000e+000) (19, -8.03722572326660160000e+000) (20, -3.87157857418060300000e-001) (21, -1.25594758987426760000e+001) (22, -1.26769981384277340000e+001) (23, -9.42155265808105470000e+000) (24, -7.06911230087280270000e+000) (25, -1.09210338592529300000e+001) (26, -3.87892842292785640000e+000) (27, -1.28268041610717770000e+001) (28, -4.98154848814010620000e-001) (29, -1.21449689865112300000e+001) (30, -1.15240516662597660000e+001) (31, -8.31969261169433590000e+000) (32, -6.60261535644531250000e+000) (33, -1.20840377807617190000e+001) (34, -1.21727972030639650000e+001) (35, -1.22692413330078130000e+001) (36, -1.27156381607055660000e+001) (37, -1.19546051025390630000e+001) (38, -8.03477573394775390000e+000) (39, -1.24591741561889650000e+001) (40, -8.22032451629638670000e+000) (41, -4.88783001899719240000e-001) (42, -7.62147378921508790000e+000) (43, 3.13361197710037230000e-001) (44, -1.22789335250854490000e+001) (11, 3.88587951660156250000e-001) (12, -1.26417169570922850000e+001) (13, -1.26334953308105470000e+001) (14, -1.26874027252197270000e+001) (15, -8.54035758972167970000e+000) (16, -3.89796638488769530000e+000) (17, -1.20250225067138670000e+001) (18, -8.78730678558349610000e+000) (19, -8.69930934906005860000e+000) (20, -9.32188272476196290000e-001) (21, -1.20140781402587890000e+001) (22, -1.20283441543579100000e+001) (23, -9.12201118469238280000e+000) (24, -7.42988252639770510000e+000) (25, -9.88081359863281250000e+000) (26, -3.72979116439819340000e+000) (27, -1.24623966217041020000e+001) (28, 3.35374742746353150000e-001) (29, -1.23026933670043950000e+001) (30, -1.23004808425903320000e+001) (31, -8.53940391540527340000e+000) (32, -6.50419902801513670000e+000) (33, -1.26250362396240230000e+001) (34, -1.22125501632690430000e+001) (35, -1.27124109268188480000e+001) (36, -1.17997636795043950000e+001) (37, -1.09865713119506840000e+001) (38, -8.65986728668212890000e+000) (39, -1.16369876861572270000e+001) (40, -8.78806591033935550000e+000) (41, -1.35603559017181400000e+000) (42, -7.44847011566162110000e+000) (43, -4.52126741409301760000e-001) (44, -1.26823291778564450000e+001) (11, -2.54182547330856320000e-001) (12, -1.27924585342407230000e+001) (13, -1.26267976760864260000e+001) (14, -1.30024652481079100000e+001) (15, -8.97321796417236330000e+000) (16, -3.82958149909973140000e+000) (17, -1.26328248977661130000e+001) (18, -8.41605758666992190000e+000) (19, -9.04308605194091800000e+000) (20, -3.86636018753051760000e-001) (21, -1.24646148681640630000e+001) (22, -1.24618892669677730000e+001) (23, -1.01951808929443360000e+001) (24, -6.77556562423706050000e+000) (25, -1.06261005401611330000e+001) (26, -3.16131949424743650000e+000) (27, -1.25388870239257810000e+001) (28, -3.19833040237426760000e-001) (29, -1.26132726669311520000e+001) (30, -1.17834119796752930000e+001) (31, -8.09483718872070310000e+000) (32, -7.09664344787597660000e+000) (33, -1.28521490097045900000e+001) (34, -1.24007759094238280000e+001) (35, -1.20776968002319340000e+001) (36, -1.29317932128906250000e+001) (37, -1.26014623641967770000e+001) (38, -7.25833129882812500000e+000) (39, -1.25176115036010740000e+001) (40, -9.12395763397216800000e+000) (41, -6.12383365631103520000e-001) (42, -8.37714862823486330000e+000) (43, 2.66774803400039670000e-001) (44, -1.25948076248168950000e+001) (11, -1.02549277245998380000e-001) (12, -1.24447221755981450000e+001) (13, -1.25129632949829100000e+001) (14, -1.22231950759887700000e+001) (15, -8.69666385650634770000e+000) (16, -4.00986766815185550000e+000) (17, -1.25702190399169920000e+001) (18, -8.47615146636962890000e+000) (19, -8.37701320648193360000e+000) (20, -6.07462227344512940000e-001) (21, -1.25512313842773440000e+001) (22, -1.25547447204589840000e+001) (23, -9.24147319793701170000e+000) (24, -7.44872903823852540000e+000) (25, -1.07993316650390630000e+001) (26, -3.88564944267272950000e+000) (27, -1.23401956558227540000e+001) (28, -4.41828975453972820000e-003) (29, -1.20516872406005860000e+001) (30, -1.18189306259155270000e+001) (31, -7.46435356140136720000e+000) (32, -6.28858661651611330000e+000) (33, -1.25755243301391600000e+001) (34, -1.20074529647827150000e+001) (35, -1.22280492782592770000e+001) (36, -1.24379682540893550000e+001) (37, -1.23720359802246090000e+001) (38, -7.94495201110839840000e+000) (39, -1.21409645080566410000e+001) (40, -8.59484958648681640000e+000) (41, -8.59865128993988040000e-001) (42, -8.26421451568603520000e+000) (43, 6.26308247447013850000e-002) (44, -1.24038743972778320000e+001) (45, 1.69239327311515810000e-001) (46, 1.84526562690734860000e-001) (47, 7.67200887203216550000e-002) (48, 1.22202865779399870000e-001) (49, 2.15520292520523070000e-001) (50, 7.83155933022499080000e-002) (51, 1.09010562300682070000e-001) (52, 1.24904654920101170000e-001) (53, 1.90624713897705080000e-001) (54, 9.56760793924331670000e-002) (55, 3.11062544584274290000e-001) (56, -1.27093181014060970000e-001) (57, 3.48322689533233640000e-002) (58, 1.22058406472206120000e-001) (59, 8.78333449363708500000e-002) (60, -3.18502560257911680000e-002) (61, 2.79762566089630130000e-001) (62, -6.09790347516536710000e-002) (63, 6.75528794527053830000e-002) (64, 2.07147806882858280000e-001) (65, 2.32620060443878170000e-001) (66, 1.96385920047760010000e-001) (67, -8.97626020014286040000e-003) (45, 3.13468515872955320000e-001) (46, 1.44918248057365420000e-001) (47, 2.55958974361419680000e-001) (48, 5.16008846461772920000e-002) (49, -1.20039366185665130000e-001) (50, -9.57467183470726010000e-002) (51, 2.74021923542022710000e-001) (52, 5.53550422191619870000e-001) (53, -2.01643109321594240000e-001) (54, 5.28923213481903080000e-001) (55, -4.56909596920013430000e-001) (56, 4.05281454324722290000e-001) (57, 3.04187983274459840000e-001) (58, -2.54252813756465910000e-002) (59, 2.51187026500701900000e-001) (60, 1.57309874892234800000e-001) (61, 1.80189326405525210000e-001) (62, -3.36666435003280640000e-001) (63, 1.59733742475509640000e-002) (64, 2.93874382972717290000e-001) (65, 1.98278948664665220000e-001) (66, 3.74281018972396850000e-001) (67, -1.02414637804031370000e-002) 
