FANN_FLO_2.1
num_layers=4
learning_rate=0.700000
connection_rate=1.000000
network_type=0
learning_momentum=0.000000
training_algorithm=2
train_error_function=1
train_stop_function=0
cascade_output_change_fraction=0.010000
quickprop_decay=-0.000100
quickprop_mu=1.750000
rprop_increase_factor=1.200000
rprop_decrease_factor=0.500000
rprop_delta_min=0.000000
rprop_delta_max=50.000000
rprop_delta_zero=0.100000
cascade_output_stagnation_epochs=12
cascade_candidate_change_fraction=0.010000
cascade_candidate_stagnation_epochs=12
cascade_max_out_epochs=150
cascade_max_cand_epochs=150
cascade_num_candidate_groups=2
bit_fail_limit=3.49999994039535520000e-001
cascade_candidate_limit=1.00000000000000000000e+003
cascade_weight_multiplier=4.00000005960464480000e-001
cascade_activation_functions_count=10
cascade_activation_functions=3 5 7 8 10 11 14 15 16 17 
cascade_activation_steepnesses_count=4
cascade_activation_steepnesses=2.50000000000000000000e-001 5.00000000000000000000e-001 7.50000000000000000000e-001 1.00000000000000000000e+000 
layer_sizes=11 67 45 3 
scale_included=0
neurons (num_inputs, activation_function, activation_steepness)=(0, 0, 0.00000000000000000000e+000) (0, 0, 0.00000000000000000000e+000) (0, 0, 0.00000000000000000000e+000) (0, 0, 0.00000000000000000000e+000) (0, 0, 0.00000000000000000000e+000) (0, 0, 0.00000000000000000000e+000) (0, 0, 0.00000000000000000000e+000) (0, 0, 0.00000000000000000000e+000) (0, 0, 0.00000000000000000000e+000) (0, 0, 0.00000000000000000000e+000) (0, 0, 0.00000000000000000000e+000) (11, 10, 5.00000000000000000000e-001) (11, 10, 5.00000000000000000000e-001) (11, 10, 5.00000000000000000000e-001) (11, 10, 5.00000000000000000000e-001) (11, 10, 5.00000000000000000000e-001) (11, 10, 5.00000000000000000000e-001) (11, 10, 5.00000000000000000000e-001) (11, 10, 5.00000000000000000000e-001) (11, 10, 5.00000000000000000000e-001) (11, 10, 5.00000000000000000000e-001) (11, 10, 5.00000000000000000000e-001) (11, 10, 5.00000000000000000000e-001) (11, 10, 5.00000000000000000000e-001) (11, 10, 5.00000000000000000000e-001) (11, 10, 5.00000000000000000000e-001) (11, 10, 5.00000000000000000000e-001) (11, 10, 5.00000000000000000000e-001) (11, 10, 5.00000000000000000000e-001) (11, 10, 5.00000000000000000000e-001) (11, 10, 5.00000000000000000000e-001) (11, 10, 5.00000000000000000000e-001) (11, 10, 5.00000000000000000000e-001) (11, 10, 5.00000000000000000000e-001) (11, 10, 5.00000000000000000000e-001) (11, 10, 5.00000000000000000000e-001) (11, 10, 5.00000000000000000000e-001) (11, 10, 5.00000000000000000000e-001) (11, 10, 5.00000000000000000000e-001) (11, 10, 5.00000000000000000000e-001) (11, 10, 5.00000000000000000000e-001) (11, 10, 5.00000000000000000000e-001) (11, 10, 5.00000000000000000000e-001) (11, 10, 5.00000000000000000000e-001) (11, 10, 5.00000000000000000000e-001) (11, 10, 5.00000000000000000000e-001) (11, 10, 5.00000000000000000000e-001) (11, 10, 5.00000000000000000000e-001) (11, 10, 5.00000000000000000000e-001) (11, 10, 5.00000000000000000000e-001) (11, 10, 5.00000000000000000000e-001) (11, 10, 5.00000000000000000000e-001) (11, 10, 5.00000000000000000000e-001) (11, 10, 5.00000000000000000000e-001) (11, 10, 5.00000000000000000000e-001) (11, 10, 5.00000000000000000000e-001) (11, 10, 5.00000000000000000000e-001) (11, 10, 5.00000000000000000000e-001) (11, 10, 5.00000000000000000000e-001) (11, 10, 5.00000000000000000000e-001) (11, 10, 5.00000000000000000000e-001) (11, 10, 5.00000000000000000000e-001) (11, 10, 5.00000000000000000000e-001) (11, 10, 5.00000000000000000000e-001) (11, 10, 5.00000000000000000000e-001) (11, 10, 5.00000000000000000000e-001) (11, 10, 5.00000000000000000000e-001) (11, 10, 5.00000000000000000000e-001) (11, 10, 5.00000000000000000000e-001) (11, 10, 5.00000000000000000000e-001) (11, 10, 5.00000000000000000000e-001) (11, 10, 5.00000000000000000000e-001) (11, 10, 5.00000000000000000000e-001) (11, 10, 5.00000000000000000000e-001) (11, 10, 5.00000000000000000000e-001) (11, 10, 5.00000000000000000000e-001) (11, 10, 5.00000000000000000000e-001) (0, 10, 5.00000000000000000000e-001) (67, 10, 5.00000000000000000000e-001) (67, 10, 5.00000000000000000000e-001) (67, 10, 5.00000000000000000000e-001) (67, 10, 5.00000000000000000000e-001) (67, 10, 5.00000000000000000000e-001) (67, 10, 5.00000000000000000000e-001) (67, 10, 5.00000000000000000000e-001) (67, 10, 5.00000000000000000000e-001) (67, 10, 5.00000000000000000000e-001) (67, 10, 5.00000000000000000000e-001) (67, 10, 5.00000000000000000000e-001) (67, 10, 5.00000000000000000000e-001) (67, 10, 5.00000000000000000000e-001) (67, 10, 5.00000000000000000000e-001) (67, 10, 5.00000000000000000000e-001) (67, 10, 5.00000000000000000000e-001) (67, 10, 5.00000000000000000000e-001) (67, 10, 5.00000000000000000000e-001) (67, 10, 5.00000000000000000000e-001) (67, 10, 5.00000000000000000000e-001) (67, 10, 5.00000000000000000000e-001) (67, 10, 5.00000000000000000000e-001) (67, 10, 5.00000000000000000000e-001) (67, 10, 5.00000000000000000000e-001) (67, 10, 5.00000000000000000000e-001) (67, 10, 5.00000000000000000000e-001) (67, 10, 5.00000000000000000000e-001) (67, 10, 5.00000000000000000000e-001) (67, 10, 5.00000000000000000000e-001) (67, 10, 5.00000000000000000000e-001) (67, 10, 5.00000000000000000000e-001) (67, 10, 5.00000000000000000000e-001) (67, 10, 5.00000000000000000000e-001) (67, 10, 5.00000000000000000000e-001) (67, 10, 5.00000000000000000000e-001) (67, 10, 5.00000000000000000000e-001) (67, 10, 5.00000000000000000000e-001) (67, 10, 5.00000000000000000000e-001) (67, 10, 5.00000000000000000000e-001) (67, 10, 5.00000000000000000000e-001) (67, 10, 5.00000000000000000000e-001) (67, 10, 5.00000000000000000000e-001) (67, 10, 5.00000000000000000000e-001) (67, 10, 5.00000000000000000000e-001) (0, 10, 5.00000000000000000000e-001) (45, 0, 5.00000000000000000000e-001) (45, 0, 5.00000000000000000000e-001) (0, 0, 5.00000000000000000000e-001) 
connections (connected_to_neuron, weight)=(0, -1.60511970520019530000e-001) (1, -1.94516742229461670000e+000) (2, -5.51013827323913570000e-001) (3, 2.57795095443725590000e-001) (4, -7.45281815528869630000e-001) (5, 7.89796769618988040000e-001) (6, -5.00679194927215580000e-001) (7, -2.82326281070709230000e-001) (8, 2.73531600832939150000e-002) (9, -4.24354135990142820000e-001) (10, 4.01611655950546260000e-001) (0, 2.56534535437822340000e-002) (1, 3.38772463798522950000e+000) (2, -3.75953584909439090000e-001) (3, -1.64084270596504210000e-001) (4, 1.21083307266235350000e+000) (5, 2.60194611549377440000e+000) (6, 3.30552172660827640000e+000) (7, -3.02237361669540410000e-001) (8, 1.24363398551940920000e+000) (9, 3.31810402870178220000e+000) (10, -7.78424441814422610000e-002) (0, 2.61976927518844600000e-001) (1, -3.16823035478591920000e-001) (2, -2.11518913507461550000e-001) (3, 3.72150987386703490000e-001) (4, -5.22074282169342040000e-001) (5, -5.14377176761627200000e-001) (6, -5.76477348804473880000e-001) (7, 2.28980064392089840000e-001) (8, -8.09287950396537780000e-002) (9, -2.22446009516716000000e-001) (10, 1.91844761371612550000e-001) (0, 3.08543210849165920000e-003) (1, 7.83232152462005620000e-001) (2, 5.97861826419830320000e-001) (3, 3.79261285066604610000e-001) (4, 4.86416667699813840000e-001) (5, 4.02377277612686160000e-001) (6, 9.17199015617370610000e-001) (7, 3.83715063333511350000e-001) (8, 1.32172858715057370000e+000) (9, 1.04711508750915530000e+000) (10, 4.42108929157257080000e-001) (0, -3.36078494787216190000e-001) (1, 6.09944963455200200000e+000) (2, 5.46808099746704100000e+000) (3, 2.08980107307434080000e+000) (4, 1.66126167774200440000e+000) (5, 8.69029998779296870000e+000) (6, 5.72091531753540040000e+000) (7, 1.73793897032737730000e-001) (8, -2.28601619601249690000e-002) (9, 4.66569137573242190000e+000) (10, 4.62012976408004760000e-001) (0, -4.85224723815917970000e-001) (1, -7.38377571105957030000e-001) (2, -1.57450985908508300000e+000) (3, -4.36226457357406620000e-001) (4, 3.85152280330657960000e-001) (5, 3.12201023101806640000e+000) (6, -2.70650815963745120000e+000) (7, -5.84088623523712160000e-001) (8, -1.57684183120727540000e+000) (9, -7.92869150638580320000e-001) (10, -4.67734307050704960000e-001) (0, -4.91833537817001340000e-001) (1, 9.68180537223815920000e-001) (2, 9.69659984111785890000e-001) (3, 1.55668377876281740000e-001) (4, 5.48434741795063020000e-002) (5, 1.24842739105224610000e+000) (6, 5.74843168258666990000e-001) (7, 9.73735526204109190000e-002) (8, 1.64708149433135990000e+000) (9, 2.61025905609130860000e-001) (10, 6.08935505151748660000e-002) (0, -4.61965888738632200000e-001) (1, -2.85202932357788090000e+000) (2, -2.37946105003356930000e+000) (3, -3.13396024703979490000e+000) (4, 7.39216566085815430000e-001) (5, 8.54055309295654300000e+000) (6, -7.71237945556640620000e+000) (7, -2.17876529693603520000e+000) (8, 2.52624064683914180000e-001) (9, -7.58131313323974610000e+000) (10, 4.09808635711669920000e-001) (0, -4.27291631698608400000e-001) (1, 1.17086863517761230000e+000) (2, 4.64033126831054690000e-001) (3, 5.80807089805603030000e-001) (4, 7.86899089813232420000e-001) (5, 4.80252861976623540000e-001) (6, 7.24139571189880370000e-001) (7, 1.55683770775794980000e-001) (8, 1.30574107170104980000e+000) (9, 2.91831821203231810000e-001) (10, -4.28494721651077270000e-001) (0, 3.31872999668121340000e-001) (1, 5.68937444686889650000e+000) (2, -2.92466551065444950000e-001) (3, -2.67426241189241410000e-002) (4, 2.85506439208984370000e+000) (5, 6.14816379547119140000e+000) (6, 6.33492612838745120000e+000) (7, 3.52560549974441530000e-001) (8, 2.36975169181823730000e+000) (9, 6.21172475814819340000e+000) (10, -3.65261435508728030000e-001) (0, -1.82702571153640750000e-001) (1, -1.23742187023162840000e+000) (2, -2.23096042871475220000e-001) (3, -4.20907109975814820000e-001) (4, -5.99994957447052000000e-001) (5, -9.22926515340805050000e-002) (6, -6.91357553005218510000e-001) (7, 1.36004025116562840000e-002) (8, 6.31475895643234250000e-002) (9, -4.41596388816833500000e-001) (10, 2.86691099405288700000e-001) (0, -1.50265276432037350000e-001) (1, 2.89090871810913090000e+000) (2, -3.92414517700672150000e-002) (3, 5.21258652210235600000e-001) (4, 1.92756247520446780000e+000) (5, 3.35524559020996090000e+000) (6, 2.13281130790710450000e+000) (7, 5.67247532308101650000e-002) (8, 1.59217107295989990000e+000) (9, 1.27945792675018310000e+000) (10, 4.79176402091979980000e-001) (0, -9.01435762643814090000e-002) (1, 3.86051940917968750000e+000) (2, 3.08649134635925290000e+000) (3, 1.99875775724649430000e-002) (4, 1.86224341392517090000e+000) (5, 3.36748552322387700000e+000) (6, 1.56558203697204590000e+000) (7, -2.17002823948860170000e-001) (8, 1.67101824283599850000e+000) (9, 8.46145331859588620000e-001) (10, 3.33426862955093380000e-001) (0, -2.41877108812332150000e-001) (1, 1.70577061176300050000e+000) (2, 2.23189383745193480000e-001) (3, 5.29638826847076420000e-001) (4, 7.67684459686279300000e-001) (5, -3.12937408685684200000e-001) (6, 9.01985943317413330000e-001) (7, 4.77518290281295780000e-002) (8, 2.01118373870849610000e+000) (9, 1.23194999992847440000e-001) (10, 1.87507182359695430000e-001) (0, 2.39865221083164220000e-002) (1, 2.50737571716308590000e+000) (2, -4.14893984794616700000e-001) (3, -1.87529847025871280000e-001) (4, 1.28523373603820800000e+000) (5, 2.79304671287536620000e+000) (6, 2.94785451889038090000e+000) (7, -3.10397207736968990000e-001) (8, 1.77100670337677000000e+000) (9, 3.18659114837646480000e+000) (10, -2.86887764930725100000e-001) (0, -5.04170060157775880000e-001) (1, -3.94682550430297850000e+000) (2, -5.58490216732025150000e-001) (3, 2.96851694583892820000e-001) (4, -2.65632653236389160000e+000) (5, -2.37425476312637330000e-001) (6, -1.17729842662811280000e+000) (7, 3.07036992162466050000e-002) (8, 2.41957530379295350000e-001) (9, -4.62200611829757690000e-001) (10, 2.98369109630584720000e-001) (0, 4.43768948316574100000e-001) (1, -2.19167217612266540000e-001) (2, -7.79483392834663390000e-002) (3, -1.81735783815383910000e-001) (4, -1.88635706901550290000e-001) (5, -2.36711785197258000000e-001) (6, -5.46206384897232060000e-002) (7, -3.31988871097564700000e-001) (8, -5.14911055564880370000e-001) (9, -2.42337957024574280000e-001) (10, 1.54717490077018740000e-001) (0, 4.40059244632720950000e-001) (1, 1.40855717658996580000e+000) (2, 5.39807915687561040000e-001) (3, 2.76063587516546250000e-002) (4, 2.33012989163398740000e-001) (5, 1.67460107803344730000e+000) (6, 9.67040836811065670000e-001) (7, -2.15348642086610200000e-004) (8, 1.59883022308349610000e+000) (9, 8.35853278636932370000e-001) (10, -3.01656723022460940000e-001) (0, 3.01704645156860350000e-001) (1, -4.54640209674835210000e-001) (2, -8.16647037863731380000e-002) (3, 2.82428801059722900000e-001) (4, -4.97975736856460570000e-001) (5, -3.95637780427932740000e-001) (6, -4.55418676137924190000e-001) (7, -3.30783128738403320000e-001) (8, -4.24731910228729250000e-001) (9, 3.26343178749084470000e-001) (10, 4.87042993307113650000e-001) (0, 2.80291467905044560000e-001) (1, 2.04581451416015620000e+000) (2, -3.69537383317947390000e-001) (3, -2.19435170292854310000e-001) (4, 1.18389272689819340000e+000) (5, 2.65077590942382810000e+000) (6, 2.76355266571044920000e+000) (7, -1.23865939676761630000e-001) (8, 9.88343000411987300000e-001) (9, 3.04013276100158690000e+000) (10, 1.19182892143726350000e-001) (0, 4.44575548171997070000e-001) (1, -2.10736894607543950000e+000) (2, -2.52175748348236080000e-001) (3, -9.48796331882476810000e-001) (4, -8.73040318489074710000e-001) (5, 1.65958964824676510000e+000) (6, -9.89653527736663820000e-001) (7, -4.49955463409423830000e-001) (8, -7.68728077411651610000e-001) (9, -7.23761260509490970000e-001) (10, -3.98084133863449100000e-001) (0, 1.25145241618156430000e-001) (1, 1.18877828121185300000e+000) (2, 8.50464999675750730000e-001) (3, -1.40641361474990840000e-001) (4, 8.78969609737396240000e-001) (5, 9.95477139949798580000e-001) (6, 1.72166144847869870000e+000) (7, 2.01971098780632020000e-001) (8, 1.16468584537506100000e+000) (9, 7.33695268630981450000e-001) (10, 1.35395735502243040000e-001) (0, 2.95477956533432010000e-001) (1, -1.17869949340820310000e+000) (2, -5.94458997249603270000e-001) (3, -7.69038438796997070000e-001) (4, 2.92924344539642330000e-001) (5, 4.21054512262344360000e-001) (6, -1.89183342456817630000e+000) (7, -6.59690558910369870000e-001) (8, 2.65927147120237350000e-003) (9, -4.31522339582443240000e-001) (10, 2.45881661772727970000e-001) (0, 2.54240572452545170000e-001) (1, -3.10085272789001460000e+000) (2, -2.07198977470397950000e-001) (3, 1.77548170089721680000e-001) (4, -2.02440619468688960000e+000) (5, 2.60348439216613770000e+000) (6, -1.49705219268798830000e+000) (7, -1.26574027538299560000e+000) (8, 1.11020565032958980000e-001) (9, -1.17600321769714360000e+000) (10, 1.21960632503032680000e-001) (0, 1.17161020636558530000e-001) (1, 1.82517683506011960000e+000) (2, 1.42151939868927000000e+000) (3, -2.39340178668498990000e-002) (4, 6.31573021411895750000e-001) (5, 1.35842514038085940000e+000) (6, 1.98802113533020020000e+000) (7, 5.59140026569366460000e-001) (8, 1.49604594707489010000e+000) (9, 6.32297039031982420000e-001) (10, -2.86876037716865540000e-002) (0, -4.29049909114837650000e-001) (1, -1.67379391193389890000e+000) (2, -1.37983942031860350000e+000) (3, -5.70584297180175780000e-001) (4, -8.12313258647918700000e-001) (5, 2.16562509536743160000e+000) (6, -1.58601772785186770000e+000) (7, -7.06514358520507810000e-001) (8, -4.11852836608886720000e-001) (9, -5.72318553924560550000e-001) (10, 1.86469927430152890000e-001) (0, 3.40939536690711980000e-002) (1, -4.36627686023712160000e-001) (2, -2.07457855343818660000e-001) (3, 3.36136817932128910000e-002) (4, -6.91037178039550780000e-001) (5, -1.95587098598480220000e-001) (6, -1.51151672005653380000e-001) (7, -1.40918508172035220000e-001) (8, -1.56011134386062620000e-001) (9, -6.58311545848846440000e-001) (10, 3.73570144176483150000e-001) (0, -3.74349534511566160000e-001) (1, -3.76460742950439450000e+000) (2, -1.54695892333984370000e+000) (3, -9.55368757247924800000e-001) (4, -1.12396264076232910000e+000) (5, 2.00525426864624020000e+000) (6, -1.35302472114562990000e+000) (7, -5.90955674648284910000e-001) (8, -2.14467430114746090000e+000) (9, -1.57181656360626220000e+000) (10, 1.45409256219863890000e-001) (0, -4.65404570102691650000e-001) (1, 1.49686968326568600000e+000) (2, 6.16706788539886470000e-001) (3, 7.77052402496337890000e-001) (4, 7.50764906406402590000e-001) (5, 1.88178932666778560000e+000) (6, 1.39621889591217040000e+000) (7, -6.40696823596954350000e-001) (8, 1.97509074211120610000e+000) (9, 1.96129846572875980000e+000) (10, 4.95625376701354980000e-001) (0, 1.57908484339714050000e-001) (1, 1.15084528923034670000e+000) (2, -2.97743737697601320000e-001) (3, 9.68463122844696040000e-002) (4, 1.03299570083618160000e+000) (5, 1.20363414287567140000e+000) (6, 1.37424218654632570000e+000) (7, -3.69008183479309080000e-001) (8, 1.36812055110931400000e+000) (9, 9.87626433372497560000e-001) (10, -4.33210581541061400000e-001) (0, -5.80454282462596890000e-002) (1, -9.24172580242156980000e-001) (2, -8.15209150314331050000e-001) (3, -4.03912842273712160000e-001) (4, -4.71785932779312130000e-001) (5, -1.74169823527336120000e-001) (6, -3.13827693462371830000e-002) (7, 2.87201581522822380000e-003) (8, -4.79077696800231930000e-001) (9, -2.31489896774291990000e-001) (10, 2.20351859927177430000e-001) (0, -3.98883104324340820000e-001) (1, 1.75507807731628420000e+000) (2, 8.46984684467315670000e-001) (3, 1.15471899509429930000e+000) (4, 4.34846580028533940000e-001) (5, 8.80974590778350830000e-001) (6, 1.04652404785156250000e+000) (7, -1.14588197320699690000e-002) (8, 1.24782133102416990000e+000) (9, 7.36632943153381350000e-001) (10, 3.39534729719161990000e-001) (0, 3.58689159154891970000e-001) (1, -3.41493070125579830000e-001) (2, 2.18968510627746580000e-001) (3, -4.00400817394256590000e-001) (4, 6.86443820595741270000e-002) (5, -1.42319366335868840000e-001) (6, -3.20321053266525270000e-001) (7, 2.17075556516647340000e-001) (8, -4.49807971715927120000e-001) (9, -1.99546366930007930000e-001) (10, -8.06885212659835820000e-002) (0, 8.09805169701576230000e-002) (1, 1.97727847099304200000e+000) (2, 1.33209514617919920000e+000) (3, -9.76111739873886110000e-002) (4, 8.14994752407073970000e-001) (5, 1.53142654895782470000e+000) (6, 1.04341542720794680000e+000) (7, -1.30275651812553410000e-001) (8, 1.11587405204772950000e+000) (9, 8.82730066776275630000e-001) (10, 1.44093275070190430000e-001) (0, -1.45884364843368530000e-001) (1, -3.57948327064514160000e+000) (2, -8.71880888938903810000e-001) (3, -4.73138481378555300000e-001) (4, -2.07513141632080080000e+000) (5, 8.10469448566436770000e-001) (6, -6.24334096908569340000e-001) (7, -5.77021479606628420000e-001) (8, -2.77313411235809330000e-001) (9, -8.91228079795837400000e-001) (10, -5.11723339557647710000e-001) (0, -4.46293503046035770000e-001) (1, -3.46577358245849610000e+000) (2, -1.37901687622070310000e+000) (3, -2.76895213127136230000e+000) (4, -4.93031561374664310000e-001) (5, 4.70545482635498050000e+000) (6, -2.59992885589599610000e+000) (7, 1.31330060958862300000e+000) (8, 2.12893962860107420000e+000) (9, -3.42368412017822270000e+000) (10, 2.15599779039621350000e-003) (0, -4.21038061380386350000e-001) (1, -6.27047348022460940000e+000) (2, -1.71123003959655760000e+000) (3, 1.74590080976486210000e-001) (4, -4.23276090621948240000e+000) (5, -8.16309973597526550000e-002) (6, -2.42338633537292480000e+000) (7, 3.73092460632324220000e+000) (8, 1.15871162414550780000e+001) (9, 2.98524230718612670000e-001) (10, 7.76423588395118710000e-002) (0, -1.24552950263023380000e-001) (1, 3.58422636985778810000e-001) (2, 5.25343239307403560000e-001) (3, 5.92979669570922850000e-001) (4, 7.79824554920196530000e-001) (5, 9.35388088226318360000e-001) (6, 9.67769920825958250000e-001) (7, 3.07233542203903200000e-001) (8, 1.42851960659027100000e+000) (9, 9.51821446418762210000e-001) (10, 4.36695277690887450000e-001) (0, -2.59115278720855710000e-001) (1, 7.61389315128326420000e-001) (2, 2.28835511952638630000e-002) (3, 4.07417416572570800000e-001) (4, 6.97450697422027590000e-001) (5, 7.25045800209045410000e-001) (6, 1.01283073425292970000e+000) (7, -1.26162439584732060000e-001) (8, 1.41918456554412840000e+000) (9, 6.45963191986083980000e-001) (10, -2.22952708601951600000e-001) (0, 3.29526722431182860000e-001) (1, 1.16548037528991700000e+000) (2, 5.07030308246612550000e-001) (3, -1.32888764142990110000e-001) (4, 5.51196373999118800000e-002) (5, 1.52915453910827640000e+000) (6, 8.84441316127777100000e-001) (7, -2.37393733114004140000e-002) (8, 1.33510994911193850000e+000) (9, 2.42762029170989990000e-001) (10, -3.32900762557983400000e-001) (0, 4.13796424865722660000e-001) (1, 5.52816271781921390000e-001) (2, -3.02183274179697040000e-002) (3, 1.81998312473297120000e-001) (4, 3.56805384159088130000e-001) (5, 6.25617802143096920000e-001) (6, 7.44913160800933840000e-001) (7, 9.04588401317596440000e-002) (8, 1.71651864051818850000e+000) (9, 4.66439574956893920000e-001) (10, -2.56917685270309450000e-001) (0, 4.64676141738891600000e-001) (1, -2.20567321777343750000e+000) (2, -1.04612207412719730000e+000) (3, -8.54161798954010010000e-001) (4, -1.33413612842559810000e+000) (5, 1.98827779293060300000e+000) (6, -1.19443714618682860000e+000) (7, -2.53435522317886350000e-001) (8, 9.27281901240348820000e-002) (9, -1.05137872695922850000e+000) (10, -3.42822134494781490000e-001) (0, -4.27641957998275760000e-001) (1, -3.32092761993408200000e-001) (2, 1.78171873092651370000e+000) (3, 1.94153201580047610000e+000) (4, -1.56556355953216550000e+000) (5, 4.39097881317138670000e+000) (6, 3.29608559608459470000e+000) (7, -8.51139008998870850000e-001) (8, 4.38234281539916990000e+000) (9, 2.80534815788269040000e+000) (10, 2.62498050928115840000e-001) (0, 3.45310896635055540000e-001) (1, 1.13270246982574460000e+000) (2, 9.60648238658905030000e-001) (3, 7.39151418209075930000e-001) (4, 7.23450720310211180000e-001) (5, 1.24605739116668700000e+000) (6, 3.71242135763168330000e-001) (7, -3.73991966247558590000e-001) (8, 1.32956171035766600000e+000) (9, 8.39541316032409670000e-001) (10, -3.16850334405899050000e-001) (0, -3.96121948957443240000e-001) (1, 1.29720675945281980000e+000) (2, 5.01296997070312500000e-001) (3, 2.77359396219253540000e-001) (4, 6.78821802139282230000e-001) (5, 9.90680158138275150000e-001) (6, 1.16095054149627690000e+000) (7, -4.45940434932708740000e-001) (8, 1.73788273334503170000e+000) (9, 1.46362257003784180000e+000) (10, 1.35671585798263550000e-001) (0, -1.43672376871109010000e-001) (1, 7.27011919021606450000e-001) (2, 4.98056560754776000000e-001) (3, 4.10114377737045290000e-001) (4, 5.01799225807189940000e-001) (5, 5.95109999179840090000e-001) (6, 1.05795204639434810000e+000) (7, -4.42521721124649050000e-001) (8, 1.83818113803863530000e+000) (9, 8.95087182521820070000e-001) (10, 4.90776419639587400000e-001) (0, -2.38124310970306400000e-001) (1, -1.79242539405822750000e+000) (2, -7.01447904109954830000e-001) (3, -7.05220937728881840000e-001) (4, -5.86182892322540280000e-001) (5, 6.46105229854583740000e-001) (6, -1.60114526748657230000e+000) (7, -1.34739633649587630000e-002) (8, -1.62816715240478520000e+000) (9, -1.29419696331024170000e+000) (10, -3.17574858665466310000e-001) (0, 4.80895400047302250000e-001) (1, 1.76561617851257320000e+000) (2, 5.94486773014068600000e-001) (3, 3.26172977685928340000e-001) (4, 1.63807183504104610000e-001) (5, -4.39948916435241700000e-001) (6, 1.39792084693908690000e+000) (7, 6.29931569099426270000e-001) (8, 1.48191905021667480000e+000) (9, 6.45852446556091310000e-001) (10, -8.94653648138046260000e-002) (0, 5.33092737197875980000e-001) (1, 9.27136135101318360000e+000) (2, -2.32906252145767210000e-001) (3, 1.41465529799461360000e-001) (4, 4.79735422134399410000e+000) (5, 9.37805843353271480000e+000) (6, 9.77288341522216800000e+000) (7, -4.59144860506057740000e-001) (8, 2.50827169418334960000e+000) (9, 9.90786457061767580000e+000) (10, 4.19305264949798580000e-001) (0, -4.35849487781524660000e-001) (1, 1.13992989063262940000e+000) (2, 1.44342851638793950000e+000) (3, -1.69977601617574690000e-002) (4, 4.49780136346817020000e-001) (5, 1.31691598892211910000e+000) (6, 4.90158438682556150000e-001) (7, -1.60348370671272280000e-001) (8, 1.59269058704376220000e+000) (9, 1.92123111337423320000e-002) (10, 9.37123745679855350000e-002) (0, -3.46374362707138060000e-001) (1, 2.27445125579833980000e+001) (2, 2.32269382476806640000e+001) (3, 6.86532199382781980000e-001) (4, 1.15077342987060550000e+001) (5, 2.26644668579101560000e+001) (6, 1.18573160171508790000e+001) (7, 2.67188692092895510000e+000) (8, 5.09047555923461910000e+000) (9, 2.66796112060546870000e+000) (10, -6.06648288667202000000e-002) (0, 3.21398496627807620000e-001) (1, 3.49172353744506840000e+000) (2, 7.77051389217376710000e-001) (3, 3.12467265129089360000e+000) (4, 1.23820900917053220000e+000) (5, 5.12442731857299800000e+000) (6, 1.29174435138702390000e+000) (7, -3.66523385047912600000e-001) (8, 7.14341306686401370000e+000) (9, 1.95720648765563960000e+000) (10, -3.40831369161605830000e-001) (0, -3.87051522731781010000e-001) (1, -4.65801209211349490000e-001) (2, -3.64332407712936400000e-001) (3, 2.09914356470108030000e-001) (4, -3.40398162603378300000e-001) (5, 2.85624563694000240000e-002) (6, -2.88301676511764530000e-001) (7, -2.86960422992706300000e-001) (8, -2.44434028863906860000e-001) (9, -2.79860883951187130000e-001) (10, 2.42466881871223450000e-001) (0, -2.38729834556579590000e-001) (1, -2.86375975608825680000e+000) (2, -2.57063359022140500000e-001) (3, -4.32025283575057980000e-001) (4, -1.34037292003631590000e+000) (5, -2.00532388687133790000e+000) (6, -2.11058115959167480000e+000) (7, -4.48661774396896360000e-001) (8, -1.30063131451606750000e-001) (9, -1.93473064899444580000e+000) (10, -1.89764589071273800000e-001) (0, -4.24413591623306270000e-001) (1, -2.38307070732116700000e+000) (2, -1.18648552894592290000e+000) (3, -6.46324634552001950000e-001) (4, -7.78501093387603760000e-001) (5, 2.29843330383300780000e+000) (6, -7.60930299758911130000e-001) (7, -6.47938326001167300000e-002) (8, -1.94075834751129150000e+000) (9, -7.22470164299011230000e-001) (10, 4.59651231765747070000e-001) (0, 2.26814478635787960000e-001) (1, -4.02132558822631840000e+000) (2, -3.71516227722167970000e+000) (3, -4.83130738139152530000e-002) (4, -1.95140469074249270000e+000) (5, -3.41872072219848630000e+000) (6, -2.27203249931335450000e+000) (7, -5.01633465290069580000e-001) (8, -3.44070583581924440000e-001) (9, -8.15877914428710940000e-001) (10, -2.55642533302307130000e-001) (0, 1.18714794516563420000e-001) (1, 1.96749734878540040000e+000) (2, 5.42203485965728760000e-001) (3, 7.17020213603973390000e-001) (4, 4.73346889019012450000e-001) (5, 1.24013268947601320000e+000) (6, 9.26819741725921630000e-001) (7, -5.41420578956604000000e-001) (8, 1.73396503925323490000e+000) (9, 7.74551987648010250000e-001) (10, -4.46311324834823610000e-001) (0, -4.42631185054779050000e-001) (1, 1.28195703029632570000e+000) (2, 1.44334599375724790000e-001) (3, 3.78975987434387210000e-001) (4, 6.66901826858520510000e-001) (5, 1.05048045516014100000e-001) (6, 1.35827136039733890000e+000) (7, -1.64203017950057980000e-001) (8, 1.36892890930175780000e+000) (9, 4.47234094142913820000e-001) (10, -2.05342601984739300000e-002) (0, -1.95741102099418640000e-001) (1, -1.01422071456909180000e+001) (2, -2.23515406250953670000e-001) (3, -3.06776762008666990000e-001) (4, -5.64584732055664060000e+000) (5, -1.07152900695800780000e+001) (6, -1.04296464920043950000e+001) (7, 1.92951679229736330000e-001) (8, -1.96506226062774660000e+000) (9, -1.05941200256347660000e+001) (10, -3.16881239414215090000e-001) (0, 2.51434832811355590000e-001) (1, 2.33936452865600590000e+000) (2, 2.43462300300598140000e+000) (3, 1.74758124351501460000e+000) (4, 6.41530096530914310000e-001) (5, 2.33771872520446780000e+000) (6, 1.78907775878906250000e+000) (7, 6.09988975524902340000e+000) (8, 5.94675827026367190000e+000) (9, 1.99713742733001710000e+000) (10, 3.83658170700073240000e-001) (0, 4.43111091852188110000e-001) (1, 1.18909990787506100000e+000) (2, 1.57631650567054750000e-001) (3, 4.09274727106094360000e-001) (4, 1.72703951597213750000e-001) (5, 1.37269675731658940000e+000) (6, 1.40094137191772460000e+000) (7, 2.71977156400680540000e-001) (8, 1.11951315402984620000e+000) (9, 1.00672864913940430000e+000) (10, -7.81033411622047420000e-002) (0, -2.08180367946624760000e-001) (1, 1.61722052097320560000e+000) (2, 1.75489532947540280000e+000) (3, 8.84651124477386470000e-001) (4, 2.46072009205818180000e-001) (5, 1.86137139797210690000e+000) (6, 2.49674463272094730000e+000) (7, -6.90667033195495610000e-002) (8, 1.76400399208068850000e+000) (9, 3.31086158752441410000e+000) (10, 2.27629840373992920000e-001) (0, -4.52241003513336180000e-001) (1, 1.62079644203186040000e+000) (2, 1.58455109596252440000e+000) (3, 7.10442721843719480000e-001) (4, 6.15071415901184080000e-001) (5, 1.75904905796051030000e+000) (6, 2.41144800186157230000e+000) (7, -3.71187552809715270000e-002) (8, 1.71689093112945560000e+000) (9, 1.68341255187988280000e+000) (10, 4.24481123685836790000e-001) (0, 4.63425099849700930000e-001) (1, -5.84679186344146730000e-001) (2, -1.29951357841491700000e+000) (3, -5.12301139533519740000e-002) (4, -6.37561976909637450000e-001) (5, -8.47515940666198730000e-001) (6, -4.10940021276474000000e-001) (7, 3.82154732942581180000e-001) (8, -3.29894900321960450000e-001) (9, -4.47045564651489260000e-001) (10, -1.32146358489990230000e-001) (0, 3.51238995790481570000e-001) (1, -2.20070672035217290000e+000) (2, -7.73259758949279790000e-001) (3, -1.80785916745662690000e-002) (4, -1.34015071392059330000e+000) (5, -6.67762637138366700000e-001) (6, -2.70200371742248540000e-001) (7, -3.44055414199829100000e-001) (8, 1.21683150529861450000e-001) (9, -2.49511048197746280000e-001) (10, -3.98698076605796810000e-002) (0, -4.85497057437896730000e-001) (1, 1.21288633346557620000e+000) (2, 6.21552288532257080000e-001) (3, -4.18838746845722200000e-002) (4, 8.39625477790832520000e-001) (5, 8.68926286697387700000e-001) (6, 7.98870623111724850000e-001) (7, -3.28478366136550900000e-001) (8, 1.41433513164520260000e+000) (9, 6.77414000034332280000e-001) (10, 4.40641552209854130000e-001) (11, -3.82781791687011720000e+000) (12, -5.93276309967041020000e+000) (13, 2.15626507997512820000e-001) (14, -5.08999538421630860000e+000) (15, -5.77633047103881840000e+000) (16, -1.31213140487670900000e+000) (17, -6.34078645706176760000e+000) (18, -2.95559597015380860000e+000) (19, -4.32167005538940430000e+000) (20, -5.60576391220092770000e+000) (21, -1.30855560302734380000e+000) (22, -6.25089597702026370000e+000) (23, -5.84046745300292970000e+000) (24, -4.68837881088256840000e+000) (25, -6.13105344772338870000e+000) (26, -3.05875182151794430000e+000) (27, 1.23395361006259920000e-001) (28, -5.95312595367431640000e+000) (29, -1.24017603695392610000e-001) (30, -5.30401849746704100000e+000) (31, -6.15333652496337890000e+000) (32, -5.87057590484619140000e+000) (33, -1.15372288227081300000e+000) (34, -5.43847084045410160000e+000) (35, -6.39833021163940430000e+000) (36, -1.18259906768798830000e+000) (37, -1.06999702751636510000e-001) (38, -6.65243721008300780000e+000) (39, -5.38126468658447270000e+000) (40, -5.38886117935180660000e+000) (41, -7.80954062938690190000e-001) (42, -4.08965301513671870000e+000) (43, 4.26057249307632450000e-001) (44, -5.90940856933593750000e+000) (45, -5.88459300994873050000e+000) (46, -1.71442961692810060000e+000) (47, -4.55670356750488280000e+000) (48, -6.00678253173828130000e+000) (49, -5.65943622589111330000e+000) (50, -6.22510576248168950000e+000) (51, -4.06027507781982420000e+000) (52, -5.99178075790405270000e+000) (53, -6.76327180862426760000e+000) (54, -6.46792793273925780000e+000) (55, -5.55460023880004880000e+000) (56, -6.48358201980590820000e+000) (57, -3.47143268585205080000e+000) (58, -5.44404363632202150000e+000) (59, -5.75412130355834960000e+000) (60, -6.68622922897338870000e+000) (61, -6.32051563262939450000e+000) (62, -5.36182689666748050000e+000) (63, -4.04192842543125150000e-002) (64, -1.61091342568397520000e-001) (65, -5.27736663818359380000e+000) (66, -4.85686689615249630000e-001) (67, -6.07089757919311520000e+000) (68, -5.42060470581054690000e+000) (69, -3.52898836135864260000e-001) (70, -5.40699148178100590000e+000) (71, -6.15511465072631840000e+000) (72, -6.44393396377563480000e+000) (73, -6.58214616775512700000e+000) (74, -3.19046735763549800000e-001) (75, -2.60260462760925290000e+000) (76, -5.91195631027221680000e+000) (77, -6.17415380477905270000e+000) (11, -3.92729091644287110000e+000) (12, -5.82494831085205080000e+000) (13, 3.44262033700942990000e-001) (14, -5.34649038314819340000e+000) (15, -5.78601312637329100000e+000) (16, -1.02932393550872800000e+000) (17, -6.31797218322753910000e+000) (18, -3.86958146095275880000e+000) (19, -3.99477648735046390000e+000) (20, -6.38794660568237300000e+000) (21, -1.20238816738128660000e+000) (22, -5.82281780242919920000e+000) (23, -6.04818201065063480000e+000) (24, -5.28434228897094730000e+000) (25, -6.20978927612304690000e+000) (26, -2.40241265296936040000e+000) (27, 3.71291637420654300000e-001) (28, -5.97852468490600590000e+000) (29, -5.08285999298095700000e-001) (30, -5.80927133560180660000e+000) (31, -6.23358440399169920000e+000) (32, -5.65163898468017580000e+000) (33, -1.29682147502899170000e+000) (34, -4.73544120788574220000e+000) (35, -6.22807359695434570000e+000) (36, -1.30856466293334960000e+000) (37, 7.54468441009521480000e-002) (38, -6.28591203689575200000e+000) (39, -5.26622343063354490000e+000) (40, -6.16131877899169920000e+000) (41, 2.43045493960380550000e-001) (42, -4.07317256927490230000e+000) (43, 8.02440792322158810000e-002) (44, -6.01663351058959960000e+000) (45, -5.29149484634399410000e+000) (46, -2.12517499923706050000e+000) (47, -4.48203659057617190000e+000) (48, -6.26404094696044920000e+000) (49, -5.87846994400024410000e+000) (50, -6.25838661193847660000e+000) (51, -4.12014722824096680000e+000) (52, -6.37458705902099610000e+000) (53, -6.03580951690673830000e+000) (54, -6.02789258956909180000e+000) (55, -6.59024620056152340000e+000) (56, -5.99730825424194340000e+000) (57, -4.14939022064208980000e+000) (58, -5.26180171966552730000e+000) (59, -5.98397493362426760000e+000) (60, -6.28205585479736330000e+000) (61, -5.74911689758300780000e+000) (62, -5.54485464096069340000e+000) (63, -2.91422456502914430000e-001) (64, -2.37430974841117860000e-001) (65, -4.57251596450805660000e+000) (66, -2.45401158928871150000e-001) (67, -6.37915086746215820000e+000) (68, -5.61967372894287110000e+000) (69, -2.93153375387191770000e-001) (70, -4.74198150634765620000e+000) (71, -6.22977781295776370000e+000) (72, -5.75003910064697270000e+000) (73, -6.50608634948730470000e+000) (74, 4.83184486627578740000e-001) (75, -2.69882011413574220000e+000) (76, -6.28735351562500000000e+000) (77, -5.63883781433105470000e+000) (11, -3.88903546333312990000e+000) (12, -5.98049259185791020000e+000) (13, -2.95948889106512070000e-002) (14, -5.19278907775878910000e+000) (15, -5.25589895248413090000e+000) (16, -1.35860645771026610000e+000) (17, -6.87047719955444340000e+000) (18, -4.44005489349365230000e+000) (19, -4.70881032943725590000e+000) (20, -5.96741294860839840000e+000) (21, -6.03900790214538570000e-001) (22, -6.76296663284301760000e+000) (23, -6.10327386856079100000e+000) (24, -4.75597906112670900000e+000) (25, -6.03968429565429690000e+000) (26, -2.71900463104248050000e+000) (27, -4.33362662792205810000e-001) (28, -5.99888277053833010000e+000) (29, -1.97360739111900330000e-002) (30, -5.18914508819580080000e+000) (31, -5.84242677688598630000e+000) (32, -6.46207380294799800000e+000) (33, -1.36447000503540040000e+000) (34, -5.03361463546752930000e+000) (35, -6.33252382278442380000e+000) (36, -2.37064337730407710000e+000) (37, -1.11513948440551760000e+000) (38, -6.80493307113647460000e+000) (39, -4.97192430496215820000e+000) (40, -4.69202041625976560000e+000) (41, 3.64284366369247440000e-001) (42, -4.34264659881591800000e+000) (43, 3.51350545883178710000e-001) (44, -6.96028614044189450000e+000) (45, -6.12516546249389650000e+000) (46, -2.99715137481689450000e+000) (47, -3.94948267936706540000e+000) (48, -6.37849283218383790000e+000) (49, -4.73439884185791020000e+000) (50, -6.03752565383911130000e+000) (51, -3.87793970108032230000e+000) (52, -5.91602134704589840000e+000) (53, -6.78624486923217770000e+000) (54, -5.99575138092041020000e+000) (55, -6.58255434036254880000e+000) (56, -6.41596031188964840000e+000) (57, -3.74371910095214840000e+000) (58, -4.80449151992797850000e+000) (59, -5.52894926071166990000e+000) (60, -6.58273649215698240000e+000) (61, -6.95939922332763670000e+000) (62, -4.29259967803955080000e+000) (63, 2.37914979457855220000e-001) (64, -1.50720286369323730000e+000) (65, -5.27655744552612300000e+000) (66, 2.34001073986291890000e-002) (67, -6.04469728469848630000e+000) (68, -4.62988948822021480000e+000) (69, -1.14701414108276370000e+000) (70, -4.99271965026855470000e+000) (71, -5.25641822814941410000e+000) (72, -6.58038806915283200000e+000) (73, -6.90940332412719730000e+000) (74, -3.44393491744995120000e-001) (75, -2.70506620407104490000e+000) (76, -6.05034017562866210000e+000) (77, -6.27279806137084960000e+000) (11, -4.44197607040405270000e+000) (12, -5.57451248168945310000e+000) (13, -1.95592381060123440000e-002) (14, -5.38870477676391600000e+000) (15, -6.41105651855468750000e+000) (16, -1.07593595981597900000e+000) (17, -5.78914165496826170000e+000) (18, -2.70806622505187990000e+000) (19, -4.10208654403686520000e+000) (20, -6.10288000106811520000e+000) (21, -8.95712614059448240000e-001) (22, -5.79703855514526370000e+000) (23, -6.22190952301025390000e+000) (24, -4.84874773025512700000e+000) (25, -6.30648231506347660000e+000) (26, -2.89874410629272460000e+000) (27, 4.05684739351272580000e-001) (28, -6.49887704849243160000e+000) (29, 2.63353258371353150000e-001) (30, -6.12457799911499020000e+000) (31, -5.84424209594726560000e+000) (32, -6.48520612716674800000e+000) (33, -1.56064093112945560000e+000) (34, -5.30722284317016600000e+000) (35, -6.51663923263549800000e+000) (36, -1.37341213226318360000e+000) (37, -8.75663384795188900000e-002) (38, -6.62702846527099610000e+000) (39, -5.26337099075317380000e+000) (40, -6.26257133483886720000e+000) (41, 3.87245342135429380000e-002) (42, -4.66153144836425780000e+000) (43, 2.11535533890128140000e-003) (44, -6.50305318832397460000e+000) (45, -5.36675453186035160000e+000) (46, -1.46915555000305180000e+000) (47, -4.74166059494018550000e+000) (48, -5.72513246536254880000e+000) (49, -5.84168863296508790000e+000) (50, -6.64071893692016600000e+000) (51, -3.77712154388427730000e+000) (52, -5.57264089584350590000e+000) (53, -6.22095489501953130000e+000) (54, -6.48520660400390620000e+000) (55, -5.95746564865112300000e+000) (56, -6.52817392349243160000e+000) (57, -3.56492066383361820000e+000) (58, -5.28490161895751950000e+000) (59, -5.57468843460083010000e+000) (60, -6.58507251739501950000e+000) (61, -5.71279525756835940000e+000) (62, -4.76456642150878910000e+000) (63, -9.79410484433174130000e-002) (64, -8.13602983951568600000e-001) (65, -4.62843036651611330000e+000) (66, 1.84691548347473140000e-001) (67, -5.85479164123535160000e+000) (68, -5.22004699707031250000e+000) (69, -4.68927592039108280000e-001) (70, -5.27523708343505860000e+000) (71, -5.46255159378051760000e+000) (72, -5.72532033920288090000e+000) (73, -6.56703853607177730000e+000) (74, 2.40780532360076900000e-001) (75, -2.21516942977905270000e+000) (76, -6.05029726028442380000e+000) (77, -6.35367393493652340000e+000) (11, -4.02372980117797850000e+000) (12, -5.75213289260864260000e+000) (13, 4.01081323623657230000e-001) (14, -5.53024148941040040000e+000) (15, -5.84750032424926760000e+000) (16, -6.11903309822082520000e-001) (17, -5.77698421478271480000e+000) (18, -3.39634609222412110000e+000) (19, -4.86105918884277340000e+000) (20, -5.98283195495605470000e+000) (21, -1.07220494747161870000e+000) (22, -6.21591377258300780000e+000) (23, -5.78930664062500000000e+000) (24, -5.22733354568481450000e+000) (25, -5.81187486648559570000e+000) (26, -2.98497605323791500000e+000) (27, -4.68337744474411010000e-001) (28, -6.58305406570434570000e+000) (29, 6.23383074998855590000e-002) (30, -5.68037557601928710000e+000) (31, -6.29665088653564450000e+000) (32, -5.97939872741699220000e+000) (33, -8.44183743000030520000e-001) (34, -4.94293498992919920000e+000) (35, -6.13354969024658200000e+000) (36, -1.45140600204467770000e+000) (37, -4.15911823511123660000e-001) (38, -6.05815792083740230000e+000) (39, -5.08462142944335940000e+000) (40, -5.90367937088012700000e+000) (41, -3.84450346231460570000e-001) (42, -4.01572084426879880000e+000) (43, -3.44420611858367920000e-001) (44, -6.56075763702392580000e+000) (45, -5.90740823745727540000e+000) (46, -2.10161018371582030000e+000) (47, -4.46192312240600590000e+000) (48, -6.19034624099731450000e+000) (49, -6.02110481262207030000e+000) (50, -5.70325469970703130000e+000) (51, -3.73938131332397460000e+000) (52, -6.24140214920043950000e+000) (53, -6.29607772827148440000e+000) (54, -6.38853406906127930000e+000) (55, -5.96228981018066410000e+000) (56, -5.65942335128784180000e+000) (57, -4.16142892837524410000e+000) (58, -5.38862133026123050000e+000) (59, -5.63369703292846680000e+000) (60, -6.38784933090209960000e+000) (61, -5.67294549942016600000e+000) (62, -4.87448501586914060000e+000) (63, 1.97540849447250370000e-001) (64, 1.88910514116287230000e-001) (65, -4.60504484176635740000e+000) (66, 3.33245217800140380000e-001) (67, -6.11541080474853520000e+000) (68, -6.12756299972534180000e+000) (69, 2.35821038484573360000e-001) (70, -4.66353988647460940000e+000) (71, -5.90738296508789060000e+000) (72, -6.55449581146240230000e+000) (73, -6.53814029693603520000e+000) (74, -3.47231142222881320000e-002) (75, -2.89281201362609860000e+000) (76, -6.41090822219848630000e+000) (77, -6.02222442626953130000e+000) (11, -3.67683935165405270000e+000) (12, -6.37299680709838870000e+000) (13, -1.71513333916664120000e-001) (14, -5.95290851593017580000e+000) (15, -6.05977582931518550000e+000) (16, -8.21502566337585450000e-001) (17, -6.50073862075805660000e+000) (18, -3.14999318122863770000e+000) (19, -3.93355798721313480000e+000) (20, -6.10157442092895510000e+000) (21, -9.64275717735290530000e-001) (22, -5.90464019775390620000e+000) (23, -5.88466215133666990000e+000) (24, -5.06454277038574220000e+000) (25, -6.24279689788818360000e+000) (26, -3.02554798126220700000e+000) (27, 5.18037602305412290000e-002) (28, -6.35074758529663090000e+000) (29, -3.07262241840362550000e-001) (30, -6.16745424270629880000e+000) (31, -5.98221254348754880000e+000) (32, -6.34697198867797850000e+000) (33, -8.66100370883941650000e-001) (34, -4.68055772781372070000e+000) (35, -5.95007658004760740000e+000) (36, -7.67424583435058590000e-001) (37, -5.82203865051269530000e-001) (38, -5.76724815368652340000e+000) (39, -5.70324468612670900000e+000) (40, -5.83525800704956050000e+000) (41, -4.61943775415420530000e-001) (42, -4.14506244659423830000e+000) (43, 3.03992748260498050000e-001) (44, -6.21250009536743160000e+000) (45, -5.40190696716308590000e+000) (46, -1.77781510353088380000e+000) (47, -4.72015094757080080000e+000) (48, -5.61421966552734370000e+000) (49, -6.21607255935668950000e+000) (50, -6.28177976608276370000e+000) (51, -4.15651702880859380000e+000) (52, -5.97473144531250000000e+000) (53, -6.33995294570922850000e+000) (54, -5.78534078598022460000e+000) (55, -6.05852174758911130000e+000) (56, -6.04517650604248050000e+000) (57, -4.00635004043579100000e+000) (58, -5.66114759445190430000e+000) (59, -6.03575849533081050000e+000) (60, -6.28481960296630860000e+000) (61, -5.78952407836914060000e+000) (62, -5.40529632568359370000e+000) (63, 2.39918842911720280000e-001) (64, -5.52371382713317870000e-001) (65, -5.34875917434692380000e+000) (66, -6.61148577928543090000e-002) (67, -6.07997226715087890000e+000) (68, -5.68791866302490230000e+000) (69, 2.36572623252868650000e-001) (70, -4.99234819412231450000e+000) (71, -5.64186668395996090000e+000) (72, -5.58146762847900390000e+000) (73, -6.32573032379150390000e+000) (74, -2.37113580107688900000e-001) (75, -2.25343728065490720000e+000) (76, -5.90993595123291020000e+000) (77, -6.05838871002197270000e+000) (11, -3.89043235778808590000e+000) (12, -6.12363529205322270000e+000) (13, 2.79344886541366580000e-001) (14, -5.62741374969482420000e+000) (15, -5.63393688201904300000e+000) (16, -6.22128188610076900000e-001) (17, -6.53640127182006840000e+000) (18, -2.89458966255187990000e+000) (19, -4.83911895751953130000e+000) (20, -6.44894790649414060000e+000) (21, -9.77558910846710210000e-001) (22, -5.70790529251098630000e+000) (23, -5.85604286193847660000e+000) (24, -5.24295759201049800000e+000) (25, -6.17838048934936520000e+000) (26, -2.85149431228637700000e+000) (27, -8.56408923864364620000e-002) (28, -6.66148614883422850000e+000) (29, 1.92703396081924440000e-001) (30, -5.63381910324096680000e+000) (31, -5.76478052139282230000e+000) (32, -6.44091367721557620000e+000) (33, -9.83870923519134520000e-001) (34, -4.84434604644775390000e+000) (35, -6.05274581909179690000e+000) (36, -9.64703083038330080000e-001) (37, -8.82762908935546880000e-001) (38, -6.29026937484741210000e+000) (39, -5.58144712448120120000e+000) (40, -5.68886280059814450000e+000) (41, 3.58745127916336060000e-001) (42, -3.91216897964477540000e+000) (43, -1.02885432541370390000e-001) (44, -6.00431203842163090000e+000) (45, -5.79765796661376950000e+000) (46, -1.85731124877929690000e+000) (47, -4.88967418670654300000e+000) (48, -6.41583919525146480000e+000) (49, -5.22162008285522460000e+000) (50, -5.99503803253173830000e+000) (51, -4.73024940490722660000e+000) (52, -5.75838184356689450000e+000) (53, -5.93176174163818360000e+000) (54, -6.58195114135742190000e+000) (55, -6.00783538818359370000e+000) (56, -6.02095079421997070000e+000) (57, -3.55654287338256840000e+000) (58, -5.33983373641967770000e+000) (59, -5.89976739883422850000e+000) (60, -6.29917526245117190000e+000) (61, -6.53234577178955080000e+000) (62, -4.22072553634643550000e+000) (63, -3.88303175568580630000e-002) (64, -5.04211187362670900000e-001) (65, -5.18182516098022460000e+000) (66, 4.14430946111679080000e-001) (67, -5.74449682235717770000e+000) (68, -5.51072359085083010000e+000) (69, -1.96818158030509950000e-001) (70, -5.37640333175659180000e+000) (71, -6.12314271926879880000e+000) (72, -5.77231788635253910000e+000) (73, -6.27128839492797850000e+000) (74, -1.63951665163040160000e-001) (75, -2.38057613372802730000e+000) (76, -6.09621286392211910000e+000) (77, -6.18395376205444340000e+000) (11, -3.37428784370422360000e+000) (12, -6.17093372344970700000e+000) (13, 3.55381906032562260000e-001) (14, -5.53554773330688480000e+000) (15, -5.28100061416625980000e+000) (16, -1.22307062149047850000e+000) (17, -5.99114084243774410000e+000) (18, -3.22534275054931640000e+000) (19, -4.15795803070068360000e+000) (20, -6.29491186141967770000e+000) (21, -4.94817078113555910000e-001) (22, -5.88144111633300780000e+000) (23, -6.19910478591918950000e+000) (24, -5.51963281631469730000e+000) (25, -6.35499382019042970000e+000) (26, -2.66257119178771970000e+000) (27, -8.36434140801429750000e-002) (28, -5.99530839920043950000e+000) (29, 7.51158371567726140000e-002) (30, -5.48006677627563480000e+000) (31, -6.34047889709472660000e+000) (32, -6.30148458480834960000e+000) (33, -9.66339111328125000000e-001) (34, -5.32654523849487300000e+000) (35, -6.51431989669799800000e+000) (36, -1.18407309055328370000e+000) (37, -1.17744076251983640000e+000) (38, -5.95191192626953120000e+000) (39, -5.70946216583251950000e+000) (40, -5.04534387588500980000e+000) (41, -5.78048646450042720000e-001) (42, -4.32245540618896480000e+000) (43, 1.68532878160476680000e-001) (44, -6.23665142059326170000e+000) (45, -5.39149618148803710000e+000) (46, -2.87083005905151370000e+000) (47, -4.17892599105834960000e+000) (48, -6.15361166000366210000e+000) (49, -5.80296993255615230000e+000) (50, -6.11176490783691410000e+000) (51, -3.77609682083129880000e+000) (52, -5.87239074707031250000e+000) (53, -6.52095222473144530000e+000) (54, -6.35720968246459960000e+000) (55, -6.01689529418945310000e+000) (56, -6.68211650848388670000e+000) (57, -4.25180864334106450000e+000) (58, -5.31704759597778320000e+000) (59, -5.23210620880126950000e+000) (60, -6.41429328918457030000e+000) (61, -6.25666141510009770000e+000) (62, -5.05454206466674800000e+000) (63, 4.55544531345367430000e-001) (64, -1.00867271423339840000e+000) (65, -5.42485046386718750000e+000) (66, 3.33753585815429690000e-001) (67, -6.21188592910766600000e+000) (68, -5.73906850814819340000e+000) (69, -1.10528135299682620000e+000) (70, -4.50813722610473630000e+000) (71, -5.33971166610717770000e+000) (72, -6.38975620269775390000e+000) (73, -6.54238176345825200000e+000) (74, 1.53891250491142270000e-001) (75, -2.21017026901245120000e+000) (76, -5.95613861083984370000e+000) (77, -6.56753778457641600000e+000) (11, -4.20889329910278320000e+000) (12, -6.37654066085815430000e+000) (13, 1.45349621772766110000e-001) (14, -5.16201066970825200000e+000) (15, -5.55595779418945310000e+000) (16, -9.20219302177429200000e-001) (17, -6.68695449829101560000e+000) (18, -2.91178750991821290000e+000) (19, -4.57083272933959960000e+000) (20, -5.52401924133300780000e+000) (21, -1.02335178852081300000e+000) (22, -5.99983358383178710000e+000) (23, -6.51723909378051760000e+000) (24, -5.38087987899780270000e+000) (25, -5.55770492553710940000e+000) (26, -3.11235117912292480000e+000) (27, 3.40283393859863280000e-001) (28, -5.78452253341674800000e+000) (29, -1.73438802361488340000e-001) (30, -5.36507701873779300000e+000) (31, -5.84818553924560550000e+000) (32, -6.16416597366333010000e+000) (33, -1.60560500621795650000e+000) (34, -4.84907865524291990000e+000) (35, -6.45180606842041020000e+000) (36, -1.92177045345306400000e+000) (37, -1.42609864473342900000e-001) (38, -6.43862295150756840000e+000) (39, -5.77048873901367190000e+000) (40, -5.74708938598632810000e+000) (41, -2.02827125787734990000e-001) (42, -4.59351587295532230000e+000) (43, -2.49555319547653200000e-001) (44, -6.35737514495849610000e+000) (45, -5.53242254257202150000e+000) (46, -1.89381384849548340000e+000) (47, -4.12890625000000000000e+000) (48, -6.30078983306884770000e+000) (49, -6.04395055770874020000e+000) (50, -5.78361463546752930000e+000) (51, -4.29938554763793950000e+000) (52, -5.69479656219482420000e+000) (53, -5.92225074768066410000e+000) (54, -6.06144809722900390000e+000) (55, -5.51990365982055660000e+000) (56, -5.98539304733276370000e+000) (57, -3.93896722793579100000e+000) (58, -5.54533624649047850000e+000) (59, -5.98037672042846680000e+000) (60, -5.77730941772460940000e+000) (61, -6.40974664688110350000e+000) (62, -5.39576196670532230000e+000) (63, 4.03864115476608280000e-001) (64, -3.92786920070648190000e-001) (65, -5.34781980514526370000e+000) (66, -7.85135746002197270000e-001) (67, -6.27154636383056640000e+000) (68, -5.42146635055541990000e+000) (69, -4.15774524211883540000e-001) (70, -4.66782474517822270000e+000) (71, -6.05922412872314450000e+000) (72, -6.28698825836181640000e+000) (73, -6.25624561309814450000e+000) (74, -3.69889646768569950000e-001) (75, -2.56620407104492190000e+000) (76, -6.07115936279296870000e+000) (77, -6.55599546432495120000e+000) (11, -3.73203635215759280000e+000) (12, -6.33499765396118160000e+000) (13, -2.49987408518791200000e-001) (14, -5.59888601303100590000e+000) (15, -5.66191005706787110000e+000) (16, -5.61115443706512450000e-001) (17, -6.39798402786254880000e+000) (18, -3.49664521217346190000e+000) (19, -4.70150709152221680000e+000) (20, -5.85897874832153320000e+000) (21, -5.06501138210296630000e-001) (22, -6.22632265090942380000e+000) (23, -5.67139673233032230000e+000) (24, -5.11143541336059570000e+000) (25, -5.90547275543212890000e+000) (26, -2.73780965805053710000e+000) (27, 1.06252238154411320000e-001) (28, -6.54701805114746090000e+000) (29, -3.13539743423461910000e-001) (30, -6.00819778442382810000e+000) (31, -6.33946037292480470000e+000) (32, -6.06353569030761720000e+000) (33, -1.19400513172149660000e+000) (34, -4.96003532409667970000e+000) (35, -5.67950916290283200000e+000) (36, -1.56976592540740970000e+000) (37, 6.29492700099945070000e-002) (38, -6.39215850830078120000e+000) (39, -5.11635971069335940000e+000) (40, -6.13201713562011720000e+000) (41, 1.70881956815719600000e-001) (42, -4.05600118637084960000e+000) (43, 2.70443141460418700000e-001) (44, -6.38351106643676760000e+000) (45, -5.07009172439575200000e+000) (46, -1.95040357112884520000e+000) (47, -4.07609415054321290000e+000) (48, -5.90546798706054690000e+000) (49, -5.73367691040039060000e+000) (50, -5.66296720504760740000e+000) (51, -4.33488321304321290000e+000) (52, -5.99571990966796870000e+000) (53, -6.45903062820434570000e+000) (54, -6.20306730270385740000e+000) (55, -6.06231212615966800000e+000) (56, -5.89886379241943360000e+000) (57, -3.74509191513061520000e+000) (58, -5.33562755584716800000e+000) (59, -5.57393598556518550000e+000) (60, -6.39479160308837890000e+000) (61, -6.16871881484985350000e+000) (62, -4.61657476425170900000e+000) (63, 3.70460897684097290000e-002) (64, -6.89224183559417720000e-001) (65, -5.02874183654785160000e+000) (66, 1.33995234966278080000e-001) (67, -6.53962230682373050000e+000) (68, -5.92321825027465820000e+000) (69, 2.50417858362197880000e-001) (70, -4.89062166213989260000e+000) (71, -5.74983692169189450000e+000) (72, -6.32173061370849610000e+000) (73, -6.39368104934692380000e+000) (74, 3.60107064247131350000e-001) (75, -2.14772629737854000000e+000) (76, -6.44420576095581050000e+000) (77, -6.42317771911621090000e+000) (11, -3.73976993560791020000e+000) (12, -6.35475873947143550000e+000) (13, 1.35091871023178100000e-001) (14, -5.48413038253784180000e+000) (15, -6.36490154266357420000e+000) (16, -8.42900574207305910000e-001) (17, -6.16567659378051760000e+000) (18, -3.65566372871398930000e+000) (19, -4.46049642562866210000e+000) (20, -6.03339338302612300000e+000) (21, -3.61116707324981690000e-001) (22, -6.07070779800415040000e+000) (23, -5.73842334747314450000e+000) (24, -4.62554979324340820000e+000) (25, -5.36507415771484370000e+000) (26, -3.19773888587951660000e+000) (27, 1.18253752589225770000e-001) (28, -6.09949779510498050000e+000) (29, 5.48810064792633060000e-002) (30, -5.74731111526489260000e+000) (31, -6.09302139282226560000e+000) (32, -6.30049991607666020000e+000) (33, -9.21271204948425290000e-001) (34, -4.70053243637084960000e+000) (35, -6.67533493041992190000e+000) (36, -1.78898203372955320000e+000) (37, -3.72169464826583860000e-001) (38, -6.48970270156860350000e+000) (39, -5.48652410507202150000e+000) (40, -5.63505029678344730000e+000) (41, -1.15762613713741300000e-001) (42, -4.07375335693359380000e+000) (43, -4.89426672458648680000e-001) (44, -6.46309232711791990000e+000) (45, -5.49845361709594730000e+000) (46, -1.82757186889648440000e+000) (47, -4.73134660720825200000e+000) (48, -5.41884231567382810000e+000) (49, -5.39174032211303710000e+000) (50, -6.62912082672119140000e+000) (51, -3.94469094276428220000e+000) (52, -6.11510896682739260000e+000) (53, -5.76883840560913090000e+000) (54, -5.94038772583007810000e+000) (55, -6.30661821365356450000e+000) (56, -6.24689531326293950000e+000) (57, -3.84507894515991210000e+000) (58, -5.47253656387329100000e+000) (59, -5.54523038864135740000e+000) (60, -6.47948503494262700000e+000) (61, -6.10346460342407230000e+000) (62, -5.46473264694213870000e+000) (63, 1.60043597221374510000e-001) (64, -3.41404944658279420000e-001) (65, -4.78229093551635740000e+000) (66, 9.67155583202838900000e-003) (67, -6.31813144683837890000e+000) (68, -5.35755300521850590000e+000) (69, 9.68941077589988710000e-002) (70, -4.52068567276000980000e+000) (71, -5.95954895019531250000e+000) (72, -6.71991300582885740000e+000) (73, -6.21545743942260740000e+000) (74, -1.44705593585968020000e-001) (75, -2.74890780448913570000e+000) (76, -6.35388183593750000000e+000) (77, -6.29486560821533200000e+000) (11, -4.09214019775390620000e+000) (12, -6.07729578018188480000e+000) (13, -1.16195075213909150000e-001) (14, -5.18269395828247070000e+000) (15, -6.16454410552978520000e+000) (16, -2.56999582052230830000e-001) (17, -6.36508798599243160000e+000) (18, -3.00653100013732910000e+000) (19, -4.24544906616210940000e+000) (20, -6.08391046524047850000e+000) (21, -3.86989355087280270000e-001) (22, -5.91212701797485350000e+000) (23, -5.68999624252319340000e+000) (24, -5.49896144866943360000e+000) (25, -5.54342365264892580000e+000) (26, -3.28542661666870120000e+000) (27, 2.04337269067764280000e-001) (28, -5.92189455032348630000e+000) (29, -2.26075321435928340000e-001) (30, -5.45261859893798830000e+000) (31, -5.80072069168090820000e+000) (32, -6.06537771224975590000e+000) (33, -1.40022587776184080000e+000) (34, -4.95544624328613280000e+000) (35, -5.53492116928100590000e+000) (36, -1.33684289455413820000e+000) (37, -4.27903056144714360000e-001) (38, -6.04875373840332030000e+000) (39, -5.85932493209838870000e+000) (40, -6.08331537246704100000e+000) (41, -4.95162397623062130000e-001) (42, -4.61460113525390620000e+000) (43, 1.86739593744277950000e-001) (44, -5.82008457183837890000e+000) (45, -5.19018983840942380000e+000) (46, -1.63546729087829590000e+000) (47, -4.28974676132202150000e+000) (48, -6.36905050277709960000e+000) (49, -5.51953744888305660000e+000) (50, -6.41967153549194340000e+000) (51, -4.29734992980957030000e+000) (52, -5.88324642181396480000e+000) (53, -6.49478387832641600000e+000) (54, -6.45200920104980470000e+000) (55, -5.84024810791015620000e+000) (56, -6.22706317901611330000e+000) (57, -3.46788954734802250000e+000) (58, -5.83801412582397460000e+000) (59, -6.09723567962646480000e+000) (60, -5.95647525787353520000e+000) (61, -6.15642929077148440000e+000) (62, -5.20563125610351560000e+000) (63, -4.23641264438629150000e-001) (64, 3.59289616346359250000e-001) (65, -5.23966121673583980000e+000) (66, 2.12263822555541990000e-001) (67, -6.35196208953857420000e+000) (68, -5.96761655807495120000e+000) (69, -2.58643180131912230000e-001) (70, -4.62146377563476560000e+000) (71, -6.23921108245849610000e+000) (72, -6.46414232254028320000e+000) (73, -6.21173095703125000000e+000) (74, -5.17792820930480960000e-001) (75, -2.66929316520690920000e+000) (76, -6.29260015487670900000e+000) (77, -5.88586330413818360000e+000) (11, -4.26535177230834960000e+000) (12, -5.89573240280151370000e+000) (13, 3.77501755952835080000e-001) (14, -5.62721252441406250000e+000) (15, -5.99320936203002930000e+000) (16, -1.01645123958587650000e+000) (17, -5.70080566406250000000e+000) (18, -3.11130690574646000000e+000) (19, -3.90466213226318360000e+000) (20, -6.22929048538208010000e+000) (21, -1.10373342037200930000e+000) (22, -6.39152956008911130000e+000) (23, -5.93430995941162110000e+000) (24, -5.30190181732177730000e+000) (25, -6.09208631515502930000e+000) (26, -3.05455160140991210000e+000) (27, -6.49622082710266110000e-002) (28, -6.60327816009521480000e+000) (29, 3.59703540802001950000e-001) (30, -5.75483131408691410000e+000) (31, -5.80291891098022460000e+000) (32, -5.85293579101562500000e+000) (33, -8.80201101303100590000e-001) (34, -4.61927413940429690000e+000) (35, -5.95789670944213870000e+000) (36, -1.72452557086944580000e+000) (37, 2.27296650409698490000e-001) (38, -6.18592405319213870000e+000) (39, -5.01854658126831050000e+000) (40, -6.28345012664794920000e+000) (41, -4.81254070997238160000e-001) (42, -4.51221942901611330000e+000) (43, -5.32136082649230960000e-001) (44, -6.60496187210083010000e+000) (45, -5.33525800704956050000e+000) (46, -2.33155822753906250000e+000) (47, -4.56185674667358400000e+000) (48, -6.43885707855224610000e+000) (49, -6.14654874801635740000e+000) (50, -6.14043617248535160000e+000) (51, -4.10491132736206050000e+000) (52, -5.51802015304565430000e+000) (53, -6.45356464385986330000e+000) (54, -6.44534158706665040000e+000) (55, -5.73187780380249020000e+000) (56, -6.10213565826416020000e+000) (57, -4.32669305801391600000e+000) (58, -5.72222471237182620000e+000) (59, -5.34861373901367190000e+000) (60, -6.30902624130249020000e+000) (61, -5.95200347900390620000e+000) (62, -5.14439296722412110000e+000) (63, 4.55991566181182860000e-001) (64, -8.93785595893859860000e-001) (65, -5.31739664077758790000e+000) (66, -2.35872253775596620000e-001) (67, -5.82866573333740230000e+000) (68, -5.82939481735229490000e+000) (69, -4.40874755382537840000e-001) (70, -4.58386230468750000000e+000) (71, -6.27009534835815430000e+000) (72, -6.04150533676147460000e+000) (73, -6.07615137100219730000e+000) (74, -5.91643691062927250000e-001) (75, -2.57668352127075200000e+000) (76, -5.82963085174560550000e+000) (77, -5.84032344818115230000e+000) (11, -3.93682503700256350000e+000) (12, -5.82979631423950200000e+000) (13, 3.57397705316543580000e-001) (14, -5.61938524246215820000e+000) (15, -6.24279689788818360000e+000) (16, -4.21366780996322630000e-001) (17, -5.80377292633056640000e+000) (18, -3.49758291244506840000e+000) (19, -4.60314989089965820000e+000) (20, -5.41909933090209960000e+000) (21, -1.26536822319030760000e+000) (22, -5.51924419403076170000e+000) (23, -6.43100881576538090000e+000) (24, -5.07548284530639650000e+000) (25, -6.17570829391479490000e+000) (26, -3.17008733749389650000e+000) (27, -3.41621398925781250000e-001) (28, -6.22124862670898440000e+000) (29, -5.41038718074560170000e-003) (30, -5.61772155761718750000e+000) (31, -5.63923215866088870000e+000) (32, -6.44212245941162110000e+000) (33, -1.52863478660583500000e+000) (34, -5.33874034881591800000e+000) (35, -5.92019176483154300000e+000) (36, -9.94610786437988280000e-001) (37, 2.98245102167129520000e-001) (38, -6.33772611618041990000e+000) (39, -5.72277832031250000000e+000) (40, -5.79117059707641600000e+000) (41, -1.54122933745384220000e-001) (42, -4.35377216339111330000e+000) (43, 4.48654264211654660000e-001) (44, -5.58499050140380860000e+000) (45, -5.23861265182495120000e+000) (46, -2.09644794464111330000e+000) (47, -4.41079425811767580000e+000) (48, -6.03201627731323240000e+000) (49, -5.41568708419799800000e+000) (50, -6.46292972564697270000e+000) (51, -4.54725551605224610000e+000) (52, -6.08688592910766600000e+000) (53, -6.51250410079956050000e+000) (54, -5.91315603256225590000e+000) (55, -6.38251781463623050000e+000) (56, -5.80291128158569340000e+000) (57, -3.81013107299804690000e+000) (58, -5.97391271591186520000e+000) (59, -6.22213029861450200000e+000) (60, -5.98709869384765630000e+000) (61, -6.26340007781982420000e+000) (62, -5.25491857528686520000e+000) (63, 1.50102898478508000000e-001) (64, -6.83766067028045650000e-001) (65, -4.47684574127197270000e+000) (66, -3.52977812290191650000e-001) (67, -6.19745588302612300000e+000) (68, -5.50461530685424800000e+000) (69, 1.55342910438776020000e-002) (70, -5.22601842880249020000e+000) (71, -6.05329942703247070000e+000) (72, -5.65625667572021480000e+000) (73, -5.61946773529052730000e+000) (74, -1.14752128720283510000e-001) (75, -2.67901062965393070000e+000) (76, -6.24586200714111330000e+000) (77, -6.38859033584594730000e+000) (11, -3.77586078643798830000e+000) (12, -6.06052732467651370000e+000) (13, 2.92544871568679810000e-001) (14, -4.94036102294921870000e+000) (15, -5.81529331207275390000e+000) (16, -8.24126601219177250000e-001) (17, -6.38872385025024410000e+000) (18, -2.79761219024658200000e+000) (19, -4.84890890121459960000e+000) (20, -5.43991899490356450000e+000) (21, -1.03294694423675540000e+000) (22, -6.16593265533447270000e+000) (23, -6.60558462142944340000e+000) (24, -4.87115097045898440000e+000) (25, -5.85413408279418950000e+000) (26, -2.81526637077331540000e+000) (27, -1.35694881901144980000e-002) (28, -6.34426259994506840000e+000) (29, 4.41948920488357540000e-001) (30, -5.67751455307006840000e+000) (31, -5.98217630386352540000e+000) (32, -6.13651561737060550000e+000) (33, -1.18908715248107910000e+000) (34, -5.13602018356323240000e+000) (35, -6.56331968307495120000e+000) (36, -7.50421941280364990000e-001) (37, 7.61836990714073180000e-002) (38, -5.58788585662841800000e+000) (39, -5.33060359954833980000e+000) (40, -5.76074218750000000000e+000) (41, -4.74561303853988650000e-001) (42, -4.76717090606689450000e+000) (43, 3.91766369342803960000e-001) (44, -6.41049337387084960000e+000) (45, -5.71235179901123050000e+000) (46, -2.30100870132446290000e+000) (47, -4.36642551422119140000e+000) (48, -6.32742166519165040000e+000) (49, -5.67587471008300780000e+000) (50, -6.36737442016601560000e+000) (51, -4.46220588684082030000e+000) (52, -5.95176649093627930000e+000) (53, -6.36995220184326170000e+000) (54, -6.34297561645507810000e+000) (55, -6.11002540588378910000e+000) (56, -5.73995161056518550000e+000) (57, -4.30653905868530270000e+000) (58, -6.10725021362304690000e+000) (59, -5.87023448944091800000e+000) (60, -5.90468263626098630000e+000) (61, -6.09560060501098630000e+000) (62, -5.20163440704345700000e+000) (63, -4.27465915679931640000e-001) (64, 7.58801475167274480000e-002) (65, -4.87893247604370120000e+000) (66, -2.85105228424072270000e-001) (67, -5.79391384124755860000e+000) (68, -5.88256502151489260000e+000) (69, 1.71053800731897350000e-002) (70, -4.72141838073730470000e+000) (71, -5.98673534393310550000e+000) (72, -6.26569652557373050000e+000) (73, -5.63776063919067380000e+000) (74, 2.18015000224113460000e-001) (75, -2.53373098373413090000e+000) (76, -5.69740581512451170000e+000) (77, -5.97051191329956050000e+000) (11, -3.23124313354492190000e+000) (12, -5.89128303527832030000e+000) (13, -4.31582510471343990000e-001) (14, -5.85438299179077150000e+000) (15, -5.63873434066772460000e+000) (16, -3.10589104890823360000e-001) (17, -5.94434881210327150000e+000) (18, -3.62477183341979980000e+000) (19, -4.71420526504516600000e+000) (20, -6.20944595336914060000e+000) (21, -9.94091153144836430000e-001) (22, -6.33984756469726560000e+000) (23, -6.20221662521362300000e+000) (24, -5.72567987442016600000e+000) (25, -6.41973876953125000000e+000) (26, -2.71487450599670410000e+000) (27, 3.10879766941070560000e-001) (28, -6.12470388412475590000e+000) (29, -1.09648704528808590000e-001) (30, -5.36331081390380860000e+000) (31, -6.00462770462036130000e+000) (32, -6.11360692977905270000e+000) (33, -3.47752064466476440000e-001) (34, -4.50546121597290040000e+000) (35, -5.62135744094848630000e+000) (36, -6.24493300914764400000e-001) (37, -6.51075661182403560000e-001) (38, -6.17829418182373050000e+000) (39, -5.79754114151000980000e+000) (40, -6.26643228530883790000e+000) (41, 6.33883416652679440000e-001) (42, -4.42877626419067380000e+000) (43, 4.55139070749282840000e-001) (44, -6.56133794784545900000e+000) (45, -5.87638187408447270000e+000) (46, -1.47771286964416500000e+000) (47, -4.19836187362670900000e+000) (48, -6.66582059860229490000e+000) (49, -5.75576448440551760000e+000) (50, -5.71498155593872070000e+000) (51, -4.20575809478759770000e+000) (52, -5.76666307449340820000e+000) (53, -6.50543689727783200000e+000) (54, -5.95137166976928710000e+000) (55, -6.62014865875244140000e+000) (56, -5.53738212585449220000e+000) (57, -3.79516386985778810000e+000) (58, -6.07548809051513670000e+000) (59, -5.97978591918945310000e+000) (60, -6.28096055984497070000e+000) (61, -6.41267395019531250000e+000) (62, -3.97874903678894040000e+000) (63, -1.39401465654373170000e-001) (64, -6.87177598476409910000e-001) (65, -4.86097192764282230000e+000) (66, -1.80148944258689880000e-001) (67, -6.04988861083984370000e+000) (68, -5.90743064880371090000e+000) (69, -4.50581759214401250000e-001) (70, -5.29670429229736330000e+000) (71, -6.05419349670410160000e+000) (72, -5.78815650939941410000e+000) (73, -5.55841636657714840000e+000) (74, 1.98090061545372010000e-001) (75, -2.19067931175231930000e+000) (76, -6.27419900894165040000e+000) (77, -5.64971733093261720000e+000) (11, -3.89800214767456050000e+000) (12, -6.32788658142089840000e+000) (13, -6.43302500247955320000e-002) (14, -4.98345232009887700000e+000) (15, -4.40435886383056640000e+000) (16, -2.26693487167358400000e+000) (17, -6.19978094100952150000e+000) (18, -4.35928535461425780000e+000) (19, -4.34752130508422850000e+000) (20, -5.69865512847900390000e+000) (21, -4.98941391706466670000e-001) (22, -6.55419683456420900000e+000) (23, -6.45344591140747070000e+000) (24, -5.09458494186401370000e+000) (25, -6.32316064834594730000e+000) (26, -3.05087089538574220000e+000) (27, 4.01524424552917480000e-001) (28, -6.11462831497192380000e+000) (29, 1.21839813888072970000e-001) (30, -5.40658855438232420000e+000) (31, -6.05988740921020510000e+000) (32, -6.84040594100952150000e+000) (33, -1.06629955768585210000e+000) (34, -5.22173070907592770000e+000) (35, -6.46765327453613280000e+000) (36, -1.93089640140533450000e+000) (37, -1.16175305843353270000e+000) (38, -6.76873493194580080000e+000) (39, -4.64647102355957030000e+000) (40, -5.29752969741821290000e+000) (41, -1.75204798579216000000e-001) (42, -4.24312639236450200000e+000) (43, -1.41886338591575620000e-001) (44, -6.63171052932739260000e+000) (45, -6.11861801147460940000e+000) (46, -2.98681044578552250000e+000) (47, -4.51913499832153320000e+000) (48, -6.08829832077026370000e+000) (49, -4.82244443893432620000e+000) (50, -6.53920459747314450000e+000) (51, -3.99867153167724610000e+000) (52, -6.24409914016723630000e+000) (53, -6.62735462188720700000e+000) (54, -6.64799213409423830000e+000) (55, -6.61445665359497070000e+000) (56, -6.54208040237426760000e+000) (57, -3.64505147933959960000e+000) (58, -5.02992725372314450000e+000) (59, -5.15842962265014650000e+000) (60, -6.29908609390258790000e+000) (61, -5.95276832580566410000e+000) (62, -4.48350381851196290000e+000) (63, -2.99354046583175660000e-001) (64, -1.63203716278076170000e+000) (65, -5.72829914093017580000e+000) (66, -2.64415800571441650000e-001) (67, -6.59417772293090820000e+000) (68, -5.30431985855102540000e+000) (69, -9.82053160667419430000e-001) (70, -4.57406997680664060000e+000) (71, -4.73032617568969730000e+000) (72, -5.85215330123901370000e+000) (73, -6.40943145751953130000e+000) (74, -1.54054492712020870000e-001) (75, -2.75753903388977050000e+000) (76, -6.50969409942626950000e+000) (77, -6.31458091735839840000e+000) (11, -3.60680794715881350000e+000) (12, -6.06980085372924800000e+000) (13, 8.64538773894310000000e-002) (14, -5.32597732543945310000e+000) (15, -5.33821916580200200000e+000) (16, -1.01427710056304930000e+000) (17, -6.08628320693969730000e+000) (18, -3.81569695472717290000e+000) (19, -4.54044151306152340000e+000) (20, -5.71695041656494140000e+000) (21, -1.21559321880340580000e+000) (22, -5.74093151092529300000e+000) (23, -6.32486677169799800000e+000) (24, -5.07172298431396480000e+000) (25, -5.70389890670776370000e+000) (26, -3.34306073188781740000e+000) (27, -2.70613878965377810000e-001) (28, -6.53318119049072270000e+000) (29, -5.31673192977905270000e-001) (30, -5.85077857971191410000e+000) (31, -6.41609907150268550000e+000) (32, -6.01416063308715820000e+000) (33, -1.54875779151916500000e+000) (34, -5.60853099822998050000e+000) (35, -5.86763811111450200000e+000) (36, -1.74600863456726070000e+000) (37, -2.54711687564849850000e-001) (38, -5.91928291320800780000e+000) (39, -5.40016889572143550000e+000) (40, -5.70015573501586910000e+000) (41, -1.16904795169830320000e-001) (42, -4.10272932052612300000e+000) (43, 1.31822377443313600000e-001) (44, -5.85219001770019530000e+000) (45, -5.83307552337646480000e+000) (46, -2.64841294288635250000e+000) (47, -4.72412872314453130000e+000) (48, -6.07090806961059570000e+000) (49, -5.98402500152587890000e+000) (50, -6.49231433868408200000e+000) (51, -3.94980573654174800000e+000) (52, -5.59820318222045900000e+000) (53, -6.62966775894165040000e+000) (54, -6.07876443862915040000e+000) (55, -5.87394189834594730000e+000) (56, -6.58859634399414060000e+000) (57, -3.83511233329772950000e+000) (58, -5.10971593856811520000e+000) (59, -5.69902944564819340000e+000) (60, -6.28391981124877930000e+000) (61, -6.34894418716430660000e+000) (62, -4.85247516632080080000e+000) (63, -1.75993889570236210000e-001) (64, -2.88915961980819700000e-001) (65, -4.90492630004882810000e+000) (66, -2.85873502492904660000e-001) (67, -6.70197534561157230000e+000) (68, -5.74081468582153320000e+000) (69, -4.62708383798599240000e-001) (70, -4.85686349868774410000e+000) (71, -5.39679336547851560000e+000) (72, -6.50654220581054690000e+000) (73, -5.88913822174072270000e+000) (74, 7.80107975006103520000e-002) (75, -2.87153530120849610000e+000) (76, -5.82313251495361330000e+000) (77, -6.49401760101318360000e+000) (11, -4.17834186553955080000e+000) (12, -6.12431478500366210000e+000) (13, -2.21426293253898620000e-001) (14, -4.84531164169311520000e+000) (15, -6.08208703994750980000e+000) (16, -6.02431774139404300000e-001) (17, -6.54656934738159180000e+000) (18, -3.26878547668457030000e+000) (19, -4.25529623031616210000e+000) (20, -5.72714996337890620000e+000) (21, -9.10465061664581300000e-001) (22, -6.28811740875244140000e+000) (23, -5.85076570510864260000e+000) (24, -4.96675825119018550000e+000) (25, -6.21949005126953130000e+000) (26, -2.99409103393554690000e+000) (27, 3.95462736487388610000e-002) (28, -6.64684772491455080000e+000) (29, 1.96957305073738100000e-001) (30, -5.44823503494262700000e+000) (31, -6.39637279510498050000e+000) (32, -5.99473667144775390000e+000) (33, -9.09173786640167240000e-001) (34, -5.07747793197631840000e+000) (35, -6.62795543670654300000e+000) (36, -1.50372040271759030000e+000) (37, -4.60923075675964360000e-001) (38, -5.78771352767944340000e+000) (39, -5.08926391601562500000e+000) (40, -6.02788162231445310000e+000) (41, -1.11201800405979160000e-001) (42, -4.43061256408691410000e+000) (43, 1.36243581771850590000e-001) (44, -6.33139276504516600000e+000) (45, -5.35356998443603520000e+000) (46, -2.67302370071411130000e+000) (47, -4.56543159484863280000e+000) (48, -5.72872877120971680000e+000) (49, -5.83103084564208980000e+000) (50, -6.57110548019409180000e+000) (51, -4.26080560684204100000e+000) (52, -5.80995655059814450000e+000) (53, -5.89705944061279300000e+000) (54, -6.54274034500122070000e+000) (55, -6.50445699691772460000e+000) (56, -5.95940494537353520000e+000) (57, -3.60927557945251460000e+000) (58, -5.77246236801147460000e+000) (59, -5.87464618682861330000e+000) (60, -6.30999851226806640000e+000) (61, -6.17877864837646480000e+000) (62, -4.52538681030273440000e+000) (63, -1.63023501634597780000e-001) (64, -1.06886851787567140000e+000) (65, -4.93653202056884770000e+000) (66, -6.01040851324796680000e-003) (67, -5.99455213546752930000e+000) (68, -5.20732545852661130000e+000) (69, -6.97684884071350100000e-001) (70, -4.82405853271484370000e+000) (71, -5.37773799896240230000e+000) (72, -5.79673385620117190000e+000) (73, -6.04790401458740230000e+000) (74, 2.15543508529663090000e-001) (75, -2.79508328437805180000e+000) (76, -6.36013698577880860000e+000) (77, -6.68854570388793950000e+000) (11, -4.29568433761596680000e+000) (12, -5.73145675659179690000e+000) (13, 6.19672946631908420000e-002) (14, -5.10958528518676760000e+000) (15, -5.84710931777954100000e+000) (16, -6.03263080120086670000e-001) (17, -6.12275838851928710000e+000) (18, -3.52195358276367190000e+000) (19, -4.26918792724609380000e+000) (20, -5.56318426132202150000e+000) (21, -1.08626282215118410000e+000) (22, -6.43338251113891600000e+000) (23, -6.36424016952514650000e+000) (24, -5.54548501968383790000e+000) (25, -6.38111877441406250000e+000) (26, -3.33609962463378910000e+000) (27, -3.09871733188629150000e-001) (28, -5.72672319412231450000e+000) (29, -4.19916570186614990000e-001) (30, -5.52993631362915040000e+000) (31, -5.66734218597412110000e+000) (32, -6.65280628204345700000e+000) (33, -1.28723514080047610000e+000) (34, -4.97161436080932620000e+000) (35, -6.47781419754028320000e+000) (36, -1.13436019420623780000e+000) (37, 1.17190696299076080000e-001) (38, -6.04745769500732420000e+000) (39, -5.72859716415405270000e+000) (40, -6.11834192276000980000e+000) (41, -5.87185382843017580000e-001) (42, -4.39895343780517580000e+000) (43, 4.42426085472106930000e-001) (44, -6.15927219390869140000e+000) (45, -5.27580165863037110000e+000) (46, -1.86452817916870120000e+000) (47, -4.76423072814941410000e+000) (48, -6.11556243896484370000e+000) (49, -5.47904968261718750000e+000) (50, -5.93535184860229490000e+000) (51, -4.55561208724975590000e+000) (52, -5.69395160675048830000e+000) (53, -6.27332162857055660000e+000) (54, -6.14251422882080080000e+000) (55, -5.48981714248657230000e+000) (56, -6.20491695404052730000e+000) (57, -4.06488180160522460000e+000) (58, -5.73510980606079100000e+000) (59, -6.05311346054077150000e+000) (60, -6.49439620971679690000e+000) (61, -6.26474285125732420000e+000) (62, -5.35351133346557620000e+000) (63, 1.98363423347473140000e-001) (64, -3.06146591901779170000e-001) (65, -4.66326904296875000000e+000) (66, -2.29087874293327330000e-001) (67, -5.97277879714965820000e+000) (68, -5.57503271102905270000e+000) (69, -3.33188861608505250000e-001) (70, -4.62628030776977540000e+000) (71, -5.78922653198242190000e+000) (72, -5.96199655532836910000e+000) (73, -5.95279216766357420000e+000) (74, -6.27646327018737790000e-001) (75, -2.83739995956420900000e+000) (76, -5.48270225524902340000e+000) (77, -6.43062210083007810000e+000) (11, -3.88959598541259770000e+000) (12, -6.05137395858764650000e+000) (13, 6.81747719645500180000e-002) (14, -4.97002410888671870000e+000) (15, -5.39704561233520510000e+000) (16, -1.59963119029998780000e+000) (17, -6.03487157821655270000e+000) (18, -3.41559243202209470000e+000) (19, -4.49069929122924800000e+000) (20, -5.53369522094726560000e+000) (21, -1.08572304248809810000e+000) (22, -6.58563423156738280000e+000) (23, -6.74181461334228520000e+000) (24, -5.23971509933471680000e+000) (25, -6.11888885498046870000e+000) (26, -3.36292266845703130000e+000) (27, 1.74198031425476070000e-001) (28, -6.49052524566650390000e+000) (29, 4.54383134841918950000e-001) (30, -4.81545543670654300000e+000) (31, -6.43798732757568360000e+000) (32, -5.82079982757568360000e+000) (33, -1.42883586883544920000e+000) (34, -5.57329893112182620000e+000) (35, -6.08076858520507810000e+000) (36, -1.92605292797088620000e+000) (37, -6.70251727104187010000e-001) (38, -6.39192914962768550000e+000) (39, -5.50660181045532230000e+000) (40, -5.63906908035278320000e+000) (41, -4.66701805591583250000e-001) (42, -4.68054056167602540000e+000) (43, 3.27753573656082150000e-001) (44, -6.29173564910888670000e+000) (45, -5.85252189636230470000e+000) (46, -3.04832601547241210000e+000) (47, -4.65071773529052730000e+000) (48, -6.56790065765380860000e+000) (49, -4.71040439605712890000e+000) (50, -6.34392166137695310000e+000) (51, -3.99502778053283690000e+000) (52, -6.24111509323120120000e+000) (53, -6.38226079940795900000e+000) (54, -6.39708995819091800000e+000) (55, -6.35158920288085940000e+000) (56, -6.57641363143920900000e+000) (57, -4.18748426437377930000e+000) (58, -5.58427619934082030000e+000) (59, -5.05467319488525390000e+000) (60, -5.96341228485107420000e+000) (61, -6.50933313369750980000e+000) (62, -4.29161262512207030000e+000) (63, 1.93156331777572630000e-001) (64, -8.47743570804595950000e-001) (65, -5.51918363571166990000e+000) (66, -3.79143208265304570000e-001) (67, -6.69215202331542970000e+000) (68, -5.67797899246215820000e+000) (69, -1.13902103900909420000e+000) (70, -4.40949964523315430000e+000) (71, -4.73377561569213870000e+000) (72, -6.36636447906494140000e+000) (73, -6.20558071136474610000e+000) (74, 1.80228307843208310000e-001) (75, -2.14639425277709960000e+000) (76, -5.86838150024414060000e+000) (77, -5.90601062774658200000e+000) (11, -3.63669443130493160000e+000) (12, -6.25252580642700200000e+000) (13, -4.84961867332458500000e-002) (14, -4.69948768615722660000e+000) (15, -4.61010503768920900000e+000) (16, -1.58775269985198970000e+000) (17, -5.81996011734008790000e+000) (18, -3.67411112785339360000e+000) (19, -4.63037014007568360000e+000) (20, -5.71072816848754880000e+000) (21, -1.26816177368164060000e+000) (22, -6.74231576919555660000e+000) (23, -6.59195995330810550000e+000) (24, -5.48151254653930660000e+000) (25, -6.64730644226074220000e+000) (26, -2.86114382743835450000e+000) (27, 2.74665325880050660000e-001) (28, -6.37116575241088870000e+000) (29, 3.66048216819763180000e-001) (30, -5.12182617187500000000e+000) (31, -6.51031351089477540000e+000) (32, -6.43183946609497070000e+000) (33, -1.15408539772033690000e+000) (34, -4.97092437744140620000e+000) (35, -6.61630964279174800000e+000) (36, -1.03119695186614990000e+000) (37, -1.49627780914306640000e+000) (38, -5.67392158508300780000e+000) (39, -5.34778594970703130000e+000) (40, -5.39666128158569340000e+000) (41, -3.82874995470047000000e-001) (42, -4.00359582901000980000e+000) (43, -2.96495348215103150000e-001) (44, -5.97894763946533200000e+000) (45, -5.99988508224487300000e+000) (46, -2.74521756172180180000e+000) (47, -4.57496786117553710000e+000) (48, -5.99445104598999020000e+000) (49, -5.24202585220336910000e+000) (50, -6.54797172546386720000e+000) (51, -4.07842683792114260000e+000) (52, -6.09911489486694340000e+000) (53, -6.52905797958374020000e+000) (54, -6.23079919815063480000e+000) (55, -6.49619388580322270000e+000) (56, -6.63694381713867190000e+000) (57, -4.03665876388549800000e+000) (58, -5.30595350265502930000e+000) (59, -5.81086158752441410000e+000) (60, -6.45443487167358400000e+000) (61, -5.83802747726440430000e+000) (62, -4.57433843612670900000e+000) (63, -3.00180941820144650000e-001) (64, -1.40057909488677980000e+000) (65, -4.84633922576904300000e+000) (66, -4.63685542345047000000e-002) (67, -6.43798685073852540000e+000) (68, -5.34145832061767580000e+000) (69, -9.13481831550598140000e-001) (70, -4.43556833267211910000e+000) (71, -5.34462547302246090000e+000) (72, -5.69677257537841800000e+000) (73, -6.56500434875488280000e+000) (74, -3.31638365983963010000e-001) (75, -2.95090484619140620000e+000) (76, -6.15923786163330080000e+000) (77, -6.57499313354492190000e+000) (11, -4.16226720809936520000e+000) (12, -6.58105754852294920000e+000) (13, -2.02661544084548950000e-001) (14, -5.77920961380004880000e+000) (15, -5.61352872848510740000e+000) (16, -7.77765214443206790000e-001) (17, -6.49305534362792970000e+000) (18, -2.77110505104064940000e+000) (19, -4.45351934432983400000e+000) (20, -5.98702573776245120000e+000) (21, -6.91791415214538570000e-001) (22, -6.48901224136352540000e+000) (23, -6.23729848861694340000e+000) (24, -5.18158435821533200000e+000) (25, -5.80625152587890620000e+000) (26, -2.98188948631286620000e+000) (27, -5.45418202877044680000e-001) (28, -5.68944787979125980000e+000) (29, -2.91347920894622800000e-001) (30, -5.92867708206176760000e+000) (31, -6.14494419097900390000e+000) (32, -6.12678909301757810000e+000) (33, -1.04674041271209720000e+000) (34, -5.33091068267822270000e+000) (35, -5.77554273605346680000e+000) (36, -8.49709451198577880000e-001) (37, 4.95732240378856660000e-002) (38, -6.33516359329223630000e+000) (39, -5.09323167800903320000e+000) (40, -5.88502025604248050000e+000) (41, 4.47432041168212890000e-001) (42, -4.12309980392456050000e+000) (43, 1.82381838560104370000e-001) (44, -6.38502693176269530000e+000) (45, -5.15414524078369140000e+000) (46, -2.26642370223999020000e+000) (47, -4.55354213714599610000e+000) (48, -6.11133956909179690000e+000) (49, -5.48382902145385740000e+000) (50, -6.41727066040039060000e+000) (51, -3.94316983222961430000e+000) (52, -6.23166561126708980000e+000) (53, -6.49125814437866210000e+000) (54, -6.37121725082397460000e+000) (55, -5.73176956176757810000e+000) (56, -6.38413619995117190000e+000) (57, -3.42708444595336910000e+000) (58, -5.24458742141723630000e+000) (59, -5.76492500305175780000e+000) (60, -6.12416744232177730000e+000) (61, -6.30433464050292970000e+000) (62, -4.68621206283569340000e+000) (63, -1.71919971704483030000e-001) (64, -7.76589930057525630000e-001) (65, -4.51887512207031250000e+000) (66, 9.33986604213714600000e-002) (67, -6.43166732788085940000e+000) (68, -5.94448423385620120000e+000) (69, 4.49439091607928280000e-003) (70, -5.27612543106079100000e+000) (71, -5.66350460052490230000e+000) (72, -6.12767887115478520000e+000) (73, -6.17635011672973630000e+000) (74, 8.37844386696815490000e-002) (75, -2.40657281875610350000e+000) (76, -6.11347675323486330000e+000) (77, -5.62410211563110350000e+000) (11, -3.53298711776733400000e+000) (12, -5.78709173202514650000e+000) (13, -4.20164078474044800000e-001) (14, -4.15957736968994140000e+000) (15, -5.57341623306274410000e+000) (16, -1.70341849327087400000e+000) (17, -6.12955856323242190000e+000) (18, -4.85773706436157230000e+000) (19, -4.41245698928833010000e+000) (20, -6.13304853439331050000e+000) (21, -8.19290578365325930000e-001) (22, -6.45275020599365230000e+000) (23, -6.11428737640380860000e+000) (24, -4.43315839767456050000e+000) (25, -6.52448844909667970000e+000) (26, -2.22998404502868650000e+000) (27, -4.18240159749984740000e-001) (28, -6.48819923400878910000e+000) (29, 2.34546903520822530000e-002) (30, -5.95186328887939450000e+000) (31, -5.63477087020874020000e+000) (32, -6.44491195678710940000e+000) (33, -4.20576333999633790000e-001) (34, -4.78825998306274410000e+000) (35, -6.15849781036376950000e+000) (36, -2.00070500373840330000e+000) (37, -6.31844341754913330000e-001) (38, -5.82396793365478520000e+000) (39, -4.55908203125000000000e+000) (40, -6.21032142639160160000e+000) (41, 2.12925925850868230000e-001) (42, -4.59979915618896480000e+000) (43, -4.05608505010604860000e-001) (44, -6.78703451156616210000e+000) (45, -5.35882234573364260000e+000) (46, -3.77050566673278810000e+000) (47, -4.16989088058471680000e+000) (48, -6.08021974563598630000e+000) (49, -6.05920505523681640000e+000) (50, -6.51855278015136720000e+000) (51, -3.53569746017456050000e+000) (52, -6.27012109756469730000e+000) (53, -6.57993841171264650000e+000) (54, -6.71794748306274410000e+000) (55, -6.25186157226562500000e+000) (56, -6.62679529190063480000e+000) (57, -3.26793336868286130000e+000) (58, -4.29866838455200200000e+000) (59, -6.43806505203247070000e+000) (60, -6.32471561431884770000e+000) (61, -6.16861629486083980000e+000) (62, -4.67489624023437500000e+000) (63, -4.56115961074829100000e-001) (64, 3.37883979082107540000e-001) (65, -4.93927764892578120000e+000) (66, -1.47865131497383120000e-001) (67, -5.99361133575439450000e+000) (68, -4.21782875061035160000e+000) (69, -7.57484696805477140000e-003) (70, -4.91054725646972660000e+000) (71, -6.47224378585815430000e+000) (72, -6.70091915130615230000e+000) (73, -6.77541923522949220000e+000) (74, 4.46395486593246460000e-001) (75, -2.08228421211242680000e+000) (76, -6.37559843063354490000e+000) (77, -5.94850206375122070000e+000) (11, -3.46745181083679200000e+000) (12, -5.90185499191284180000e+000) (13, -3.11932384967803960000e-001) (14, -5.28216743469238280000e+000) (15, -5.55390882492065430000e+000) (16, -6.42511188983917240000e-001) (17, -5.75819540023803710000e+000) (18, -3.16394972801208500000e+000) (19, -4.30421829223632810000e+000) (20, -5.99563932418823240000e+000) (21, -7.72733986377716060000e-001) (22, -6.25043821334838870000e+000) (23, -5.87136888504028320000e+000) (24, -5.63810062408447270000e+000) (25, -6.56244945526123050000e+000) (26, -3.15087389945983890000e+000) (27, 2.68877059221267700000e-001) (28, -5.98004913330078120000e+000) (29, -4.86328035593032840000e-001) (30, -6.01528024673461910000e+000) (31, -6.06162977218627930000e+000) (32, -5.79212808609008790000e+000) (33, -7.08129584789276120000e-001) (34, -5.19045019149780270000e+000) (35, -6.41837167739868160000e+000) (36, -9.99547660350799560000e-001) (37, -8.04078638553619380000e-001) (38, -6.39638137817382810000e+000) (39, -5.38266658782958980000e+000) (40, -5.61209774017333980000e+000) (41, 1.83368578553199770000e-001) (42, -4.75978279113769530000e+000) (43, -1.05256326496601100000e-001) (44, -6.30198907852172850000e+000) (45, -5.42468452453613280000e+000) (46, -1.57724332809448240000e+000) (47, -4.31187438964843750000e+000) (48, -6.17145347595214840000e+000) (49, -6.15239286422729490000e+000) (50, -5.88806581497192380000e+000) (51, -4.40439844131469730000e+000) (52, -6.36274766921997070000e+000) (53, -6.71150732040405270000e+000) (54, -6.56271314620971680000e+000) (55, -5.82096958160400390000e+000) (56, -6.18498897552490230000e+000) (57, -4.03980827331542970000e+000) (58, -5.84317398071289060000e+000) (59, -5.57803106307983400000e+000) (60, -6.16173076629638670000e+000) (61, -5.89813232421875000000e+000) (62, -4.25071096420288090000e+000) (63, 3.95219117403030400000e-001) (64, -2.04403117299079900000e-001) (65, -5.19618129730224610000e+000) (66, -4.01055395603179930000e-001) (67, -5.77243804931640620000e+000) (68, -5.24669647216796870000e+000) (69, -2.14306414127349850000e-001) (70, -5.30132484436035160000e+000) (71, -6.19276618957519530000e+000) (72, -6.27138948440551760000e+000) (73, -5.80041360855102540000e+000) (74, -3.32008898258209230000e-001) (75, -2.39470028877258300000e+000) (76, -6.16769361495971680000e+000) (77, -6.07333135604858400000e+000) (11, -3.81621408462524410000e+000) (12, -6.06634140014648440000e+000) (13, -4.16392445564270020000e-001) (14, -4.13747167587280270000e+000) (15, -5.00422048568725590000e+000) (16, -2.20543146133422850000e+000) (17, -6.74310922622680660000e+000) (18, -4.47906637191772460000e+000) (19, -4.30517101287841800000e+000) (20, -5.77432632446289060000e+000) (21, -5.31691908836364750000e-001) (22, -6.27098846435546870000e+000) (23, -6.22114562988281250000e+000) (24, -4.69502401351928710000e+000) (25, -6.68149948120117190000e+000) (26, -2.56252956390380860000e+000) (27, -3.66763949394226070000e-001) (28, -6.34086227416992190000e+000) (29, 1.88979789614677430000e-001) (30, -5.04654788970947270000e+000) (31, -6.87645196914672850000e+000) (32, -6.88864755630493160000e+000) (33, -1.07889938354492190000e+000) (34, -5.35585069656372070000e+000) (35, -6.18742609024047850000e+000) (36, -2.47140693664550780000e+000) (37, -1.90325689315795900000e+000) (38, -6.80866241455078130000e+000) (39, -4.86770153045654300000e+000) (40, -4.27622890472412110000e+000) (41, 2.83853530883789060000e-001) (42, -3.74333286285400390000e+000) (43, -5.33224821090698240000e-001) (44, -6.31214332580566410000e+000) (45, -5.95369958877563480000e+000) (46, -3.82840394973754880000e+000) (47, -4.25910139083862300000e+000) (48, -6.93001174926757810000e+000) (49, -5.00757980346679690000e+000) (50, -6.33159399032592770000e+000) (51, -4.22850751876831050000e+000) (52, -6.89165687561035160000e+000) (53, -6.25017690658569340000e+000) (54, -6.95067977905273440000e+000) (55, -6.43652343750000000000e+000) (56, -6.94570922851562500000e+000) (57, -3.16993498802185060000e+000) (58, -5.03046131134033200000e+000) (59, -5.34111404418945310000e+000) (60, -6.19757843017578120000e+000) (61, -6.79868125915527340000e+000) (62, -4.36023998260498050000e+000) (63, -6.37102052569389340000e-002) (64, -2.47973108291625980000e+000) (65, -5.14556837081909180000e+000) (66, -1.20082706212997440000e-001) (67, -6.86860322952270510000e+000) (68, -4.75391435623168950000e+000) (69, -1.28259825706481930000e+000) (70, -4.21170759201049800000e+000) (71, -4.94595766067504880000e+000) (72, -6.03061151504516600000e+000) (73, -6.43754863739013670000e+000) (74, -2.11777403950691220000e-001) (75, -2.42564845085144040000e+000) (76, -6.55209636688232420000e+000) (77, -6.48166322708129880000e+000) (11, -4.02729320526123050000e+000) (12, -5.53372383117675780000e+000) (13, -4.98252034187316890000e-001) (14, -5.66139888763427730000e+000) (15, -5.86235427856445310000e+000) (16, -3.20821940898895260000e-001) (17, -6.56181335449218750000e+000) (18, -3.32738828659057620000e+000) (19, -4.17288780212402340000e+000) (20, -6.10585117340087890000e+000) (21, -3.97765517234802250000e-001) (22, -6.16667985916137700000e+000) (23, -6.29376459121704100000e+000) (24, -5.34233427047729490000e+000) (25, -5.53803730010986330000e+000) (26, -3.30343723297119140000e+000) (27, 3.30907851457595830000e-001) (28, -6.51129817962646480000e+000) (29, -6.54824972152709960000e-002) (30, -6.10130214691162110000e+000) (31, -6.04538249969482420000e+000) (32, -5.98271369934082030000e+000) (33, -1.38391125202178960000e+000) (34, -5.22303533554077150000e+000) (35, -6.42477512359619140000e+000) (36, -1.09495186805725100000e+000) (37, -3.08469951152801510000e-001) (38, -6.00865077972412110000e+000) (39, -5.62958717346191410000e+000) (40, -6.11634349822998050000e+000) (41, -1.84462308883666990000e-001) (42, -4.09141016006469730000e+000) (43, 1.56257405877113340000e-001) (44, -6.22077035903930660000e+000) (45, -5.90128755569458010000e+000) (46, -2.09239578247070310000e+000) (47, -4.38987731933593750000e+000) (48, -5.96063995361328120000e+000) (49, -5.71696281433105470000e+000) (50, -6.19069862365722660000e+000) (51, -4.10321807861328120000e+000) (52, -5.39507102966308590000e+000) (53, -6.40210247039794920000e+000) (54, -5.91055154800415040000e+000) (55, -6.13524436950683590000e+000) (56, -6.35907030105590820000e+000) (57, -4.17161130905151370000e+000) (58, -5.35609197616577150000e+000) (59, -5.28845977783203120000e+000) (60, -6.27314901351928710000e+000) (61, -5.97506809234619140000e+000) (62, -5.15771627426147460000e+000) (63, -1.20915390551090240000e-001) (64, -2.62609329074621200000e-002) (65, -4.47473144531250000000e+000) (66, -4.88153584301471710000e-002) (67, -6.35388755798339840000e+000) (68, -5.40482711791992190000e+000) (69, 9.29370447993278500000e-002) (70, -5.00263500213623050000e+000) (71, -6.08079719543457030000e+000) (72, -5.91297245025634770000e+000) (73, -6.16874170303344730000e+000) (74, -2.68414676189422610000e-001) (75, -2.73659610748291020000e+000) (76, -6.18035507202148440000e+000) (77, -5.86713457107543950000e+000) (11, -3.74566555023193360000e+000) (12, -5.77135229110717770000e+000) (13, 1.76978096365928650000e-001) (14, -5.17412614822387700000e+000) (15, -5.78848791122436520000e+000) (16, -1.09223437309265140000e+000) (17, -6.19451570510864260000e+000) (18, -3.77017712593078610000e+000) (19, -4.68568515777587890000e+000) (20, -6.60819530487060550000e+000) (21, -3.56370627880096440000e-001) (22, -5.84249973297119140000e+000) (23, -6.26615285873413090000e+000) (24, -5.67087602615356450000e+000) (25, -6.71148347854614260000e+000) (26, -2.99297118186950680000e+000) (27, 3.97744536399841310000e-001) (28, -6.00512361526489260000e+000) (29, 3.22845011949539180000e-001) (30, -6.33548259735107420000e+000) (31, -6.27805709838867190000e+000) (32, -5.81834030151367190000e+000) (33, -1.03631949424743650000e+000) (34, -4.84359931945800780000e+000) (35, -6.07678031921386720000e+000) (36, -1.46476018428802490000e+000) (37, -6.34925842285156250000e-001) (38, -5.86656713485717770000e+000) (39, -4.86521244049072270000e+000) (40, -6.35018777847290040000e+000) (41, -1.44768431782722470000e-001) (42, -4.12556219100952150000e+000) (43, -4.87981736660003660000e-001) (44, -5.77100849151611330000e+000) (45, -5.97745323181152340000e+000) (46, -2.47207760810852050000e+000) (47, -4.49434089660644530000e+000) (48, -6.16132783889770510000e+000) (49, -4.97449207305908200000e+000) (50, -6.31745910644531250000e+000) (51, -3.87682008743286130000e+000) (52, -6.04282379150390630000e+000) (53, -5.72113227844238280000e+000) (54, -6.20004796981811520000e+000) (55, -6.42067527770996090000e+000) (56, -5.59314870834350590000e+000) (57, -3.91266560554504390000e+000) (58, -4.97642469406127930000e+000) (59, -6.16743612289428710000e+000) (60, -6.31248044967651370000e+000) (61, -6.06165122985839840000e+000) (62, -5.20393371582031250000e+000) (63, 2.57203996181488040000e-001) (64, -1.20774857699871060000e-001) (65, -4.67015409469604490000e+000) (66, 6.77846297621726990000e-002) (67, -6.49806499481201170000e+000) (68, -5.26572799682617190000e+000) (69, -4.92871791124343870000e-001) (70, -4.77680158615112300000e+000) (71, -6.56500482559204100000e+000) (72, -5.78126001358032230000e+000) (73, -5.77277135848999020000e+000) (74, 9.32830013334751130000e-003) (75, -2.48563051223754880000e+000) (76, -6.71820831298828120000e+000) (77, -6.25210762023925780000e+000) (11, -3.85004496574401860000e+000) (12, -6.47737884521484370000e+000) (13, -4.11682546138763430000e-001) (14, -5.06089782714843750000e+000) (15, -4.97687578201293950000e+000) (16, -1.38083910942077640000e+000) (17, -6.83320856094360350000e+000) (18, -3.76441931724548340000e+000) (19, -4.14161014556884770000e+000) (20, -5.79666662216186520000e+000) (21, -4.91466999053955080000e-001) (22, -6.50176477432250980000e+000) (23, -5.88088083267211910000e+000) (24, -5.46864700317382810000e+000) (25, -6.46865510940551760000e+000) (26, -2.84271407127380370000e+000) (27, -3.31693321466445920000e-001) (28, -6.62630224227905270000e+000) (29, -1.58414259552955630000e-001) (30, -5.18819952011108400000e+000) (31, -6.54453992843627930000e+000) (32, -5.90884208679199220000e+000) (33, -1.48747670650482180000e+000) (34, -5.59243154525756840000e+000) (35, -5.88099050521850590000e+000) (36, -1.78881537914276120000e+000) (37, -1.22451078891754150000e+000) (38, -6.23459100723266600000e+000) (39, -4.95655727386474610000e+000) (40, -4.92917442321777340000e+000) (41, -4.69918876886367800000e-001) (42, -4.69607019424438480000e+000) (43, 1.63069859147071840000e-001) (44, -6.56810808181762700000e+000) (45, -6.00868749618530270000e+000) (46, -2.86622571945190430000e+000) (47, -4.62450408935546870000e+000) (48, -6.31173849105834960000e+000) (49, -5.10576915740966800000e+000) (50, -6.83805179595947270000e+000) (51, -4.03219890594482420000e+000) (52, -5.93451595306396480000e+000) (53, -6.83529758453369140000e+000) (54, -6.78176736831665040000e+000) (55, -6.40556716918945310000e+000) (56, -6.56279802322387700000e+000) (57, -3.89626264572143550000e+000) (58, -4.58713436126708980000e+000) (59, -5.40827274322509770000e+000) (60, -6.35693264007568360000e+000) (61, -5.90953922271728520000e+000) (62, -4.61225080490112300000e+000) (63, 3.80766689777374270000e-001) (64, -8.66419970989227290000e-001) (65, -5.02404832839965820000e+000) (66, 3.01402267068624500000e-002) (67, -6.70281505584716800000e+000) (68, -4.67796611785888670000e+000) (69, -1.02696382999420170000e+000) (70, -4.30530786514282230000e+000) (71, -4.69218778610229490000e+000) (72, -6.70653009414672850000e+000) (73, -6.68438529968261720000e+000) (74, 2.02912628650665280000e-001) (75, -2.47904396057128910000e+000) (76, -6.14992713928222660000e+000) (77, -5.90524530410766600000e+000) (11, -3.70055007934570310000e+000) (12, -6.23460245132446290000e+000) (13, -6.79754093289375310000e-002) (14, -5.22174692153930660000e+000) (15, -5.35827445983886720000e+000) (16, -2.21584007143974300000e-001) (17, -6.27117776870727540000e+000) (18, -3.30619859695434570000e+000) (19, -4.61529779434204100000e+000) (20, -6.37110805511474610000e+000) (21, -4.22635048627853390000e-001) (22, -6.52255821228027340000e+000) (23, -6.21238279342651370000e+000) (24, -5.11239385604858400000e+000) (25, -6.42326021194458010000e+000) (26, -3.48794651031494140000e+000) (27, -3.07505935430526730000e-001) (28, -6.03545475006103520000e+000) (29, 3.20028752088546750000e-001) (30, -6.05146455764770510000e+000) (31, -5.97459363937377930000e+000) (32, -6.59341382980346680000e+000) (33, -1.33024060726165770000e+000) (34, -4.88210821151733400000e+000) (35, -5.97141551971435550000e+000) (36, -1.59945857524871830000e+000) (37, -3.43649297952651980000e-001) (38, -6.00333356857299800000e+000) (39, -5.09997797012329100000e+000) (40, -6.01712894439697270000e+000) (41, 2.32717454433441160000e-001) (42, -4.59167337417602540000e+000) (43, 3.52767705917358400000e-001) (44, -6.13578844070434570000e+000) (45, -5.92268800735473630000e+000) (46, -1.95981967449188230000e+000) (47, -4.92314863204956050000e+000) (48, -5.81406736373901370000e+000) (49, -6.10558748245239260000e+000) (50, -5.84708642959594730000e+000) (51, -4.44650793075561520000e+000) (52, -6.21657371520996090000e+000) (53, -6.14182376861572270000e+000) (54, -6.05491781234741210000e+000) (55, -5.97971487045288090000e+000) (56, -6.53679561614990230000e+000) (57, -3.62007093429565430000e+000) (58, -5.74053621292114260000e+000) (59, -5.21961116790771480000e+000) (60, -5.70416116714477540000e+000) (61, -6.14355134963989260000e+000) (62, 