FANN_FLO_2.1
num_layers=4
learning_rate=0.700000
connection_rate=1.000000
network_type=0
learning_momentum=0.000000
training_algorithm=2
train_error_function=1
train_stop_function=0
cascade_output_change_fraction=0.010000
quickprop_decay=-0.000100
quickprop_mu=1.750000
rprop_increase_factor=1.200000
rprop_decrease_factor=0.500000
rprop_delta_min=0.000000
rprop_delta_max=50.000000
rprop_delta_zero=0.100000
cascade_output_stagnation_epochs=12
cascade_candidate_change_fraction=0.010000
cascade_candidate_stagnation_epochs=12
cascade_max_out_epochs=150
cascade_max_cand_epochs=150
cascade_num_candidate_groups=2
bit_fail_limit=3.49999994039535520000e-001
cascade_candidate_limit=1.00000000000000000000e+003
cascade_weight_multiplier=4.00000005960464480000e-001
cascade_activation_functions_count=10
cascade_activation_functions=3 5 7 8 10 11 14 15 16 17 
cascade_activation_steepnesses_count=4
cascade_activation_steepnesses=2.50000000000000000000e-001 5.00000000000000000000e-001 7.50000000000000000000e-001 1.00000000000000000000e+000 
layer_sizes=11 21 19 3 
scale_included=0
neurons (num_inputs, activation_function, activation_steepness)=(0, 0, 0.00000000000000000000e+000) (0, 0, 0.00000000000000000000e+000) (0, 0, 0.00000000000000000000e+000) (0, 0, 0.00000000000000000000e+000) (0, 0, 0.00000000000000000000e+000) (0, 0, 0.00000000000000000000e+000) (0, 0, 0.00000000000000000000e+000) (0, 0, 0.00000000000000000000e+000) (0, 0, 0.00000000000000000000e+000) (0, 0, 0.00000000000000000000e+000) (0, 0, 0.00000000000000000000e+000) (11, 10, 5.00000000000000000000e-001) (11, 10, 5.00000000000000000000e-001) (11, 10, 5.00000000000000000000e-001) (11, 10, 5.00000000000000000000e-001) (11, 10, 5.00000000000000000000e-001) (11, 10, 5.00000000000000000000e-001) (11, 10, 5.00000000000000000000e-001) (11, 10, 5.00000000000000000000e-001) (11, 10, 5.00000000000000000000e-001) (11, 10, 5.00000000000000000000e-001) (11, 10, 5.00000000000000000000e-001) (11, 10, 5.00000000000000000000e-001) (11, 10, 5.00000000000000000000e-001) (11, 10, 5.00000000000000000000e-001) (11, 10, 5.00000000000000000000e-001) (11, 10, 5.00000000000000000000e-001) (11, 10, 5.00000000000000000000e-001) (11, 10, 5.00000000000000000000e-001) (11, 10, 5.00000000000000000000e-001) (11, 10, 5.00000000000000000000e-001) (0, 10, 5.00000000000000000000e-001) (21, 10, 5.00000000000000000000e-001) (21, 10, 5.00000000000000000000e-001) (21, 10, 5.00000000000000000000e-001) (21, 10, 5.00000000000000000000e-001) (21, 10, 5.00000000000000000000e-001) (21, 10, 5.00000000000000000000e-001) (21, 10, 5.00000000000000000000e-001) (21, 10, 5.00000000000000000000e-001) (21, 10, 5.00000000000000000000e-001) (21, 10, 5.00000000000000000000e-001) (21, 10, 5.00000000000000000000e-001) (21, 10, 5.00000000000000000000e-001) (21, 10, 5.00000000000000000000e-001) (21, 10, 5.00000000000000000000e-001) (21, 10, 5.00000000000000000000e-001) (21, 10, 5.00000000000000000000e-001) (21, 10, 5.00000000000000000000e-001) (21, 10, 5.00000000000000000000e-001) (0, 10, 5.00000000000000000000e-001) (19, 0, 5.00000000000000000000e-001) (19, 0, 5.00000000000000000000e-001) (0, 0, 5.00000000000000000000e-001) 
connections (connected_to_neuron, weight)=(0, -2.08506613969802860000e-001) (1, 1.73751628398895260000e+000) (2, 1.60977318882942200000e-001) (3, -1.31932839751243590000e-001) (4, 5.69189369678497310000e-001) (5, 3.00474196672439580000e-001) (6, 1.02029657363891600000e+000) (7, -3.72694879770278930000e-001) (8, 9.82156634330749510000e-001) (9, 6.22894406318664550000e-001) (10, 1.00497759878635410000e-001) (0, 7.02166557312011720000e-002) (1, 1.01770043373107910000e+000) (2, 3.13824951648712160000e-001) (3, 5.67316353321075440000e-001) (4, -5.54599910974502560000e-002) (5, 1.03511893749237060000e+000) (6, 1.06756627559661870000e+000) (7, 3.47435414791107180000e-001) (8, 1.08022379875183110000e+000) (9, 6.87576115131378170000e-001) (10, -1.72274261713027950000e-001) (0, -3.16721610724925990000e-002) (1, -6.30972385406494140000e-001) (2, -3.95134568214416500000e-001) (3, -4.06724959611892700000e-001) (4, 3.79598855972290040000e-001) (5, 9.22598168253898620000e-002) (6, -4.78536486625671390000e-001) (7, -3.19237768650054930000e-001) (8, -1.35899901390075680000e-001) (9, -5.04250586032867430000e-001) (10, 2.74762753397226330000e-002) (0, -3.11042875051498410000e-001) (1, 1.60290932655334470000e+000) (2, 1.34673976898193360000e+000) (3, 2.80563384294509890000e-001) (4, -3.48742567002773280000e-002) (5, 8.01691830158233640000e-001) (6, 1.78144907951354980000e+000) (7, -3.78721415996551510000e-001) (8, 5.73398888111114500000e-001) (9, 6.60896539688110350000e-001) (10, -4.67141568660736080000e-002) (0, 2.57498204708099370000e-001) (1, 1.29170501232147220000e+000) (2, 3.32179874181747440000e-001) (3, 1.81378409266471860000e-001) (4, 1.22395776212215420000e-001) (5, 4.72706079483032230000e-001) (6, 1.35894763469696040000e+000) (7, -3.70173782110214230000e-001) (8, 9.40792441368103030000e-001) (9, 5.30365049839019780000e-001) (10, 3.48433166742324830000e-001) (0, -1.95694610476493840000e-001) (1, 7.28338479995727540000e-001) (2, 2.80745148658752440000e-001) (3, 4.91750314831733700000e-002) (4, 4.23647701740264890000e-001) (5, 2.33895480632781980000e-001) (6, 6.55572056770324710000e-001) (7, -1.03354632854461670000e-001) (8, 5.54259359836578370000e-001) (9, 8.66120755672454830000e-001) (10, -4.05140906572341920000e-001) (0, 4.74583834409713750000e-001) (1, 2.59926819801330570000e+000) (2, 1.59885764122009280000e+000) (3, 5.96069693565368650000e-001) (4, 6.22496008872985840000e-001) (5, 4.81533497571945190000e-001) (6, 2.87409877777099610000e+000) (7, -4.67142134904861450000e-001) (8, 3.35079491138458250000e-001) (9, 1.35295963287353520000e+000) (10, -4.41664129495620730000e-001) (0, 2.38942459225654600000e-001) (1, 1.08249819278717040000e+000) (2, 6.98800563812255860000e-001) (3, 3.58063369989395140000e-001) (4, 4.95617985725402830000e-001) (5, 4.20393913984298710000e-001) (6, 1.14424991607666020000e+000) (7, 1.99725776910781860000e-001) (8, 1.09102058410644530000e+000) (9, 6.03657126426696780000e-001) (10, -4.00844514369964600000e-001) (0, 3.81141871213912960000e-001) (1, 8.19408237934112550000e-001) (2, 3.34085553884506230000e-001) (3, 5.07823348045349120000e-001) (4, 6.31774604320526120000e-001) (5, 5.09746015071868900000e-001) (6, 1.25061154365539550000e+000) (7, 3.59001494944095610000e-002) (8, 1.08332896232604980000e+000) (9, 8.68945240974426270000e-001) (10, 2.11815163493156430000e-001) (0, -1.04923456907272340000e-001) (1, 1.07467794418334960000e+000) (2, 3.06168943643569950000e-001) (3, 5.13356864452362060000e-001) (4, 7.10454463958740230000e-001) (5, 7.73323416709899900000e-001) (6, 1.12639904022216800000e+000) (7, 2.96453654766082760000e-001) (8, 1.00168287754058840000e+000) (9, 6.12605869770050050000e-001) (10, 3.00138238817453380000e-002) (0, 1.81052654981613160000e-001) (1, 2.72298067808151250000e-001) (2, 1.19419373571872710000e-001) (3, -2.80159354209899900000e-001) (4, 5.90895079076290130000e-002) (5, 4.05069082975387570000e-001) (6, 6.54455959796905520000e-001) (7, 1.51359125971794130000e-001) (8, 6.49949491024017330000e-001) (9, 7.15060055255889890000e-001) (10, 3.48539412021636960000e-001) (0, -2.80435711145401000000e-001) (1, 1.41354198455810550000e+001) (2, 1.03283710479736330000e+001) (3, 1.25596368312835690000e+000) (4, 1.03806090354919430000e+000) (5, 9.32950004935264590000e-002) (6, 1.34421930313110350000e+001) (7, -4.45671588182449340000e-001) (8, 1.10666668415069580000e+000) (9, 7.17426633834838870000e+000) (10, 6.31328284740448000000e-001) (0, -1.89742356538772580000e-001) (1, 1.62816095352172850000e+000) (2, 9.41765666007995610000e-001) (3, 2.11209163069725040000e-001) (4, 6.60161435604095460000e-001) (5, 1.01210999488830570000e+000) (6, 9.29703593254089360000e-001) (7, 3.74025851488113400000e-002) (8, 6.73636257648468020000e-001) (9, 7.76541352272033690000e-001) (10, -7.21250548958778380000e-002) (0, 3.22266578674316410000e-001) (1, 1.44481265544891360000e+000) (2, 8.62856507301330570000e-001) (3, 4.64637607336044310000e-001) (4, 6.67034685611724850000e-001) (5, 4.51174378395080570000e-001) (6, 1.14855933189392090000e+000) (7, 5.09938001632690430000e-001) (8, 7.70687997341156010000e-001) (9, 9.91028130054473880000e-001) (10, 5.38319945335388180000e-002) (0, -2.45491266250610350000e-001) (1, 7.89761662483215330000e-001) (2, 5.43214797973632810000e-001) (3, -8.87397974729537960000e-002) (4, 2.02480610460042950000e-002) (5, 7.39020228385925290000e-001) (6, 5.60011386871337890000e-001) (7, -2.68798805773258210000e-002) (8, 4.51223224401474000000e-001) (9, 1.51358097791671750000e-001) (10, -9.09800678491592410000e-002) (0, 1.22194848954677580000e-001) (1, 1.04454720020294190000e+000) (2, 7.53783285617828370000e-001) (3, -2.22071930766105650000e-001) (4, 7.66765296459198000000e-001) (5, 8.36811304092407230000e-001) (6, 1.08178246021270750000e+000) (7, 4.27046149969100950000e-001) (8, 7.07403898239135740000e-001) (9, 6.76343560218811040000e-001) (10, -2.97949731349945070000e-001) (0, -1.44161745905876160000e-001) (1, 1.09783613681793210000e+000) (2, 2.37377271056175230000e-001) (3, 3.12607645988464360000e-001) (4, 4.45596814155578610000e-001) (5, 4.99564468860626220000e-001) (6, 8.70092868804931640000e-001) (7, 5.61900794506073000000e-001) (8, 6.74499809741973880000e-001) (9, 2.19882190227508540000e-001) (10, -5.67205622792243960000e-002) (0, -4.43128466606140140000e-001) (1, -1.73902964591979980000e+000) (2, -6.11966848373413090000e-001) (3, -2.20313116908073430000e-001) (4, 1.91374748945236210000e-001) (5, 3.07610780000686650000e-001) (6, -1.30646669864654540000e+000) (7, 3.26569229364395140000e-001) (8, -4.40623253583908080000e-001) (9, -1.09711980819702150000e+000) (10, -3.15685033798217770000e-001) (0, 1.96384236216545100000e-001) (1, 1.24854803085327150000e+000) (2, 6.33541762828826900000e-001) (3, 3.86290639638900760000e-001) (4, 8.14352650195360180000e-003) (5, 9.69444036483764650000e-001) (6, 1.34622931480407710000e+000) (7, 2.70490735769271850000e-001) (8, 8.61505508422851560000e-001) (9, 9.34350073337554930000e-001) (10, 4.25306767225265500000e-001) (0, 4.13428992033004760000e-001) (1, 1.63731813430786130000e+000) (2, 3.06523233652114870000e-001) (3, 1.33797988295555110000e-001) (4, 4.17388916015625000000e-001) (5, 1.06780695915222170000e+000) (6, 1.03559303283691410000e+000) (7, 1.92651733756065370000e-001) (8, 1.01842319965362550000e+000) (9, 7.51386165618896480000e-001) (10, 2.57828295230865480000e-001) (11, -7.69777774810791020000e+000) (12, -8.15183830261230470000e+000) (13, -7.52977654337883000000e-002) (14, -1.15350942611694340000e+001) (15, -8.29939937591552730000e+000) (16, -4.31461143493652340000e+000) (17, -1.09489145278930660000e+001) (18, -7.76494503021240230000e+000) (19, -7.91333675384521480000e+000) (20, -8.06258201599121090000e+000) (21, -3.06991887092590330000e+000) (22, -1.11787528991699220000e+001) (23, -1.16077365875244140000e+001) (24, -1.21597585678100590000e+001) (25, -3.44494080543518070000e+000) (26, -8.27091693878173830000e+000) (27, -5.96198225021362300000e+000) (28, -2.61437259614467620000e-002) (29, -1.16322517395019530000e+001) (30, -1.15385847091674800000e+001) (31, -1.17679080963134770000e+001) (11, -7.01576805114746090000e+000) (12, -7.54364013671875000000e+000) (13, -1.30241602659225460000e-001) (14, -1.18612194061279300000e+001) (15, -7.69294738769531250000e+000) (16, -4.62772750854492190000e+000) (17, -1.21727447509765630000e+001) (18, -7.81219863891601560000e+000) (19, -7.72935628890991210000e+000) (20, -7.68798112869262700000e+000) (21, -2.84467864036560060000e+000) (22, -1.11761980056762700000e+001) (23, -1.21320085525512700000e+001) (24, -1.20506734848022460000e+001) (25, -3.76523494720458980000e+000) (26, -6.85993289947509770000e+000) (27, -5.77787351608276370000e+000) (28, -1.04613102972507480000e-001) (29, -1.19936208724975590000e+001) (30, -1.22683782577514650000e+001) (31, -1.23788700103759770000e+001) (11, -9.17473983764648440000e+000) (12, -9.34694671630859370000e+000) (13, -4.89928647875785830000e-002) (14, -1.05612316131591800000e+001) (15, -9.28212738037109370000e+000) (16, -4.74687194824218750000e+000) (17, -1.02664756774902340000e+001) (18, -9.01480007171630860000e+000) (19, -8.98951625823974610000e+000) (20, -9.45794010162353520000e+000) (21, -2.59040522575378420000e+000) (22, -1.04418411254882810000e+001) (23, -1.04387168884277340000e+001) (24, -9.93901062011718750000e+000) (25, -4.25072717666625980000e+000) (26, -8.75476551055908200000e+000) (27, -6.28245782852172850000e+000) (28, 5.60048744082450870000e-002) (29, -1.07932119369506840000e+001) (30, -1.04219579696655270000e+001) (31, -1.05317687988281250000e+001) (11, -8.17057323455810550000e+000) (12, -7.46530103683471680000e+000) (13, 2.26189002394676210000e-001) (14, -1.20626888275146480000e+001) (15, -7.33765983581542970000e+000) (16, -4.56884622573852540000e+000) (17, -1.11161298751831050000e+001) (18, -8.11233329772949220000e+000) (19, -8.20655536651611330000e+000) (20, -8.01602077484130860000e+000) (21, -2.48298168182373050000e+000) (22, -1.02461585998535160000e+001) (23, -1.14573869705200200000e+001) (24, -1.20127029418945310000e+001) (25, -3.76870536804199220000e+000) (26, -8.18757534027099610000e+000) (27, -6.25388717651367190000e+000) (28, -7.12959289550781250000e-001) (29, -1.14294595718383790000e+001) (30, -1.23208637237548830000e+001) (31, -1.20284652709960940000e+001) (11, -9.12637329101562500000e+000) (12, -8.99308681488037110000e+000) (13, -5.00685691833496090000e-001) (14, -1.06428737640380860000e+001) (15, -8.88602066040039060000e+000) (16, -4.33237695693969730000e+000) (17, -1.02471790313720700000e+001) (18, -9.18769073486328120000e+000) (19, -8.88268852233886720000e+000) (20, -9.20554637908935550000e+000) (21, -2.54705905914306640000e+000) (22, -1.04943857192993160000e+001) (23, -1.08265609741210940000e+001) (24, -1.11209993362426760000e+001) (25, -3.73572278022766110000e+000) (26, -9.29395008087158200000e+000) (27, -5.98109292984008790000e+000) (28, -4.96964812278747560000e-001) (29, -1.04058990478515620000e+001) (30, -1.07661294937133790000e+001) (31, -1.03252658843994140000e+001) (11, -9.32535266876220700000e+000) (12, -9.06775760650634770000e+000) (13, 2.91307151317596440000e-001) (14, -1.05136575698852540000e+001) (15, -8.43289089202880860000e+000) (16, -4.77603292465209960000e+000) (17, -1.09136180877685550000e+001) (18, -9.27648925781250000000e+000) (19, -8.78557491302490230000e+000) (20, -9.01787281036376950000e+000) (21, -3.05391597747802730000e+000) (22, -9.93373298645019530000e+000) (23, -1.06696319580078130000e+001) (24, -1.06154794692993160000e+001) (25, -4.02043485641479490000e+000) (26, -9.22524929046630860000e+000) (27, -6.24818468093872070000e+000) (28, 1.49982705712318420000e-001) (29, -1.04414596557617190000e+001) (30, -1.05363187789916990000e+001) (31, -1.05689096450805660000e+001) (11, -8.80144500732421870000e+000) (12, -9.10844993591308590000e+000) (13, -4.47218686342239380000e-001) (14, -1.01880397796630860000e+001) (15, -9.41553592681884770000e+000) (16, -4.75492095947265620000e+000) (17, -1.00285787582397460000e+001) (18, -9.65610408782958980000e+000) (19, -9.45799732208251950000e+000) (20, -1.00835037231445310000e+001) (21, -2.57757282257080080000e+000) (22, -1.03792390823364260000e+001) (23, -1.04974565505981450000e+001) (24, -1.00845851898193360000e+001) (25, -4.23625850677490230000e+000) (26, -9.19404125213623050000e+000) (27, -5.94405078887939450000e+000) (28, -6.32680729031562810000e-002) (29, -1.01677770614624020000e+001) (30, -1.00334329605102540000e+001) (31, -1.06093053817749020000e+001) (11, -9.04096508026123050000e+000) (12, -8.16683101654052730000e+000) (13, 3.97791378200054170000e-002) (14, -1.05789489746093750000e+001) (15, -9.40302276611328120000e+000) (16, -4.72736454010009770000e+000) (17, -1.09550800323486330000e+001) (18, -8.84435462951660160000e+000) (19, -8.57214164733886720000e+000) (20, -9.29018974304199220000e+000) (21, -2.92683625221252440000e+000) (22, -1.01188220977783200000e+001) (23, -1.11244688034057620000e+001) (24, -1.05493946075439450000e+001) (25, -3.84348011016845700000e+000) (26, -9.07401275634765620000e+000) (27, -5.96908378601074220000e+000) (28, -6.61674976348876950000e-001) (29, -1.08049430847167970000e+001) (30, -1.08002700805664060000e+001) (31, -1.04967193603515620000e+001) (11, -9.52302360534667970000e+000) (12, -8.96008300781250000000e+000) (13, -3.38446438312530520000e-001) (14, -9.80103969573974610000e+000) (15, -9.41983127593994140000e+000) (16, -4.87478637695312500000e+000) (17, -1.02265768051147460000e+001) (18, -9.63926315307617190000e+000) (19, -9.30750846862792970000e+000) (20, -9.05284214019775390000e+000) (21, -3.18974828720092770000e+000) (22, -1.02872095108032230000e+001) (23, -1.08635358810424800000e+001) (24, -1.02384719848632810000e+001) (25, -3.83929371833801270000e+000) (26, -8.64780902862548830000e+000) (27, -5.97566175460815430000e+000) (28, -2.07702130079269410000e-001) (29, -1.02196664810180660000e+001) (30, -1.08002958297729490000e+001) (31, -1.05043306350708010000e+001) (11, -9.15406417846679690000e+000) (12, -9.13912296295166020000e+000) (13, 1.55419960618019100000e-001) (14, -1.03313941955566410000e+001) (15, -8.84816455841064450000e+000) (16, -4.73710680007934570000e+000) (17, -1.07307577133178710000e+001) (18, -9.02482795715332030000e+000) (19, -9.12912464141845700000e+000) (20, -9.89022254943847660000e+000) (21, -2.56698179244995120000e+000) (22, -1.02234697341918950000e+001) (23, -1.03361921310424800000e+001) (24, -1.00312995910644530000e+001) (25, -3.42034077644348140000e+000) (26, -9.05539894104003910000e+000) (27, -6.29205751419067380000e+000) (28, 3.73562783002853390000e-001) (29, -1.04403934478759770000e+001) (30, -1.08499402999877930000e+001) (31, -1.08674850463867190000e+001) (11, -8.42761039733886720000e+000) (12, -8.83610343933105470000e+000) (13, 2.23247423768043520000e-001) (14, -1.08197860717773440000e+001) (15, -8.25658893585205080000e+000) (16, -4.49121713638305660000e+000) (17, -1.11118173599243160000e+001) (18, -9.10399246215820310000e+000) (19, -8.26309394836425780000e+000) (20, -8.57865428924560550000e+000) (21, -2.88856315612792970000e+000) (22, -1.08922424316406250000e+001) (23, -1.10143842697143550000e+001) (24, -1.08445005416870120000e+001) (25, -3.61881756782531740000e+000) (26, -8.43557453155517580000e+000) (27, -6.23347043991088870000e+000) (28, 2.79361724853515630000e-001) (29, -1.08937740325927730000e+001) (30, -1.08508462905883790000e+001) (31, -1.16172037124633790000e+001) (11, -8.34554290771484370000e+000) (12, -7.98594713211059570000e+000) (13, 1.36672910302877430000e-002) (14, -1.13371553421020510000e+001) (15, -8.59164428710937500000e+000) (16, -4.54885625839233400000e+000) (17, -1.08462343215942380000e+001) (18, -8.26007556915283200000e+000) (19, -8.75929641723632810000e+000) (20, -8.71073436737060550000e+000) (21, -2.84377574920654300000e+000) (22, -1.01664142608642580000e+001) (23, -1.12153797149658200000e+001) (24, -1.11676130294799800000e+001) (25, -4.38908720016479490000e+000) (26, -8.72540092468261720000e+000) (27, -6.19036865234375000000e+000) (28, 2.42163360118865970000e-001) (29, -1.07753477096557620000e+001) (30, -1.08159093856811520000e+001) (31, -1.16902837753295900000e+001) (11, -8.82654857635498050000e+000) (12, -8.66657543182373050000e+000) (13, 9.75228771567344670000e-002) (14, -1.02333078384399410000e+001) (15, -9.22344684600830080000e+000) (16, -4.91310739517211910000e+000) (17, -1.07174243927001950000e+001) (18, -9.41841888427734370000e+000) (19, -9.18845272064208980000e+000) (20, -9.84316349029541020000e+000) (21, -2.85135412216186520000e+000) (22, -1.06048202514648440000e+001) (23, -1.03633832931518550000e+001) (24, -9.82729625701904300000e+000) (25, -4.18614482879638670000e+000) (26, -9.25879383087158200000e+000) (27, -6.00178432464599610000e+000) (28, 2.29536354541778560000e-001) (29, -1.05644540786743160000e+001) (30, -1.01711559295654300000e+001) (31, -1.04676771163940430000e+001) (11, -8.54421901702880860000e+000) (12, -7.84215402603149410000e+000) (13, 4.37095642089843750000e-001) (14, -1.11106500625610350000e+001) (15, -8.44128036499023440000e+000) (16, -4.71225452423095700000e+000) (17, -1.12546176910400390000e+001) (18, -8.41532707214355470000e+000) (19, -8.73382377624511720000e+000) (20, -7.92534303665161130000e+000) (21, -2.92645049095153810000e+000) (22, -1.01075277328491210000e+001) (23, -1.16890211105346680000e+001) (24, -1.07941694259643550000e+001) (25, -3.72352981567382810000e+000) (26, -8.61264133453369140000e+000) (27, -6.45053482055664060000e+000) (28, 9.25607383251190190000e-002) (29, -1.11707553863525390000e+001) (30, -1.16437921524047850000e+001) (31, -1.13359489440917970000e+001) (11, -8.82970714569091800000e+000) (12, -8.94048213958740230000e+000) (13, -1.88517913222312930000e-001) (14, -9.74658775329589840000e+000) (15, -8.95748424530029300000e+000) (16, -4.30992555618286130000e+000) (17, -1.03397207260131840000e+001) (18, -9.59899902343750000000e+000) (19, -9.39686965942382810000e+000) (20, -9.71019935607910160000e+000) (21, -3.05623435974121090000e+000) (22, -9.72868633270263670000e+000) (23, -1.08693761825561520000e+001) (24, -1.07671279907226560000e+001) (25, -4.04447603225708010000e+000) (26, -9.27294158935546870000e+000) (27, -6.17052268981933590000e+000) (28, 1.63850396871566770000e-001) (29, -1.07983493804931640000e+001) (30, -1.01898479461669920000e+001) (31, -1.06062679290771480000e+001) (11, -9.48041343688964840000e+000) (12, -9.12800884246826170000e+000) (13, -1.39287576079368590000e-001) (14, -1.02720689773559570000e+001) (15, -9.02081203460693360000e+000) (16, -4.82902860641479490000e+000) (17, -1.05021610260009770000e+001) (18, -9.08212661743164060000e+000) (19, -9.36998462677001950000e+000) (20, -9.07344913482666020000e+000) (21, -3.07161760330200200000e+000) (22, -1.06064786911010740000e+001) (23, -1.02366323471069340000e+001) (24, -1.07431430816650390000e+001) (25, -3.52738928794860840000e+000) (26, -8.66496562957763670000e+000) (27, -6.37405681610107420000e+000) (28, -5.20055353641510010000e-001) (29, -1.00711927413940430000e+001) (30, -1.04404087066650390000e+001) (31, -1.08020477294921880000e+001) (11, -8.23788356781005860000e+000) (12, -7.89678192138671870000e+000) (13, -5.16391247510910030000e-002) (14, -1.14082603454589840000e+001) (15, -8.76176166534423830000e+000) (16, -4.20144271850585940000e+000) (17, -1.08722190856933590000e+001) (18, -8.20956230163574220000e+000) (19, -8.08726692199707030000e+000) (20, -8.59862804412841800000e+000) (21, -2.82873821258544920000e+000) (22, -1.04406394958496090000e+001) (23, -1.14058103561401370000e+001) (24, -1.11419878005981450000e+001) (25, -4.18248224258422850000e+000) (26, -7.89178752899169920000e+000) (27, -6.54593944549560550000e+000) (28, -1.27342879772186280000e-001) (29, -1.18788623809814450000e+001) (30, -1.15394353866577150000e+001) (31, -1.12082452774047850000e+001) (11, -9.21493530273437500000e+000) (12, -9.29342269897460940000e+000) (13, 3.01095843315124510000e-001) (14, -1.08417129516601560000e+001) (15, -8.72506904602050780000e+000) (16, -4.86822319030761720000e+000) (17, -1.02633342742919920000e+001) (18, -8.88775634765625000000e+000) (19, -9.24975490570068360000e+000) (20, -8.94569873809814450000e+000) (21, -2.79521322250366210000e+000) (22, -1.03310890197753910000e+001) (23, -1.07563962936401370000e+001) (24, -1.01139087677001950000e+001) (25, -4.18063259124755860000e+000) (26, -8.58549976348876950000e+000) (27, -6.58055496215820310000e+000) (28, 2.64404118061065670000e-001) (29, -1.01848793029785160000e+001) (30, -1.08387079238891600000e+001) (31, -1.07032432556152340000e+001) (32, 6.63418769836425780000e-002) (33, 1.97558701038360600000e-001) (34, 1.54827192425727840000e-001) (35, 1.67053341865539550000e-001) (36, 1.36111766099929810000e-001) (37, 1.69408991932868960000e-001) (38, 1.85571178793907170000e-001) (39, 2.29670673608779910000e-001) (40, 1.50695845484733580000e-001) (41, 1.10626026988029480000e-001) (42, 1.76881372928619380000e-001) (43, 2.60038256645202640000e-001) (44, 1.73887997865676880000e-001) (45, 1.70679405331611630000e-001) (46, 2.05395579338073730000e-001) (47, 9.50765013694763180000e-002) (48, 1.47394925355911250000e-001) (49, 1.51116847991943360000e-001) (50, 2.24094843864440920000e+000) (32, 1.05231560766696930000e-001) (33, -6.35537445545196530000e-001) (34, -9.18728590011596680000e-001) (35, -3.96025240421295170000e-001) (36, -1.09565353393554690000e+000) (37, 2.80388854444026950000e-002) (38, -5.02697110176086430000e-001) (39, 1.30271673202514650000e+000) (40, -5.45079469680786130000e-001) (41, -6.19697988033294680000e-001) (42, -2.20030277967453000000e-001) (43, -1.74925649166107180000e+000) (44, 1.57944876700639720000e-002) (45, -7.48850643634796140000e-001) (46, -9.17717814445495610000e-001) (47, -7.61005878448486330000e-002) (48, -4.05379831790924070000e-001) (49, -4.21752780675888060000e-001) (50, 4.67050746083259580000e-002) 
